{"learner":{"attributes":{},"feature_names":[],"feature_types":[],"gradient_booster":{"model":{"gbtree_model_param":{"num_parallel_tree":"1","num_trees":"1500"},"iteration_indptr":[0,2,4,6,8,10,12,14,16,18,20,22,24,26,28,30,32,34,36,38,40,42,44,46,48,50,52,54,56,58,60,62,64,66,68,70,72,74,76,78,80,82,84,86,88,90,92,94,96,98,100,102,104,106,108,110,112,114,116,118,120,122,124,126,128,130,132,134,136,138,140,142,144,146,148,150,152,154,156,158,160,162,164,166,168,170,172,174,176,178,180,182,184,186,188,190,192,194,196,198,200,202,204,206,208,210,212,214,216,218,220,222,224,226,228,230,232,234,236,238,240,242,244,246,248,250,252,254,256,258,260,262,264,266,268,270,272,274,276,278,280,282,284,286,288,290,292,294,296,298,300,302,304,306,308,310,312,314,316,318,320,322,324,326,328,330,332,334,336,338,340,342,344,346,348,350,352,354,356,358,360,362,364,366,368,370,372,374,376,378,380,382,384,386,388,390,392,394,396,398,400,402,404,406,408,410,412,414,416,418,420,422,424,426,428,430,432,434,436,438,440,442,444,446,448,450,452,454,456,458,460,462,464,466,468,470,472,474,476,478,480,482,484,486,488,490,492,494,496,498,500,502,504,506,508,510,512,514,516,518,520,522,524,526,528,530,532,534,536,538,540,542,544,546,548,550,552,554,556,558,560,562,564,566,568,570,572,574,576,578,580,582,584,586,588,590,592,594,596,598,600,602,604,606,608,610,612,614,616,618,620,622,624,626,628,630,632,634,636,638,640,642,644,646,648,650,652,654,656,658,660,662,664,666,668,670,672,674,676,678,680,682,684,686,688,690,692,694,696,698,700,702,704,706,708,710,712,714,716,718,720,722,724,726,728,730,732,734,736,738,740,742,744,746,748,750,752,754,756,758,760,762,764,766,768,770,772,774,776,778,780,782,784,786,788,790,792,794,796,798,800,802,804,806,808,810,812,814,816,818,820,822,824,826,828,830,832,834,836,838,840,842,844,846,848,850,852,854,856,858,860,862,864,866,868,870,872,874,876,878,880,882,884,886,888,890,892,894,896,898,900,902,904,906,908,910,912,914,916,918,920,922,924,926,928,930,932,934,936,938,940,942,944,946,948,950,952,954,956,958,960,962,964,966,968,970,972,974,976,978,980,982,984,986,988,990,992,994,996,998,1000,1002,1004,1006,1008,1010,1012,1014,1016,1018,1020,1022,1024,1026,1028,1030,1032,1034,1036,1038,1040,1042,1044,1046,1048,1050,1052,1054,1056,1058,1060,1062,1064,1066,1068,1070,1072,1074,1076,1078,1080,1082,1084,1086,1088,1090,1092,1094,1096,1098,1100,1102,1104,1106,1108,1110,1112,1114,1116,1118,1120,1122,1124,1126,1128,1130,1132,1134,1136,1138,1140,1142,1144,1146,1148,1150,1152,1154,1156,1158,1160,1162,1164,1166,1168,1170,1172,1174,1176,1178,1180,1182,1184,1186,1188,1190,1192,1194,1196,1198,1200,1202,1204,1206,1208,1210,1212,1214,1216,1218,1220,1222,1224,1226,1228,1230,1232,1234,1236,1238,1240,1242,1244,1246,1248,1250,1252,1254,1256,1258,1260,1262,1264,1266,1268,1270,1272,1274,1276,1278,1280,1282,1284,1286,1288,1290,1292,1294,1296,1298,1300,1302,1304,1306,1308,1310,1312,1314,1316,1318,1320,1322,1324,1326,1328,1330,1332,1334,1336,1338,1340,1342,1344,1346,1348,1350,1352,1354,1356,1358,1360,1362,1364,1366,1368,1370,1372,1374,1376,1378,1380,1382,1384,1386,1388,1390,1392,1394,1396,1398,1400,1402,1404,1406,1408,1410,1412,1414,1416,1418,1420,1422,1424,1426,1428,1430,1432,1434,1436,1438,1440,1442,1444,1446,1448,1450,1452,1454,1456,1458,1460,1462,1464,1466,1468,1470,1472,1474,1476,1478,1480,1482,1484,1486,1488,1490,1492,1494,1496,1498,1500],"tree_info":[0,1,0,1,0,1,0,1,0,1,0,1,0,1,0,1,0,1,0,1,0,1,0,1,0,1,0,1,0,1,0,1,0,1,0,1,0,1,0,1,0,1,0,1,0,1,0,1,0,1,0,1,0,1,0,1,0,1,0,1,0,1,0,1,0,1,0,1,0,1,0,1,0,1,0,1,0,1,0,1,0,1,0,1,0,1,0,1,0,1,0,1,0,1,0,1,0,1,0,1,0,1,0,1,0,1,0,1,0,1,0,1,0,1,0,1,0,1,0,1,0,1,0,1,0,1,0,1,0,1,0,1,0,1,0,1,0,1,0,1,0,1,0,1,0,1,0,1,0,1,0,1,0,1,0,1,0,1,0,1,0,1,0,1,0,1,0,1,0,1,0,1,0,1,0,1,0,1,0,1,0,1,0,1,0,1,0,1,0,1,0,1,0,1,0,1,0,1,0,1,0,1,0,1,0,1,0,1,0,1,0,1,0,1,0,1,0,1,0,1,0,1,0,1,0,1,0,1,0,1,0,1,0,1,0,1,0,1,0,1,0,1,0,1,0,1,0,1,0,1,0,1,0,1,0,1,0,1,0,1,0,1,0,1,0,1,0,1,0,1,0,1,0,1,0,1,0,1,0,1,0,1,0,1,0,1,0,1,0,1,0,1,0,1,0,1,0,1,0,1,0,1,0,1,0,1,0,1,0,1,0,1,0,1,0,1,0,1,0,1,0,1,0,1,0,1,0,1,0,1,0,1,0,1,0,1,0,1,0,1,0,1,0,1,0,1,0,1,0,1,0,1,0,1,0,1,0,1,0,1,0,1,0,1,0,1,0,1,0,1,0,1,0,1,0,1,0,1,0,1,0,1,0,1,0,1,0,1,0,1,0,1,0,1,0,1,0,1,0,1,0,1,0,1,0,1,0,1,0,1,0,1,0,1,0,1,0,1,0,1,0,1,0,1,0,1,0,1,0,1,0,1,0,1,0,1,0,1,0,1,0,1,0,1,0,1,0,1,0,1,0,1,0,1,0,1,0,1,0,1,0,1,0,1,0,1,0,1,0,1,0,1,0,1,0,1,0,1,0,1,0,1,0,1,0,1,0,1,0,1,0,1,0,1,0,1,0,1,0,1,0,1,0,1,0,1,0,1,0,1,0,1,0,1,0,1,0,1,0,1,0,1,0,1,0,1,0,1,0,1,0,1,0,1,0,1,0,1,0,1,0,1,0,1,0,1,0,1,0,1,0,1,0,1,0,1,0,1,0,1,0,1,0,1,0,1,0,1,0,1,0,1,0,1,0,1,0,1,0,1,0,1,0,1,0,1,0,1,0,1,0,1,0,1,0,1,0,1,0,1,0,1,0,1,0,1,0,1,0,1,0,1,0,1,0,1,0,1,0,1,0,1,0,1,0,1,0,1,0,1,0,1,0,1,0,1,0,1,0,1,0,1,0,1,0,1,0,1,0,1,0,1,0,1,0,1,0,1,0,1,0,1,0,1,0,1,0,1,0,1,0,1,0,1,0,1,0,1,0,1,0,1,0,1,0,1,0,1,0,1,0,1,0,1,0,1,0,1,0,1,0,1,0,1,0,1,0,1,0,1,0,1,0,1,0,1,0,1,0,1,0,1,0,1,0,1,0,1,0,1,0,1,0,1,0,1,0,1,0,1,0,1,0,1,0,1,0,1,0,1,0,1,0,1,0,1,0,1,0,1,0,1,0,1,0,1,0,1,0,1,0,1,0,1,0,1,0,1,0,1,0,1,0,1,0,1,0,1,0,1,0,1,0,1,0,1,0,1,0,1,0,1,0,1,0,1,0,1,0,1,0,1,0,1,0,1,0,1,0,1,0,1,0,1,0,1,0,1,0,1,0,1,0,1,0,1,0,1,0,1,0,1,0,1,0,1,0,1,0,1,0,1,0,1,0,1,0,1,0,1,0,1,0,1,0,1,0,1,0,1,0,1,0,1,0,1,0,1,0,1,0,1,0,1,0,1,0,1,0,1,0,1,0,1,0,1,0,1,0,1,0,1,0,1,0,1,0,1,0,1,0,1,0,1,0,1,0,1,0,1,0,1,0,1,0,1,0,1,0,1,0,1,0,1,0,1,0,1,0,1,0,1,0,1,0,1,0,1,0,1,0,1,0,1,0,1,0,1,0,1,0,1,0,1,0,1,0,1,0,1,0,1,0,1,0,1,0,1,0,1,0,1,0,1,0,1,0,1,0,1,0,1,0,1,0,1,0,1,0,1,0,1,0,1,0,1,0,1,0,1,0,1,0,1,0,1,0,1,0,1,0,1,0,1,0,1,0,1,0,1,0,1,0,1,0,1,0,1,0,1,0,1,0,1,0,1,0,1,0,1,0,1,0,1,0,1,0,1,0,1,0,1,0,1,0,1,0,1,0,1,0,1,0,1,0,1,0,1,0,1,0,1,0,1,0,1,0,1,0,1,0,1,0,1,0,1,0,1,0,1,0,1,0,1,0,1,0,1,0,1,0,1,0,1,0,1,0,1,0,1,0,1,0,1,0,1,0,1,0,1,0,1,0,1,0,1,0,1,0,1,0,1,0,1,0,1,0,1,0,1,0,1,0,1,0,1,0,1,0,1,0,1,0,1,0,1,0,1,0,1,0,1,0,1,0,1,0,1,0,1,0,1,0,1,0,1,0,1,0,1,0,1,0,1,0,1,0,1,0,1,0,1,0,1,0,1,0,1,0,1,0,1,0,1,0,1,0,1,0,1,0,1,0,1,0,1,0,1,0,1,0,1,0,1,0,1,0,1,0,1,0,1,0,1,0,1,0,1,0,1,0,1,0,1,0,1,0,1,0,1,0,1,0,1,0,1,0,1,0,1,0,1,0,1,0,1,0,1,0,1,0,1,0,1,0,1,0,1,0,1,0,1,0,1,0,1,0,1,0,1,0,1,0,1,0,1,0,1,0,1,0,1,0,1,0,1,0,1,0,1,0,1,0,1,0,1,0,1,0,1,0,1,0,1,0,1,0,1,0,1,0,1,0,1,0,1,0,1,0,1,0,1,0,1,0,1,0,1,0,1,0,1,0,1,0,1,0,1,0,1,0,1,0,1,0,1,0,1,0,1,0,1,0,1,0,1,0,1,0,1,0,1,0,1,0,1,0,1,0,1,0,1,0,1,0,1,0,1,0,1,0,1,0,1,0,1,0,1,0,1,0,1,0,1,0,1,0,1,0,1,0,1,0,1,0,1,0,1,0,1,0,1,0,1,0,1,0,1,0,1,0,1,0,1,0,1,0,1,0,1,0,1,0,1,0,1,0,1,0,1,0,1,0,1,0,1,0,1,0,1,0,1,0,1,0,1,0,1,0,1,0,1,0,1,0,1,0,1,0,1],"trees":[{"base_weights":[-1.478133E-1,1.216E-1,-3.042872E-1,-1.3304184E-1,2.4139959E-1,-5.570711E-1,-1.8323888E-1,7.422402E-4,-3.1090486E-3,7.560628E-4,3.5732135E-3,-3.082353E-3,-6.0135415E-3,-3.640982E-3,-5.9774757E-4],"categories":[],"categories_nodes":[],"categories_segments":[],"categories_sizes":[],"default_left":[0,0,0,0,0,0,0,0,0,0,0,0,0,0,0],"id":0,"left_children":[1,3,5,7,9,11,13,-1,-1,-1,-1,-1,-1,-1,-1],"loss_changes":[2.8680423E2,7.629709E1,1.31581E2,2.9533455E1,3.2654984E1,1.5164459E1,6.499099E1,0E0,0E0,0E0,0E0,0E0,0E0,0E0,0E0],"parents":[2147483647,0,0,1,1,2,2,3,3,4,4,5,5,6,6],"right_children":[2,4,6,8,10,12,14,-1,-1,-1,-1,-1,-1,-1,-1],"split_conditions":[4.59E-1,-1.9E0,-1.4E0,-4.7E0,2.4E1,8E0,8E0,7.422402E-4,-3.1090486E-3,7.560628E-4,3.5732135E-3,-3.082353E-3,-6.0135415E-3,-3.640982E-3,-5.9774757E-4],"split_indices":[3,77,77,25,51,54,51,0,0,0,0,0,0,0,0],"split_type":[0,0,0,0,0,0,0,0,0,0,0,0,0,0,0],"sum_hessian":[6.8015E3,2.499E3,4.3025E3,7.995E2,1.6995E3,1.392E3,2.9105E3,3.695E2,4.3E2,7E2,9.995E2,2.115E2,1.1805E3,1.18E3,1.7305E3],"tree_param":{"num_deleted":"0","num_feature":"106","num_nodes":"15","size_leaf_vector":"1"}},{"base_weights":[1.478133E-1,-1.216E-1,3.042872E-1,1.3304184E-1,-2.4139959E-1,5.570711E-1,1.8323888E-1,-7.422402E-4,3.1090486E-3,-7.560628E-4,-3.5732135E-3,3.082353E-3,6.0135415E-3,3.640982E-3,5.9774757E-4],"categories":[],"categories_nodes":[],"categories_segments":[],"categories_sizes":[],"default_left":[0,0,0,0,0,0,0,0,0,0,0,0,0,0,0],"id":1,"left_children":[1,3,5,7,9,11,13,-1,-1,-1,-1,-1,-1,-1,-1],"loss_changes":[2.8680423E2,7.629709E1,1.31581E2,2.9533455E1,3.2654984E1,1.5164459E1,6.499099E1,0E0,0E0,0E0,0E0,0E0,0E0,0E0,0E0],"parents":[2147483647,0,0,1,1,2,2,3,3,4,4,5,5,6,6],"right_children":[2,4,6,8,10,12,14,-1,-1,-1,-1,-1,-1,-1,-1],"split_conditions":[4.59E-1,-1.9E0,-1.4E0,-4.7E0,2.4E1,8E0,8E0,-7.422402E-4,3.1090486E-3,-7.560628E-4,-3.5732135E-3,3.082353E-3,6.0135415E-3,3.640982E-3,5.9774757E-4],"split_indices":[3,77,77,25,51,54,51,0,0,0,0,0,0,0,0],"split_type":[0,0,0,0,0,0,0,0,0,0,0,0,0,0,0],"sum_hessian":[6.8015E3,2.499E3,4.3025E3,7.995E2,1.6995E3,1.392E3,2.9105E3,3.695E2,4.3E2,7E2,9.995E2,2.115E2,1.1805E3,1.18E3,1.7305E3],"tree_param":{"num_deleted":"0","num_feature":"106","num_nodes":"15","size_leaf_vector":"1"}},{"base_weights":[-1.4633855E-1,1.2038564E-1,-3.0125174E-1,-4.3301884E-2,3.0411947E-1,-5.515247E-1,-1.8140896E-1,1.5842984E-3,-2.129884E-3,1.5942483E-3,4.089365E-3,-4.4590966E-3,-6.554474E-3,-3.6046505E-3,-5.9177383E-4],"categories":[],"categories_nodes":[],"categories_segments":[],"categories_sizes":[],"default_left":[0,0,0,0,0,0,0,0,0,0,0,0,0,0,0],"id":2,"left_children":[1,3,5,7,9,11,13,-1,-1,-1,-1,-1,-1,-1,-1],"loss_changes":[2.8110617E2,7.519997E1,1.2897476E2,4.5321266E1,1.7800766E1,1.49965515E1,6.3700294E1,0E0,0E0,0E0,0E0,0E0,0E0,0E0,0E0],"parents":[2147483647,0,0,1,1,2,2,3,3,4,4,5,5,6,6],"right_children":[2,4,6,8,10,12,14,-1,-1,-1,-1,-1,-1,-1,-1],"split_conditions":[4.59E-1,5.19E-1,-1.4E0,-4.9E0,2.4E1,2.3E1,8E0,1.5842984E-3,-2.129884E-3,1.5942483E-3,4.089365E-3,-4.4590966E-3,-6.554474E-3,-3.6046505E-3,-5.9177383E-4],"split_indices":[3,55,77,25,51,1,51,0,0,0,0,0,0,0,0],"split_type":[0,0,0,0,0,0,0,0,0,0,0,0,0,0,0],"sum_hessian":[6.8014214E3,2.4989824E3,4.302439E3,1.3219915E3,1.1769911E3,1.3919552E3,2.9104836E3,6.0399664E2,7.1799475E2,4.9549963E2,6.814914E2,6.929805E2,6.989747E2,1.1799844E3,1.7304993E3],"tree_param":{"num_deleted":"0","num_feature":"106","num_nodes":"15","size_leaf_vector":"1"}},{"base_weights":[1.4633854E-1,-1.2038564E-1,3.012517E-1,4.3301865E-2,-3.0411944E-1,5.5152464E-1,1.8140897E-1,-1.5842991E-3,2.1298842E-3,-1.5942481E-3,-4.089365E-3,4.4590957E-3,6.5544727E-3,3.6046505E-3,5.917741E-4],"categories":[],"categories_nodes":[],"categories_segments":[],"categories_sizes":[],"default_left":[0,0,0,0,0,0,0,0,0,0,0,0,0,0,0],"id":3,"left_children":[1,3,5,7,9,11,13,-1,-1,-1,-1,-1,-1,-1,-1],"loss_changes":[2.8110617E2,7.519997E1,1.2897464E2,4.532129E1,1.780075E1,1.4996521E1,6.370028E1,0E0,0E0,0E0,0E0,0E0,0E0,0E0,0E0],"parents":[2147483647,0,0,1,1,2,2,3,3,4,4,5,5,6,6],"right_children":[2,4,6,8,10,12,14,-1,-1,-1,-1,-1,-1,-1,-1],"split_conditions":[4.59E-1,5.19E-1,-1.4E0,-4.9E0,2.4E1,2.3E1,8E0,-1.5842991E-3,2.1298842E-3,-1.5942481E-3,-4.089365E-3,4.4590957E-3,6.5544727E-3,3.6046505E-3,5.917741E-4],"split_indices":[3,55,77,25,51,1,51,0,0,0,0,0,0,0,0],"split_type":[0,0,0,0,0,0,0,0,0,0,0,0,0,0,0],"sum_hessian":[6.8014214E3,2.4989824E3,4.302439E3,1.3219915E3,1.176991E3,1.3919553E3,2.910484E3,6.0399664E2,7.1799475E2,4.954996E2,6.814914E2,6.929806E2,6.9897473E2,1.1799844E3,1.7304994E3],"tree_param":{"num_deleted":"0","num_feature":"106","num_nodes":"15","size_leaf_vector":"1"}},{"base_weights":[-1.4488147E-1,1.1918603E-1,-2.9825523E-1,-1.3132901E-1,2.3704576E-1,-5.4606867E-1,-1.7959933E-1,7.1941986E-4,-3.0576559E-3,7.436206E-4,3.5079785E-3,-3.007465E-3,-5.8973273E-3,-3.5687755E-3,-5.8586034E-4],"categories":[],"categories_nodes":[],"categories_segments":[],"categories_sizes":[],"default_left":[0,0,0,0,0,0,0,0,0,0,0,0,0,0,0],"id":4,"left_children":[1,3,5,7,9,11,13,-1,-1,-1,-1,-1,-1,-1,-1],"loss_changes":[2.7553156E2,7.384337E1,1.26437256E2,2.8405558E1,3.1441795E1,1.4742218E1,6.2438187E1,0E0,0E0,0E0,0E0,0E0,0E0,0E0,0E0],"parents":[2147483647,0,0,1,1,2,2,3,3,4,4,5,5,6,6],"right_children":[2,4,6,8,10,12,14,-1,-1,-1,-1,-1,-1,-1,-1],"split_conditions":[4.59E-1,-1.9E0,-1.4E0,-4.7E0,2.4E1,8E0,8E0,7.1941986E-4,-3.0576559E-3,7.436206E-4,3.5079785E-3,-3.007465E-3,-5.8973273E-3,-3.5687755E-3,-5.8586034E-4],"split_indices":[3,77,77,25,51,54,51,0,0,0,0,0,0,0,0],"split_type":[0,0,0,0,0,0,0,0,0,0,0,0,0,0,0],"sum_hessian":[6.8011973E3,2.498937E3,4.3022603E3,7.994863E2,1.6994507E3,1.3918248E3,2.9104355E3,3.6949786E2,4.2998843E2,6.999969E2,9.994538E2,2.1148798E2,1.1803368E3,1.1799381E3,1.7304974E3],"tree_param":{"num_deleted":"0","num_feature":"106","num_nodes":"15","size_leaf_vector":"1"}},{"base_weights":[1.4488146E-1,-1.1918601E-1,2.982552E-1,1.3132903E-1,-2.3704574E-1,5.460688E-1,1.7959926E-1,-7.1941956E-4,3.0576556E-3,-7.436207E-4,-3.507978E-3,3.007465E-3,5.8973287E-3,3.5687753E-3,5.858594E-4],"categories":[],"categories_nodes":[],"categories_segments":[],"categories_sizes":[],"default_left":[0,0,0,0,0,0,0,0,0,0,0,0,0,0,0],"id":5,"left_children":[1,3,5,7,9,11,13,-1,-1,-1,-1,-1,-1,-1,-1],"loss_changes":[2.7553146E2,7.384335E1,1.2643738E2,2.840555E1,3.1441772E1,1.4742249E1,6.2438217E1,0E0,0E0,0E0,0E0,0E0,0E0,0E0,0E0],"parents":[2147483647,0,0,1,1,2,2,3,3,4,4,5,5,6,6],"right_children":[2,4,6,8,10,12,14,-1,-1,-1,-1,-1,-1,-1,-1],"split_conditions":[4.59E-1,-1.9E0,-1.4E0,-4.7E0,2.4E1,8E0,8E0,-7.1941956E-4,3.0576556E-3,-7.436207E-4,-3.507978E-3,3.007465E-3,5.8973287E-3,3.5687753E-3,5.858594E-4],"split_indices":[3,77,77,25,51,54,51,0,0,0,0,0,0,0,0],"split_type":[0,0,0,0,0,0,0,0,0,0,0,0,0,0,0],"sum_hessian":[6.8011973E3,2.498937E3,4.3022603E3,7.9948627E2,1.6994507E3,1.3918247E3,2.9104355E3,3.6949786E2,4.2998843E2,6.999969E2,9.9945386E2,2.1148798E2,1.1803368E3,1.179938E3,1.7304976E3],"tree_param":{"num_deleted":"0","num_feature":"106","num_nodes":"15","size_leaf_vector":"1"}},{"base_weights":[-1.4344227E-1,1.17998645E-1,-2.9529607E-1,-4.308043E-2,2.9881117E-1,-5.4069847E-1,-1.7780963E-1,1.5499152E-3,-2.096886E-3,1.5715046E-3,4.014393E-3,-4.3653334E-3,-6.4321053E-3,-3.5333473E-3,-5.800059E-4],"categories":[],"categories_nodes":[],"categories_segments":[],"categories_sizes":[],"default_left":[0,0,0,0,0,0,0,0,0,0,0,0,0,0,0],"id":6,"left_children":[1,3,5,7,9,11,13,-1,-1,-1,-1,-1,-1,-1,-1],"loss_changes":[2.700727E2,7.282153E1,1.2396463E2,4.369029E1,1.7061821E1,1.4589752E1,6.1203835E1,0E0,0E0,0E0,0E0,0E0,0E0,0E0,0E0],"parents":[2147483647,0,0,1,1,2,2,3,3,4,4,5,5,6,6],"right_children":[2,4,6,8,10,12,14,-1,-1,-1,-1,-1,-1,-1,-1],"split_conditions":[4.59E-1,5.19E-1,-1.4E0,-4.9E0,2.4E1,2.3E1,8E0,1.5499152E-3,-2.096886E-3,1.5715046E-3,4.014393E-3,-4.3653334E-3,-6.4321053E-3,-3.5333473E-3,-5.800059E-4],"split_indices":[3,55,77,25,51,1,51,0,0,0,0,0,0,0,0],"split_type":[0,0,0,0,0,0,0,0,0,0,0,0,0,0,0],"sum_hessian":[6.8008237E3,2.4988582E3,4.301966E3,1.321947E3,1.176911E3,1.3916093E3,2.9103564E3,6.039781E2,7.1796893E2,4.9549515E2,6.814159E2,6.928475E2,6.987618E2,1.179862E3,1.7304945E3],"tree_param":{"num_deleted":"0","num_feature":"106","num_nodes":"15","size_leaf_vector":"1"}},{"base_weights":[1.4344226E-1,-1.1799869E-1,2.952961E-1,4.308038E-2,-2.988112E-1,5.406985E-1,1.7780963E-1,-1.5499155E-3,2.0968853E-3,-1.5715047E-3,-4.014393E-3,4.3653334E-3,6.4321063E-3,3.5333473E-3,5.800059E-4],"categories":[],"categories_nodes":[],"categories_segments":[],"categories_sizes":[],"default_left":[0,0,0,0,0,0,0,0,0,0,0,0,0,0,0],"id":7,"left_children":[1,3,5,7,9,11,13,-1,-1,-1,-1,-1,-1,-1,-1],"loss_changes":[2.7007275E2,7.2821526E1,1.2396472E2,4.369028E1,1.7061821E1,1.4589752E1,6.1203835E1,0E0,0E0,0E0,0E0,0E0,0E0,0E0,0E0],"parents":[2147483647,0,0,1,1,2,2,3,3,4,4,5,5,6,6],"right_children":[2,4,6,8,10,12,14,-1,-1,-1,-1,-1,-1,-1,-1],"split_conditions":[4.59E-1,5.19E-1,-1.4E0,-4.9E0,2.4E1,2.3E1,8E0,-1.5499155E-3,2.0968853E-3,-1.5715047E-3,-4.014393E-3,4.3653334E-3,6.4321063E-3,3.5333473E-3,5.800059E-4],"split_indices":[3,55,77,25,51,1,51,0,0,0,0,0,0,0,0],"split_type":[0,0,0,0,0,0,0,0,0,0,0,0,0,0,0],"sum_hessian":[6.8008237E3,2.4988582E3,4.301966E3,1.321947E3,1.1769111E3,1.3916091E3,2.9103564E3,6.039781E2,7.1796893E2,4.9549518E2,6.8141595E2,6.928475E2,6.987617E2,1.179862E3,1.7304945E3],"tree_param":{"num_deleted":"0","num_feature":"106","num_nodes":"15","size_leaf_vector":"1"}},{"base_weights":[-1.4202008E-1,1.7638119E-1,-2.642955E-1,-5.7090845E-2,3.077118E-1,-1.0462423E-1,-4.407503E-1,7.3300884E-4,-2.8193847E-3,2.3023866E-3,4.5261392E-3,-2.6228342E-3,3.3992497E-4,-3.4227904E-3,-5.7305014E-3],"categories":[],"categories_nodes":[],"categories_segments":[],"categories_sizes":[],"default_left":[0,0,0,0,0,0,0,0,0,0,0,0,0,0,0],"id":8,"left_children":[1,3,5,7,9,11,13,-1,-1,-1,-1,-1,-1,-1,-1],"loss_changes":[2.648397E2,5.790052E1,1.3841983E2,1.9970297E1,1.3460442E1,5.6420685E1,3.021402E1,0E0,0E0,0E0,0E0,0E0,0E0,0E0,0E0],"parents":[2147483647,0,0,1,1,2,2,3,3,4,4,5,5,6,6],"right_children":[2,4,6,8,10,12,14,-1,-1,-1,-1,-1,-1,-1,-1],"split_conditions":[-2.4E0,-1.4E0,1.4E1,-4.7E0,3.5E1,1E1,2.3E1,7.3300884E-4,-2.8193847E-3,2.3023866E-3,4.5261392E-3,-2.6228342E-3,3.3992497E-4,-3.4227904E-3,-5.7305014E-3],"split_indices":[25,77,80,25,2,51,80,0,0,0,0,0,0,0,0],"split_type":[0,0,0,0,0,0,0,0,0,0,0,0,0,0,0],"sum_hessian":[6.800313E3,1.8867731E3,4.9135396E3,6.7945044E2,1.2073226E3,2.5802783E3,2.3332615E3,4.304826E2,2.4896783E2,7.883915E2,4.1893115E2,1.206801E3,1.3734774E3,1.3397028E3,9.935586E2],"tree_param":{"num_deleted":"0","num_feature":"106","num_nodes":"15","size_leaf_vector":"1"}},{"base_weights":[1.420201E-1,-1.7638119E-1,2.6429552E-1,5.709091E-2,-3.0771187E-1,1.04624264E-1,4.407503E-1,-7.330078E-4,2.8193847E-3,-2.302387E-3,-4.52614E-3,2.6228346E-3,-3.3992474E-4,3.4227904E-3,5.7305014E-3],"categories":[],"categories_nodes":[],"categories_segments":[],"categories_sizes":[],"default_left":[0,0,0,0,0,0,0,0,0,0,0,0,0,0,0],"id":9,"left_children":[1,3,5,7,9,11,13,-1,-1,-1,-1,-1,-1,-1,-1],"loss_changes":[2.6483972E2,5.790055E1,1.3841983E2,1.9970284E1,1.3460457E1,5.6420715E1,3.021399E1,0E0,0E0,0E0,0E0,0E0,0E0,0E0,0E0],"parents":[2147483647,0,0,1,1,2,2,3,3,4,4,5,5,6,6],"right_children":[2,4,6,8,10,12,14,-1,-1,-1,-1,-1,-1,-1,-1],"split_conditions":[-2.4E0,-1.4E0,1.4E1,-4.7E0,3.5E1,1E1,2.3E1,-7.330078E-4,2.8193847E-3,-2.302387E-3,-4.52614E-3,2.6228346E-3,-3.3992474E-4,3.4227904E-3,5.7305014E-3],"split_indices":[25,77,80,25,2,51,80,0,0,0,0,0,0,0,0],"split_type":[0,0,0,0,0,0,0,0,0,0,0,0,0,0,0],"sum_hessian":[6.800313E3,1.8867731E3,4.9135396E3,6.7945044E2,1.2073226E3,2.5802783E3,2.3332615E3,4.304826E2,2.4896783E2,7.883914E2,4.1893115E2,1.2068009E3,1.3734774E3,1.3397028E3,9.935586E2],"tree_param":{"num_deleted":"0","num_feature":"106","num_nodes":"15","size_leaf_vector":"1"}},{"base_weights":[-1.4061305E-1,1.16121024E-1,-2.897475E-1,-4.204339E-2,2.9367235E-1,-5.3094345E-1,-1.7431687E-1,1.5188713E-3,-2.0517444E-3,1.5457997E-3,3.9445786E-3,-4.2807255E-3,-6.3220784E-3,-3.4703137E-3,-5.644628E-4],"categories":[],"categories_nodes":[],"categories_segments":[],"categories_sizes":[],"default_left":[0,0,0,0,0,0,0,0,0,0,0,0,0,0,0],"id":10,"left_children":[1,3,5,7,9,11,13,-1,-1,-1,-1,-1,-1,-1,-1],"loss_changes":[2.604193E2,7.020714E1,1.1968448E2,4.188107E1,1.6449402E1,1.4230011E1,5.9245003E1,0E0,0E0,0E0,0E0,0E0,0E0,0E0,0E0],"parents":[2147483647,0,0,1,1,2,2,3,3,4,4,5,5,6,6],"right_children":[2,4,6,8,10,12,14,-1,-1,-1,-1,-1,-1,-1,-1],"split_conditions":[4.59E-1,5.19E-1,-1.4E0,-4.9E0,2.4E1,2.3E1,8E0,1.5188713E-3,-2.0517444E-3,1.5457997E-3,3.9445786E-3,-4.2807255E-3,-6.3220784E-3,-3.4703137E-3,-5.644628E-4],"split_indices":[3,55,77,25,51,1,51,0,0,0,0,0,0,0,0],"split_type":[0,0,0,0,0,0,0,0,0,0,0,0,0,0,0],"sum_hessian":[6.79973E3,2.4986096E3,4.30112E3,1.3218533E3,1.1767563E3,1.3909944E3,2.910126E3,6.039478E2,7.1790546E2,4.9548282E2,6.812735E2,6.92617E2,6.983774E2,1.1796514E3,1.7304746E3],"tree_param":{"num_deleted":"0","num_feature":"106","num_nodes":"15","size_leaf_vector":"1"}},{"base_weights":[1.4061305E-1,-1.16121046E-1,2.897475E-1,4.2043373E-2,-2.9367238E-1,5.3094345E-1,1.7431688E-1,-1.5188714E-3,2.0517441E-3,-1.5457997E-3,-3.944579E-3,4.2807255E-3,6.3220784E-3,3.4703137E-3,5.644629E-4],"categories":[],"categories_nodes":[],"categories_segments":[],"categories_sizes":[],"default_left":[0,0,0,0,0,0,0,0,0,0,0,0,0,0,0],"id":11,"left_children":[1,3,5,7,9,11,13,-1,-1,-1,-1,-1,-1,-1,-1],"loss_changes":[2.604193E2,7.020714E1,1.1968451E2,4.188106E1,1.6449425E1,1.42300415E1,5.9245003E1,0E0,0E0,0E0,0E0,0E0,0E0,0E0,0E0],"parents":[2147483647,0,0,1,1,2,2,3,3,4,4,5,5,6,6],"right_children":[2,4,6,8,10,12,14,-1,-1,-1,-1,-1,-1,-1,-1],"split_conditions":[4.59E-1,5.19E-1,-1.4E0,-4.9E0,2.4E1,2.3E1,8E0,-1.5188714E-3,2.0517441E-3,-1.5457997E-3,-3.944579E-3,4.2807255E-3,6.3220784E-3,3.4703137E-3,5.644629E-4],"split_indices":[3,55,77,25,51,1,51,0,0,0,0,0,0,0,0],"split_type":[0,0,0,0,0,0,0,0,0,0,0,0,0,0,0],"sum_hessian":[6.79973E3,2.4986096E3,4.3011206E3,1.3218533E3,1.1767563E3,1.3909944E3,2.910126E3,6.039478E2,7.179055E2,4.9548285E2,6.812735E2,6.92617E2,6.983773E2,1.1796514E3,1.7304747E3],"tree_param":{"num_deleted":"0","num_feature":"106","num_nodes":"15","size_leaf_vector":"1"}},{"base_weights":[-1.3922423E-1,1.14969485E-1,-2.86894E-1,-1.4733875E-1,2.2074908E-1,-5.258092E-1,-1.7258477E-1,7.0690585E-4,-3.234014E-3,7.123866E-4,3.2470238E-3,-2.8617247E-3,-5.6849127E-3,-3.436093E-3,-5.588236E-4],"categories":[],"categories_nodes":[],"categories_segments":[],"categories_sizes":[],"default_left":[0,0,0,0,0,0,0,0,0,0,0,0,0,0,0],"id":12,"left_children":[1,3,5,7,9,11,13,-1,-1,-1,-1,-1,-1,-1,-1],"loss_changes":[2.552813E2,6.938428E1,1.1738464E2,2.7618387E1,2.766613E1,1.4070343E1,5.8080658E1,0E0,0E0,0E0,0E0,0E0,0E0,0E0,0E0],"parents":[2147483647,0,0,1,1,2,2,3,3,4,4,5,5,6,6],"right_children":[2,4,6,8,10,12,14,-1,-1,-1,-1,-1,-1,-1,-1],"split_conditions":[4.59E-1,-2.4E0,-1.4E0,-4.9E0,2.4E1,8E0,8E0,7.0690585E-4,-3.234014E-3,7.123866E-4,3.2470238E-3,-2.8617247E-3,-5.6849127E-3,-3.436093E-3,-5.588236E-4],"split_indices":[3,77,77,25,51,54,51,0,0,0,0,0,0,0,0],"split_type":[0,0,0,0,0,0,0,0,0,0,0,0,0,0,0],"sum_hessian":[6.798962E3,2.498445E3,4.300517E3,7.178801E2,1.780565E3,1.3905529E3,2.909964E3,3.2098407E2,3.9689606E2,7.30956E2,1.049609E3,2.1139394E2,1.1791589E3,1.1794965E3,1.7304677E3],"tree_param":{"num_deleted":"0","num_feature":"106","num_nodes":"15","size_leaf_vector":"1"}},{"base_weights":[1.3922423E-1,-1.14969485E-1,2.8689402E-1,1.4733875E-1,-2.2074908E-1,5.258092E-1,1.7258479E-1,-7.0690585E-4,3.2340141E-3,-7.123868E-4,-3.2470238E-3,2.861725E-3,5.684912E-3,3.436093E-3,5.5882375E-4],"categories":[],"categories_nodes":[],"categories_segments":[],"categories_sizes":[],"default_left":[0,0,0,0,0,0,0,0,0,0,0,0,0,0,0],"id":13,"left_children":[1,3,5,7,9,11,13,-1,-1,-1,-1,-1,-1,-1,-1],"loss_changes":[2.5528131E2,6.938428E1,1.1738464E2,2.7618385E1,2.7666115E1,1.4070404E1,5.8080658E1,0E0,0E0,0E0,0E0,0E0,0E0,0E0,0E0],"parents":[2147483647,0,0,1,1,2,2,3,3,4,4,5,5,6,6],"right_children":[2,4,6,8,10,12,14,-1,-1,-1,-1,-1,-1,-1,-1],"split_conditions":[4.59E-1,-2.4E0,-1.4E0,-4.9E0,2.4E1,8E0,8E0,-7.0690585E-4,3.2340141E-3,-7.123868E-4,-3.2470238E-3,2.861725E-3,5.684912E-3,3.436093E-3,5.5882375E-4],"split_indices":[3,77,77,25,51,54,51,0,0,0,0,0,0,0,0],"split_type":[0,0,0,0,0,0,0,0,0,0,0,0,0,0,0],"sum_hessian":[6.798962E3,2.498445E3,4.300517E3,7.178802E2,1.780565E3,1.3905529E3,2.909964E3,3.2098407E2,3.968961E2,7.30956E2,1.049609E3,2.1139392E2,1.1791589E3,1.1794965E3,1.7304677E3],"tree_param":{"num_deleted":"0","num_feature":"106","num_nodes":"15","size_leaf_vector":"1"}},{"base_weights":[-1.3785191E-1,1.1382883E-1,-2.8407496E-1,-4.189105E-2,2.8865415E-1,-5.207515E-1,-1.7087151E-1,1.4848677E-3,-2.020364E-3,1.5238668E-3,3.8741913E-3,-4.192E-3,-6.2075597E-3,-3.402287E-3,-5.5324077E-4],"categories":[],"categories_nodes":[],"categories_segments":[],"categories_sizes":[],"default_left":[0,0,0,0,0,0,0,0,0,0,0,0,0,0,0],"id":14,"left_children":[1,3,5,7,9,11,13,-1,-1,-1,-1,-1,-1,-1,-1],"loss_changes":[2.5024858E2,6.80514E1,1.1514093E2,4.03576E1,1.5788681E1,1.3866577E1,5.694153E1,0E0,0E0,0E0,0E0,0E0,0E0,0E0,0E0],"parents":[2147483647,0,0,1,1,2,2,3,3,4,4,5,5,6,6],"right_children":[2,4,6,8,10,12,14,-1,-1,-1,-1,-1,-1,-1,-1],"split_conditions":[4.59E-1,5.19E-1,-1.4E0,-4.9E0,2.4E1,2.3E1,8E0,1.4848677E-3,-2.020364E-3,1.5238668E-3,3.8741913E-3,-4.192E-3,-6.2075597E-3,-3.402287E-3,-5.5324077E-4],"split_indices":[3,55,77,25,51,1,51,0,0,0,0,0,0,0,0],"split_type":[0,0,0,0,0,0,0,0,0,0,0,0,0,0,0],"sum_hessian":[6.798072E3,2.4982603E3,4.2998115E3,1.3217317E3,1.1765286E3,1.3900366E3,2.9097747E3,6.038997E2,7.1783203E2,4.9546765E2,6.810609E2,6.922598E2,6.9777686E2,1.1793151E3,1.7304596E3],"tree_param":{"num_deleted":"0","num_feature":"106","num_nodes":"15","size_leaf_vector":"1"}},{"base_weights":[1.3785191E-1,-1.1382882E-1,2.8407496E-1,4.189105E-2,-2.8865412E-1,5.2075154E-1,1.7087151E-1,-1.4848678E-3,2.020364E-3,-1.5238668E-3,-3.8741909E-3,4.1920003E-3,6.2075597E-3,3.4022862E-3,5.532411E-4],"categories":[],"categories_nodes":[],"categories_segments":[],"categories_sizes":[],"default_left":[0,0,0,0,0,0,0,0,0,0,0,0,0,0,0],"id":15,"left_children":[1,3,5,7,9,11,13,-1,-1,-1,-1,-1,-1,-1,-1],"loss_changes":[2.5024857E2,6.805139E1,1.1514093E2,4.035761E1,1.5788673E1,1.3866638E1,5.6941452E1,0E0,0E0,0E0,0E0,0E0,0E0,0E0,0E0],"parents":[2147483647,0,0,1,1,2,2,3,3,4,4,5,5,6,6],"right_children":[2,4,6,8,10,12,14,-1,-1,-1,-1,-1,-1,-1,-1],"split_conditions":[4.59E-1,5.19E-1,-1.4E0,-4.9E0,2.4E1,2.3E1,8E0,-1.4848678E-3,2.020364E-3,-1.5238668E-3,-3.8741909E-3,4.1920003E-3,6.2075597E-3,3.4022862E-3,5.532411E-4],"split_indices":[3,55,77,25,51,1,51,0,0,0,0,0,0,0,0],"split_type":[0,0,0,0,0,0,0,0,0,0,0,0,0,0,0],"sum_hessian":[6.798072E3,2.4982603E3,4.2998115E3,1.3217318E3,1.1765286E3,1.3900366E3,2.9097747E3,6.038998E2,7.1783203E2,4.9546765E2,6.810609E2,6.9225977E2,6.977768E2,1.1793152E3,1.7304596E3],"tree_param":{"num_deleted":"0","num_feature":"106","num_nodes":"15","size_leaf_vector":"1"}},{"base_weights":[-1.3649558E-1,1.7012005E-1,-2.5426957E-1,-5.6236118E-2,2.9747677E-1,-9.934479E-2,-4.25594E-1,6.9093093E-4,-2.7239944E-3,2.2120953E-3,4.4016037E-3,-2.5131488E-3,3.4215223E-4,-5.978772E-3,-3.5425876E-3],"categories":[],"categories_nodes":[],"categories_segments":[],"categories_sizes":[],"default_left":[0,0,0,0,0,0,0,0,0,0,0,0,0,0,0],"id":16,"left_children":[1,3,5,7,9,11,13,-1,-1,-1,-1,-1,-1,-1,-1],"loss_changes":[2.4552995E2,5.4419502E1,1.303313E2,1.8449842E1,1.3046341E1,5.238953E1,2.84505E1,0E0,0E0,0E0,0E0,0E0,0E0,0E0,0E0],"parents":[2147483647,0,0,1,1,2,2,3,3,4,4,5,5,6,6],"right_children":[2,4,6,8,10,12,14,-1,-1,-1,-1,-1,-1,-1,-1],"split_conditions":[-2.4E0,-1.4E0,1.4E1,-4.7E0,3.5E1,1E1,7E0,6.9093093E-4,-2.7239944E-3,2.2120953E-3,4.4016037E-3,-2.5131488E-3,3.4215223E-4,-5.978772E-3,-3.5425876E-3],"split_indices":[25,77,80,25,2,51,51,0,0,0,0,0,0,0,0],"split_type":[0,0,0,0,0,0,0,0,0,0,0,0,0,0,0],"sum_hessian":[6.7970493E3,1.886152E3,4.9108975E3,6.793229E2,1.2068291E3,2.5797068E3,2.3311904E3,4.3043915E2,2.4888371E2,7.8811584E2,4.1871326E2,1.2062754E3,1.3734315E3,6.8044696E2,1.6507434E3],"tree_param":{"num_deleted":"0","num_feature":"106","num_nodes":"15","size_leaf_vector":"1"}},{"base_weights":[1.3649555E-1,-1.7012008E-1,2.5426954E-1,5.623611E-2,-2.974768E-1,9.9344715E-2,4.25594E-1,-6.9093093E-4,2.7239942E-3,-2.2120953E-3,-4.4016046E-3,2.513148E-3,-3.421528E-4,5.9787724E-3,3.5425876E-3],"categories":[],"categories_nodes":[],"categories_segments":[],"categories_sizes":[],"default_left":[0,0,0,0,0,0,0,0,0,0,0,0,0,0,0],"id":17,"left_children":[1,3,5,7,9,11,13,-1,-1,-1,-1,-1,-1,-1,-1],"loss_changes":[2.4552995E2,5.441951E1,1.3033133E2,1.8449839E1,1.3046333E1,5.238952E1,2.84505E1,0E0,0E0,0E0,0E0,0E0,0E0,0E0,0E0],"parents":[2147483647,0,0,1,1,2,2,3,3,4,4,5,5,6,6],"right_children":[2,4,6,8,10,12,14,-1,-1,-1,-1,-1,-1,-1,-1],"split_conditions":[-2.4E0,-1.4E0,1.4E1,-4.7E0,3.5E1,1E1,7E0,-6.9093093E-4,2.7239942E-3,-2.2120953E-3,-4.4016046E-3,2.513148E-3,-3.421528E-4,5.9787724E-3,3.5425876E-3],"split_indices":[25,77,80,25,2,51,51,0,0,0,0,0,0,0,0],"split_type":[0,0,0,0,0,0,0,0,0,0,0,0,0,0,0],"sum_hessian":[6.7970493E3,1.886152E3,4.9108975E3,6.793229E2,1.2068291E3,2.579707E3,2.3311904E3,4.3043915E2,2.488837E2,7.8811584E2,4.187133E2,1.2062754E3,1.3734315E3,6.8044696E2,1.6507434E3],"tree_param":{"num_deleted":"0","num_feature":"106","num_nodes":"15","size_leaf_vector":"1"}},{"base_weights":[-1.3515238E-1,1.11922495E-1,-2.7872598E-1,-1.4413701E-1,2.1518983E-1,-5.1183194E-1,-1.673013E-1,6.777938E-4,-3.1530985E-3,6.9954793E-4,3.162062E-3,-2.761279E-3,-5.538475E-3,-3.33696E-3,-5.381419E-4],"categories":[],"categories_nodes":[],"categories_segments":[],"categories_sizes":[],"default_left":[0,0,0,0,0,0,0,0,0,0,0,0,0,0,0],"id":18,"left_children":[1,3,5,7,9,11,13,-1,-1,-1,-1,-1,-1,-1,-1],"loss_changes":[2.4114474E2,6.6105644E1,1.115813E2,2.609285E1,2.6108093E1,1.3611816E1,5.4939056E1,0E0,0E0,0E0,0E0,0E0,0E0,0E0,0E0],"parents":[2147483647,0,0,1,1,2,2,3,3,4,4,5,5,6,6],"right_children":[2,4,6,8,10,12,14,-1,-1,-1,-1,-1,-1,-1,-1],"split_conditions":[4.59E-1,-2.4E0,-1.4E0,-4.9E0,2.4E1,8E0,8E0,6.777938E-4,-3.1530985E-3,6.9954793E-4,3.162062E-3,-2.761279E-3,-5.538475E-3,-3.33696E-3,-5.381419E-4],"split_indices":[3,77,77,25,51,54,51,0,0,0,0,0,0,0,0],"split_type":[0,0,0,0,0,0,0,0,0,0,0,0,0,0,0],"sum_hessian":[6.7960176E3,2.4977964E3,4.298221E3,7.177307E2,1.7800657E3,1.3889259E3,2.9092954E3,3.2096805E2,3.9676266E2,7.309065E2,1.0491592E3,2.1127287E2,1.177653E3,1.1788809E3,1.7304146E3],"tree_param":{"num_deleted":"0","num_feature":"106","num_nodes":"15","size_leaf_vector":"1"}},{"base_weights":[1.3515237E-1,-1.1192253E-1,2.7872598E-1,1.4413697E-1,-2.1518986E-1,5.1183194E-1,1.673013E-1,-6.7779474E-4,3.1530985E-3,-6.995481E-4,-3.1620625E-3,2.7612792E-3,5.5384743E-3,3.3369602E-3,5.381417E-4],"categories":[],"categories_nodes":[],"categories_segments":[],"categories_sizes":[],"default_left":[0,0,0,0,0,0,0,0,0,0,0,0,0,0,0],"id":19,"left_children":[1,3,5,7,9,11,13,-1,-1,-1,-1,-1,-1,-1,-1],"loss_changes":[2.4114474E2,6.6105644E1,1.1158127E2,2.6092861E1,2.6108093E1,1.3611816E1,5.4939095E1,0E0,0E0,0E0,0E0,0E0,0E0,0E0,0E0],"parents":[2147483647,0,0,1,1,2,2,3,3,4,4,5,5,6,6],"right_children":[2,4,6,8,10,12,14,-1,-1,-1,-1,-1,-1,-1,-1],"split_conditions":[4.59E-1,-2.4E0,-1.4E0,-4.9E0,2.4E1,8E0,8E0,-6.7779474E-4,3.1530985E-3,-6.995481E-4,-3.1620625E-3,2.7612792E-3,5.5384743E-3,3.3369602E-3,5.381417E-4],"split_indices":[3,77,77,25,51,54,51,0,0,0,0,0,0,0,0],"split_type":[0,0,0,0,0,0,0,0,0,0,0,0,0,0,0],"sum_hessian":[6.7960176E3,2.4977964E3,4.298221E3,7.177307E2,1.7800656E3,1.3889259E3,2.9092957E3,3.2096802E2,3.9676266E2,7.309065E2,1.0491592E3,2.1127286E2,1.1776531E3,1.1788809E3,1.7304147E3],"tree_param":{"num_deleted":"0","num_feature":"106","num_nodes":"15","size_leaf_vector":"1"}},{"base_weights":[-1.3382715E-1,1.1081546E-1,-2.7600497E-1,-4.134052E-2,2.816697E-1,-1.2501067E-1,-4.453905E-1,1.4368648E-3,-1.9699596E-3,1.4925792E-3,3.776903E-3,-2.8068672E-3,-1.7272543E-4,-5.3407494E-3,-3.162988E-3],"categories":[],"categories_nodes":[],"categories_segments":[],"categories_sizes":[],"default_left":[0,0,0,0,0,0,0,0,0,0,0,0,0,0,0],"id":20,"left_children":[1,3,5,7,9,11,13,-1,-1,-1,-1,-1,-1,-1,-1],"loss_changes":[2.3640643E2,6.4964836E1,1.0987726E2,3.811569E1,1.4909317E1,3.8133232E1,2.301828E1,0E0,0E0,0E0,0E0,0E0,0E0,0E0,0E0],"parents":[2147483647,0,0,1,1,2,2,3,3,4,4,5,5,6,6],"right_children":[2,4,6,8,10,12,14,-1,-1,-1,-1,-1,-1,-1,-1],"split_conditions":[4.59E-1,5.19E-1,1.4E1,-4.9E0,2.4E1,8E0,-1.9E0,1.4368648E-3,-1.9699596E-3,1.4925792E-3,3.776903E-3,-2.8068672E-3,-1.7272543E-4,-5.3407494E-3,-3.162988E-3],"split_indices":[3,55,80,25,51,51,77,0,0,0,0,0,0,0,0],"split_type":[0,0,0,0,0,0,0,0,0,0,0,0,0,0,0],"sum_hessian":[6.7947783E3,2.4975364E3,4.2972417E3,1.3214573E3,1.1760791E3,2.2728801E3,2.0243617E3,6.037998E2,7.176575E2,4.9543372E2,6.806454E2,9.289664E2,1.3439138E3,1.1981259E3,8.262358E2],"tree_param":{"num_deleted":"0","num_feature":"106","num_nodes":"15","size_leaf_vector":"1"}},{"base_weights":[1.3382715E-1,-1.1081544E-1,2.7600497E-1,4.1340563E-2,-2.816697E-1,1.2501067E-1,4.4539046E-1,-1.4368641E-3,1.9699598E-3,-1.4925787E-3,-3.7769037E-3,2.8068672E-3,1.7272543E-4,5.340749E-3,3.1629885E-3],"categories":[],"categories_nodes":[],"categories_segments":[],"categories_sizes":[],"default_left":[0,0,0,0,0,0,0,0,0,0,0,0,0,0,0],"id":21,"left_children":[1,3,5,7,9,11,13,-1,-1,-1,-1,-1,-1,-1,-1],"loss_changes":[2.3640643E2,6.496485E1,1.098772E2,3.8115673E1,1.4909332E1,3.8133232E1,2.301828E1,0E0,0E0,0E0,0E0,0E0,0E0,0E0,0E0],"parents":[2147483647,0,0,1,1,2,2,3,3,4,4,5,5,6,6],"right_children":[2,4,6,8,10,12,14,-1,-1,-1,-1,-1,-1,-1,-1],"split_conditions":[4.59E-1,5.19E-1,1.4E1,-4.9E0,2.4E1,8E0,-1.9E0,-1.4368641E-3,1.9699598E-3,-1.4925787E-3,-3.7769037E-3,2.8068672E-3,1.7272543E-4,5.340749E-3,3.1629885E-3],"split_indices":[3,55,80,25,51,51,77,0,0,0,0,0,0,0,0],"split_type":[0,0,0,0,0,0,0,0,0,0,0,0,0,0,0],"sum_hessian":[6.7947783E3,2.4975364E3,4.2972417E3,1.3214573E3,1.1760791E3,2.2728801E3,2.0243617E3,6.037998E2,7.176575E2,4.9543372E2,6.806454E2,9.289664E2,1.3439138E3,1.1981259E3,8.2623584E2],"tree_param":{"num_deleted":"0","num_feature":"106","num_nodes":"15","size_leaf_vector":"1"}},{"base_weights":[-1.3251597E-1,-2.533506E-1,1.500308E-1,-1.03940815E-1,-4.2272037E-1,-1.4453152E-1,2.4329412E-1,-2.436881E-3,2.3374557E-4,-3.1543104E-3,-5.3526694E-3,7.9933606E-4,-2.8620937E-3,3.7829124E-3,1.5358985E-3],"categories":[],"categories_nodes":[],"categories_segments":[],"categories_sizes":[],"default_left":[0,0,0,0,0,0,0,0,0,0,0,0,0,0,0],"id":22,"left_children":[1,3,5,7,9,11,13,-1,-1,-1,-1,-1,-1,-1,-1],"loss_changes":[2.3201048E2,1.2039807E2,5.596613E1,4.5021027E1,2.6763672E1,1.5612854E1,1.8672295E1,0E0,0E0,0E0,0E0,0E0,0E0,0E0,0E0],"parents":[2147483647,0,0,1,1,2,2,3,3,4,4,5,5,6,6],"right_children":[2,4,6,8,10,12,14,-1,-1,-1,-1,-1,-1,-1,-1],"split_conditions":[2E1,1.4E1,-3.2E0,1E1,2.2E1,-6.2E0,-6.2E0,-2.436881E-3,2.3374557E-4,-3.1543104E-3,-5.3526694E-3,7.9933606E-4,-2.8620937E-3,3.7829124E-3,1.5358985E-3],"split_indices":[28,80,77,51,80,25,25,0,0,0,0,0,0,0,0],"split_type":[0,0,0,0,0,0,0,0,0,0,0,0,0,0,0],"sum_hessian":[6.7934556E3,4.758519E3,2.0349364E3,2.5290913E3,2.2294275E3,4.892241E2,1.5457123E3,1.2052446E3,1.3238467E3,1.1433184E3,1.0861093E3,1.8947232E2,2.9975177E2,6.157879E2,9.2992444E2],"tree_param":{"num_deleted":"0","num_feature":"106","num_nodes":"15","size_leaf_vector":"1"}},{"base_weights":[1.3251595E-1,2.533506E-1,-1.5003082E-1,1.03940815E-1,4.2272037E-1,1.4453147E-1,-2.4329413E-1,2.4368807E-3,-2.337454E-4,3.1543102E-3,5.3526694E-3,-7.9933635E-4,2.862093E-3,-3.7829126E-3,-1.5358987E-3],"categories":[],"categories_nodes":[],"categories_segments":[],"categories_sizes":[],"default_left":[0,0,0,0,0,0,0,0,0,0,0,0,0,0,0],"id":23,"left_children":[1,3,5,7,9,11,13,-1,-1,-1,-1,-1,-1,-1,-1],"loss_changes":[2.320105E2,1.2039804E2,5.5966118E1,4.5021004E1,2.6763702E1,1.5612853E1,1.8672302E1,0E0,0E0,0E0,0E0,0E0,0E0,0E0,0E0],"parents":[2147483647,0,0,1,1,2,2,3,3,4,4,5,5,6,6],"right_children":[2,4,6,8,10,12,14,-1,-1,-1,-1,-1,-1,-1,-1],"split_conditions":[2E1,1.4E1,-3.2E0,1E1,2.2E1,-6.2E0,-6.2E0,2.4368807E-3,-2.337454E-4,3.1543102E-3,5.3526694E-3,-7.9933635E-4,2.862093E-3,-3.7829126E-3,-1.5358987E-3],"split_indices":[28,80,77,51,80,25,25,0,0,0,0,0,0,0,0],"split_type":[0,0,0,0,0,0,0,0,0,0,0,0,0,0,0],"sum_hessian":[6.7934556E3,4.758519E3,2.0349364E3,2.5290913E3,2.2294277E3,4.892241E2,1.5457123E3,1.2052446E3,1.3238467E3,1.1433184E3,1.0861093E3,1.8947234E2,2.9975177E2,6.157879E2,9.2992444E2],"tree_param":{"num_deleted":"0","num_feature":"106","num_nodes":"15","size_leaf_vector":"1"}},{"base_weights":[-1.3121812E-1,1.6428933E-1,-2.447608E-1,-5.499689E-2,2.877081E-1,-9.514779E-2,-4.1039327E-1,6.562884E-4,-2.631289E-3,2.126906E-3,4.2810934E-3,-2.416003E-3,3.3489734E-4,-5.7982546E-3,-3.4029242E-3],"categories":[],"categories_nodes":[],"categories_segments":[],"categories_sizes":[],"default_left":[0,0,0,0,0,0,0,0,0,0,0,0,0,0,0],"id":24,"left_children":[1,3,5,7,9,11,13,-1,-1,-1,-1,-1,-1,-1,-1],"loss_changes":[2.2796753E2,5.1064182E1,1.2158267E2,1.709245E1,1.2622627E1,4.861261E1,2.7464447E1,0E0,0E0,0E0,0E0,0E0,0E0,0E0,0E0],"parents":[2147483647,0,0,1,1,2,2,3,3,4,4,5,5,6,6],"right_children":[2,4,6,8,10,12,14,-1,-1,-1,-1,-1,-1,-1,-1],"split_conditions":[-2.4E0,-1.4E0,1.4E1,-4.7E0,3.5E1,1E1,7E0,6.562884E-4,-2.631289E-3,2.126906E-3,4.2810934E-3,-2.416003E-3,3.3489734E-4,-5.7982546E-3,-3.4029242E-3],"split_indices":[25,77,80,25,2,51,51,0,0,0,0,0,0,0,0],"split_type":[0,0,0,0,0,0,0,0,0,0,0,0,0,0,0],"sum_hessian":[6.7921133E3,1.8852064E3,4.9069067E3,6.7912134E2,1.2060851E3,2.578955E3,2.3279517E3,4.303759E2,2.4874548E2,7.877168E2,4.1836826E2,1.2055596E3,1.3733955E3,6.791616E2,1.6487902E3],"tree_param":{"num_deleted":"0","num_feature":"106","num_nodes":"15","size_leaf_vector":"1"}},{"base_weights":[1.3121814E-1,-1.6428933E-1,2.447608E-1,5.49969E-2,-2.877081E-1,9.514781E-2,4.1039327E-1,-6.562884E-4,2.6312897E-3,-2.126906E-3,-4.2810934E-3,2.4160035E-3,-3.3489725E-4,5.7982546E-3,3.4029242E-3],"categories":[],"categories_nodes":[],"categories_segments":[],"categories_sizes":[],"default_left":[0,0,0,0,0,0,0,0,0,0,0,0,0,0,0],"id":25,"left_children":[1,3,5,7,9,11,13,-1,-1,-1,-1,-1,-1,-1,-1],"loss_changes":[2.2796756E2,5.106419E1,1.2158264E2,1.7092453E1,1.262262E1,4.8612625E1,2.7464417E1,0E0,0E0,0E0,0E0,0E0,0E0,0E0,0E0],"parents":[2147483647,0,0,1,1,2,2,3,3,4,4,5,5,6,6],"right_children":[2,4,6,8,10,12,14,-1,-1,-1,-1,-1,-1,-1,-1],"split_conditions":[-2.4E0,-1.4E0,1.4E1,-4.7E0,3.5E1,1E1,7E0,-6.562884E-4,2.6312897E-3,-2.126906E-3,-4.2810934E-3,2.4160035E-3,-3.3489725E-4,5.7982546E-3,3.4029242E-3],"split_indices":[25,77,80,25,2,51,51,0,0,0,0,0,0,0,0],"split_type":[0,0,0,0,0,0,0,0,0,0,0,0,0,0,0],"sum_hessian":[6.7921133E3,1.8852064E3,4.9069067E3,6.7912134E2,1.2060851E3,2.578955E3,2.3279517E3,4.303759E2,2.4874548E2,7.877168E2,4.183683E2,1.2055594E3,1.3733955E3,6.791616E2,1.64879E3],"tree_param":{"num_deleted":"0","num_feature":"106","num_nodes":"15","size_leaf_vector":"1"}},{"base_weights":[-1.2993498E-1,1.0812708E-1,-2.6833975E-1,-4.044925E-2,2.7499565E-1,-4.9437734E-1,-1.604766E-1,1.3928361E-3,-1.9166819E-3,1.4586289E-3,3.6869876E-3,-3.9489553E-3,-5.9247552E-3,-3.2197752E-3,-5.0415134E-4],"categories":[],"categories_nodes":[],"categories_segments":[],"categories_sizes":[],"default_left":[0,0,0,0,0,0,0,0,0,0,0,0,0,0,0],"id":26,"left_children":[1,3,5,7,9,11,13,-1,-1,-1,-1,-1,-1,-1,-1],"loss_changes":[2.2380705E2,6.1933647E1,1.0463898E2,3.595988E1,1.4182236E1,1.3301636E1,5.169243E1,0E0,0E0,0E0,0E0,0E0,0E0,0E0,0E0],"parents":[2147483647,0,0,1,1,2,2,3,3,4,4,5,5,6,6],"right_children":[2,4,6,8,10,12,14,-1,-1,-1,-1,-1,-1,-1,-1],"split_conditions":[4.59E-1,5.19E-1,-1.4E0,-4.9E0,2.4E1,2.3E1,8E0,1.3928361E-3,-1.9166819E-3,1.4586289E-3,3.6869876E-3,-3.9489553E-3,-5.9247552E-3,-3.2197752E-3,-5.0415134E-4],"split_indices":[3,55,77,25,51,1,51,0,0,0,0,0,0,0,0],"split_type":[0,0,0,0,0,0,0,0,0,0,0,0,0,0,0],"sum_hessian":[6.790664E3,2.4966094E3,4.2940547E3,1.321093E3,1.1755164E3,1.3859921E3,2.9080625E3,6.0367163E2,7.174213E2,4.95383E2,6.801333E2,6.906383E2,6.953538E2,1.1778276E3,1.7302349E3],"tree_param":{"num_deleted":"0","num_feature":"106","num_nodes":"15","size_leaf_vector":"1"}},{"base_weights":[1.2993497E-1,-1.0812707E-1,2.6833972E-1,4.0449254E-2,-2.7499563E-1,4.9437734E-1,1.6047655E-1,-1.3928358E-3,1.9166818E-3,-1.4586289E-3,-3.6869873E-3,3.948956E-3,5.9247552E-3,3.2197742E-3,5.0415116E-4],"categories":[],"categories_nodes":[],"categories_segments":[],"categories_sizes":[],"default_left":[0,0,0,0,0,0,0,0,0,0,0,0,0,0,0],"id":27,"left_children":[1,3,5,7,9,11,13,-1,-1,-1,-1,-1,-1,-1,-1],"loss_changes":[2.23807E2,6.1933643E1,1.0463901E2,3.595987E1,1.4182236E1,1.3301666E1,5.1692398E1,0E0,0E0,0E0,0E0,0E0,0E0,0E0,0E0],"parents":[2147483647,0,0,1,1,2,2,3,3,4,4,5,5,6,6],"right_children":[2,4,6,8,10,12,14,-1,-1,-1,-1,-1,-1,-1,-1],"split_conditions":[4.59E-1,5.19E-1,-1.4E0,-4.9E0,2.4E1,2.3E1,8E0,-1.3928358E-3,1.9166818E-3,-1.4586289E-3,-3.6869873E-3,3.948956E-3,5.9247552E-3,3.2197742E-3,5.0415116E-4],"split_indices":[3,55,77,25,51,1,51,0,0,0,0,0,0,0,0],"split_type":[0,0,0,0,0,0,0,0,0,0,0,0,0,0,0],"sum_hessian":[6.790664E3,2.4966094E3,4.2940547E3,1.321093E3,1.1755164E3,1.3859921E3,2.9080625E3,6.0367163E2,7.174213E2,4.95383E2,6.8013336E2,6.906383E2,6.953538E2,1.1778276E3,1.7302349E3],"tree_param":{"num_deleted":"0","num_feature":"106","num_nodes":"15","size_leaf_vector":"1"}},{"base_weights":[-1.286686E-1,1.300266E-1,-2.5371763E-1,-9.2950754E-2,2.5270474E-1,-1.5585828E-1,-4.9307567E-1,5.9878075E-4,-2.6913215E-3,2.7599672E-4,3.1100388E-3,-3.165036E-3,-5.486063E-4,-3.929314E-3,-5.7626734E-3],"categories":[],"categories_nodes":[],"categories_segments":[],"categories_sizes":[],"default_left":[0,0,0,0,0,0,0,0,0,0,0,0,0,0,0],"id":28,"left_children":[1,3,5,7,9,11,13,-1,-1,-1,-1,-1,-1,-1,-1],"loss_changes":[2.19687E2,6.0566875E1,1.0714902E2,2.1186651E1,1.8732094E1,5.272529E1,1.0837158E1,0E0,0E0,0E0,0E0,0E0,0E0,0E0,0E0],"parents":[2147483647,0,0,1,1,2,2,3,3,4,4,5,5,6,6],"right_children":[2,4,6,8,10,12,14,-1,-1,-1,-1,-1,-1,-1,-1],"split_conditions":[-1.6E0,-1.5E0,2E1,-4.7E0,2E1,8E0,1.8E0,5.9878075E-4,-2.6913215E-3,2.7599672E-4,3.1100388E-3,-3.165036E-3,-5.486063E-4,-3.929314E-3,-5.7626734E-3],"split_indices":[25,77,80,25,28,51,25,0,0,0,0,0,0,0,0],"split_type":[0,0,0,0,0,0,0,0,0,0,0,0,0,0,0],"sum_hessian":[6.7890117E3,2.212292E3,4.5767197E3,7.8526056E2,1.4270314E3,3.2497432E3,1.3269766E3,4.2085202E2,3.6440854E2,2.938581E2,1.1331733E3,1.2536201E3,1.996123E3,6.0473444E2,7.222422E2],"tree_param":{"num_deleted":"0","num_feature":"106","num_nodes":"15","size_leaf_vector":"1"}},{"base_weights":[1.2866864E-1,-1.3002658E-1,2.5371766E-1,9.295077E-2,-2.5270474E-1,1.5585831E-1,4.930757E-1,-5.987808E-4,2.691322E-3,-2.759965E-4,-3.1100393E-3,3.165037E-3,5.4860633E-4,3.9293147E-3,5.762674E-3],"categories":[],"categories_nodes":[],"categories_segments":[],"categories_sizes":[],"default_left":[0,0,0,0,0,0,0,0,0,0,0,0,0,0,0],"id":29,"left_children":[1,3,5,7,9,11,13,-1,-1,-1,-1,-1,-1,-1,-1],"loss_changes":[2.1968704E2,6.056687E1,1.0714902E2,2.1186659E1,1.8732101E1,5.272534E1,1.0837189E1,0E0,0E0,0E0,0E0,0E0,0E0,0E0,0E0],"parents":[2147483647,0,0,1,1,2,2,3,3,4,4,5,5,6,6],"right_children":[2,4,6,8,10,12,14,-1,-1,-1,-1,-1,-1,-1,-1],"split_conditions":[-1.6E0,-1.5E0,2E1,-4.7E0,2E1,8E0,1.8E0,-5.987808E-4,2.691322E-3,-2.759965E-4,-3.1100393E-3,3.165037E-3,5.4860633E-4,3.9293147E-3,5.762674E-3],"split_indices":[25,77,80,25,28,51,25,0,0,0,0,0,0,0,0],"split_type":[0,0,0,0,0,0,0,0,0,0,0,0,0,0,0],"sum_hessian":[6.7890117E3,2.212292E3,4.5767197E3,7.8526056E2,1.4270314E3,3.2497432E3,1.3269766E3,4.20852E2,3.6440854E2,2.938581E2,1.1331732E3,1.2536201E3,1.996123E3,6.0473444E2,7.222422E2],"tree_param":{"num_deleted":"0","num_feature":"106","num_nodes":"15","size_leaf_vector":"1"}},{"base_weights":[-1.2741522E-1,-2.439897E-1,1.4505295E-1,-9.928158E-2,-4.0825486E-1,-1.4050756E-1,2.3548563E-1,-2.338085E-3,2.3188669E-4,-3.0381235E-3,-5.1796464E-3,7.6481886E-4,-2.7754009E-3,3.6678177E-3,1.482885E-3],"categories":[],"categories_nodes":[],"categories_segments":[],"categories_sizes":[],"default_left":[0,0,0,0,0,0,0,0,0,0,0,0,0,0,0],"id":30,"left_children":[1,3,5,7,9,11,13,-1,-1,-1,-1,-1,-1,-1,-1],"loss_changes":[2.1565277E2,1.1297952E2,5.2577686E1,4.1673973E1,2.5354858E1,1.4591502E1,1.7641891E1,0E0,0E0,0E0,0E0,0E0,0E0,0E0,0E0],"parents":[2147483647,0,0,1,1,2,2,3,3,4,4,5,5,6,6],"right_children":[2,4,6,8,10,12,14,-1,-1,-1,-1,-1,-1,-1,-1],"split_conditions":[2E1,1.4E1,-3.2E0,1E1,2.2E1,-6.2E0,-6.2E0,-2.338085E-3,2.3188669E-4,-3.0381235E-3,-5.1796464E-3,7.6481886E-4,-2.7754009E-3,3.6678177E-3,1.482885E-3],"split_indices":[28,80,77,51,80,25,25,0,0,0,0,0,0,0,0],"split_type":[0,0,0,0,0,0,0,0,0,0,0,0,0,0,0],"sum_hessian":[6.7873535E3,4.753634E3,2.0337197E3,2.5281147E3,2.225519E3,4.8901056E2,1.5447092E3,1.2043225E3,1.3237921E3,1.1420599E3,1.0834592E3,1.8945407E2,2.995565E2,6.1518884E2,9.295204E2],"tree_param":{"num_deleted":"0","num_feature":"106","num_nodes":"15","size_leaf_vector":"1"}},{"base_weights":[1.2741522E-1,2.439897E-1,-1.4505298E-1,9.9281594E-2,4.0825486E-1,1.4050756E-1,-2.3548567E-1,2.3380842E-3,-2.3188574E-4,3.0381235E-3,5.179646E-3,-7.6481886E-4,2.7754009E-3,-3.6678181E-3,-1.4828853E-3],"categories":[],"categories_nodes":[],"categories_segments":[],"categories_sizes":[],"default_left":[0,0,0,0,0,0,0,0,0,0,0,0,0,0,0],"id":31,"left_children":[1,3,5,7,9,11,13,-1,-1,-1,-1,-1,-1,-1,-1],"loss_changes":[2.156528E2,1.1297949E2,5.257771E1,4.1673916E1,2.5354889E1,1.4591501E1,1.7641891E1,0E0,0E0,0E0,0E0,0E0,0E0,0E0,0E0],"parents":[2147483647,0,0,1,1,2,2,3,3,4,4,5,5,6,6],"right_children":[2,4,6,8,10,12,14,-1,-1,-1,-1,-1,-1,-1,-1],"split_conditions":[2E1,1.4E1,-3.2E0,1E1,2.2E1,-6.2E0,-6.2E0,2.3380842E-3,-2.3188574E-4,3.0381235E-3,5.179646E-3,-7.6481886E-4,2.7754009E-3,-3.6678181E-3,-1.4828853E-3],"split_indices":[28,80,77,51,80,25,25,0,0,0,0,0,0,0,0],"split_type":[0,0,0,0,0,0,0,0,0,0,0,0,0,0,0],"sum_hessian":[6.7873535E3,4.753634E3,2.0337197E3,2.5281147E3,2.225519E3,4.8901056E2,1.5447091E3,1.2043226E3,1.3237921E3,1.1420599E3,1.0834592E3,1.8945407E2,2.995565E2,6.151888E2,9.295203E2],"tree_param":{"num_deleted":"0","num_feature":"106","num_nodes":"15","size_leaf_vector":"1"}},{"base_weights":[-1.2617452E-1,1.2784877E-1,-2.4899638E-1,-9.121285E-2,2.4838637E-1,-1.5289246E-1,-4.8431504E-1,5.872711E-4,-2.641296E-3,2.7734664E-4,3.055562E-3,-3.1100968E-3,-5.353384E-4,-4.192775E-3,-6.1074495E-3],"categories":[],"categories_nodes":[],"categories_segments":[],"categories_sizes":[],"default_left":[0,0,0,0,0,0,0,0,0,0,0,0,0,0,0],"id":32,"left_children":[1,3,5,7,9,11,13,-1,-1,-1,-1,-1,-1,-1,-1],"loss_changes":[2.1177206E2,5.844587E1,1.03391205E2,2.0395844E1,1.7998978E1,5.1039886E1,1.0648743E1,0E0,0E0,0E0,0E0,0E0,0E0,0E0,0E0],"parents":[2147483647,0,0,1,1,2,2,3,3,4,4,5,5,6,6],"right_children":[2,4,6,8,10,12,14,-1,-1,-1,-1,-1,-1,-1,-1],"split_conditions":[-1.6E0,-1.5E0,2E1,-4.7E0,2E1,8E0,3.9E0,5.872711E-4,-2.641296E-3,2.7734664E-4,3.055562E-3,-3.1100968E-3,-5.353384E-4,-4.192775E-3,-6.1074495E-3],"split_indices":[25,77,80,25,28,51,25,0,0,0,0,0,0,0,0],"split_type":[0,0,0,0,0,0,0,0,0,0,0,0,0,0,0],"sum_hessian":[6.7856304E3,2.211568E3,4.5740625E3,7.850619E2,1.4265061E3,3.2488748E3,1.3251877E3,4.2081995E2,3.6424194E2,2.9385062E2,1.1326555E3,1.2529022E3,1.9959725E3,8.778992E2,4.4728854E2],"tree_param":{"num_deleted":"0","num_feature":"106","num_nodes":"15","size_leaf_vector":"1"}},{"base_weights":[1.2617455E-1,-1.2784877E-1,2.4899642E-1,9.121287E-2,-2.4838638E-1,1.5289252E-1,4.8431504E-1,-5.872712E-4,2.6412962E-3,-2.7734664E-4,-3.0555623E-3,3.1100968E-3,5.353392E-4,4.1927756E-3,6.1074495E-3],"categories":[],"categories_nodes":[],"categories_segments":[],"categories_sizes":[],"default_left":[0,0,0,0,0,0,0,0,0,0,0,0,0,0,0],"id":33,"left_children":[1,3,5,7,9,11,13,-1,-1,-1,-1,-1,-1,-1,-1],"loss_changes":[2.117721E2,5.8445885E1,1.03391174E2,2.039585E1,1.799897E1,5.1039856E1,1.0648743E1,0E0,0E0,0E0,0E0,0E0,0E0,0E0,0E0],"parents":[2147483647,0,0,1,1,2,2,3,3,4,4,5,5,6,6],"right_children":[2,4,6,8,10,12,14,-1,-1,-1,-1,-1,-1,-1,-1],"split_conditions":[-1.6E0,-1.5E0,2E1,-4.7E0,2E1,8E0,3.9E0,-5.872712E-4,2.6412962E-3,-2.7734664E-4,-3.0555623E-3,3.1100968E-3,5.353392E-4,4.1927756E-3,6.1074495E-3],"split_indices":[25,77,80,25,28,51,25,0,0,0,0,0,0,0,0],"split_type":[0,0,0,0,0,0,0,0,0,0,0,0,0,0,0],"sum_hessian":[6.7856304E3,2.211568E3,4.5740625E3,7.850619E2,1.4265061E3,3.2488748E3,1.3251877E3,4.2081995E2,3.6424194E2,2.9385065E2,1.1326555E3,1.2529022E3,1.9959725E3,8.778992E2,4.4728854E2],"tree_param":{"num_deleted":"0","num_feature":"106","num_nodes":"15","size_leaf_vector":"1"}},{"base_weights":[-1.2494901E-1,-3.0352134E-1,4.6750423E-2,-1.6851859E-1,-4.585238E-1,-1.9132915E-1,1.5605186E-1,-2.432005E-3,2.5858264E-4,-3.6418913E-3,-5.9005115E-3,3.935997E-4,-3.2180743E-3,4.2705468E-4,3.045934E-3],"categories":[],"categories_nodes":[],"categories_segments":[],"categories_sizes":[],"default_left":[0,0,0,0,0,0,0,0,0,0,0,0,0,0,0],"id":34,"left_children":[1,3,5,7,9,11,13,-1,-1,-1,-1,-1,-1,-1,-1],"loss_changes":[2.0804097E2,6.952103E1,9.006293E1,2.5834621E1,1.8988495E1,3.2793392E1,3.9919514E1,0E0,0E0,0E0,0E0,0E0,0E0,0E0,0E0],"parents":[2147483647,0,0,1,1,2,2,3,3,4,4,5,5,6,6],"right_children":[2,4,6,8,10,12,14,-1,-1,-1,-1,-1,-1,-1,-1],"split_conditions":[1.5E1,1.4E1,-1.9E0,6E0,2.3E1,-4.6E0,2.4E1,-2.432005E-3,2.5858264E-4,-3.6418913E-3,-5.9005115E-3,3.935997E-4,-3.2180743E-3,4.2705468E-4,3.045934E-3],"split_indices":[51,80,77,77,80,25,51,0,0,0,0,0,0,0,0],"split_type":[0,0,0,0,0,0,0,0,0,0,0,0,0,0,0],"sum_hessian":[6.783787E3,3.324963E3,3.4588245E3,1.7782473E3,1.5467155E3,1.0880631E3,2.3707612E3,1.2844825E3,4.937648E2,9.029013E2,6.438142E2,3.9333487E2,6.947282E2,1.3454143E3,1.0253469E3],"tree_param":{"num_deleted":"0","num_feature":"106","num_nodes":"15","size_leaf_vector":"1"}},{"base_weights":[1.2494901E-1,3.0352134E-1,-4.6750426E-2,1.685186E-1,4.585238E-1,1.9132915E-1,-1.5605187E-1,2.4320052E-3,-2.5858262E-4,3.641891E-3,5.9005115E-3,-3.9360014E-4,3.2180746E-3,-4.2705477E-4,-3.045934E-3],"categories":[],"categories_nodes":[],"categories_segments":[],"categories_sizes":[],"default_left":[0,0,0,0,0,0,0,0,0,0,0,0,0,0,0],"id":35,"left_children":[1,3,5,7,9,11,13,-1,-1,-1,-1,-1,-1,-1,-1],"loss_changes":[2.0804097E2,6.952103E1,9.0062935E1,2.5834625E1,1.8988525E1,3.27934E1,3.9919506E1,0E0,0E0,0E0,0E0,0E0,0E0,0E0,0E0],"parents":[2147483647,0,0,1,1,2,2,3,3,4,4,5,5,6,6],"right_children":[2,4,6,8,10,12,14,-1,-1,-1,-1,-1,-1,-1,-1],"split_conditions":[1.5E1,1.4E1,-1.9E0,6E0,2.3E1,-4.6E0,2.4E1,2.4320052E-3,-2.5858262E-4,3.641891E-3,5.9005115E-3,-3.9360014E-4,3.2180746E-3,-4.2705477E-4,-3.045934E-3],"split_indices":[51,80,77,77,80,25,51,0,0,0,0,0,0,0,0],"split_type":[0,0,0,0,0,0,0,0,0,0,0,0,0,0,0],"sum_hessian":[6.783787E3,3.324963E3,3.4588245E3,1.7782474E3,1.5467156E3,1.0880631E3,2.3707612E3,1.2844825E3,4.937648E2,9.029013E2,6.438142E2,3.9333487E2,6.947282E2,1.3454143E3,1.0253469E3],"tree_param":{"num_deleted":"0","num_feature":"106","num_nodes":"15","size_leaf_vector":"1"}},{"base_weights":[-1.2373589E-1,1.0382265E-1,-2.5613642E-1,-3.9463226E-2,2.6480624E-1,-3.6144587E-1,-3.890304E-2,1.3212963E-3,-1.8387405E-3,1.414809E-3,3.5441492E-3,-4.884859E-3,-2.6344466E-3,-1.6810934E-3,7.6797814E-4],"categories":[],"categories_nodes":[],"categories_segments":[],"categories_sizes":[],"default_left":[0,0,0,0,0,0,0,0,0,0,0,0,0,0,0],"id":36,"left_children":[1,3,5,7,9,11,13,-1,-1,-1,-1,-1,-1,-1,-1],"loss_changes":[2.0438788E2,5.7575813E1,9.8088196E1,3.2764748E1,1.2938736E1,3.582785E1,2.0960436E1,0E0,0E0,0E0,0E0,0E0,0E0,0E0,0E0],"parents":[2147483647,0,0,1,1,2,2,3,3,4,4,5,5,6,6],"right_children":[2,4,6,8,10,12,14,-1,-1,-1,-1,-1,-1,-1,-1],"split_conditions":[4.59E-1,5.19E-1,2.9E0,-4.9E0,2.4E1,-1.9E0,9E0,1.3212963E-3,-1.8387405E-3,1.414809E-3,3.5441492E-3,-4.884859E-3,-2.6344466E-3,-1.6810934E-3,7.6797814E-4],"split_indices":[3,55,77,25,51,77,51,0,0,0,0,0,0,0,0],"split_type":[0,0,0,0,0,0,0,0,0,0,0,0,0,0,0],"sum_hessian":[6.781906E3,2.4946074E3,4.287299E3,1.320252E3,1.1743553E3,2.8870588E3,1.4002399E3,6.033821E2,7.168699E2,4.952874E2,6.7906793E2,1.2555247E3,1.6315342E3,6.6129767E2,7.3894214E2],"tree_param":{"num_deleted":"0","num_feature":"106","num_nodes":"15","size_leaf_vector":"1"}},{"base_weights":[1.2373589E-1,-1.0382264E-1,2.5613642E-1,3.946322E-2,-2.648062E-1,3.6144587E-1,3.8903035E-2,-1.3212963E-3,1.8387405E-3,-1.4148089E-3,-3.544149E-3,4.884859E-3,2.6344464E-3,1.6810929E-3,-7.679779E-4],"categories":[],"categories_nodes":[],"categories_segments":[],"categories_sizes":[],"default_left":[0,0,0,0,0,0,0,0,0,0,0,0,0,0,0],"id":37,"left_children":[1,3,5,7,9,11,13,-1,-1,-1,-1,-1,-1,-1,-1],"loss_changes":[2.0438788E2,5.7575798E1,9.8088196E1,3.2764744E1,1.2938736E1,3.582785E1,2.0960426E1,0E0,0E0,0E0,0E0,0E0,0E0,0E0,0E0],"parents":[2147483647,0,0,1,1,2,2,3,3,4,4,5,5,6,6],"right_children":[2,4,6,8,10,12,14,-1,-1,-1,-1,-1,-1,-1,-1],"split_conditions":[4.59E-1,5.19E-1,2.9E0,-4.9E0,2.4E1,-1.9E0,9E0,-1.3212963E-3,1.8387405E-3,-1.4148089E-3,-3.544149E-3,4.884859E-3,2.6344464E-3,1.6810929E-3,-7.679779E-4],"split_indices":[3,55,77,25,51,77,51,0,0,0,0,0,0,0,0],"split_type":[0,0,0,0,0,0,0,0,0,0,0,0,0,0,0],"sum_hessian":[6.781906E3,2.4946072E3,4.287299E3,1.320252E3,1.1743553E3,2.8870588E3,1.4002399E3,6.033821E2,7.168699E2,4.952874E2,6.7906793E2,1.2555247E3,1.6315342E3,6.612977E2,7.3894214E2],"tree_param":{"num_deleted":"0","num_feature":"106","num_nodes":"15","size_leaf_vector":"1"}},{"base_weights":[-1.2253564E-1,-2.9812607E-1,4.6231613E-2,-1.654052E-1,-4.5067647E-1,-2.0739381E-1,1.4563942E-1,-2.3906832E-3,2.62712E-4,-3.5756426E-3,-5.806442E-3,2.6932827E-4,-3.5110323E-3,3.851055E-4,2.8541216E-3],"categories":[],"categories_nodes":[],"categories_segments":[],"categories_sizes":[],"default_left":[0,0,0,0,0,0,0,0,0,0,0,0,0,0,0],"id":38,"left_children":[1,3,5,7,9,11,13,-1,-1,-1,-1,-1,-1,-1,-1],"loss_changes":[2.0095863E2,6.721323E1,8.722708E1,2.5121887E1,1.8496796E1,3.2817726E1,3.7202168E1,0E0,0E0,0E0,0E0,0E0,0E0,0E0,0E0],"parents":[2147483647,0,0,1,1,2,2,3,3,4,4,5,5,6,6],"right_children":[2,4,6,8,10,12,14,-1,-1,-1,-1,-1,-1,-1,-1],"split_conditions":[1.5E1,1.4E1,-2.4E0,6E0,2.3E1,-4.3E0,2.4E1,-2.3906832E-3,2.62712E-4,-3.5756426E-3,-5.806442E-3,2.6932827E-4,-3.5110323E-3,3.851055E-4,2.8541216E-3],"split_indices":[51,80,77,77,80,25,51,0,0,0,0,0,0,0,0],"split_type":[0,0,0,0,0,0,0,0,0,0,0,0,0,0,0],"sum_hessian":[6.779907E3,3.3224084E3,3.4574988E3,1.7777909E3,1.5446176E3,9.7326355E2,2.484235E3,1.284065E3,4.93726E2,9.0208905E2,6.425285E2,3.702925E2,6.0297107E2,1.4070651E3,1.07717E3],"tree_param":{"num_deleted":"0","num_feature":"106","num_nodes":"15","size_leaf_vector":"1"}},{"base_weights":[1.2253562E-1,2.9812607E-1,-4.623163E-2,1.654052E-1,4.5067644E-1,2.073938E-1,-1.4563943E-1,2.3906832E-3,-2.6271192E-4,3.5756424E-3,5.806442E-3,-2.693287E-4,3.5110323E-3,-3.8510564E-4,-2.8541218E-3],"categories":[],"categories_nodes":[],"categories_segments":[],"categories_sizes":[],"default_left":[0,0,0,0,0,0,0,0,0,0,0,0,0,0,0],"id":39,"left_children":[1,3,5,7,9,11,13,-1,-1,-1,-1,-1,-1,-1,-1],"loss_changes":[2.0095862E2,6.721323E1,8.722707E1,2.5121883E1,1.8496796E1,3.2817734E1,3.720216E1,0E0,0E0,0E0,0E0,0E0,0E0,0E0,0E0],"parents":[2147483647,0,0,1,1,2,2,3,3,4,4,5,5,6,6],"right_children":[2,4,6,8,10,12,14,-1,-1,-1,-1,-1,-1,-1,-1],"split_conditions":[1.5E1,1.4E1,-2.4E0,6E0,2.3E1,-4.3E0,2.4E1,2.3906832E-3,-2.6271192E-4,3.5756424E-3,5.806442E-3,-2.693287E-4,3.5110323E-3,-3.8510564E-4,-2.8541218E-3],"split_indices":[51,80,77,77,80,25,51,0,0,0,0,0,0,0,0],"split_type":[0,0,0,0,0,0,0,0,0,0,0,0,0,0,0],"sum_hessian":[6.779907E3,3.3224084E3,3.4574988E3,1.777791E3,1.5446176E3,9.7326355E2,2.484235E3,1.284065E3,4.93726E2,9.0208905E2,6.425285E2,3.702925E2,6.0297107E2,1.4070651E3,1.07717E3],"tree_param":{"num_deleted":"0","num_feature":"106","num_nodes":"15","size_leaf_vector":"1"}},{"base_weights":[-1.21348895E-1,-2.329275E-1,1.3927689E-1,-9.393101E-2,-3.910723E-1,-1.348072E-1,2.2609842E-1,-2.2384801E-3,2.423724E-4,-2.9081472E-3,-4.9664867E-3,7.3142594E-4,-2.6626599E-3,3.5300623E-3,1.4189206E-3],"categories":[],"categories_nodes":[],"categories_segments":[],"categories_sizes":[],"default_left":[0,0,0,0,0,0,0,0,0,0,0,0,0,0,0],"id":40,"left_children":[1,3,5,7,9,11,13,-1,-1,-1,-1,-1,-1,-1,-1],"loss_changes":[1.9716376E2,1.043118E2,4.8403343E1,3.8812637E1,2.3356781E1,1.3404785E1,1.645124E1,0E0,0E0,0E0,0E0,0E0,0E0,0E0,0E0],"parents":[2147483647,0,0,1,1,2,2,3,3,4,4,5,5,6,6],"right_children":[2,4,6,8,10,12,14,-1,-1,-1,-1,-1,-1,-1,-1],"split_conditions":[2E1,1.4E1,-3.2E0,1E1,2.2E1,-6.2E0,-6.2E0,-2.2384801E-3,2.423724E-4,-2.9081472E-3,-4.9664867E-3,7.3142594E-4,-2.6626599E-3,3.5300623E-3,1.4189206E-3],"split_indices":[28,80,77,51,80,25,25,0,0,0,0,0,0,0,0],"split_type":[0,0,0,0,0,0,0,0,0,0,0,0,0,0,0],"sum_hessian":[6.7778706E3,4.74609E3,2.0317806E3,2.5268167E3,2.2192734E3,4.886439E2,1.5431367E3,1.2031501E3,1.3236665E3,1.1402356E3,1.0790378E3,1.89432E2,2.9921188E2,6.1423224E2,9.289045E2],"tree_param":{"num_deleted":"0","num_feature":"106","num_nodes":"15","size_leaf_vector":"1"}},{"base_weights":[1.2134891E-1,2.3292753E-1,-1.3927689E-1,9.393105E-2,3.9107233E-1,1.3480723E-1,-2.2609843E-1,2.2384806E-3,-2.4237225E-4,2.9081474E-3,4.9664867E-3,-7.3142594E-4,2.6626603E-3,-3.5300627E-3,-1.4189206E-3],"categories":[],"categories_nodes":[],"categories_segments":[],"categories_sizes":[],"default_left":[0,0,0,0,0,0,0,0,0,0,0,0,0,0,0],"id":41,"left_children":[1,3,5,7,9,11,13,-1,-1,-1,-1,-1,-1,-1,-1],"loss_changes":[1.9716379E2,1.0431177E2,4.840336E1,3.8812645E1,2.3356781E1,1.3404794E1,1.6451256E1,0E0,0E0,0E0,0E0,0E0,0E0,0E0,0E0],"parents":[2147483647,0,0,1,1,2,2,3,3,4,4,5,5,6,6],"right_children":[2,4,6,8,10,12,14,-1,-1,-1,-1,-1,-1,-1,-1],"split_conditions":[2E1,1.4E1,-3.2E0,1E1,2.2E1,-6.2E0,-6.2E0,2.2384806E-3,-2.4237225E-4,2.9081474E-3,4.9664867E-3,-7.3142594E-4,2.6626603E-3,-3.5300627E-3,-1.4189206E-3],"split_indices":[28,80,77,51,80,25,25,0,0,0,0,0,0,0,0],"split_type":[0,0,0,0,0,0,0,0,0,0,0,0,0,0,0],"sum_hessian":[6.7778706E3,4.74609E3,2.0317806E3,2.5268167E3,2.2192734E3,4.886439E2,1.5431367E3,1.2031501E3,1.3236665E3,1.1402356E3,1.0790378E3,1.89432E2,2.9921188E2,6.1423224E2,9.289045E2],"tree_param":{"num_deleted":"0","num_feature":"106","num_nodes":"15","size_leaf_vector":"1"}},{"base_weights":[-1.2017472E-1,-2.9285115E-1,4.5719475E-2,-1.6237599E-1,-4.4299975E-1,-1.8435118E-1,1.5127958E-1,-2.3532228E-3,2.739067E-4,-3.5125806E-3,-5.712232E-3,3.7202574E-4,-3.0986464E-3,4.232103E-4,2.9422836E-3],"categories":[],"categories_nodes":[],"categories_segments":[],"categories_sizes":[],"default_left":[0,0,0,0,0,0,0,0,0,0,0,0,0,0,0],"id":42,"left_children":[1,3,5,7,9,11,13,-1,-1,-1,-1,-1,-1,-1,-1],"loss_changes":[1.9413988E2,6.498135E1,8.398822E1,2.4622921E1,1.7954285E1,3.0259796E1,3.6906963E1,0E0,0E0,0E0,0E0,0E0,0E0,0E0,0E0],"parents":[2147483647,0,0,1,1,2,2,3,3,4,4,5,5,6,6],"right_children":[2,4,6,8,10,12,14,-1,-1,-1,-1,-1,-1,-1,-1],"split_conditions":[1.5E1,1.4E1,-1.9E0,6E0,2.3E1,-4.6E0,2.4E1,-2.3532228E-3,2.739067E-4,-3.5125806E-3,-5.712232E-3,3.7202574E-4,-3.0986464E-3,4.232103E-4,2.9422836E-3],"split_indices":[51,80,77,77,80,25,51,0,0,0,0,0,0,0,0],"split_type":[0,0,0,0,0,0,0,0,0,0,0,0,0,0,0],"sum_hessian":[6.775736E3,3.3196272E3,3.4561086E3,1.7772902E3,1.542337E3,1.086755E3,2.3693535E3,1.2836248E3,4.9366537E2,9.0124866E2,6.4108844E2,3.9326874E2,6.9348627E2,1.3452623E3,1.0240912E3],"tree_param":{"num_deleted":"0","num_feature":"106","num_nodes":"15","size_leaf_vector":"1"}},{"base_weights":[1.2017472E-1,2.9285115E-1,-4.5719475E-2,1.6237599E-1,4.4299972E-1,1.8435118E-1,-1.5127958E-1,2.3532228E-3,-2.7390698E-4,3.5125804E-3,5.712232E-3,-3.7202626E-4,3.0986464E-3,-4.2321027E-4,-2.9422836E-3],"categories":[],"categories_nodes":[],"categories_segments":[],"categories_sizes":[],"default_left":[0,0,0,0,0,0,0,0,0,0,0,0,0,0,0],"id":43,"left_children":[1,3,5,7,9,11,13,-1,-1,-1,-1,-1,-1,-1,-1],"loss_changes":[1.9413988E2,6.498135E1,8.398821E1,2.4622921E1,1.7954285E1,3.0259811E1,3.6906967E1,0E0,0E0,0E0,0E0,0E0,0E0,0E0,0E0],"parents":[2147483647,0,0,1,1,2,2,3,3,4,4,5,5,6,6],"right_children":[2,4,6,8,10,12,14,-1,-1,-1,-1,-1,-1,-1,-1],"split_conditions":[1.5E1,1.4E1,-1.9E0,6E0,2.3E1,-4.6E0,2.4E1,2.3532228E-3,-2.7390698E-4,3.5125804E-3,5.712232E-3,-3.7202626E-4,3.0986464E-3,-4.2321027E-4,-2.9422836E-3],"split_indices":[51,80,77,77,80,25,51,0,0,0,0,0,0,0,0],"split_type":[0,0,0,0,0,0,0,0,0,0,0,0,0,0,0],"sum_hessian":[6.775736E3,3.3196272E3,3.4561084E3,1.7772902E3,1.542337E3,1.086755E3,2.3693535E3,1.2836248E3,4.936654E2,9.012486E2,6.410884E2,3.9326874E2,6.9348627E2,1.3452623E3,1.0240912E3],"tree_param":{"num_deleted":"0","num_feature":"106","num_nodes":"15","size_leaf_vector":"1"}},{"base_weights":[-1.1901398E-1,-2.900612E-1,4.527142E-2,-1.6077554E-1,-4.3894526E-1,-2.0146571E-1,1.4192894E-1,-2.3301682E-3,2.7116854E-4,-3.479309E-3,-5.662499E-3,2.6633075E-4,-3.4155531E-3,3.7978837E-4,2.7766933E-3],"categories":[],"categories_nodes":[],"categories_segments":[],"categories_sizes":[],"default_left":[0,0,0,0,0,0,0,0,0,0,0,0,0,0,0],"id":44,"left_children":[1,3,5,7,9,11,13,-1,-1,-1,-1,-1,-1,-1,-1],"loss_changes":[1.9038089E2,6.38172E1,8.2460915E1,2.4140793E1,1.7669952E1,3.1110706E1,3.504083E1,0E0,0E0,0E0,0E0,0E0,0E0,0E0,0E0],"parents":[2147483647,0,0,1,1,2,2,3,3,4,4,5,5,6,6],"right_children":[2,4,6,8,10,12,14,-1,-1,-1,-1,-1,-1,-1,-1],"split_conditions":[1.5E1,1.4E1,-2.4E0,6E0,2.3E1,-4.3E0,2.4E1,-2.3301682E-3,2.7116854E-4,-3.479309E-3,-5.662499E-3,2.6633075E-4,-3.4155531E-3,3.7978837E-4,2.7766933E-3],"split_indices":[51,80,77,77,80,25,51,0,0,0,0,0,0,0,0],"split_type":[0,0,0,0,0,0,0,0,0,0,0,0,0,0,0],"sum_hessian":[6.7735186E3,3.3180918E3,3.4554268E3,1.7770469E3,1.5410449E3,9.7231616E2,2.4831106E3,1.2833728E3,4.9367413E2,9.007802E2,6.402647E2,3.7025842E2,6.0205774E2,1.4069484E3,1.0761622E3],"tree_param":{"num_deleted":"0","num_feature":"106","num_nodes":"15","size_leaf_vector":"1"}},{"base_weights":[1.19013995E-1,2.900612E-1,-4.5271404E-2,1.6077557E-1,4.3894526E-1,2.0146573E-1,-1.4192893E-1,2.3301684E-3,-2.7116828E-4,3.479309E-3,5.662499E-3,-2.6633058E-4,3.4155536E-3,-3.7978837E-4,-2.776693E-3],"categories":[],"categories_nodes":[],"categories_segments":[],"categories_sizes":[],"default_left":[0,0,0,0,0,0,0,0,0,0,0,0,0,0,0],"id":45,"left_children":[1,3,5,7,9,11,13,-1,-1,-1,-1,-1,-1,-1,-1],"loss_changes":[1.9038092E2,6.381717E1,8.2460915E1,2.41408E1,1.7669983E1,3.1110706E1,3.5040817E1,0E0,0E0,0E0,0E0,0E0,0E0,0E0,0E0],"parents":[2147483647,0,0,1,1,2,2,3,3,4,4,5,5,6,6],"right_children":[2,4,6,8,10,12,14,-1,-1,-1,-1,-1,-1,-1,-1],"split_conditions":[1.5E1,1.4E1,-2.4E0,6E0,2.3E1,-4.3E0,2.4E1,2.3301684E-3,-2.7116828E-4,3.479309E-3,5.662499E-3,-2.6633058E-4,3.4155536E-3,-3.7978837E-4,-2.776693E-3],"split_indices":[51,80,77,77,80,25,51,0,0,0,0,0,0,0,0],"split_type":[0,0,0,0,0,0,0,0,0,0,0,0,0,0,0],"sum_hessian":[6.7735186E3,3.3180918E3,3.4554268E3,1.777047E3,1.5410449E3,9.7231616E2,2.4831106E3,1.2833728E3,4.9367413E2,9.0078015E2,6.402647E2,3.702584E2,6.0205774E2,1.4069484E3,1.0761622E3],"tree_param":{"num_deleted":"0","num_feature":"106","num_nodes":"15","size_leaf_vector":"1"}},{"base_weights":[-1.1786576E-1,9.987145E-2,-2.4466762E-1,-3.862377E-2,2.5552884E-1,-3.4651637E-1,-3.503823E-2,1.2510061E-3,-1.7646115E-3,1.1906088E-3,3.2861142E-3,-4.6846014E-3,-2.527571E-3,-1.6070306E-3,7.740137E-4],"categories":[],"categories_nodes":[],"categories_segments":[],"categories_sizes":[],"default_left":[0,0,0,0,0,0,0,0,0,0,0,0,0,0,0],"id":46,"left_children":[1,3,5,7,9,11,13,-1,-1,-1,-1,-1,-1,-1,-1],"loss_changes":[1.8700233E2,5.3756012E1,9.137045E1,2.9814516E1,1.1669289E1,3.2815063E1,1.9803171E1,0E0,0E0,0E0,0E0,0E0,0E0,0E0,0E0],"parents":[2147483647,0,0,1,1,2,2,3,3,4,4,5,5,6,6],"right_children":[2,4,6,8,10,12,14,-1,-1,-1,-1,-1,-1,-1,-1],"split_conditions":[4.59E-1,5.19E-1,2.9E0,-4.9E0,2.2E1,-1.9E0,9E0,1.2510061E-3,-1.7646115E-3,1.1906088E-3,3.2861142E-3,-4.6846014E-3,-2.527571E-3,-1.6070306E-3,7.740137E-4],"split_indices":[3,55,77,25,28,77,51,0,0,0,0,0,0,0,0],"split_type":[0,0,0,0,0,0,0,0,0,0,0,0,0,0,0],"sum_hessian":[6.7712344E3,2.492118E3,4.279116E3,1.3191575E3,1.1729606E3,2.879469E3,1.3996473E3,6.030006E2,7.161568E2,4.099972E2,7.629633E2,1.2498767E3,1.6295923E3,6.6075006E2,7.388973E2],"tree_param":{"num_deleted":"0","num_feature":"106","num_nodes":"15","size_leaf_vector":"1"}},{"base_weights":[1.1786579E-1,-9.9871434E-2,2.4466765E-1,3.862378E-2,-2.555288E-1,3.465164E-1,3.5038278E-2,-1.2510057E-3,1.7646112E-3,-1.1906088E-3,-3.2861137E-3,4.6846014E-3,2.5275713E-3,1.6070313E-3,-7.7401346E-4],"categories":[],"categories_nodes":[],"categories_segments":[],"categories_sizes":[],"default_left":[0,0,0,0,0,0,0,0,0,0,0,0,0,0,0],"id":47,"left_children":[1,3,5,7,9,11,13,-1,-1,-1,-1,-1,-1,-1,-1],"loss_changes":[1.8700238E2,5.375601E1,9.137039E1,2.9814503E1,1.1669289E1,3.2815033E1,1.980318E1,0E0,0E0,0E0,0E0,0E0,0E0,0E0,0E0],"parents":[2147483647,0,0,1,1,2,2,3,3,4,4,5,5,6,6],"right_children":[2,4,6,8,10,12,14,-1,-1,-1,-1,-1,-1,-1,-1],"split_conditions":[4.59E-1,5.19E-1,2.9E0,-4.9E0,2.2E1,-1.9E0,9E0,-1.2510057E-3,1.7646112E-3,-1.1906088E-3,-3.2861137E-3,4.6846014E-3,2.5275713E-3,1.6070313E-3,-7.7401346E-4],"split_indices":[3,55,77,25,28,77,51,0,0,0,0,0,0,0,0],"split_type":[0,0,0,0,0,0,0,0,0,0,0,0,0,0,0],"sum_hessian":[6.7712344E3,2.492118E3,4.279116E3,1.3191575E3,1.1729606E3,2.879469E3,1.3996473E3,6.030006E2,7.161568E2,4.0999722E2,7.629633E2,1.2498768E3,1.6295923E3,6.6075006E2,7.388973E2],"tree_param":{"num_deleted":"0","num_feature":"106","num_nodes":"15","size_leaf_vector":"1"}},{"base_weights":[-1.1672871E-1,-2.8495473E-1,4.476747E-2,-1.5782069E-1,-4.3155825E-1,-9.743088E-2,2.073669E-1,-2.2908545E-3,2.7471193E-4,-3.4165499E-3,-5.574831E-3,1.1255707E-3,-2.1167828E-3,1.0642144E-3,3.26126E-3],"categories":[],"categories_nodes":[],"categories_segments":[],"categories_sizes":[],"default_left":[0,0,0,0,0,0,0,0,0,0,0,0,0,0,0],"id":48,"left_children":[1,3,5,7,9,11,13,-1,-1,-1,-1,-1,-1,-1,-1],"loss_changes":[1.8393597E2,6.1736298E1,7.990211E1,2.3477722E1,1.723822E1,4.4256485E1,1.9291985E1,0E0,0E0,0E0,0E0,0E0,0E0,0E0,0E0],"parents":[2147483647,0,0,1,1,2,2,3,3,4,4,5,5,6,6],"right_children":[2,4,6,8,10,12,14,-1,-1,-1,-1,-1,-1,-1,-1],"split_conditions":[1.5E1,1.4E1,5.24E-1,6E0,2.3E1,-4.7E0,2.2E1,-2.2908545E-3,2.7471193E-4,-3.4165499E-3,-5.574831E-3,1.1255707E-3,-2.1167828E-3,1.0642144E-3,3.26126E-3],"split_indices":[51,80,55,77,80,25,28,0,0,0,0,0,0,0,0],"split_type":[0,0,0,0,0,0,0,0,0,0,0,0,0,0,0],"sum_hessian":[6.768883E3,3.3149885E3,3.4538945E3,1.776495E3,1.5384934E3,1.8427511E3,1.6111433E3,1.2828602E3,4.9363477E2,8.9980005E2,6.386934E2,6.493161E2,1.193435E3,8.719124E2,7.3923096E2],"tree_param":{"num_deleted":"0","num_feature":"106","num_nodes":"15","size_leaf_vector":"1"}},{"base_weights":[1.16728716E-1,2.8495473E-1,-4.476747E-2,1.578207E-1,4.3155825E-1,9.743087E-2,-2.073669E-1,2.2908545E-3,-2.747118E-4,3.4165499E-3,5.5748313E-3,-1.1255706E-3,2.1167828E-3,-1.0642143E-3,-3.26126E-3],"categories":[],"categories_nodes":[],"categories_segments":[],"categories_sizes":[],"default_left":[0,0,0,0,0,0,0,0,0,0,0,0,0,0,0],"id":49,"left_children":[1,3,5,7,9,11,13,-1,-1,-1,-1,-1,-1,-1,-1],"loss_changes":[1.8393599E2,6.1736267E1,7.99021E1,2.3477722E1,1.723822E1,4.4256477E1,1.9291985E1,0E0,0E0,0E0,0E0,0E0,0E0,0E0,0E0],"parents":[2147483647,0,0,1,1,2,2,3,3,4,4,5,5,6,6],"right_children":[2,4,6,8,10,12,14,-1,-1,-1,-1,-1,-1,-1,-1],"split_conditions":[1.5E1,1.4E1,5.24E-1,6E0,2.3E1,-4.7E0,2.2E1,2.2908545E-3,-2.747118E-4,3.4165499E-3,5.5748313E-3,-1.1255706E-3,2.1167828E-3,-1.0642143E-3,-3.26126E-3],"split_indices":[51,80,55,77,80,25,28,0,0,0,0,0,0,0,0],"split_type":[0,0,0,0,0,0,0,0,0,0,0,0,0,0,0],"sum_hessian":[6.768883E3,3.3149885E3,3.4538945E3,1.776495E3,1.5384934E3,1.8427511E3,1.6111434E3,1.2828602E3,4.9363477E2,8.9980005E2,6.386934E2,6.493161E2,1.193435E3,8.719124E2,7.3923096E2],"tree_param":{"num_deleted":"0","num_feature":"106","num_nodes":"15","size_leaf_vector":"1"}},{"base_weights":[-1.1560386E-1,-2.2247434E-1,1.3382976E-1,-1.3329384E-1,-4.504281E-1,-1.5431581E-1,2.1097328E-1,-2.9107388E-3,-4.1963195E-4,-3.917353E-3,-5.798506E-3,-2.566106E-3,8.3527167E-4,2.9929434E-3,8.257408E-4],"categories":[],"categories_nodes":[],"categories_segments":[],"categories_sizes":[],"default_left":[0,0,0,0,0,0,0,0,0,0,0,0,0,0,0],"id":50,"left_children":[1,3,5,7,9,11,13,-1,-1,-1,-1,-1,-1,-1,-1],"loss_changes":[1.8043146E2,9.62592E1,4.516718E1,4.9084194E1,9.890533E0,1.0468386E1,1.81436E1,0E0,0E0,0E0,0E0,0E0,0E0,0E0,0E0],"parents":[2147483647,0,0,1,1,2,2,3,3,4,4,5,5,6,6],"right_children":[2,4,6,8,10,12,14,-1,-1,-1,-1,-1,-1,-1,-1],"split_conditions":[2E1,2E1,3.6E-1,8E0,3.7E1,2.7E1,-4E0,-2.9107388E-3,-4.1963195E-4,-3.917353E-3,-5.798506E-3,-2.566106E-3,8.3527167E-4,2.9929434E-3,8.257408E-4],"split_indices":[28,80,55,51,54,28,25,0,0,0,0,0,0,0,0],"split_type":[0,0,0,0,0,0,0,0,0,0,0,0,0,0,0],"sum_hessian":[6.766494E3,4.7370156E3,2.0294785E3,3.406071E3,1.3309447E3,4.2838385E2,1.6010946E3,1.2479548E3,2.1581162E3,9.184548E2,4.124899E2,2.994943E2,1.2888956E2,9.478041E2,6.532905E2],"tree_param":{"num_deleted":"0","num_feature":"106","num_nodes":"15","size_leaf_vector":"1"}},{"base_weights":[1.15603864E-1,2.2247434E-1,-1.3382974E-1,1.3329384E-1,4.504281E-1,1.5431583E-1,-2.1097326E-1,2.910739E-3,4.1963192E-4,3.917353E-3,5.798506E-3,2.566106E-3,-8.352708E-4,-2.9929434E-3,-8.257408E-4],"categories":[],"categories_nodes":[],"categories_segments":[],"categories_sizes":[],"default_left":[0,0,0,0,0,0,0,0,0,0,0,0,0,0,0],"id":51,"left_children":[1,3,5,7,9,11,13,-1,-1,-1,-1,-1,-1,-1,-1],"loss_changes":[1.8043146E2,9.62592E1,4.5167187E1,4.9084206E1,9.890533E0,1.0468379E1,1.8143608E1,0E0,0E0,0E0,0E0,0E0,0E0,0E0,0E0],"parents":[2147483647,0,0,1,1,2,2,3,3,4,4,5,5,6,6],"right_children":[2,4,6,8,10,12,14,-1,-1,-1,-1,-1,-1,-1,-1],"split_conditions":[2E1,2E1,3.6E-1,8E0,3.7E1,2.7E1,-4E0,2.910739E-3,4.1963192E-4,3.917353E-3,5.798506E-3,2.566106E-3,-8.352708E-4,-2.9929434E-3,-8.257408E-4],"split_indices":[28,80,55,51,54,28,25,0,0,0,0,0,0,0,0],"split_type":[0,0,0,0,0,0,0,0,0,0,0,0,0,0,0],"sum_hessian":[6.766494E3,4.7370156E3,2.0294785E3,3.406071E3,1.3309447E3,4.2838385E2,1.6010946E3,1.2479548E3,2.1581162E3,9.1845483E2,4.124899E2,2.994943E2,1.2888956E2,9.478041E2,6.532906E2],"tree_param":{"num_deleted":"0","num_feature":"106","num_nodes":"15","size_leaf_vector":"1"}},{"base_weights":[-1.1449097E-1,-2.7992257E-1,4.4233084E-2,-1.5459657E-1,-4.246374E-1,-1.9545648E-1,1.380705E-1,-2.251885E-3,2.8888948E-4,-3.3611427E-3,-5.4882565E-3,2.4578872E-4,-3.308405E-3,3.7959163E-4,2.6894126E-3],"categories":[],"categories_nodes":[],"categories_segments":[],"categories_sizes":[],"default_left":[0,0,0,0,0,0,0,0,0,0,0,0,0,0,0],"id":52,"left_children":[1,3,5,7,9,11,13,-1,-1,-1,-1,-1,-1,-1,-1],"loss_changes":[1.7764944E2,6.001483E1,7.7700134E1,2.3021152E1,1.6710876E1,2.8963951E1,3.2512917E1,0E0,0E0,0E0,0E0,0E0,0E0,0E0,0E0],"parents":[2147483647,0,0,1,1,2,2,3,3,4,4,5,5,6,6],"right_children":[2,4,6,8,10,12,14,-1,-1,-1,-1,-1,-1,-1,-1],"split_conditions":[1.5E1,1.4E1,-2.4E0,6E0,2.3E1,-4.3E0,2.4E1,-2.251885E-3,2.8888948E-4,-3.3611427E-3,-5.4882565E-3,2.4578872E-4,-3.308405E-3,3.7959163E-4,2.6894126E-3],"split_indices":[51,80,77,77,80,25,51,0,0,0,0,0,0,0,0],"split_type":[0,0,0,0,0,0,0,0,0,0,0,0,0,0,0],"sum_hessian":[6.7640703E3,3.3116787E3,3.4523914E3,1.7758364E3,1.5358424E3,9.710215E2,2.4813699E3,1.2822805E3,4.935559E2,8.98842E2,6.370005E2,3.7018695E2,6.0083453E2,1.4066354E3,1.0747345E3],"tree_param":{"num_deleted":"0","num_feature":"106","num_nodes":"15","size_leaf_vector":"1"}},{"base_weights":[1.1449097E-1,2.7992257E-1,-4.423308E-2,1.5459658E-1,4.246374E-1,1.9545648E-1,-1.380705E-1,2.251885E-3,-2.8888916E-4,3.3611425E-3,5.4882565E-3,-2.457888E-4,3.3084052E-3,-3.7959163E-4,-2.6894126E-3],"categories":[],"categories_nodes":[],"categories_segments":[],"categories_sizes":[],"default_left":[0,0,0,0,0,0,0,0,0,0,0,0,0,0,0],"id":53,"left_children":[1,3,5,7,9,11,13,-1,-1,-1,-1,-1,-1,-1,-1],"loss_changes":[1.7764941E2,6.0014893E1,7.770014E1,2.3021145E1,1.6710876E1,2.8963955E1,3.2512917E1,0E0,0E0,0E0,0E0,0E0,0E0,0E0,0E0],"parents":[2147483647,0,0,1,1,2,2,3,3,4,4,5,5,6,6],"right_children":[2,4,6,8,10,12,14,-1,-1,-1,-1,-1,-1,-1,-1],"split_conditions":[1.5E1,1.4E1,-2.4E0,6E0,2.3E1,-4.3E0,2.4E1,2.251885E-3,-2.8888916E-4,3.3611425E-3,5.4882565E-3,-2.457888E-4,3.3084052E-3,-3.7959163E-4,-2.6894126E-3],"split_indices":[51,80,77,77,80,25,51,0,0,0,0,0,0,0,0],"split_type":[0,0,0,0,0,0,0,0,0,0,0,0,0,0,0],"sum_hessian":[6.7640703E3,3.311679E3,3.4523914E3,1.7758364E3,1.5358424E3,9.710215E2,2.4813699E3,1.2822805E3,4.935559E2,8.98842E2,6.370005E2,3.7018695E2,6.0083453E2,1.4066354E3,1.0747345E3],"tree_param":{"num_deleted":"0","num_feature":"106","num_nodes":"15","size_leaf_vector":"1"}},{"base_weights":[-1.1339115E-1,-2.7727824E-1,4.380039E-2,-1.5307695E-1,-4.2081174E-1,-8.3878115E-2,2.1786682E-1,-2.229908E-3,2.860007E-4,-3.3295872E-3,-5.4417257E-3,1.1989584E-3,-1.9353799E-3,1.2934863E-3,3.3873883E-3],"categories":[],"categories_nodes":[],"categories_segments":[],"categories_sizes":[],"default_left":[0,0,0,0,0,0,0,0,0,0,0,0,0,0,0],"id":54,"left_children":[1,3,5,7,9,11,13,-1,-1,-1,-1,-1,-1,-1,-1],"loss_changes":[1.7422571E2,5.8958786E1,7.675139E1,2.2571606E1,1.6458221E1,4.454563E1,1.5590126E1,0E0,0E0,0E0,0E0,0E0,0E0,0E0,0E0],"parents":[2147483647,0,0,1,1,2,2,3,3,4,4,5,5,6,6],"right_children":[2,4,6,8,10,12,14,-1,-1,-1,-1,-1,-1,-1,-1],"split_conditions":[1.5E1,1.4E1,5.45E-1,6E0,2.3E1,-4.7E0,2.4E1,-2.229908E-3,2.860007E-4,-3.3295872E-3,-5.4417257E-3,1.1989584E-3,-1.9353799E-3,1.2934863E-3,3.3873883E-3],"split_indices":[51,80,55,77,80,25,51,0,0,0,0,0,0,0,0],"split_type":[0,0,0,0,0,0,0,0,0,0,0,0,0,0,0],"sum_hessian":[6.7615107E3,3.309881E3,3.4516294E3,1.7755458E3,1.5343354E3,1.9914269E3,1.4602024E3,1.2819802E3,4.9356552E2,8.982992E2,6.3603625E2,6.967001E2,1.2947268E3,8.441075E2,6.16095E2],"tree_param":{"num_deleted":"0","num_feature":"106","num_nodes":"15","size_leaf_vector":"1"}},{"base_weights":[1.13391146E-1,2.7727827E-1,-4.3800406E-2,1.5307695E-1,4.2081174E-1,8.38781E-2,-2.1786684E-1,2.229908E-3,-2.8600058E-4,3.3295872E-3,5.441726E-3,-1.1989588E-3,1.9353798E-3,-1.2934863E-3,-3.3873885E-3],"categories":[],"categories_nodes":[],"categories_segments":[],"categories_sizes":[],"default_left":[0,0,0,0,0,0,0,0,0,0,0,0,0,0,0],"id":55,"left_children":[1,3,5,7,9,11,13,-1,-1,-1,-1,-1,-1,-1,-1],"loss_changes":[1.7422572E2,5.8958817E1,7.675138E1,2.2571598E1,1.645819E1,4.4545643E1,1.5590134E1,0E0,0E0,0E0,0E0,0E0,0E0,0E0,0E0],"parents":[2147483647,0,0,1,1,2,2,3,3,4,4,5,5,6,6],"right_children":[2,4,6,8,10,12,14,-1,-1,-1,-1,-1,-1,-1,-1],"split_conditions":[1.5E1,1.4E1,5.45E-1,6E0,2.3E1,-4.7E0,2.4E1,2.229908E-3,-2.8600058E-4,3.3295872E-3,5.441726E-3,-1.1989588E-3,1.9353798E-3,-1.2934863E-3,-3.3873885E-3],"split_indices":[51,80,55,77,80,25,51,0,0,0,0,0,0,0,0],"split_type":[0,0,0,0,0,0,0,0,0,0,0,0,0,0,0],"sum_hessian":[6.7615107E3,3.3098813E3,3.4516294E3,1.7755458E3,1.5343354E3,1.991427E3,1.4602024E3,1.2819803E3,4.9356552E2,8.982992E2,6.3603625E2,6.9670013E2,1.2947268E3,8.441075E2,6.16095E2],"tree_param":{"num_deleted":"0","num_feature":"106","num_nodes":"15","size_leaf_vector":"1"}},{"base_weights":[-1.1230148E-1,-2.1649076E-1,1.3074069E-1,-1.2947056E-1,-4.3947917E-1,-1.5125729E-1,2.0625524E-1,-2.8447853E-3,-3.9822893E-4,-3.8133028E-3,-5.6784665E-3,-2.5145109E-3,8.156678E-4,3.335787E-3,1.2201307E-3],"categories":[],"categories_nodes":[],"categories_segments":[],"categories_sizes":[],"default_left":[0,0,0,0,0,0,0,0,0,0,0,0,0,0,0],"id":56,"left_children":[1,3,5,7,9,11,13,-1,-1,-1,-1,-1,-1,-1,-1],"loss_changes":[1.7120609E2,9.1764175E1,4.323848E1,4.7306236E1,9.695099E0,1.0031399E1,1.7129982E1,0E0,0E0,0E0,0E0,0E0,0E0,0E0,0E0],"parents":[2147483647,0,0,1,1,2,2,3,3,4,4,5,5,6,6],"right_children":[2,4,6,8,10,12,14,-1,-1,-1,-1,-1,-1,-1,-1],"split_conditions":[2E1,2E1,3.6E-1,8E0,3.7E1,2.7E1,-6.2E0,-2.8447853E-3,-3.9822893E-4,-3.8133028E-3,-5.6784665E-3,-2.5145109E-3,8.156678E-4,3.335787E-3,1.2201307E-3],"split_indices":[28,80,55,51,54,28,25,0,0,0,0,0,0,0,0],"split_type":[0,0,0,0,0,0,0,0,0,0,0,0,0,0,0],"sum_hessian":[6.7589385E3,4.7309473E3,2.0279915E3,3.404095E3,1.3268519E3,4.281448E2,1.5998467E3,1.2465452E3,2.1575498E3,9.159214E2,4.1093057E2,2.9927457E2,1.2887022E2,6.358557E2,9.6399097E2],"tree_param":{"num_deleted":"0","num_feature":"106","num_nodes":"15","size_leaf_vector":"1"}},{"base_weights":[1.1230147E-1,2.1649075E-1,-1.307407E-1,1.2947054E-1,4.3947917E-1,1.5125728E-1,-2.0625524E-1,2.8447849E-3,3.98229E-4,3.8133028E-3,5.6784665E-3,2.5145109E-3,-8.156684E-4,-3.335787E-3,-1.2201307E-3],"categories":[],"categories_nodes":[],"categories_segments":[],"categories_sizes":[],"default_left":[0,0,0,0,0,0,0,0,0,0,0,0,0,0,0],"id":57,"left_children":[1,3,5,7,9,11,13,-1,-1,-1,-1,-1,-1,-1,-1],"loss_changes":[1.712061E2,9.176416E1,4.3238464E1,4.730621E1,9.695099E0,1.0031404E1,1.712999E1,0E0,0E0,0E0,0E0,0E0,0E0,0E0,0E0],"parents":[2147483647,0,0,1,1,2,2,3,3,4,4,5,5,6,6],"right_children":[2,4,6,8,10,12,14,-1,-1,-1,-1,-1,-1,-1,-1],"split_conditions":[2E1,2E1,3.6E-1,8E0,3.7E1,2.7E1,-6.2E0,2.8447849E-3,3.98229E-4,3.8133028E-3,5.6784665E-3,2.5145109E-3,-8.156684E-4,-3.335787E-3,-1.2201307E-3],"split_indices":[28,80,55,51,54,28,25,0,0,0,0,0,0,0,0],"split_type":[0,0,0,0,0,0,0,0,0,0,0,0,0,0,0],"sum_hessian":[6.7589385E3,4.7309473E3,2.0279915E3,3.404095E3,1.3268519E3,4.2814478E2,1.5998467E3,1.2465452E3,2.1575498E3,9.159214E2,4.1093057E2,2.9927457E2,1.2887022E2,6.358557E2,9.6399097E2],"tree_param":{"num_deleted":"0","num_feature":"106","num_nodes":"15","size_leaf_vector":"1"}},{"base_weights":[-1.11223035E-1,-2.7240655E-1,4.3279033E-2,-3.656079E-1,-8.535622E-2,-8.253852E-2,2.1480474E-1,-2.9662466E-3,-5.3585223E-3,-1.7819444E-3,2.8080665E-4,1.1743375E-3,-1.9017927E-3,1.2794294E-3,3.3352252E-3],"categories":[],"categories_nodes":[],"categories_segments":[],"categories_sizes":[],"default_left":[0,0,0,0,0,0,0,0,0,0,0,0,0,0,0],"id":58,"left_children":[1,3,5,7,9,11,13,-1,-1,-1,-1,-1,-1,-1,-1],"loss_changes":[1.6829135E2,5.7626144E1,7.4494606E1,2.5761414E1,1.1601958E1,4.2889637E1,1.5018578E1,0E0,0E0,0E0,0E0,0E0,0E0,0E0,0E0],"parents":[2147483647,0,0,1,1,2,2,3,3,4,4,5,5,6,6],"right_children":[2,4,6,8,10,12,14,-1,-1,-1,-1,-1,-1,-1,-1],"split_conditions":[1.5E1,2.9E0,5.45E-1,2.3E1,6E0,-4.7E0,2.4E1,-2.9662466E-3,-5.3585223E-3,-1.7819444E-3,2.8080665E-4,1.1743375E-3,-1.9017927E-3,1.2794294E-3,3.3352252E-3],"split_indices":[51,77,55,80,77,25,51,0,0,0,0,0,0,0,0],"split_type":[0,0,0,0,0,0,0,0,0,0,0,0,0,0,0],"sum_hessian":[6.7563516E3,3.3063037E3,3.4500479E3,2.206112E3,1.1001915E3,1.9904971E3,1.4595508E3,1.5719133E3,6.341987E2,6.047145E2,4.9547708E2,6.9648804E2,1.294009E3,8.440591E2,6.1549176E2],"tree_param":{"num_deleted":"0","num_feature":"106","num_nodes":"15","size_leaf_vector":"1"}},{"base_weights":[1.11223035E-1,2.7240655E-1,-4.327903E-2,3.656079E-1,8.535625E-2,8.253854E-2,-2.1480474E-1,2.9662466E-3,5.3585223E-3,1.7819448E-3,-2.8080642E-4,-1.1743373E-3,1.9017927E-3,-1.2794296E-3,-3.3352252E-3],"categories":[],"categories_nodes":[],"categories_segments":[],"categories_sizes":[],"default_left":[0,0,0,0,0,0,0,0,0,0,0,0,0,0,0],"id":59,"left_children":[1,3,5,7,9,11,13,-1,-1,-1,-1,-1,-1,-1,-1],"loss_changes":[1.6829135E2,5.7626144E1,7.449461E1,2.5761383E1,1.1601961E1,4.2889633E1,1.5018585E1,0E0,0E0,0E0,0E0,0E0,0E0,0E0,0E0],"parents":[2147483647,0,0,1,1,2,2,3,3,4,4,5,5,6,6],"right_children":[2,4,6,8,10,12,14,-1,-1,-1,-1,-1,-1,-1,-1],"split_conditions":[1.5E1,2.9E0,5.45E-1,2.3E1,6E0,-4.7E0,2.4E1,2.9662466E-3,5.3585223E-3,1.7819448E-3,-2.8080642E-4,-1.1743373E-3,1.9017927E-3,-1.2794296E-3,-3.3352252E-3],"split_indices":[51,77,55,80,77,25,51,0,0,0,0,0,0,0,0],"split_type":[0,0,0,0,0,0,0,0,0,0,0,0,0,0,0],"sum_hessian":[6.7563516E3,3.3063037E3,3.4500479E3,2.206112E3,1.1001915E3,1.990497E3,1.4595508E3,1.5719135E3,6.341987E2,6.047145E2,4.9547705E2,6.9648804E2,1.294009E3,8.440591E2,6.1549176E2],"tree_param":{"num_deleted":"0","num_feature":"106","num_nodes":"15","size_leaf_vector":"1"}},{"base_weights":[-1.1015579E-1,9.461993E-2,-2.2960111E-1,1.7455804E-1,-1.5030366E-1,-3.2714218E-1,-2.9561723E-2,4.9460796E-4,2.658022E-3,-2.4184128E-3,9.2142966E-4,-4.4352757E-3,-2.381185E-3,-1.4997195E-3,7.802475E-4],"categories":[],"categories_nodes":[],"categories_segments":[],"categories_sizes":[],"default_left":[0,0,0,0,0,0,0,0,0,0,0,0,0,0,0],"id":60,"left_children":[1,3,5,7,9,11,13,-1,-1,-1,-1,-1,-1,-1,-1],"loss_changes":[1.652378E2,4.8761208E1,8.323848E1,2.14132E1,1.3627588E1,2.960913E1,1.8142504E1,0E0,0E0,0E0,0E0,0E0,0E0,0E0,0E0],"parents":[2147483647,0,0,1,1,2,2,3,3,4,4,5,5,6,6],"right_children":[2,4,6,8,10,12,14,-1,-1,-1,-1,-1,-1,-1,-1],"split_conditions":[4.59E-1,2.2E1,2.9E0,2.4E1,2.7E1,-1.9E0,9E0,4.9460796E-4,2.658022E-3,-2.4184128E-3,9.2142966E-4,-4.4352757E-3,-2.381185E-3,-1.4997195E-3,7.802475E-4],"split_indices":[3,80,77,51,28,77,51,0,0,0,0,0,0,0,0],"split_type":[0,0,0,0,0,0,0,0,0,0,0,0,0,0,0],"sum_hessian":[6.753678E3,2.4881794E3,4.265499E3,1.8761344E3,6.120451E2,2.8669246E3,1.3985743E3,7.9192883E2,1.0842056E3,4.44299E2,1.677461E2,1.2407906E3,1.6261339E3,6.5976965E2,7.388047E2],"tree_param":{"num_deleted":"0","num_feature":"106","num_nodes":"15","size_leaf_vector":"1"}},{"base_weights":[1.1015579E-1,-9.461992E-2,2.2960111E-1,-1.7455804E-1,1.5030368E-1,3.2714218E-1,2.9561711E-2,-4.946081E-4,-2.6580216E-3,2.418413E-3,-9.2142966E-4,4.4352757E-3,2.3811848E-3,1.4997186E-3,-7.8024715E-4],"categories":[],"categories_nodes":[],"categories_segments":[],"categories_sizes":[],"default_left":[0,0,0,0,0,0,0,0,0,0,0,0,0,0,0],"id":61,"left_children":[1,3,5,7,9,11,13,-1,-1,-1,-1,-1,-1,-1,-1],"loss_changes":[1.6523778E2,4.8761215E1,8.3238495E1,2.1413185E1,1.3627589E1,2.960913E1,1.8142485E1,0E0,0E0,0E0,0E0,0E0,0E0,0E0,0E0],"parents":[2147483647,0,0,1,1,2,2,3,3,4,4,5,5,6,6],"right_children":[2,4,6,8,10,12,14,-1,-1,-1,-1,-1,-1,-1,-1],"split_conditions":[4.59E-1,2.2E1,2.9E0,2.4E1,2.7E1,-1.9E0,9E0,-4.946081E-4,-2.6580216E-3,2.418413E-3,-9.2142966E-4,4.4352757E-3,2.3811848E-3,1.4997186E-3,-7.8024715E-4],"split_indices":[3,80,77,51,28,77,51,0,0,0,0,0,0,0,0],"split_type":[0,0,0,0,0,0,0,0,0,0,0,0,0,0,0],"sum_hessian":[6.753678E3,2.4881794E3,4.265499E3,1.8761343E3,6.120451E2,2.8669246E3,1.3985743E3,7.919288E2,1.0842056E3,4.44299E2,1.677461E2,1.2407906E3,1.6261339E3,6.5976965E2,7.388047E2],"tree_param":{"num_deleted":"0","num_feature":"106","num_nodes":"15","size_leaf_vector":"1"}},{"base_weights":[-1.09099835E-1,-2.676673E-1,4.27999E-2,-1.4703183E-1,-4.0750384E-1,-1.887826E-1,1.3339701E-1,-2.1531289E-3,3.026127E-4,-3.2211726E-3,-5.2782437E-3,2.2272574E-4,-3.1893991E-3,3.8175652E-4,2.5807607E-3],"categories":[],"categories_nodes":[],"categories_segments":[],"categories_sizes":[],"default_left":[0,0,0,0,0,0,0,0,0,0,0,0,0,0,0],"id":62,"left_children":[1,3,5,7,9,11,13,-1,-1,-1,-1,-1,-1,-1,-1],"loss_changes":[1.6264111E2,5.566942E1,7.23947E1,2.1495842E1,1.55434265E1,2.666352E1,2.943259E1,0E0,0E0,0E0,0E0,0E0,0E0,0E0,0E0],"parents":[2147483647,0,0,1,1,2,2,3,3,4,4,5,5,6,6],"right_children":[2,4,6,8,10,12,14,-1,-1,-1,-1,-1,-1,-1,-1],"split_conditions":[1.5E1,1.4E1,-2.4E0,6E0,2.3E1,-4.3E0,2.4E1,-2.1531289E-3,3.026127E-4,-3.2211726E-3,-5.2782437E-3,2.2272574E-4,-3.1893991E-3,3.8175652E-4,2.5807607E-3],"split_indices":[51,80,77,77,80,25,51,0,0,0,0,0,0,0,0],"split_type":[0,0,0,0,0,0,0,0,0,0,0,0,0,0,0],"sum_hessian":[6.750942E3,3.302605E3,3.4483367E3,1.7741321E3,1.5284729E3,9.693697E2,2.478967E3,1.2806858E3,4.934463E2,8.96173E2,6.322999E2,3.700874E2,5.992823E2,1.4062644E3,1.0727026E3],"tree_param":{"num_deleted":"0","num_feature":"106","num_nodes":"15","size_leaf_vector":"1"}},{"base_weights":[1.09099835E-1,2.676673E-1,-4.2799894E-2,1.4703183E-1,4.0750384E-1,1.887826E-1,-1.33397E-1,2.153129E-3,-3.0261296E-4,3.2211726E-3,5.2782437E-3,-2.2272555E-4,3.1893991E-3,-3.8175646E-4,-2.5807607E-3],"categories":[],"categories_nodes":[],"categories_segments":[],"categories_sizes":[],"default_left":[0,0,0,0,0,0,0,0,0,0,0,0,0,0,0],"id":63,"left_children":[1,3,5,7,9,11,13,-1,-1,-1,-1,-1,-1,-1,-1],"loss_changes":[1.6264111E2,5.566942E1,7.23947E1,2.1495846E1,1.55434265E1,2.6663525E1,2.9432583E1,0E0,0E0,0E0,0E0,0E0,0E0,0E0,0E0],"parents":[2147483647,0,0,1,1,2,2,3,3,4,4,5,5,6,6],"right_children":[2,4,6,8,10,12,14,-1,-1,-1,-1,-1,-1,-1,-1],"split_conditions":[1.5E1,1.4E1,-2.4E0,6E0,2.3E1,-4.3E0,2.4E1,2.153129E-3,-3.0261296E-4,3.2211726E-3,5.2782437E-3,-2.2272555E-4,3.1893991E-3,-3.8175646E-4,-2.5807607E-3],"split_indices":[51,80,77,77,80,25,51,0,0,0,0,0,0,0,0],"split_type":[0,0,0,0,0,0,0,0,0,0,0,0,0,0,0],"sum_hessian":[6.750942E3,3.302605E3,3.4483367E3,1.7741321E3,1.5284729E3,9.693697E2,2.478967E3,1.2806858E3,4.9344626E2,8.96173E2,6.322999E2,3.700874E2,5.992823E2,1.4062644E3,1.0727026E3],"tree_param":{"num_deleted":"0","num_feature":"106","num_nodes":"15","size_leaf_vector":"1"}},{"base_weights":[-1.08056754E-1,-2.0877609E-1,1.2670091E-1,-8.237209E-2,-3.5366347E-1,-8.60026E-3,2.7547497E-1,-2.0283863E-3,2.6930647E-4,-5.0335526E-3,-2.883279E-3,1.3908653E-3,-1.0728958E-3,3.183852E-3,1.4538597E-4],"categories":[],"categories_nodes":[],"categories_segments":[],"categories_sizes":[],"default_left":[0,0,0,0,0,0,0,0,0,0,0,0,0,0,0],"id":64,"left_children":[1,3,5,7,9,11,13,-1,-1,-1,-1,-1,-1,-1,-1],"loss_changes":[1.5960605E2,8.647325E1,4.0802063E1,3.3237198E1,2.1375183E1,1.5500609E1,1.0804871E1,0E0,0E0,0E0,0E0,0E0,0E0,0E0,0E0],"parents":[2147483647,0,0,1,1,2,2,3,3,4,4,5,5,6,6],"right_children":[2,4,6,8,10,12,14,-1,-1,-1,-1,-1,-1,-1,-1],"split_conditions":[2E1,1.4E1,4E-1,1E1,7E0,-6.2E0,-1.6E0,-2.0283863E-3,2.6930647E-4,-5.0335526E-3,-2.883279E-3,1.3908653E-3,-1.0728958E-3,3.183852E-3,1.4538597E-4],"split_indices":[28,80,77,51,51,25,25,0,0,0,0,0,0,0,0],"split_type":[0,0,0,0,0,0,0,0,0,0,0,0,0,0,0],"sum_hessian":[6.748083E3,4.722202E3,2.0258809E3,2.5228032E3,2.1993987E3,1.0614749E3,9.6440607E2,1.1997068E3,1.3230964E3,6.6624536E2,1.5331533E3,4.250243E2,6.364505E2,8.280203E2,1.3638573E2],"tree_param":{"num_deleted":"0","num_feature":"106","num_nodes":"15","size_leaf_vector":"1"}},{"base_weights":[1.08056754E-1,2.087761E-1,-1.2670092E-1,8.237212E-2,3.5366347E-1,8.60026E-3,-2.75475E-1,2.0283868E-3,-2.6930627E-4,5.0335517E-3,2.8832788E-3,-1.3908651E-3,1.0728958E-3,-3.1838524E-3,-1.4538615E-4],"categories":[],"categories_nodes":[],"categories_segments":[],"categories_sizes":[],"default_left":[0,0,0,0,0,0,0,0,0,0,0,0,0,0,0],"id":65,"left_children":[1,3,5,7,9,11,13,-1,-1,-1,-1,-1,-1,-1,-1],"loss_changes":[1.5960608E2,8.6473175E1,4.0802074E1,3.3237206E1,2.1375183E1,1.55006075E1,1.0804863E1,0E0,0E0,0E0,0E0,0E0,0E0,0E0,0E0],"parents":[2147483647,0,0,1,1,2,2,3,3,4,4,5,5,6,6],"right_children":[2,4,6,8,10,12,14,-1,-1,-1,-1,-1,-1,-1,-1],"split_conditions":[2E1,1.4E1,4E-1,1E1,7E0,-6.2E0,-1.6E0,2.0283868E-3,-2.6930627E-4,5.0335517E-3,2.8832788E-3,-1.3908651E-3,1.0728958E-3,-3.1838524E-3,-1.4538615E-4],"split_indices":[28,80,77,51,51,25,25,0,0,0,0,0,0,0,0],"split_type":[0,0,0,0,0,0,0,0,0,0,0,0,0,0,0],"sum_hessian":[6.748083E3,4.7222017E3,2.0258809E3,2.5228032E3,2.1993987E3,1.0614749E3,9.6440607E2,1.1997068E3,1.3230964E3,6.6624536E2,1.5331533E3,4.2502432E2,6.364505E2,8.280204E2,1.3638573E2],"tree_param":{"num_deleted":"0","num_feature":"106","num_nodes":"15","size_leaf_vector":"1"}},{"base_weights":[-1.0702215E-1,-2.6286647E-1,4.2165995E-2,-3.5344103E-1,-8.157349E-2,-8.012356E-2,2.0887491E-1,-2.8608532E-3,-5.2032475E-3,-1.7097826E-3,3.4426825E-4,1.1285369E-3,-1.840574E-3,1.2547593E-3,3.2308411E-3],"categories":[],"categories_nodes":[],"categories_segments":[],"categories_sizes":[],"default_left":[0,0,0,0,0,0,0,0,0,0,0,0,0,0,0],"id":66,"left_children":[1,3,5,7,9,11,13,-1,-1,-1,-1,-1,-1,-1,-1],"loss_changes":[1.5686276E2,5.4153458E1,7.030221E1,2.4581116E1,1.1420269E1,3.9923397E1,1.3857552E1,0E0,0E0,0E0,0E0,0E0,0E0,0E0,0E0],"parents":[2147483647,0,0,1,1,2,2,3,3,4,4,5,5,6,6],"right_children":[2,4,6,8,10,12,14,-1,-1,-1,-1,-1,-1,-1,-1],"split_conditions":[1.5E1,2.9E0,5.45E-1,2.3E1,1.16E1,-4.7E0,2.4E1,-2.8608532E-3,-5.2032475E-3,-1.7097826E-3,3.4426825E-4,1.1285369E-3,-1.840574E-3,1.2547593E-3,3.2308411E-3],"split_indices":[51,77,55,80,60,25,51,0,0,0,0,0,0,0,0],"split_type":[0,0,0,0,0,0,0,0,0,0,0,0,0,0,0],"sum_hessian":[6.7452725E3,3.2986687E3,3.4466035E3,2.199061E3,1.0996078E3,1.9884746E3,1.4581289E3,1.5686532E3,6.304077E2,6.20724E2,4.788838E2,6.960362E2,1.2924384E3,8.4395E2,6.1417896E2],"tree_param":{"num_deleted":"0","num_feature":"106","num_nodes":"15","size_leaf_vector":"1"}},{"base_weights":[1.0702215E-1,2.6286647E-1,-4.2165995E-2,3.5344103E-1,8.157349E-2,8.0123566E-2,-2.0887491E-1,2.8608532E-3,5.203247E-3,1.7097826E-3,-3.4426834E-4,-1.1285369E-3,1.840574E-3,-1.2547597E-3,-3.2308404E-3],"categories":[],"categories_nodes":[],"categories_segments":[],"categories_sizes":[],"default_left":[0,0,0,0,0,0,0,0,0,0,0,0,0,0,0],"id":67,"left_children":[1,3,5,7,9,11,13,-1,-1,-1,-1,-1,-1,-1,-1],"loss_changes":[1.5686276E2,5.415349E1,7.030221E1,2.4581055E1,1.1420271E1,3.9923397E1,1.3857544E1,0E0,0E0,0E0,0E0,0E0,0E0,0E0,0E0],"parents":[2147483647,0,0,1,1,2,2,3,3,4,4,5,5,6,6],"right_children":[2,4,6,8,10,12,14,-1,-1,-1,-1,-1,-1,-1,-1],"split_conditions":[1.5E1,2.9E0,5.45E-1,2.3E1,1.16E1,-4.7E0,2.4E1,2.8608532E-3,5.203247E-3,1.7097826E-3,-3.4426834E-4,-1.1285369E-3,1.840574E-3,-1.2547597E-3,-3.2308404E-3],"split_indices":[51,77,55,80,60,25,51,0,0,0,0,0,0,0,0],"split_type":[0,0,0,0,0,0,0,0,0,0,0,0,0,0,0],"sum_hessian":[6.745272E3,3.2986687E3,3.4466035E3,2.1990608E3,1.0996078E3,1.9884745E3,1.4581289E3,1.5686532E3,6.304077E2,6.20724E2,4.7888376E2,6.960362E2,1.2924384E3,8.4395E2,6.1417896E2],"tree_param":{"num_deleted":"0","num_feature":"106","num_nodes":"15","size_leaf_vector":"1"}},{"base_weights":[-1.0599842E-1,-2.0499651E-1,1.2465133E-1,-1.2177052E-1,-4.193751E-1,-1.4667419E-1,1.9735342E-1,-2.716471E-3,-3.5249925E-4,-3.6169307E-3,-5.4696617E-3,-2.4294378E-3,7.6806365E-4,3.1952886E-3,1.1664638E-3],"categories":[],"categories_nodes":[],"categories_segments":[],"categories_sizes":[],"default_left":[0,0,0,0,0,0,0,0,0,0,0,0,0,0,0],"id":68,"left_children":[1,3,5,7,9,11,13,-1,-1,-1,-1,-1,-1,-1,-1],"loss_changes":[1.5400362E2,8.4138245E1,3.998905E1,4.408567E1,9.5108795E0,9.241255E0,1.57206E1,0E0,0E0,0E0,0E0,0E0,0E0,0E0,0E0],"parents":[2147483647,0,0,1,1,2,2,3,3,4,4,5,5,6,6],"right_children":[2,4,6,8,10,12,14,-1,-1,-1,-1,-1,-1,-1,-1],"split_conditions":[2E1,2E1,3.6E-1,8E0,3.7E1,2.7E1,-6.2E0,-2.716471E-3,-3.5249925E-4,-3.6169307E-3,-5.4696617E-3,-2.4294378E-3,7.6806365E-4,3.1952886E-3,1.1664638E-3],"split_indices":[28,80,55,51,54,28,25,0,0,0,0,0,0,0,0],"split_type":[0,0,0,0,0,0,0,0,0,0,0,0,0,0,0],"sum_hessian":[6.7424023E3,4.7176377E3,2.0247646E3,3.399466E3,1.3181715E3,4.276711E2,1.5970935E3,1.2434104E3,2.1560557E3,9.104194E2,4.0775214E2,2.9884805E2,1.2882306E2,6.341497E2,9.6294385E2],"tree_param":{"num_deleted":"0","num_feature":"106","num_nodes":"15","size_leaf_vector":"1"}},{"base_weights":[1.05998434E-1,2.0499653E-1,-1.2465133E-1,1.2177055E-1,4.193751E-1,1.4667417E-1,-1.9735344E-1,2.7164714E-3,3.524995E-4,3.6169307E-3,5.4696617E-3,2.4294378E-3,-7.680637E-4,-3.195289E-3,-1.1664637E-3],"categories":[],"categories_nodes":[],"categories_segments":[],"categories_sizes":[],"default_left":[0,0,0,0,0,0,0,0,0,0,0,0,0,0,0],"id":69,"left_children":[1,3,5,7,9,11,13,-1,-1,-1,-1,-1,-1,-1,-1],"loss_changes":[1.5400363E2,8.413823E1,3.9989048E1,4.4085663E1,9.510895E0,9.241256E0,1.5720608E1,0E0,0E0,0E0,0E0,0E0,0E0,0E0,0E0],"parents":[2147483647,0,0,1,1,2,2,3,3,4,4,5,5,6,6],"right_children":[2,4,6,8,10,12,14,-1,-1,-1,-1,-1,-1,-1,-1],"split_conditions":[2E1,2E1,3.6E-1,8E0,3.7E1,2.7E1,-6.2E0,2.7164714E-3,3.524995E-4,3.6169307E-3,5.4696617E-3,2.4294378E-3,-7.680637E-4,-3.195289E-3,-1.1664637E-3],"split_indices":[28,80,55,51,54,28,25,0,0,0,0,0,0,0,0],"split_type":[0,0,0,0,0,0,0,0,0,0,0,0,0,0,0],"sum_hessian":[6.7424023E3,4.7176377E3,2.0247646E3,3.399466E3,1.3181715E3,4.276711E2,1.5970935E3,1.2434104E3,2.1560557E3,9.104194E2,4.0775214E2,2.9884805E2,1.2882306E2,6.3414966E2,9.6294385E2],"tree_param":{"num_deleted":"0","num_feature":"106","num_nodes":"15","size_leaf_vector":"1"}},{"base_weights":[-1.049854E-1,-2.5827792E-1,4.1658487E-2,-3.478515E-1,-7.922899E-2,-1.8360832E-1,1.2973179E-1,-2.8151826E-3,-5.1257852E-3,-1.6777954E-3,3.5634037E-4,2.0742699E-4,-3.0987863E-3,3.8089225E-4,2.498912E-3],"categories":[],"categories_nodes":[],"categories_segments":[],"categories_sizes":[],"default_left":[0,0,0,0,0,0,0,0,0,0,0,0,0,0,0],"id":70,"left_children":[1,3,5,7,9,11,13,-1,-1,-1,-1,-1,-1,-1,-1],"loss_changes":[1.5153352E2,5.2828857E1,6.838898E1,2.3855835E1,1.1196926E1,2.5009033E1,2.7276005E1,0E0,0E0,0E0,0E0,0E0,0E0,0E0,0E0],"parents":[2147483647,0,0,1,1,2,2,3,3,4,4,5,5,6,6],"right_children":[2,4,6,8,10,12,14,-1,-1,-1,-1,-1,-1,-1,-1],"split_conditions":[1.5E1,2.9E0,-2.4E0,2.3E1,1.16E1,-4.3E0,2.4E1,-2.8151826E-3,-5.1257852E-3,-1.6777954E-3,3.5634037E-4,2.0742699E-4,-3.0987863E-3,3.8089225E-4,2.498912E-3],"split_indices":[51,77,77,80,60,25,51,0,0,0,0,0,0,0,0],"split_type":[0,0,0,0,0,0,0,0,0,0,0,0,0,0,0],"sum_hessian":[6.7395137E3,3.294688E3,3.4448257E3,2.1954285E3,1.0992598E3,9.67963E2,2.4768625E3,1.5670916E3,6.2833685E2,6.204668E2,4.787929E2,3.7000186E2,5.979611E2,1.4059197E3,1.0709429E3],"tree_param":{"num_deleted":"0","num_feature":"106","num_nodes":"15","size_leaf_vector":"1"}},{"base_weights":[1.049854E-1,2.5827792E-1,-4.1658487E-2,3.4785154E-1,7.922898E-2,1.8360834E-1,-1.297318E-1,2.8151828E-3,5.1257852E-3,1.6777953E-3,-3.5634023E-4,-2.0742693E-4,3.0987863E-3,-3.8089225E-4,-2.498912E-3],"categories":[],"categories_nodes":[],"categories_segments":[],"categories_sizes":[],"default_left":[0,0,0,0,0,0,0,0,0,0,0,0,0,0,0],"id":71,"left_children":[1,3,5,7,9,11,13,-1,-1,-1,-1,-1,-1,-1,-1],"loss_changes":[1.5153354E2,5.2828842E1,6.8388985E1,2.3855835E1,1.1196922E1,2.5009033E1,2.7276001E1,0E0,0E0,0E0,0E0,0E0,0E0,0E0,0E0],"parents":[2147483647,0,0,1,1,2,2,3,3,4,4,5,5,6,6],"right_children":[2,4,6,8,10,12,14,-1,-1,-1,-1,-1,-1,-1,-1],"split_conditions":[1.5E1,2.9E0,-2.4E0,2.3E1,1.16E1,-4.3E0,2.4E1,2.8151828E-3,5.1257852E-3,1.6777953E-3,-3.5634023E-4,-2.0742693E-4,3.0987863E-3,-3.8089225E-4,-2.498912E-3],"split_indices":[51,77,77,80,60,25,51,0,0,0,0,0,0,0,0],"split_type":[0,0,0,0,0,0,0,0,0,0,0,0,0,0,0],"sum_hessian":[6.7395137E3,3.294688E3,3.4448257E3,2.1954285E3,1.0992598E3,9.67963E2,2.4768625E3,1.5670916E3,6.2833685E2,6.204668E2,4.7879294E2,3.7000186E2,5.979611E2,1.4059197E3,1.0709429E3],"tree_param":{"num_deleted":"0","num_feature":"106","num_nodes":"15","size_leaf_vector":"1"}},{"base_weights":[-1.0398412E-1,-2.5586402E-1,4.1252602E-2,-3.4469634E-1,-7.844495E-2,-7.8679994E-2,2.0473842E-1,-2.788595E-3,-5.084027E-3,-1.6914201E-3,3.2279364E-4,1.091869E-3,-1.799E-3,1.2374052E-3,3.1582918E-3],"categories":[],"categories_nodes":[],"categories_segments":[],"categories_sizes":[],"default_left":[0,0,0,0,0,0,0,0,0,0,0,0,0,0,0],"id":72,"left_children":[1,3,5,7,9,11,13,-1,-1,-1,-1,-1,-1,-1,-1],"loss_changes":[1.4862988E2,5.1881363E1,6.756183E1,2.3509308E1,1.1053693E1,3.782096E1,1.3080627E1,0E0,0E0,0E0,0E0,0E0,0E0,0E0,0E0],"parents":[2147483647,0,0,1,1,2,2,3,3,4,4,5,5,6,6],"right_children":[2,4,6,8,10,12,14,-1,-1,-1,-1,-1,-1,-1,-1],"split_conditions":[1.5E1,2.9E0,5.45E-1,2.3E1,6E0,-4.7E0,2.4E1,-2.788595E-3,-5.084027E-3,-1.6914201E-3,3.2279364E-4,1.091869E-3,-1.799E-3,1.2374052E-3,3.1582918E-3],"split_indices":[51,77,55,80,77,25,51,0,0,0,0,0,0,0,0],"split_type":[0,0,0,0,0,0,0,0,0,0,0,0,0,0,0],"sum_hessian":[6.736496E3,3.2925654E3,3.4439307E3,2.193403E3,1.0991622E3,1.9868809E3,1.4570498E3,1.5662262E3,6.271769E2,6.039357E2,4.9522644E2,6.956529E2,1.291228E3,8.438791E2,6.1317065E2],"tree_param":{"num_deleted":"0","num_feature":"106","num_nodes":"15","size_leaf_vector":"1"}},{"base_weights":[1.0398412E-1,2.5586402E-1,-4.1252594E-2,3.4469637E-1,7.844493E-2,7.868001E-2,-2.0473842E-1,2.7885952E-3,5.084027E-3,1.6914197E-3,-3.2279393E-4,-1.0918687E-3,1.799E-3,-1.2374052E-3,-3.1582918E-3],"categories":[],"categories_nodes":[],"categories_segments":[],"categories_sizes":[],"default_left":[0,0,0,0,0,0,0,0,0,0,0,0,0,0,0],"id":73,"left_children":[1,3,5,7,9,11,13,-1,-1,-1,-1,-1,-1,-1,-1],"loss_changes":[1.4862988E2,5.188138E1,6.756183E1,2.3509277E1,1.1053698E1,3.782096E1,1.3080631E1,0E0,0E0,0E0,0E0,0E0,0E0,0E0,0E0],"parents":[2147483647,0,0,1,1,2,2,3,3,4,4,5,5,6,6],"right_children":[2,4,6,8,10,12,14,-1,-1,-1,-1,-1,-1,-1,-1],"split_conditions":[1.5E1,2.9E0,5.45E-1,2.3E1,6E0,-4.7E0,2.4E1,2.7885952E-3,5.084027E-3,1.6914197E-3,-3.2279393E-4,-1.0918687E-3,1.799E-3,-1.2374052E-3,-3.1582918E-3],"split_indices":[51,77,55,80,77,25,51,0,0,0,0,0,0,0,0],"split_type":[0,0,0,0,0,0,0,0,0,0,0,0,0,0,0],"sum_hessian":[6.736496E3,3.2925654E3,3.4439307E3,2.193403E3,1.0991622E3,1.9868809E3,1.4570498E3,1.5662263E3,6.271769E2,6.039357E2,4.9522644E2,6.956529E2,1.291228E3,8.438791E2,6.1317065E2],"tree_param":{"num_deleted":"0","num_feature":"106","num_nodes":"15","size_leaf_vector":"1"}},{"base_weights":[-1.0299207E-1,-1.9953625E-1,1.21793374E-1,-1.182469E-1,-4.0955096E-1,-1.4379226E-1,1.9297543E-1,-2.6553082E-3,-3.3309477E-4,-3.523481E-3,-5.362585E-3,-2.3812335E-3,7.503457E-4,3.124794E-3,1.1411068E-3],"categories":[],"categories_nodes":[],"categories_segments":[],"categories_sizes":[],"default_left":[0,0,0,0,0,0,0,0,0,0,0,0,0,0,0],"id":74,"left_children":[1,3,5,7,9,11,13,-1,-1,-1,-1,-1,-1,-1,-1],"loss_changes":[1.4617369E2,8.038539E1,3.829141E1,4.25013E1,9.337418E0,8.860637E0,1.5011925E1,0E0,0E0,0E0,0E0,0E0,0E0,0E0,0E0],"parents":[2147483647,0,0,1,1,2,2,3,3,4,4,5,5,6,6],"right_children":[2,4,6,8,10,12,14,-1,-1,-1,-1,-1,-1,-1,-1],"split_conditions":[2E1,2E1,3.6E-1,8E0,3.7E1,2.7E1,-6.2E0,-2.6553082E-3,-3.3309477E-4,-3.523481E-3,-5.362585E-3,-2.3812335E-3,7.503457E-4,3.124794E-3,1.1411068E-3],"split_indices":[28,80,55,51,54,28,25,0,0,0,0,0,0,0,0],"split_type":[0,0,0,0,0,0,0,0,0,0,0,0,0,0,0],"sum_hessian":[6.733461E3,4.710457E3,2.023004E3,3.3971155E3,1.3133413E3,4.2738358E2,1.5956205E3,1.2417533E3,2.155362E3,9.0744916E2,4.0589218E2,2.985832E2,1.2880037E2,6.331875E2,9.62433E2],"tree_param":{"num_deleted":"0","num_feature":"106","num_nodes":"15","size_leaf_vector":"1"}},{"base_weights":[1.02992065E-1,1.9953623E-1,-1.2179339E-1,1.182469E-1,4.0955094E-1,1.4379227E-1,-1.9297545E-1,2.6553082E-3,3.330947E-4,3.523481E-3,5.3625843E-3,2.3812335E-3,-7.5034506E-4,-3.1247942E-3,-1.141107E-3],"categories":[],"categories_nodes":[],"categories_segments":[],"categories_sizes":[],"default_left":[0,0,0,0,0,0,0,0,0,0,0,0,0,0,0],"id":75,"left_children":[1,3,5,7,9,11,13,-1,-1,-1,-1,-1,-1,-1,-1],"loss_changes":[1.4617374E2,8.0385345E1,3.8291412E1,4.2501297E1,9.337418E0,8.860633E0,1.5011936E1,0E0,0E0,0E0,0E0,0E0,0E0,0E0,0E0],"parents":[2147483647,0,0,1,1,2,2,3,3,4,4,5,5,6,6],"right_children":[2,4,6,8,10,12,14,-1,-1,-1,-1,-1,-1,-1,-1],"split_conditions":[2E1,2E1,3.6E-1,8E0,3.7E1,2.7E1,-6.2E0,2.6553082E-3,3.330947E-4,3.523481E-3,5.3625843E-3,2.3812335E-3,-7.5034506E-4,-3.1247942E-3,-1.141107E-3],"split_indices":[28,80,55,51,54,28,25,0,0,0,0,0,0,0,0],"split_type":[0,0,0,0,0,0,0,0,0,0,0,0,0,0,0],"sum_hessian":[6.733461E3,4.7104565E3,2.023004E3,3.3971155E3,1.3133413E3,4.2738358E2,1.5956205E3,1.2417533E3,2.155362E3,9.0744916E2,4.0589218E2,2.985832E2,1.2880038E2,6.331875E2,9.62433E2],"tree_param":{"num_deleted":"0","num_feature":"106","num_nodes":"15","size_leaf_vector":"1"}},{"base_weights":[-1.0200989E-1,-2.5141242E-1,4.0752996E-2,-3.3927587E-1,-7.617386E-2,-7.744146E-2,2.01868E-1,-2.7442258E-3,-5.0092777E-3,-1.6380149E-3,3.7456365E-4,1.0692138E-3,-1.76801E-3,1.2237375E-3,3.1101461E-3],"categories":[],"categories_nodes":[],"categories_segments":[],"categories_sizes":[],"default_left":[0,0,0,0,0,0,0,0,0,0,0,0,0,0,0],"id":76,"left_children":[1,3,5,7,9,11,13,-1,-1,-1,-1,-1,-1,-1,-1],"loss_changes":[1.4358606E2,5.062085E1,6.558165E1,2.2827911E1,1.0956823E1,3.6413506E1,1.2605972E1,0E0,0E0,0E0,0E0,0E0,0E0,0E0,0E0],"parents":[2147483647,0,0,1,1,2,2,3,3,4,4,5,5,6,6],"right_children":[2,4,6,8,10,12,14,-1,-1,-1,-1,-1,-1,-1,-1],"split_conditions":[1.5E1,2.9E0,5.45E-1,2.3E1,1.16E1,-4.7E0,2.4E1,-2.7442258E-3,-5.0092777E-3,-1.6380149E-3,3.7456365E-4,1.0692138E-3,-1.76801E-3,1.2237375E-3,3.1101461E-3],"split_indices":[51,77,55,80,60,25,51,0,0,0,0,0,0,0,0],"split_type":[0,0,0,0,0,0,0,0,0,0,0,0,0,0,0],"sum_hessian":[6.73044E3,3.2883713E3,3.4420686E3,2.1895896E3,1.0987816E3,1.9857994E3,1.4562692E3,1.5645885E3,6.2500116E2,6.20123E2,4.786586E2,6.954E2,1.2903994E3,8.4381714E2,6.124521E2],"tree_param":{"num_deleted":"0","num_feature":"106","num_nodes":"15","size_leaf_vector":"1"}},{"base_weights":[1.020099E-1,2.5141245E-1,-4.0753E-2,3.3927587E-1,7.617388E-2,7.7441454E-2,-2.01868E-1,2.7442256E-3,5.0092787E-3,1.638015E-3,-3.745632E-4,-1.0692137E-3,1.7680097E-3,-1.223737E-3,-3.1101468E-3],"categories":[],"categories_nodes":[],"categories_segments":[],"categories_sizes":[],"default_left":[0,0,0,0,0,0,0,0,0,0,0,0,0,0,0],"id":77,"left_children":[1,3,5,7,9,11,13,-1,-1,-1,-1,-1,-1,-1,-1],"loss_changes":[1.4358609E2,5.0620804E1,6.558164E1,2.2827942E1,1.095682E1,3.64135E1,1.2605995E1,0E0,0E0,0E0,0E0,0E0,0E0,0E0,0E0],"parents":[2147483647,0,0,1,1,2,2,3,3,4,4,5,5,6,6],"right_children":[2,4,6,8,10,12,14,-1,-1,-1,-1,-1,-1,