{"learner":{"attributes":{},"feature_names":[],"feature_types":[],"gradient_booster":{"model":{"gbtree_model_param":{"num_parallel_tree":"1","num_trees":"1500"},"iteration_indptr":[0,2,4,6,8,10,12,14,16,18,20,22,24,26,28,30,32,34,36,38,40,42,44,46,48,50,52,54,56,58,60,62,64,66,68,70,72,74,76,78,80,82,84,86,88,90,92,94,96,98,100,102,104,106,108,110,112,114,116,118,120,122,124,126,128,130,132,134,136,138,140,142,144,146,148,150,152,154,156,158,160,162,164,166,168,170,172,174,176,178,180,182,184,186,188,190,192,194,196,198,200,202,204,206,208,210,212,214,216,218,220,222,224,226,228,230,232,234,236,238,240,242,244,246,248,250,252,254,256,258,260,262,264,266,268,270,272,274,276,278,280,282,284,286,288,290,292,294,296,298,300,302,304,306,308,310,312,314,316,318,320,322,324,326,328,330,332,334,336,338,340,342,344,346,348,350,352,354,356,358,360,362,364,366,368,370,372,374,376,378,380,382,384,386,388,390,392,394,396,398,400,402,404,406,408,410,412,414,416,418,420,422,424,426,428,430,432,434,436,438,440,442,444,446,448,450,452,454,456,458,460,462,464,466,468,470,472,474,476,478,480,482,484,486,488,490,492,494,496,498,500,502,504,506,508,510,512,514,516,518,520,522,524,526,528,530,532,534,536,538,540,542,544,546,548,550,552,554,556,558,560,562,564,566,568,570,572,574,576,578,580,582,584,586,588,590,592,594,596,598,600,602,604,606,608,610,612,614,616,618,620,622,624,626,628,630,632,634,636,638,640,642,644,646,648,650,652,654,656,658,660,662,664,666,668,670,672,674,676,678,680,682,684,686,688,690,692,694,696,698,700,702,704,706,708,710,712,714,716,718,720,722,724,726,728,730,732,734,736,738,740,742,744,746,748,750,752,754,756,758,760,762,764,766,768,770,772,774,776,778,780,782,784,786,788,790,792,794,796,798,800,802,804,806,808,810,812,814,816,818,820,822,824,826,828,830,832,834,836,838,840,842,844,846,848,850,852,854,856,858,860,862,864,866,868,870,872,874,876,878,880,882,884,886,888,890,892,894,896,898,900,902,904,906,908,910,912,914,916,918,920,922,924,926,928,930,932,934,936,938,940,942,944,946,948,950,952,954,956,958,960,962,964,966,968,970,972,974,976,978,980,982,984,986,988,990,992,994,996,998,1000,1002,1004,1006,1008,1010,1012,1014,1016,1018,1020,1022,1024,1026,1028,1030,1032,1034,1036,1038,1040,1042,1044,1046,1048,1050,1052,1054,1056,1058,1060,1062,1064,1066,1068,1070,1072,1074,1076,1078,1080,1082,1084,1086,1088,1090,1092,1094,1096,1098,1100,1102,1104,1106,1108,1110,1112,1114,1116,1118,1120,1122,1124,1126,1128,1130,1132,1134,1136,1138,1140,1142,1144,1146,1148,1150,1152,1154,1156,1158,1160,1162,1164,1166,1168,1170,1172,1174,1176,1178,1180,1182,1184,1186,1188,1190,1192,1194,1196,1198,1200,1202,1204,1206,1208,1210,1212,1214,1216,1218,1220,1222,1224,1226,1228,1230,1232,1234,1236,1238,1240,1242,1244,1246,1248,1250,1252,1254,1256,1258,1260,1262,1264,1266,1268,1270,1272,1274,1276,1278,1280,1282,1284,1286,1288,1290,1292,1294,1296,1298,1300,1302,1304,1306,1308,1310,1312,1314,1316,1318,1320,1322,1324,1326,1328,1330,1332,1334,1336,1338,1340,1342,1344,1346,1348,1350,1352,1354,1356,1358,1360,1362,1364,1366,1368,1370,1372,1374,1376,1378,1380,1382,1384,1386,1388,1390,1392,1394,1396,1398,1400,1402,1404,1406,1408,1410,1412,1414,1416,1418,1420,1422,1424,1426,1428,1430,1432,1434,1436,1438,1440,1442,1444,1446,1448,1450,1452,1454,1456,1458,1460,1462,1464,1466,1468,1470,1472,1474,1476,1478,1480,1482,1484,1486,1488,1490,1492,1494,1496,1498,1500],"tree_info":[0,1,0,1,0,1,0,1,0,1,0,1,0,1,0,1,0,1,0,1,0,1,0,1,0,1,0,1,0,1,0,1,0,1,0,1,0,1,0,1,0,1,0,1,0,1,0,1,0,1,0,1,0,1,0,1,0,1,0,1,0,1,0,1,0,1,0,1,0,1,0,1,0,1,0,1,0,1,0,1,0,1,0,1,0,1,0,1,0,1,0,1,0,1,0,1,0,1,0,1,0,1,0,1,0,1,0,1,0,1,0,1,0,1,0,1,0,1,0,1,0,1,0,1,0,1,0,1,0,1,0,1,0,1,0,1,0,1,0,1,0,1,0,1,0,1,0,1,0,1,0,1,0,1,0,1,0,1,0,1,0,1,0,1,0,1,0,1,0,1,0,1,0,1,0,1,0,1,0,1,0,1,0,1,0,1,0,1,0,1,0,1,0,1,0,1,0,1,0,1,0,1,0,1,0,1,0,1,0,1,0,1,0,1,0,1,0,1,0,1,0,1,0,1,0,1,0,1,0,1,0,1,0,1,0,1,0,1,0,1,0,1,0,1,0,1,0,1,0,1,0,1,0,1,0,1,0,1,0,1,0,1,0,1,0,1,0,1,0,1,0,1,0,1,0,1,0,1,0,1,0,1,0,1,0,1,0,1,0,1,0,1,0,1,0,1,0,1,0,1,0,1,0,1,0,1,0,1,0,1,0,1,0,1,0,1,0,1,0,1,0,1,0,1,0,1,0,1,0,1,0,1,0,1,0,1,0,1,0,1,0,1,0,1,0,1,0,1,0,1,0,1,0,1,0,1,0,1,0,1,0,1,0,1,0,1,0,1,0,1,0,1,0,1,0,1,0,1,0,1,0,1,0,1,0,1,0,1,0,1,0,1,0,1,0,1,0,1,0,1,0,1,0,1,0,1,0,1,0,1,0,1,0,1,0,1,0,1,0,1,0,1,0,1,0,1,0,1,0,1,0,1,0,1,0,1,0,1,0,1,0,1,0,1,0,1,0,1,0,1,0,1,0,1,0,1,0,1,0,1,0,1,0,1,0,1,0,1,0,1,0,1,0,1,0,1,0,1,0,1,0,1,0,1,0,1,0,1,0,1,0,1,0,1,0,1,0,1,0,1,0,1,0,1,0,1,0,1,0,1,0,1,0,1,0,1,0,1,0,1,0,1,0,1,0,1,0,1,0,1,0,1,0,1,0,1,0,1,0,1,0,1,0,1,0,1,0,1,0,1,0,1,0,1,0,1,0,1,0,1,0,1,0,1,0,1,0,1,0,1,0,1,0,1,0,1,0,1,0,1,0,1,0,1,0,1,0,1,0,1,0,1,0,1,0,1,0,1,0,1,0,1,0,1,0,1,0,1,0,1,0,1,0,1,0,1,0,1,0,1,0,1,0,1,0,1,0,1,0,1,0,1,0,1,0,1,0,1,0,1,0,1,0,1,0,1,0,1,0,1,0,1,0,1,0,1,0,1,0,1,0,1,0,1,0,1,0,1,0,1,0,1,0,1,0,1,0,1,0,1,0,1,0,1,0,1,0,1,0,1,0,1,0,1,0,1,0,1,0,1,0,1,0,1,0,1,0,1,0,1,0,1,0,1,0,1,0,1,0,1,0,1,0,1,0,1,0,1,0,1,0,1,0,1,0,1,0,1,0,1,0,1,0,1,0,1,0,1,0,1,0,1,0,1,0,1,0,1,0,1,0,1,0,1,0,1,0,1,0,1,0,1,0,1,0,1,0,1,0,1,0,1,0,1,0,1,0,1,0,1,0,1,0,1,0,1,0,1,0,1,0,1,0,1,0,1,0,1,0,1,0,1,0,1,0,1,0,1,0,1,0,1,0,1,0,1,0,1,0,1,0,1,0,1,0,1,0,1,0,1,0,1,0,1,0,1,0,1,0,1,0,1,0,1,0,1,0,1,0,1,0,1,0,1,0,1,0,1,0,1,0,1,0,1,0,1,0,1,0,1,0,1,0,1,0,1,0,1,0,1,0,1,0,1,0,1,0,1,0,1,0,1,0,1,0,1,0,1,0,1,0,1,0,1,0,1,0,1,0,1,0,1,0,1,0,1,0,1,0,1,0,1,0,1,0,1,0,1,0,1,0,1,0,1,0,1,0,1,0,1,0,1,0,1,0,1,0,1,0,1,0,1,0,1,0,1,0,1,0,1,0,1,0,1,0,1,0,1,0,1,0,1,0,1,0,1,0,1,0,1,0,1,0,1,0,1,0,1,0,1,0,1,0,1,0,1,0,1,0,1,0,1,0,1,0,1,0,1,0,1,0,1,0,1,0,1,0,1,0,1,0,1,0,1,0,1,0,1,0,1,0,1,0,1,0,1,0,1,0,1,0,1,0,1,0,1,0,1,0,1,0,1,0,1,0,1,0,1,0,1,0,1,0,1,0,1,0,1,0,1,0,1,0,1,0,1,0,1,0,1,0,1,0,1,0,1,0,1,0,1,0,1,0,1,0,1,0,1,0,1,0,1,0,1,0,1,0,1,0,1,0,1,0,1,0,1,0,1,0,1,0,1,0,1,0,1,0,1,0,1,0,1,0,1,0,1,0,1,0,1,0,1,0,1,0,1,0,1,0,1,0,1,0,1,0,1,0,1,0,1,0,1,0,1,0,1,0,1,0,1,0,1,0,1,0,1,0,1,0,1,0,1,0,1,0,1,0,1,0,1,0,1,0,1,0,1,0,1,0,1,0,1,0,1,0,1,0,1,0,1,0,1,0,1,0,1,0,1,0,1,0,1,0,1,0,1,0,1,0,1,0,1,0,1,0,1,0,1,0,1,0,1,0,1,0,1,0,1,0,1,0,1,0,1,0,1,0,1,0,1,0,1,0,1,0,1,0,1,0,1,0,1,0,1,0,1,0,1,0,1,0,1,0,1,0,1,0,1,0,1,0,1,0,1,0,1,0,1,0,1,0,1,0,1,0,1,0,1,0,1,0,1,0,1,0,1,0,1,0,1,0,1,0,1,0,1,0,1,0,1,0,1,0,1,0,1,0,1,0,1,0,1,0,1,0,1,0,1,0,1,0,1,0,1,0,1,0,1,0,1,0,1,0,1,0,1,0,1,0,1,0,1,0,1,0,1,0,1,0,1,0,1,0,1,0,1,0,1,0,1,0,1,0,1,0,1,0,1,0,1,0,1,0,1,0,1,0,1,0,1,0,1,0,1,0,1,0,1,0,1,0,1,0,1,0,1,0,1,0,1,0,1,0,1,0,1,0,1,0,1,0,1,0,1,0,1,0,1,0,1,0,1,0,1,0,1,0,1,0,1,0,1,0,1,0,1,0,1,0,1,0,1,0,1,0,1,0,1,0,1,0,1,0,1,0,1,0,1,0,1],"trees":[{"base_weights":[-1.5031238E-1,-2.800805E-1,2.0152713E-1,-1.1495345E-1,-4.656978E-1,3.1721268E-2,3.8831615E-1,-2.8406275E-3,2.9194512E-4,-3.5103243E-3,-5.831889E-3,1.7953321E-3,-1.7139333E-3,5.051546E-3,2.9423868E-3],"categories":[],"categories_nodes":[],"categories_segments":[],"categories_sizes":[],"default_left":[0,0,0,0,0,0,0,0,0,0,0,0,0,0,0],"id":0,"left_children":[1,3,5,7,9,11,13,-1,-1,-1,-1,-1,-1,-1,-1],"loss_changes":[3.106419E2,1.5227914E2,5.8142395E1,6.415575E1,3.1313416E1,2.889766E1,9.447266E0,0E0,0E0,0E0,0E0,0E0,0E0,0E0,0E0],"parents":[2147483647,0,0,1,1,2,2,3,3,4,4,5,5,6,6],"right_children":[2,4,6,8,10,12,14,-1,-1,-1,-1,-1,-1,-1,-1],"split_conditions":[2.1E1,1.4E1,5.14E-1,1E1,2.2E1,-4.8E0,-6E0,-2.8406275E-3,2.9194512E-4,-3.5103243E-3,-5.831889E-3,1.7953321E-3,-1.7139333E-3,5.051546E-3,2.9423868E-3],"split_indices":[28,80,55,51,80,25,25,0,0,0,0,0,0,0,0],"split_type":[0,0,0,0,0,0,0,0,0,0,0,0,0,0,0],"sum_hessian":[6.8015E3,4.969E3,1.8325E3,2.6305E3,2.3385E3,9.605E2,8.72E2,1.21E3,1.4205E3,1.1855E3,1.153E3,5.56E2,4.045E2,3.87E2,4.85E2],"tree_param":{"num_deleted":"0","num_feature":"106","num_nodes":"15","size_leaf_vector":"1"}},{"base_weights":[1.5031238E-1,2.800805E-1,-2.0152713E-1,1.1495345E-1,4.656978E-1,-3.1721268E-2,-3.8831615E-1,2.8406275E-3,-2.9194512E-4,3.5103243E-3,5.831889E-3,-1.7953321E-3,1.7139333E-3,-5.051546E-3,-2.9423868E-3],"categories":[],"categories_nodes":[],"categories_segments":[],"categories_sizes":[],"default_left":[0,0,0,0,0,0,0,0,0,0,0,0,0,0,0],"id":1,"left_children":[1,3,5,7,9,11,13,-1,-1,-1,-1,-1,-1,-1,-1],"loss_changes":[3.106419E2,1.5227914E2,5.8142395E1,6.415575E1,3.1313416E1,2.889766E1,9.447266E0,0E0,0E0,0E0,0E0,0E0,0E0,0E0,0E0],"parents":[2147483647,0,0,1,1,2,2,3,3,4,4,5,5,6,6],"right_children":[2,4,6,8,10,12,14,-1,-1,-1,-1,-1,-1,-1,-1],"split_conditions":[2.1E1,1.4E1,5.14E-1,1E1,2.2E1,-4.8E0,-6E0,2.8406275E-3,-2.9194512E-4,3.5103243E-3,5.831889E-3,-1.7953321E-3,1.7139333E-3,-5.051546E-3,-2.9423868E-3],"split_indices":[28,80,55,51,80,25,25,0,0,0,0,0,0,0,0],"split_type":[0,0,0,0,0,0,0,0,0,0,0,0,0,0,0],"sum_hessian":[6.8015E3,4.969E3,1.8325E3,2.6305E3,2.3385E3,9.605E2,8.72E2,1.21E3,1.4205E3,1.1855E3,1.153E3,5.56E2,4.045E2,3.87E2,4.85E2],"tree_param":{"num_deleted":"0","num_feature":"106","num_nodes":"15","size_leaf_vector":"1"}},{"base_weights":[-1.488116E-1,-2.7728564E-1,1.9951816E-1,-1.138053E-1,-4.610555E-1,3.140427E-2,3.844484E-1,-2.8122673E-3,2.8902775E-4,-3.4752944E-3,-5.773817E-3,1.7774171E-3,-1.696841E-3,5.0012884E-3,2.9130492E-3],"categories":[],"categories_nodes":[],"categories_segments":[],"categories_sizes":[],"default_left":[0,0,0,0,0,0,0,0,0,0,0,0,0,0,0],"id":2,"left_children":[1,3,5,7,9,11,13,-1,-1,-1,-1,-1,-1,-1,-1],"loss_changes":[3.044727E2,1.4925809E2,5.6989708E1,6.2880714E1,3.0694183E1,2.8323902E1,9.260635E0,0E0,0E0,0E0,0E0,0E0,0E0,0E0,0E0],"parents":[2147483647,0,0,1,1,2,2,3,3,4,4,5,5,6,6],"right_children":[2,4,6,8,10,12,14,-1,-1,-1,-1,-1,-1,-1,-1],"split_conditions":[2.1E1,1.4E1,5.14E-1,1E1,2.2E1,-4.8E0,-6E0,-2.8122673E-3,2.8902775E-4,-3.4752944E-3,-5.773817E-3,1.7774171E-3,-1.696841E-3,5.0012884E-3,2.9130492E-3],"split_indices":[28,80,55,51,80,25,25,0,0,0,0,0,0,0,0],"split_type":[0,0,0,0,0,0,0,0,0,0,0,0,0,0,0],"sum_hessian":[6.8014194E3,4.968936E3,1.832483E3,2.6304902E3,2.338446E3,9.604971E2,8.7198596E2,1.2099902E3,1.4204999E3,1.1854854E3,1.1529608E3,5.559982E2,4.0449884E2,3.869901E2,4.8499582E2],"tree_param":{"num_deleted":"0","num_feature":"106","num_nodes":"15","size_leaf_vector":"1"}},{"base_weights":[1.4881158E-1,2.7728564E-1,-1.9951814E-1,1.138053E-1,4.6105543E-1,-3.1404268E-2,-3.8444835E-1,2.8122673E-3,-2.8902775E-4,3.475293E-3,5.773817E-3,-1.7774169E-3,1.6968406E-3,-5.001288E-3,-2.9130492E-3],"categories":[],"categories_nodes":[],"categories_segments":[],"categories_sizes":[],"default_left":[0,0,0,0,0,0,0,0,0,0,0,0,0,0,0],"id":3,"left_children":[1,3,5,7,9,11,13,-1,-1,-1,-1,-1,-1,-1,-1],"loss_changes":[3.044726E2,1.4925812E2,5.6989685E1,6.2880714E1,3.0694183E1,2.8323893E1,9.260635E0,0E0,0E0,0E0,0E0,0E0,0E0,0E0,0E0],"parents":[2147483647,0,0,1,1,2,2,3,3,4,4,5,5,6,6],"right_children":[2,4,6,8,10,12,14,-1,-1,-1,-1,-1,-1,-1,-1],"split_conditions":[2.1E1,1.4E1,5.14E-1,1E1,2.2E1,-4.8E0,-6E0,2.8122673E-3,-2.8902775E-4,3.475293E-3,5.773817E-3,-1.7774169E-3,1.6968406E-3,-5.001288E-3,-2.9130492E-3],"split_indices":[28,80,55,51,80,25,25,0,0,0,0,0,0,0,0],"split_type":[0,0,0,0,0,0,0,0,0,0,0,0,0,0,0],"sum_hessian":[6.8014194E3,4.9689365E3,1.8324829E3,2.6304902E3,2.338446E3,9.60497E2,8.719859E2,1.2099902E3,1.4204999E3,1.1854854E3,1.1529608E3,5.5599817E2,4.044988E2,3.8699014E2,4.849958E2],"tree_param":{"num_deleted":"0","num_feature":"106","num_nodes":"15","size_leaf_vector":"1"}},{"base_weights":[-1.4732924E-1,-2.7452564E-1,1.9753285E-1,-1.126695E-1,-4.5648006E-1,-1.9283311E-2,3.385547E-1,-2.7842342E-3,2.8613905E-4,-3.5810177E-3,-5.884856E-3,1.2188541E-3,-2.1228907E-3,4.654568E-3,2.343286E-3],"categories":[],"categories_nodes":[],"categories_segments":[],"categories_sizes":[],"default_left":[0,0,0,0,0,0,0,0,0,0,0,0,0,0,0],"id":4,"left_children":[1,3,5,7,9,11,13,-1,-1,-1,-1,-1,-1,-1,-1],"loss_changes":[2.9843332E2,1.4630984E2,5.6065224E1,6.163226E1,3.0168365E1,1.9738386E1,1.4584831E1,0E0,0E0,0E0,0E0,0E0,0E0,0E0,0E0],"parents":[2147483647,0,0,1,1,2,2,3,3,4,4,5,5,6,6],"right_children":[2,4,6,8,10,12,14,-1,-1,-1,-1,-1,-1,-1,-1],"split_conditions":[2.1E1,1.4E1,4.64E-1,1E1,2.3E1,-4.8E0,-6E0,-2.7842342E-3,2.8613905E-4,-3.5810177E-3,-5.884856E-3,1.2188541E-3,-2.1228907E-3,4.654568E-3,2.343286E-3],"split_indices":[28,80,55,51,80,25,25,0,0,0,0,0,0,0,0],"split_type":[0,0,0,0,0,0,0,0,0,0,0,0,0,0,0],"sum_hessian":[6.80118E3,4.9687476E3,1.8324325E3,2.630461E3,2.3382869E3,7.2249115E2,1.1099414E3,1.2099614E3,1.4204995E3,1.341921E3,9.9636584E2,4.1749466E2,3.0499646E2,4.9895947E2,6.109819E2],"tree_param":{"num_deleted":"0","num_feature":"106","num_nodes":"15","size_leaf_vector":"1"}},{"base_weights":[1.4732926E-1,2.7452564E-1,-1.9753279E-1,1.1266946E-1,4.5648012E-1,1.9283362E-2,-3.3855465E-1,2.784234E-3,-2.8613934E-4,3.5810187E-3,5.884855E-3,-1.2188541E-3,2.1228918E-3,-4.654567E-3,-2.3432858E-3],"categories":[],"categories_nodes":[],"categories_segments":[],"categories_sizes":[],"default_left":[0,0,0,0,0,0,0,0,0,0,0,0,0,0,0],"id":5,"left_children":[1,3,5,7,9,11,13,-1,-1,-1,-1,-1,-1,-1,-1],"loss_changes":[2.9843326E2,1.4630984E2,5.606523E1,6.1632263E1,3.0168365E1,1.97384E1,1.4584808E1,0E0,0E0,0E0,0E0,0E0,0E0,0E0,0E0],"parents":[2147483647,0,0,1,1,2,2,3,3,4,4,5,5,6,6],"right_children":[2,4,6,8,10,12,14,-1,-1,-1,-1,-1,-1,-1,-1],"split_conditions":[2.1E1,1.4E1,4.64E-1,1E1,2.3E1,-4.8E0,-6E0,2.784234E-3,-2.8613934E-4,3.5810187E-3,5.884855E-3,-1.2188541E-3,2.1228918E-3,-4.654567E-3,-2.3432858E-3],"split_indices":[28,80,55,51,80,25,25,0,0,0,0,0,0,0,0],"split_type":[0,0,0,0,0,0,0,0,0,0,0,0,0,0,0],"sum_hessian":[6.80118E3,4.9687476E3,1.8324325E3,2.630461E3,2.3382869E3,7.2249115E2,1.1099413E3,1.2099613E3,1.4204996E3,1.341921E3,9.963658E2,4.1749466E2,3.0499646E2,4.9895947E2,6.109819E2],"tree_param":{"num_deleted":"0","num_feature":"106","num_nodes":"15","size_leaf_vector":"1"}},{"base_weights":[-1.4586517E-1,-2.717998E-1,1.95569E-1,-1.11545816E-1,-4.5196986E-1,-8.371404E-2,3.0340537E-1,-2.7565241E-3,2.8328015E-4,-3.4051307E-3,-5.6619486E-3,1.2262331E-3,-2.4747879E-3,1.9866936E-3,4.14706E-3],"categories":[],"categories_nodes":[],"categories_segments":[],"categories_sizes":[],"default_left":[0,0,0,0,0,0,0,0,0,0,0,0,0,0,0],"id":6,"left_children":[1,3,5,7,9,11,13,-1,-1,-1,-1,-1,-1,-1,-1],"loss_changes":[2.9251935E2,1.434321E2,5.5240356E1,6.040982E1,2.9585693E1,1.7313839E1,1.5338547E1,0E0,0E0,0E0,0E0,0E0,0E0,0E0,0E0],"parents":[2147483647,0,0,1,1,2,2,3,3,4,4,5,5,6,6],"right_children":[2,4,6,8,10,12,14,-1,-1,-1,-1,-1,-1,-1,-1],"split_conditions":[2.1E1,1.4E1,-2.4E0,1E1,2.2E1,-6.2E0,1.9E0,-2.7565241E-3,2.8328015E-4,-3.4051307E-3,-5.6619486E-3,1.2262331E-3,-2.4747879E-3,1.9866936E-3,4.14706E-3],"split_indices":[28,80,77,51,80,25,77,0,0,0,0,0,0,0,0],"split_type":[0,0,0,0,0,0,0,0,0,0,0,0,0,0,0],"sum_hessian":[6.8007954E3,4.9684395E3,1.8323561E3,2.6304128E3,2.3380266E3,5.1048538E2,1.3218707E3,1.209914E3,1.4204989E3,1.1853676E3,1.152659E3,2.2599345E2,2.844919E2,6.8245374E2,6.3941705E2],"tree_param":{"num_deleted":"0","num_feature":"106","num_nodes":"15","size_leaf_vector":"1"}},{"base_weights":[1.4586517E-1,2.717998E-1,-1.9556898E-1,1.11545816E-1,4.5196983E-1,8.371399E-2,-3.0340534E-1,2.7565241E-3,-2.8328015E-4,3.405131E-3,5.661948E-3,-1.2262339E-3,2.4747876E-3,-1.9866936E-3,-4.1470597E-3],"categories":[],"categories_nodes":[],"categories_segments":[],"categories_sizes":[],"default_left":[0,0,0,0,0,0,0,0,0,0,0,0,0,0,0],"id":7,"left_children":[1,3,5,7,9,11,13,-1,-1,-1,-1,-1,-1,-1,-1],"loss_changes":[2.9251935E2,1.4343204E2,5.5240326E1,6.040982E1,2.9585663E1,1.7313843E1,1.5338547E1,0E0,0E0,0E0,0E0,0E0,0E0,0E0,0E0],"parents":[2147483647,0,0,1,1,2,2,3,3,4,4,5,5,6,6],"right_children":[2,4,6,8,10,12,14,-1,-1,-1,-1,-1,-1,-1,-1],"split_conditions":[2.1E1,1.4E1,-2.4E0,1E1,2.2E1,-6.2E0,1.9E0,2.7565241E-3,-2.8328015E-4,3.405131E-3,5.661948E-3,-1.2262339E-3,2.4747876E-3,-1.9866936E-3,-4.1470597E-3],"split_indices":[28,80,77,51,80,25,77,0,0,0,0,0,0,0,0],"split_type":[0,0,0,0,0,0,0,0,0,0,0,0,0,0,0],"sum_hessian":[6.800796E3,4.9684395E3,1.8323561E3,2.6304128E3,2.3380269E3,5.1048535E2,1.3218707E3,1.209914E3,1.4204989E3,1.1853677E3,1.1526592E3,2.2599344E2,2.844919E2,6.8245374E2,6.3941705E2],"tree_param":{"num_deleted":"0","num_feature":"106","num_nodes":"15","size_leaf_vector":"1"}},{"base_weights":[-1.4441866E-1,-2.6910737E-1,1.9362606E-1,-1.10434055E-1,-4.475233E-1,-6.38018E-2,3.0835065E-1,-2.729129E-3,2.804499E-4,-3.5091606E-3,-5.7718377E-3,8.2140556E-4,-2.588346E-3,4.3982062E-3,2.1202809E-3],"categories":[],"categories_nodes":[],"categories_segments":[],"categories_sizes":[],"default_left":[0,0,0,0,0,0,0,0,0,0,0,0,0,0,0],"id":8,"left_children":[1,3,5,7,9,11,13,-1,-1,-1,-1,-1,-1,-1,-1],"loss_changes":[2.8672827E2,1.4062256E2,5.4161957E1,5.921273E1,2.909195E1,1.6130882E1,1.596772E1,0E0,0E0,0E0,0E0,0E0,0E0,0E0,0E0],"parents":[2147483647,0,0,1,1,2,2,3,3,4,4,5,5,6,6],"right_children":[2,4,6,8,10,12,14,-1,-1,-1,-1,-1,-1,-1,-1],"split_conditions":[2.1E1,1.4E1,-2E0,1E1,2.3E1,-4.8E0,-6.3E0,-2.729129E-3,2.804499E-4,-3.5091606E-3,-5.7718377E-3,8.2140556E-4,-2.588346E-3,4.3982062E-3,2.1202809E-3],"split_indices":[28,80,77,51,80,25,25,0,0,0,0,0,0,0,0],"split_type":[0,0,0,0,0,0,0,0,0,0,0,0,0,0,0],"sum_hessian":[6.8002744E3,4.968013E3,1.8322612E3,2.6303467E3,2.3376665E3,5.649737E2,1.2672875E3,1.2098485E3,1.4204982E3,1.3417006E3,9.95966E2,3.2348776E2,2.4148592E2,5.343673E2,7.329202E2],"tree_param":{"num_deleted":"0","num_feature":"106","num_nodes":"15","size_leaf_vector":"1"}},{"base_weights":[1.444187E-1,2.6910743E-1,-1.9362608E-1,1.10434115E-1,4.4752336E-1,6.380177E-2,-3.0835065E-1,2.72913E-3,-2.804496E-4,3.5091606E-3,5.771839E-3,-8.2140614E-4,2.588346E-3,-4.3982062E-3,-2.1202809E-3],"categories":[],"categories_nodes":[],"categories_segments":[],"categories_sizes":[],"default_left":[0,0,0,0,0,0,0,0,0,0,0,0,0,0,0],"id":9,"left_children":[1,3,5,7,9,11,13,-1,-1,-1,-1,-1,-1,-1,-1],"loss_changes":[2.8672836E2,1.4062259E2,5.4161934E1,5.921275E1,2.909195E1,1.6130886E1,1.5967735E1,0E0,0E0,0E0,0E0,0E0,0E0,0E0,0E0],"parents":[2147483647,0,0,1,1,2,2,3,3,4,4,5,5,6,6],"right_children":[2,4,6,8,10,12,14,-1,-1,-1,-1,-1,-1,-1,-1],"split_conditions":[2.1E1,1.4E1,-2E0,1E1,2.3E1,-4.8E0,-6.3E0,2.72913E-3,-2.804496E-4,3.5091606E-3,5.771839E-3,-8.2140614E-4,2.588346E-3,-4.3982062E-3,-2.1202809E-3],"split_indices":[28,80,77,51,80,25,25,0,0,0,0,0,0,0,0],"split_type":[0,0,0,0,0,0,0,0,0,0,0,0,0,0,0],"sum_hessian":[6.8002744E3,4.968013E3,1.8322612E3,2.6303464E3,2.3376665E3,5.649737E2,1.2672875E3,1.2098484E3,1.420498E3,1.3417006E3,9.95966E2,3.2348776E2,2.4148592E2,5.343673E2,7.329202E2],"tree_param":{"num_deleted":"0","num_feature":"106","num_nodes":"15","size_leaf_vector":"1"}},{"base_weights":[-1.4298962E-1,-2.664478E-1,1.917056E-1,-1.09334245E-1,-4.4313866E-1,2.8877247E-2,3.708657E-1,-2.7020471E-3,2.7764705E-4,-3.4744996E-3,-5.7159006E-3,1.7067841E-3,-1.6596841E-3,4.8305714E-3,2.8056188E-3],"categories":[],"categories_nodes":[],"categories_segments":[],"categories_sizes":[],"default_left":[0,0,0,0,0,0,0,0,0,0,0,0,0,0,0],"id":10,"left_children":[1,3,5,7,9,11,13,-1,-1,-1,-1,-1,-1,-1,-1],"loss_changes":[2.810582E2,1.3787903E2,5.3466164E1,5.804046E1,2.8541199E1,2.6591824E1,8.706192E0,0E0,0E0,0E0,0E0,0E0,0E0,0E0,0E0],"parents":[2147483647,0,0,1,1,2,2,3,3,4,4,5,5,6,6],"right_children":[2,4,6,8,10,12,14,-1,-1,-1,-1,-1,-1,-1,-1],"split_conditions":[2.1E1,1.4E1,5.14E-1,1E1,2.3E1,-4.8E0,-6E0,-2.7020471E-3,2.7764705E-4,-3.4744996E-3,-5.7159006E-3,1.7067841E-3,-1.6596841E-3,4.8305714E-3,2.8056188E-3],"split_indices":[28,80,55,51,80,25,25,0,0,0,0,0,0,0,0],"split_type":[0,0,0,0,0,0,0,0,0,0,0,0,0,0,0],"sum_hessian":[6.7996104E3,4.9674746E3,1.832136E3,2.6302627E3,2.337212E3,9.604234E2,8.717126E2,1.2097655E3,1.4204971E3,1.3415449E3,9.956669E2,5.559491E2,4.044743E2,3.8680518E2,4.8490744E2],"tree_param":{"num_deleted":"0","num_feature":"106","num_nodes":"15","size_leaf_vector":"1"}},{"base_weights":[1.429896E-1,2.6644778E-1,-1.917056E-1,1.0933414E-1,4.4313872E-1,-2.887724E-2,-3.7086573E-1,2.702046E-3,-2.7764795E-4,3.4744996E-3,5.7159015E-3,-1.7067838E-3,1.6596837E-3,-4.8305714E-3,-2.8056195E-3],"categories":[],"categories_nodes":[],"categories_segments":[],"categories_sizes":[],"default_left":[0,0,0,0,0,0,0,0,0,0,0,0,0,0,0],"id":11,"left_children":[1,3,5,7,9,11,13,-1,-1,-1,-1,-1,-1,-1,-1],"loss_changes":[2.8105817E2,1.3787915E2,5.346617E1,5.8040443E1,2.8541199E1,2.6591814E1,8.7062E0,0E0,0E0,0E0,0E0,0E0,0E0,0E0,0E0],"parents":[2147483647,0,0,1,1,2,2,3,3,4,4,5,5,6,6],"right_children":[2,4,6,8,10,12,14,-1,-1,-1,-1,-1,-1,-1,-1],"split_conditions":[2.1E1,1.4E1,5.14E-1,1E1,2.3E1,-4.8E0,-6E0,2.702046E-3,-2.7764795E-4,3.4744996E-3,5.7159015E-3,-1.7067838E-3,1.6596837E-3,-4.8305714E-3,-2.8056195E-3],"split_indices":[28,80,55,51,80,25,25,0,0,0,0,0,0,0,0],"split_type":[0,0,0,0,0,0,0,0,0,0,0,0,0,0,0],"sum_hessian":[6.7996104E3,4.967474E3,1.832136E3,2.6302625E3,2.3372117E3,9.604234E2,8.717126E2,1.2097655E3,1.4204971E3,1.3415449E3,9.956668E2,5.559491E2,4.0447433E2,3.8680515E2,4.8490744E2],"tree_param":{"num_deleted":"0","num_feature":"106","num_nodes":"15","size_leaf_vector":"1"}},{"base_weights":[-1.4157732E-1,1.124988E-1,-3.010805E-1,-1.4031315E-1,2.2881483E-1,-1.4508893E-1,-4.7674695E-1,6.364148E-4,-3.0912799E-3,7.734007E-4,3.4727256E-3,-3.0544037E-3,-2.7263293E-4,-5.6371517E-3,-3.500135E-3],"categories":[],"categories_nodes":[],"categories_segments":[],"categories_sizes":[],"default_left":[0,0,0,0,0,0,0,0,0,0,0,0,0,0,0],"id":12,"left_children":[1,3,5,7,9,11,13,-1,-1,-1,-1,-1,-1,-1,-1],"loss_changes":[2.7560223E2,7.71694E1,1.1440814E2,2.850096E1,3.2216736E1,4.1825012E1,2.1454529E1,0E0,0E0,0E0,0E0,0E0,0E0,0E0,0E0],"parents":[2147483647,0,0,1,1,2,2,3,3,4,4,5,5,6,6],"right_children":[2,4,6,8,10,12,14,-1,-1,-1,-1,-1,-1,-1,-1],"split_conditions":[4.69E-1,-2E0,1.4E1,-4.6E0,2.4E1,8E0,-1.9E0,6.364148E-4,-3.0912799E-3,7.734007E-4,3.4727256E-3,-3.0544037E-3,-2.7263293E-4,-5.6371517E-3,-3.500135E-3],"split_indices":[3,77,80,25,51,51,77,0,0,0,0,0,0,0,0],"split_type":[0,0,0,0,0,0,0,0,0,0,0,0,0,0,0],"sum_hessian":[6.7988003E3,2.6221748E3,4.1766255E3,8.2620935E2,1.7959655E3,2.2131646E3,1.9634609E3,3.7444473E2,4.517646E2,7.8887054E2,1.0070949E3,9.36741E2,1.2764235E3,1.1623644E3,8.0109656E2],"tree_param":{"num_deleted":"0","num_feature":"106","num_nodes":"15","size_leaf_vector":"1"}},{"base_weights":[1.4157736E-1,-1.12498775E-1,3.0108055E-1,1.4031318E-1,-2.2881481E-1,1.45089E-1,4.76747E-1,-6.36414E-4,3.0912799E-3,-7.734002E-4,-3.4727256E-3,3.054404E-3,2.7263394E-4,5.6371517E-3,3.5001358E-3],"categories":[],"categories_nodes":[],"categories_segments":[],"categories_sizes":[],"default_left":[0,0,0,0,0,0,0,0,0,0,0,0,0,0,0],"id":13,"left_children":[1,3,5,7,9,11,13,-1,-1,-1,-1,-1,-1,-1,-1],"loss_changes":[2.7560226E2,7.71694E1,1.1440808E2,2.8500946E1,3.221676E1,4.182499E1,2.145456E1,0E0,0E0,0E0,0E0,0E0,0E0,0E0,0E0],"parents":[2147483647,0,0,1,1,2,2,3,3,4,4,5,5,6,6],"right_children":[2,4,6,8,10,12,14,-1,-1,-1,-1,-1,-1,-1,-1],"split_conditions":[4.69E-1,-2E0,1.4E1,-4.6E0,2.4E1,8E0,-1.9E0,-6.36414E-4,3.0912799E-3,-7.734002E-4,-3.4727256E-3,3.054404E-3,2.7263394E-4,5.6371517E-3,3.5001358E-3],"split_indices":[3,77,80,25,51,51,77,0,0,0,0,0,0,0,0],"split_type":[0,0,0,0,0,0,0,0,0,0,0,0,0,0,0],"sum_hessian":[6.7988003E3,2.6221748E3,4.1766255E3,8.2620935E2,1.7959655E3,2.2131646E3,1.9634609E3,3.7444473E2,4.517646E2,7.8887054E2,1.0070949E3,9.367411E2,1.2764235E3,1.1623644E3,8.010965E2],"tree_param":{"num_deleted":"0","num_feature":"106","num_nodes":"15","size_leaf_vector":"1"}},{"base_weights":[-1.4018142E-1,-2.6132822E-1,1.8821518E-1,-1.0720892E-1,-4.3472356E-1,2.7939627E-2,3.6460313E-1,-2.6512735E-3,2.7351524E-4,-3.2681294E-3,-5.4539596E-3,1.6714911E-3,-1.6334057E-3,4.7503877E-3,2.757378E-3],"categories":[],"categories_nodes":[],"categories_segments":[],"categories_sizes":[],"default_left":[0,0,0,0,0,0,0,0,0,0,0,0,0,0,0],"id":14,"left_children":[1,3,5,7,9,11,13,-1,-1,-1,-1,-1,-1,-1,-1],"loss_changes":[2.7053885E2,1.3269229E2,5.1804688E1,5.5916023E1,2.7732574E1,2.5626087E1,8.43129E0,0E0,0E0,0E0,0E0,0E0,0E0,0E0,0E0],"parents":[2147483647,0,0,1,1,2,2,3,3,4,4,5,5,6,6],"right_children":[2,4,6,8,10,12,14,-1,-1,-1,-1,-1,-1,-1,-1],"split_conditions":[2.1E1,1.4E1,5.14E-1,1E1,2.2E1,-4.8E0,-6E0,-2.6512735E-3,2.7351524E-4,-3.2681294E-3,-5.4539596E-3,1.6714911E-3,-1.6334057E-3,4.7503877E-3,2.757378E-3],"split_indices":[28,80,55,51,80,25,25,0,0,0,0,0,0,0,0],"split_type":[0,0,0,0,0,0,0,0,0,0,0,0,0,0,0],"sum_hessian":[6.7979233E3,4.96611E3,1.8318131E3,2.6300532E3,2.3360566E3,9.6034784E2,8.714652E2,1.2095593E3,1.420494E3,1.184788E3,1.1512688E3,5.5590137E2,4.044465E2,3.8663574E2,4.8482947E2],"tree_param":{"num_deleted":"0","num_feature":"106","num_nodes":"15","size_leaf_vector":"1"}},{"base_weights":[1.4018144E-1,2.6132822E-1,-1.8821517E-1,1.07208915E-1,4.347236E-1,-2.7939616E-2,-3.646031E-1,2.6512735E-3,-2.7351538E-4,3.2681301E-3,5.4539596E-3,-1.6714907E-3,1.6334057E-3,-4.7503877E-3,-2.7573772E-3],"categories":[],"categories_nodes":[],"categories_segments":[],"categories_sizes":[],"default_left":[0,0,0,0,0,0,0,0,0,0,0,0,0,0,0],"id":15,"left_children":[1,3,5,7,9,11,13,-1,-1,-1,-1,-1,-1,-1,-1],"loss_changes":[2.7053888E2,1.3269232E2,5.1804672E1,5.5916027E1,2.7732544E1,2.5626083E1,8.431313E0,0E0,0E0,0E0,0E0,0E0,0E0,0E0,0E0],"parents":[2147483647,0,0,1,1,2,2,3,3,4,4,5,5,6,6],"right_children":[2,4,6,8,10,12,14,-1,-1,-1,-1,-1,-1,-1,-1],"split_conditions":[2.1E1,1.4E1,5.14E-1,1E1,2.2E1,-4.8E0,-6E0,2.6512735E-3,-2.7351538E-4,3.2681301E-3,5.4539596E-3,-1.6714907E-3,1.6334057E-3,-4.7503877E-3,-2.7573772E-3],"split_indices":[28,80,55,51,80,25,25,0,0,0,0,0,0,0,0],"split_type":[0,0,0,0,0,0,0,0,0,0,0,0,0,0,0],"sum_hessian":[6.7979233E3,4.96611E3,1.8318131E3,2.6300532E3,2.3360566E3,9.6034784E2,8.714652E2,1.2095593E3,1.420494E3,1.184788E3,1.1512688E3,5.5590137E2,4.044465E2,3.8663574E2,4.848295E2],"tree_param":{"num_deleted":"0","num_feature":"106","num_nodes":"15","size_leaf_vector":"1"}},{"base_weights":[-1.388021E-1,-3.3995306E-1,5.574022E-2,-1.9737765E-1,-5.0323254E-1,-1.8952608E-1,1.893628E-1,-2.6719973E-3,-1.1830102E-4,-4.1137226E-3,-6.307781E-3,7.1848615E-4,-3.3191522E-3,6.961681E-4,3.4789052E-3],"categories":[],"categories_nodes":[],"categories_segments":[],"categories_sizes":[],"default_left":[0,0,0,0,0,0,0,0,0,0,0,0,0,0,0],"id":16,"left_children":[1,3,5,7,9,11,13,-1,-1,-1,-1,-1,-1,-1,-1],"loss_changes":[2.6603528E2,7.770822E1,1.1331798E2,2.3134003E1,1.7987427E1,4.5410686E1,4.246051E1,0E0,0E0,0E0,0E0,0E0,0E0,0E0,0E0],"parents":[2147483647,0,0,1,1,2,2,3,3,4,4,5,5,6,6],"right_children":[2,4,6,8,10,12,14,-1,-1,-1,-1,-1,-1,-1,-1],"split_conditions":[1.5E1,1.4E1,-1.4E0,6E0,2.3E1,-4.8E0,2.4E1,-2.6719973E-3,-1.1830102E-4,-4.1137226E-3,-6.307781E-3,7.1848615E-4,-3.3191522E-3,6.961681E-4,3.4789052E-3],"split_indices":[51,80,77,77,80,25,51,0,0,0,0,0,0,0,0],"split_type":[0,0,0,0,0,0,0,0,0,0,0,0,0,0,0],"sum_hessian":[6.7968584E3,3.341303E3,3.4555554E3,1.7849211E3,1.556382E3,1.2185217E3,2.237034E3,1.296576E3,4.8834518E2,9.072165E2,6.491654E2,4.2989188E2,7.886298E2,1.2752194E3,9.6181445E2],"tree_param":{"num_deleted":"0","num_feature":"106","num_nodes":"15","size_leaf_vector":"1"}},{"base_weights":[1.3880208E-1,3.3995304E-1,-5.5740226E-2,1.9737765E-1,5.032325E-1,1.8952607E-1,-1.893628E-1,2.6719973E-3,1.18301024E-4,4.113722E-3,6.3077807E-3,-7.184862E-4,3.319152E-3,-6.9616793E-4,-3.4789054E-3],"categories":[],"categories_nodes":[],"categories_segments":[],"categories_sizes":[],"default_left":[0,0,0,0,0,0,0,0,0,0,0,0,0,0,0],"id":17,"left_children":[1,3,5,7,9,11,13,-1,-1,-1,-1,-1,-1,-1,-1],"loss_changes":[2.6603525E2,7.770822E1,1.1331798E2,2.3134003E1,1.7987366E1,4.5410675E1,4.246051E1,0E0,0E0,0E0,0E0,0E0,0E0,0E0,0E0],"parents":[2147483647,0,0,1,1,2,2,3,3,4,4,5,5,6,6],"right_children":[2,4,6,8,10,12,14,-1,-1,-1,-1,-1,-1,-1,-1],"split_conditions":[1.5E1,1.4E1,-1.4E0,6E0,2.3E1,-4.8E0,2.4E1,2.6719973E-3,1.18301024E-4,4.113722E-3,6.3077807E-3,-7.184862E-4,3.319152E-3,-6.9616793E-4,-3.4789054E-3],"split_indices":[51,80,77,77,80,25,51,0,0,0,0,0,0,0,0],"split_type":[0,0,0,0,0,0,0,0,0,0,0,0,0,0,0],"sum_hessian":[6.7968584E3,3.341303E3,3.4555554E3,1.7849211E3,1.556382E3,1.2185217E3,2.2370337E3,1.296576E3,4.8834518E2,9.072165E2,6.491654E2,4.2989188E2,7.886298E2,1.2752194E3,9.6181445E2],"tree_param":{"num_deleted":"0","num_feature":"106","num_nodes":"15","size_leaf_vector":"1"}},{"base_weights":[-1.3743775E-1,1.0992719E-1,-2.927632E-1,-1.3611479E-1,2.231249E-1,-1.409766E-1,-4.6383062E-1,6.1375654E-4,-2.9965192E-3,7.6223497E-4,3.3804923E-3,-2.978556E-3,-2.5734975E-4,-5.488544E-3,-3.4001335E-3],"categories":[],"categories_nodes":[],"categories_segments":[],"categories_sizes":[],"default_left":[0,0,0,0,0,0,0,0,0,0,0,0,0,0,0],"id":18,"left_children":[1,3,5,7,9,11,13,-1,-1,-1,-1,-1,-1,-1,-1],"loss_changes":[2.6117877E2,7.306726E1,1.0835214E2,2.672615E1,3.030265E1,4.0015923E1,2.0474396E1,0E0,0E0,0E0,0E0,0E0,0E0,0E0,0E0],"parents":[2147483647,0,0,1,1,2,2,3,3,4,4,5,5,6,6],"right_children":[2,4,6,8,10,12,14,-1,-1,-1,-1,-1,-1,-1,-1],"split_conditions":[4.69E-1,-2E0,1.4E1,-4.6E0,2.4E1,8E0,-1.9E0,6.1375654E-4,-2.9965192E-3,7.6223497E-4,3.3804923E-3,-2.978556E-3,-2.5734975E-4,-5.488544E-3,-3.4001335E-3],"split_indices":[3,77,80,25,51,51,77,0,0,0,0,0,0,0,0],"split_type":[0,0,0,0,0,0,0,0,0,0,0,0,0,0,0],"sum_hessian":[6.795785E3,2.6213784E3,4.1744067E3,8.259419E2,1.7954364E3,2.2128174E3,1.9615896E3,3.7441553E2,4.515264E2,7.888089E2,1.0066275E3,9.364451E2,1.2763722E3,1.1609481E3,8.006414E2],"tree_param":{"num_deleted":"0","num_feature":"106","num_nodes":"15","size_leaf_vector":"1"}},{"base_weights":[1.3743775E-1,-1.09927185E-1,2.927632E-1,1.3611479E-1,-2.2312489E-1,1.4097656E-1,4.6383065E-1,-6.137567E-4,2.9965192E-3,-7.6223497E-4,-3.3804919E-3,2.9785552E-3,2.5734975E-4,5.488544E-3,3.4001335E-3],"categories":[],"categories_nodes":[],"categories_segments":[],"categories_sizes":[],"default_left":[0,0,0,0,0,0,0,0,0,0,0,0,0,0,0],"id":19,"left_children":[1,3,5,7,9,11,13,-1,-1,-1,-1,-1,-1,-1,-1],"loss_changes":[2.6117877E2,7.3067245E1,1.0835217E2,2.6726154E1,3.0302643E1,4.00159E1,2.0474365E1,0E0,0E0,0E0,0E0,0E0,0E0,0E0,0E0],"parents":[2147483647,0,0,1,1,2,2,3,3,4,4,5,5,6,6],"right_children":[2,4,6,8,10,12,14,-1,-1,-1,-1,-1,-1,-1,-1],"split_conditions":[4.69E-1,-2E0,1.4E1,-4.6E0,2.4E1,8E0,-1.9E0,-6.137567E-4,2.9965192E-3,-7.6223497E-4,-3.3804919E-3,2.9785552E-3,2.5734975E-4,5.488544E-3,3.4001335E-3],"split_indices":[3,77,80,25,51,51,77,0,0,0,0,0,0,0,0],"split_type":[0,0,0,0,0,0,0,0,0,0,0,0,0,0,0],"sum_hessian":[6.795785E3,2.6213784E3,4.1744067E3,8.259419E2,1.7954364E3,2.2128174E3,1.9615896E3,3.7441553E2,4.515264E2,7.888089E2,1.00662756E3,9.364451E2,1.2763722E3,1.1609482E3,8.006414E2],"tree_param":{"num_deleted":"0","num_feature":"106","num_nodes":"15","size_leaf_vector":"1"}},{"base_weights":[-1.3609003E-1,-3.337337E-1,5.501763E-2,-1.9378296E-1,-4.9411395E-1,-1.8573664E-1,1.8616125E-1,-2.6291548E-3,-1.0087439E-4,-4.0354E-3,-6.199569E-3,7.032835E-4,-3.2529507E-3,6.903651E-4,3.4127044E-3],"categories":[],"categories_nodes":[],"categories_segments":[],"categories_sizes":[],"default_left":[0,0,0,0,0,0,0,0,0,0,0,0,0,0,0],"id":20,"left_children":[1,3,5,7,9,11,13,-1,-1,-1,-1,-1,-1,-1,-1],"loss_changes":[2.566944E2,7.488931E1,1.0914454E2,2.267411E1,1.7486694E1,4.3589245E1,4.0627937E1,0E0,0E0,0E0,0E0,0E0,0E0,0E0,0E0],"parents":[2147483647,0,0,1,1,2,2,3,3,4,4,5,5,6,6],"right_children":[2,4,6,8,10,12,14,-1,-1,-1,-1,-1,-1,-1,-1],"split_conditions":[1.5E1,1.4E1,-1.4E0,6E0,2.3E1,-4.8E0,2.4E1,-2.6291548E-3,-1.0087439E-4,-4.0354E-3,-6.199569E-3,7.032835E-4,-3.2529507E-3,6.903651E-4,3.4127044E-3],"split_indices":[51,80,77,77,80,25,51,0,0,0,0,0,0,0,0],"split_type":[0,0,0,0,0,0,0,0,0,0,0,0,0,0,0],"sum_hessian":[6.794545E3,3.3397878E3,3.454757E3,1.784665E3,1.5551229E3,1.218116E3,2.236641E3,1.2963583E3,4.8830676E2,9.06725E2,6.483979E2,4.2987244E2,7.882435E2,1.2751818E3,9.614594E2],"tree_param":{"num_deleted":"0","num_feature":"106","num_nodes":"15","size_leaf_vector":"1"}},{"base_weights":[1.3609003E-1,3.337337E-1,-5.5017654E-2,1.9378296E-1,4.94114E-1,1.8573663E-1,-1.8616128E-1,2.6291548E-3,1.00874546E-4,4.0354E-3,6.1995694E-3,-7.0328347E-4,3.2529505E-3,-6.9036573E-4,-3.4127038E-3],"categories":[],"categories_nodes":[],"categories_segments":[],"categories_sizes":[],"default_left":[0,0,0,0,0,0,0,0,0,0,0,0,0,0,0],"id":21,"left_children":[1,3,5,7,9,11,13,-1,-1,-1,-1,-1,-1,-1,-1],"loss_changes":[2.5669446E2,7.4889404E1,1.0914453E2,2.267411E1,1.7486633E1,4.3589233E1,4.0627914E1,0E0,0E0,0E0,0E0,0E0,0E0,0E0,0E0],"parents":[2147483647,0,0,1,1,2,2,3,3,4,4,5,5,6,6],"right_children":[2,4,6,8,10,12,14,-1,-1,-1,-1,-1,-1,-1,-1],"split_conditions":[1.5E1,1.4E1,-1.4E0,6E0,2.3E1,-4.8E0,2.4E1,2.6291548E-3,1.00874546E-4,4.0354E-3,6.1995694E-3,-7.0328347E-4,3.2529505E-3,-6.9036573E-4,-3.4127038E-3],"split_indices":[51,80,77,77,80,25,51,0,0,0,0,0,0,0,0],"split_type":[0,0,0,0,0,0,0,0,0,0,0,0,0,0,0],"sum_hessian":[6.794545E3,3.3397878E3,3.454757E3,1.784665E3,1.5551228E3,1.218116E3,2.236641E3,1.2963583E3,4.883068E2,9.06725E2,6.483979E2,4.2987244E2,7.882435E2,1.2751818E3,9.614594E2],"tree_param":{"num_deleted":"0","num_feature":"106","num_nodes":"15","size_leaf_vector":"1"}},{"base_weights":[-1.3475716E-1,-2.517082E-1,1.8218109E-1,-1.0308562E-1,-4.1911617E-1,2.6538009E-2,3.535512E-1,-2.5629436E-3,2.7407784E-4,-5.8362917E-3,-3.5032232E-3,1.6045084E-3,-1.5746972E-3,4.6077697E-3,2.6732949E-3],"categories":[],"categories_nodes":[],"categories_segments":[],"categories_sizes":[],"default_left":[0,0,0,0,0,0,0,0,0,0,0,0,0,0,0],"id":22,"left_children":[1,3,5,7,9,11,13,-1,-1,-1,-1,-1,-1,-1,-1],"loss_changes":[2.5188257E2,1.2344739E2,4.8852245E1,5.259797E1,2.6208527E1,2.3707357E1,7.9369736E0,0E0,0E0,0E0,0E0,0E0,0E0,0E0,0E0],"parents":[2147483647,0,0,1,1,2,2,3,3,4,4,5,5,6,6],"right_children":[2,4,6,8,10,12,14,-1,-1,-1,-1,-1,-1,-1,-1],"split_conditions":[2.1E1,1.4E1,5.14E-1,1E1,7E0,-4.8E0,-6E0,-2.5629436E-3,2.7407784E-4,-5.8362917E-3,-3.5032232E-3,1.6045084E-3,-1.5746972E-3,4.6077697E-3,2.6732949E-3],"split_indices":[28,80,55,51,51,25,25,0,0,0,0,0,0,0,0],"split_type":[0,0,0,0,0,0,0,0,0,0,0,0,0,0,0],"sum_hessian":[6.7932314E3,4.9623257E3,1.8309055E3,2.6295032E3,2.3328225E3,9.6008484E2,8.708207E2,1.2090392E3,1.4204639E3,6.856593E2,1.6471633E3,5.55757E2,4.043278E2,3.861983E2,4.8462234E2],"tree_param":{"num_deleted":"0","num_feature":"106","num_nodes":"15","size_leaf_vector":"1"}},{"base_weights":[1.3475716E-1,2.517082E-1,-1.821811E-1,1.0308567E-1,4.1911614E-1,-2.6538035E-2,-3.5355124E-1,2.5629438E-3,-2.7407738E-4,5.836291E-3,3.503223E-3,-1.6045088E-3,1.5746973E-3,-4.60777E-3,-2.6732953E-3],"categories":[],"categories_nodes":[],"categories_segments":[],"categories_sizes":[],"default_left":[0,0,0,0,0,0,0,0,0,0,0,0,0,0,0],"id":23,"left_children":[1,3,5,7,9,11,13,-1,-1,-1,-1,-1,-1,-1,-1],"loss_changes":[2.5188266E2,1.23447266E2,4.885224E1,5.259797E1,2.6208557E1,2.3707363E1,7.9369736E0,0E0,0E0,0E0,0E0,0E0,0E0,0E0,0E0],"parents":[2147483647,0,0,1,1,2,2,3,3,4,4,5,5,6,6],"right_children":[2,4,6,8,10,12,14,-1,-1,-1,-1,-1,-1,-1,-1],"split_conditions":[2.1E1,1.4E1,5.14E-1,1E1,7E0,-4.8E0,-6E0,2.5629438E-3,-2.7407738E-4,5.836291E-3,3.503223E-3,-1.6045088E-3,1.5746973E-3,-4.60777E-3,-2.6732953E-3],"split_indices":[28,80,55,51,51,25,25,0,0,0,0,0,0,0,0],"split_type":[0,0,0,0,0,0,0,0,0,0,0,0,0,0,0],"sum_hessian":[6.7932314E3,4.9623257E3,1.8309054E3,2.6295032E3,2.3328228E3,9.6008484E2,8.708206E2,1.2090392E3,1.420464E3,6.856593E2,1.6471633E3,5.55757E2,4.0432782E2,3.8619827E2,4.8462234E2],"tree_param":{"num_deleted":"0","num_feature":"106","num_nodes":"15","size_leaf_vector":"1"}},{"base_weights":[-1.3343927E-1,-3.2760864E-1,5.4258034E-2,-1.7189585E-1,-4.6671057E-1,-1.8259795E-1,1.8326226E-1,-2.4439387E-3,-9.4975265E-5,-3.8292282E-3,-6.100987E-3,6.850959E-4,-3.1951154E-3,6.844497E-4,3.3537452E-3],"categories":[],"categories_nodes":[],"categories_segments":[],"categories_sizes":[],"default_left":[0,0,0,0,0,0,0,0,0,0,0,0,0,0,0],"id":24,"left_children":[1,3,5,7,9,11,13,-1,-1,-1,-1,-1,-1,-1,-1],"loss_changes":[2.4758064E2,7.2241516E1,1.055965E2,1.8564583E1,2.09469E1,4.1920265E1,3.9048653E1,0E0,0E0,0E0,0E0,0E0,0E0,0E0,0E0],"parents":[2147483647,0,0,1,1,2,2,3,3,4,4,5,5,6,6],"right_children":[2,4,6,8,10,12,14,-1,-1,-1,-1,-1,-1,-1,-1],"split_conditions":[1.5E1,1.2E1,-1.4E0,6E0,2.3E1,-4.8E0,2.4E1,-2.4439387E-3,-9.4975265E-5,-3.8292282E-3,-6.100987E-3,6.850959E-4,-3.1951154E-3,6.844497E-4,3.3537452E-3],"split_indices":[51,80,77,77,80,25,51,0,0,0,0,0,0,0,0],"split_type":[0,0,0,0,0,0,0,0,0,0,0,0,0,0,0],"sum_hessian":[6.791767E3,3.337962E3,3.4538052E3,1.5759999E3,1.7619622E3,1.2176832E3,2.2361218E3,1.0892367E3,4.8676315E2,1.1144264E3,6.4753577E2,4.2983688E2,7.878464E2,1.275101E3,9.610209E2],"tree_param":{"num_deleted":"0","num_feature":"106","num_nodes":"15","size_leaf_vector":"1"}},{"base_weights":[1.3343927E-1,3.2760867E-1,-5.4258037E-2,1.7189588E-1,4.6671057E-1,1.8259795E-1,-1.8326227E-1,2.4439392E-3,9.497493E-5,3.8292285E-3,6.100987E-3,-6.8509614E-4,3.1951156E-3,-6.8445E-4,-3.353745E-3],"categories":[],"categories_nodes":[],"categories_segments":[],"categories_sizes":[],"default_left":[0,0,0,0,0,0,0,0,0,0,0,0,0,0,0],"id":25,"left_children":[1,3,5,7,9,11,13,-1,-1,-1,-1,-1,-1,-1,-1],"loss_changes":[2.4758067E2,7.2241516E1,1.0559649E2,1.8564594E1,2.094693E1,4.192027E1,3.9048637E1,0E0,0E0,0E0,0E0,0E0,0E0,0E0,0E0],"parents":[2147483647,0,0,1,1,2,2,3,3,4,4,5,5,6,6],"right_children":[2,4,6,8,10,12,14,-1,-1,-1,-1,-1,-1,-1,-1],"split_conditions":[1.5E1,1.2E1,-1.4E0,6E0,2.3E1,-4.8E0,2.4E1,2.4439392E-3,9.497493E-5,3.8292285E-3,6.100987E-3,-6.8509614E-4,3.1951156E-3,-6.8445E-4,-3.353745E-3],"split_indices":[51,80,77,77,80,25,51,0,0,0,0,0,0,0,0],"split_type":[0,0,0,0,0,0,0,0,0,0,0,0,0,0,0],"sum_hessian":[6.791767E3,3.337962E3,3.4538052E3,1.5759998E3,1.7619622E3,1.2176833E3,2.2361218E3,1.0892367E3,4.8676312E2,1.1144264E3,6.4753577E2,4.298369E2,7.8784644E2,1.2751008E3,9.6102094E2],"tree_param":{"num_deleted":"0","num_feature":"106","num_nodes":"15","size_leaf_vector":"1"}},{"base_weights":[-1.321366E-1,1.06607E-1,-2.8211486E-1,-1.308187E-1,2.158402E-1,-1.3563019E-1,-4.474526E-1,5.8549136E-4,-2.8775474E-3,7.5013784E-4,3.2609354E-3,-2.8855538E-3,-2.3347314E-4,-5.305748E-3,-3.2654218E-3],"categories":[],"categories_nodes":[],"categories_segments":[],"categories_sizes":[],"default_left":[0,0,0,0,0,0,0,0,0,0,0,0,0,0,0],"id":26,"left_children":[1,3,5,7,9,11,13,-1,-1,-1,-1,-1,-1,-1,-1],"loss_changes":[2.4319957E2,6.800195E1,1.0096561E2,2.457904E1,2.7852867E1,3.7995506E1,1.9516449E1,0E0,0E0,0E0,0E0,0E0,0E0,0E0,0E0],"parents":[2147483647,0,0,1,1,2,2,3,3,4,4,5,5,6,6],"right_children":[2,4,6,8,10,12,14,-1,-1,-1,-1,-1,-1,-1,-1],"split_conditions":[4.69E-1,-2E0,1.4E1,-4.6E0,2.4E1,8E0,-1.9E0,5.8549136E-4,-2.8775474E-3,7.5013784E-4,3.2609354E-3,-2.8855538E-3,-2.3347314E-4,-5.305748E-3,-3.2654218E-3],"split_indices":[3,77,80,25,51,51,77,0,0,0,0,0,0,0,0],"split_type":[0,0,0,0,0,0,0,0,0,0,0,0,0,0,0],"sum_hessian":[6.7902383E3,2.6199492E3,4.170289E3,8.254913E2,1.794458E3,2.2121797E3,1.9581096E3,3.7437558E2,4.5111566E2,7.8871454E2,1.0057435E3,9.359202E2,1.2762594E3,1.1583748E3,7.9973486E2],"tree_param":{"num_deleted":"0","num_feature":"106","num_nodes":"15","size_leaf_vector":"1"}},{"base_weights":[1.3213658E-1,-1.0660703E-1,2.8211486E-1,1.3081868E-1,-2.1584025E-1,1.3563019E-1,4.474526E-1,-5.854921E-4,2.8775476E-3,-7.5013854E-4,-3.2609354E-3,2.8855538E-3,2.3347323E-4,5.3057475E-3,3.2654218E-3],"categories":[],"categories_nodes":[],"categories_segments":[],"categories_sizes":[],"default_left":[0,0,0,0,0,0,0,0,0,0,0,0,0,0,0],"id":27,"left_children":[1,3,5,7,9,11,13,-1,-1,-1,-1,-1,-1,-1,-1],"loss_changes":[2.4319957E2,6.800196E1,1.0096561E2,2.457906E1,2.785286E1,3.7995506E1,1.9516449E1,0E0,0E0,0E0,0E0,0E0,0E0,0E0,0E0],"parents":[2147483647,0,0,1,1,2,2,3,3,4,4,5,5,6,6],"right_children":[2,4,6,8,10,12,14,-1,-1,-1,-1,-1,-1,-1,-1],"split_conditions":[4.69E-1,-2E0,1.4E1,-4.6E0,2.4E1,8E0,-1.9E0,-5.854921E-4,2.8775476E-3,-7.5013854E-4,-3.2609354E-3,2.8855538E-3,2.3347323E-4,5.3057475E-3,3.2654218E-3],"split_indices":[3,77,80,25,51,51,77,0,0,0,0,0,0,0,0],"split_type":[0,0,0,0,0,0,0,0,0,0,0,0,0,0,0],"sum_hessian":[6.7902383E3,2.6199492E3,4.170289E3,8.254912E2,1.794458E3,2.2121797E3,1.9581096E3,3.7437558E2,4.5111566E2,7.8871454E2,1.0057435E3,9.3592017E2,1.2762594E3,1.1583748E3,7.9973486E2],"tree_param":{"num_deleted":"0","num_feature":"106","num_nodes":"15","size_leaf_vector":"1"}},{"base_weights":[-1.3084926E-1,-3.2167292E-1,5.3554542E-2,-1.6863418E-1,-4.585018E-1,-1.7896599E-1,1.801729E-1,-2.4042835E-3,-7.8377874E-5,-3.7594954E-3,-5.999116E-3,6.705738E-4,-3.1318618E-3,6.7858084E-4,3.2904122E-3],"categories":[],"categories_nodes":[],"categories_segments":[],"categories_sizes":[],"default_left":[0,0,0,0,0,0,0,0,0,0,0,0,0,0,0],"id":28,"left_children":[1,3,5,7,9,11,13,-1,-1,-1,-1,-1,-1,-1,-1],"loss_changes":[2.3893262E2,6.97966E1,1.0171458E2,1.8199966E1,2.0333496E1,4.0245903E1,3.7373444E1,0E0,0E0,0E0,0E0,0E0,0E0,0E0,0E0],"parents":[2147483647,0,0,1,1,2,2,3,3,4,4,5,5,6,6],"right_children":[2,4,6,8,10,12,14,-1,-1,-1,-1,-1,-1,-1,-1],"split_conditions":[1.5E1,1.2E1,-1.4E0,6E0,2.3E1,-4.8E0,2.4E1,-2.4042835E-3,-7.8377874E-5,-3.7594954E-3,-5.999116E-3,6.705738E-4,-3.1318618E-3,6.7858084E-4,3.2904122E-3],"split_indices":[51,80,77,77,80,25,51,0,0,0,0,0,0,0,0],"split_type":[0,0,0,0,0,0,0,0,0,0,0,0,0,0,0],"sum_hessian":[6.788568E3,3.3358445E3,3.4527231E3,1.5757034E3,1.7601411E3,1.2171498E3,2.2355735E3,1.0889856E3,4.867177E2,1.1136647E3,6.4647644E2,4.2981204E2,7.873377E2,1.2750548E3,9.6051874E2],"tree_param":{"num_deleted":"0","num_feature":"106","num_nodes":"15","size_leaf_vector":"1"}},{"base_weights":[1.3084927E-1,3.2167292E-1,-5.3554524E-2,1.6863419E-1,4.5850182E-1,1.7896599E-1,-1.8017286E-1,2.4042835E-3,7.8377896E-5,3.7594954E-3,5.9991167E-3,-6.705739E-4,3.1318618E-3,-6.7858E-4,-3.2904122E-3],"categories":[],"categories_nodes":[],"categories_segments":[],"categories_sizes":[],"default_left":[0,0,0,0,0,0,0,0,0,0,0,0,0,0,0],"id":29,"left_children":[1,3,5,7,9,11,13,-1,-1,-1,-1,-1,-1,-1,-1],"loss_changes":[2.3893262E2,6.979666E1,1.01714554E2,1.8199966E1,2.0333496E1,4.024591E1,3.7373474E1,0E0,0E0,0E0,0E0,0E0,0E0,0E0,0E0],"parents":[2147483647,0,0,1,1,2,2,3,3,4,4,5,5,6,6],"right_children":[2,4,6,8,10,12,14,-1,-1,-1,-1,-1,-1,-1,-1],"split_conditions":[1.5E1,1.2E1,-1.4E0,6E0,2.3E1,-4.8E0,2.4E1,2.4042835E-3,7.8377896E-5,3.7594954E-3,5.9991167E-3,-6.705739E-4,3.1318618E-3,-6.7858E-4,-3.2904122E-3],"split_indices":[51,80,77,77,80,25,51,0,0,0,0,0,0,0,0],"split_type":[0,0,0,0,0,0,0,0,0,0,0,0,0,0,0],"sum_hessian":[6.788568E3,3.3358445E3,3.4527234E3,1.5757034E3,1.7601411E3,1.2171498E3,2.2355735E3,1.0889857E3,4.867177E2,1.1136647E3,6.4647644E2,4.2981204E2,7.873377E2,1.2750548E3,9.6051874E2],"tree_param":{"num_deleted":"0","num_feature":"106","num_nodes":"15","size_leaf_vector":"1"}},{"base_weights":[-1.29576E-1,-2.4251615E-1,1.7638479E-1,-9.90515E-2,-4.0436825E-1,2.5191588E-2,3.4295568E-1,-2.4767006E-3,2.7463573E-4,-5.6536025E-3,-3.3710464E-3,1.5402965E-3,-1.5185806E-3,2.6670282E-3,4.5836186E-3],"categories":[],"categories_nodes":[],"categories_segments":[],"categories_sizes":[],"default_left":[0,0,0,0,0,0,0,0,0,0,0,0,0,0,0],"id":30,"left_children":[1,3,5,7,9,11,13,-1,-1,-1,-1,-1,-1,-1,-1],"loss_changes":[2.3459784E2,1.1508908E2,4.6095135E1,4.945198E1,2.5034973E1,2.1937654E1,7.54216E0,0E0,0E0,0E0,0E0,0E0,0E0,0E0,0E0],"parents":[2147483647,0,0,1,1,2,2,3,3,4,4,5,5,6,6],"right_children":[2,4,6,8,10,12,14,-1,-1,-1,-1,-1,-1,-1,-1],"split_conditions":[2.1E1,1.4E1,5.14E-1,1E1,7E0,-4.8E0,3.5E1,-2.4767006E-3,2.7463573E-4,-5.6536025E-3,-3.3710464E-3,1.5402965E-3,-1.5185806E-3,2.6670282E-3,4.5836186E-3],"split_indices":[28,80,55,51,51,25,2,0,0,0,0,0,0,0,0],"split_type":[0,0,0,0,0,0,0,0,0,0,0,0,0,0,0],"sum_hessian":[6.786826E3,4.9571772E3,1.8296493E3,2.628714E3,2.3284631E3,9.596996E2,8.6994965E2,1.2083247E3,1.4203893E3,6.8398175E2,1.6444813E3,5.555552E2,4.0414444E2,5.2582794E2,3.4412167E2],"tree_param":{"num_deleted":"0","num_feature":"106","num_nodes":"15","size_leaf_vector":"1"}},{"base_weights":[1.2957598E-1,2.4251615E-1,-1.7638479E-1,9.90515E-2,4.0436822E-1,-2.519155E-2,-3.4295574E-1,2.4767008E-3,-2.7463582E-4,5.6536016E-3,3.3710466E-3,-1.540296E-3,1.5185808E-3,-2.667029E-3,-4.583619E-3],"categories":[],"categories_nodes":[],"categories_segments":[],"categories_sizes":[],"default_left":[0,0,0,0,0,0,0,0,0,0,0,0,0,0,0],"id":31,"left_children":[1,3,5,7,9,11,13,-1,-1,-1,-1,-1,-1,-1,-1],"loss_changes":[2.3459785E2,1.1508905E2,4.6095165E1,4.945198E1,2.5034943E1,2.1937653E1,7.54216E0,0E0,0E0,0E0,0E0,0E0,0E0,0E0,0E0],"parents":[2147483647,0,0,1,1,2,2,3,3,4,4,5,5,6,6],"right_children":[2,4,6,8,10,12,14,-1,-1,-1,-1,-1,-1,-1,-1],"split_conditions":[2.1E1,1.4E1,5.14E-1,1E1,7E0,-4.8E0,3.5E1,2.4767008E-3,-2.7463582E-4,5.6536016E-3,3.3710466E-3,-1.540296E-3,1.5185808E-3,-2.667029E-3,-4.583619E-3],"split_indices":[28,80,55,51,51,25,2,0,0,0,0,0,0,0,0],"split_type":[0,0,0,0,0,0,0,0,0,0,0,0,0,0,0],"sum_hessian":[6.786826E3,4.9571772E3,1.8296493E3,2.6287139E3,2.3284631E3,9.5969965E2,8.6994965E2,1.2083247E3,1.4203893E3,6.839817E2,1.6444813E3,5.555552E2,4.0414447E2,5.2582794E2,3.4412167E2],"tree_param":{"num_deleted":"0","num_feature":"106","num_nodes":"15","size_leaf_vector":"1"}},{"base_weights":[-1.2831591E-1,-3.1582212E-1,5.281426E-2,-1.6542767E-1,-4.5041445E-1,-1.7594792E-1,1.7736712E-1,-2.3652331E-3,-6.224811E-5,-3.68641E-3,-5.9062154E-3,6.535117E-4,-3.0766085E-3,6.7149155E-4,3.2352703E-3],"categories":[],"categories_nodes":[],"categories_segments":[],"categories_sizes":[],"default_left":[0,0,0,0,0,0,0,0,0,0,0,0,0,0,0],"id":32,"left_children":[1,3,5,7,9,11,13,-1,-1,-1,-1,-1,-1,-1,-1],"loss_changes":[2.3048944E2,6.7421234E1,9.840429E1,1.7840782E1,1.9950684E1,3.871852E1,3.5997795E1,0E0,0E0,0E0,0E0,0E0,0E0,0E0,0E0],"parents":[2147483647,0,0,1,1,2,2,3,3,4,4,5,5,6,6],"right_children":[2,4,6,8,10,12,14,-1,-1,-1,-1,-1,-1,-1,-1],"split_conditions":[1.5E1,1.2E1,-1.4E0,6E0,2.3E1,-4.8E0,2.4E1,-2.3652331E-3,-6.224811E-5,-3.68641E-3,-5.9062154E-3,6.535117E-4,-3.0766085E-3,6.7149155E-4,3.2352703E-3],"split_indices":[51,80,77,77,80,25,51,0,0,0,0,0,0,0,0],"split_type":[0,0,0,0,0,0,0,0,0,0,0,0,0,0,0],"sum_hessian":[6.784989E3,3.3334514E3,3.4515374E3,1.5753606E3,1.7580907E3,1.2166124E3,2.234925E3,1.0886938E3,4.866668E2,1.1127354E3,6.453553E2,4.2977155E2,7.868409E2,1.2749531E3,9.599719E2],"tree_param":{"num_deleted":"0","num_feature":"106","num_nodes":"15","size_leaf_vector":"1"}},{"base_weights":[1.2831591E-1,3.1582212E-1,-5.281426E-2,1.6542764E-1,4.5041445E-1,1.7594792E-1,-1.7736712E-1,2.365233E-3,6.224813E-5,3.6864094E-3,5.906216E-3,-6.5351155E-4,3.0766085E-3,-6.714913E-4,-3.2352705E-3],"categories":[],"categories_nodes":[],"categories_segments":[],"categories_sizes":[],"default_left":[0,0,0,0,0,0,0,0,0,0,0,0,0,0,0],"id":33,"left_children":[1,3,5,7,9,11,13,-1,-1,-1,-1,-1,-1,-1,-1],"loss_changes":[2.3048944E2,6.7421234E1,9.840428E1,1.7840767E1,1.9950684E1,3.8718525E1,3.5997818E1,0E0,0E0,0E0,0E0,0E0,0E0,0E0,0E0],"parents":[2147483647,0,0,1,1,2,2,3,3,4,4,5,5,6,6],"right_children":[2,4,6,8,10,12,14,-1,-1,-1,-1,-1,-1,-1,-1],"split_conditions":[1.5E1,1.2E1,-1.4E0,6E0,2.3E1,-4.8E0,2.4E1,2.365233E-3,6.224813E-5,3.6864094E-3,5.906216E-3,-6.5351155E-4,3.0766085E-3,-6.714913E-4,-3.2352705E-3],"split_indices":[51,80,77,77,80,25,51,0,0,0,0,0,0,0,0],"split_type":[0,0,0,0,0,0,0,0,0,0,0,0,0,0,0],"sum_hessian":[6.784989E3,3.3334512E3,3.4515374E3,1.5753606E3,1.7580906E3,1.2166124E3,2.234925E3,1.0886938E3,4.8666678E2,1.1127354E3,6.453553E2,4.2977155E2,7.868408E2,1.2749531E3,9.599719E2],"tree_param":{"num_deleted":"0","num_feature":"106","num_nodes":"15","size_leaf_vector":"1"}},{"base_weights":[-1.2707098E-1,1.0340299E-1,-2.7193925E-1,-1.2572351E-1,2.0881864E-1,-3.7661293E-1,-5.363259E-2,5.587798E-4,-2.7637836E-3,7.360943E-4,3.147749E-3,-5.034552E-3,-2.7987962E-3,-1.7313826E-3,8.5957354E-4],"categories":[],"categories_nodes":[],"categories_segments":[],"categories_sizes":[],"default_left":[0,0,0,0,0,0,0,0,0,0,0,0,0,0,0],"id":34,"left_children":[1,3,5,7,9,11,13,-1,-1,-1,-1,-1,-1,-1,-1],"loss_changes":[2.2653659E2,6.3287224E1,9.5175415E1,2.261191E1,2.5681E1,3.4406708E1,2.2556828E1,0E0,0E0,0E0,0E0,0E0,0E0,0E0,0E0],"parents":[2147483647,0,0,1,1,2,2,3,3,4,4,5,5,6,6],"right_children":[2,4,6,8,10,12,14,-1,-1,-1,-1,-1,-1,-1,-1],"split_conditions":[4.69E-1,-2E0,2.9E0,-4.6E0,2.4E1,-1.9E0,1E1,5.587798E-4,-2.7637836E-3,7.360943E-4,3.147749E-3,-5.034552E-3,-2.7987962E-3,-1.7313826E-3,8.5957354E-4],"split_indices":[3,77,77,25,51,77,51,0,0,0,0,0,0,0,0],"split_type":[0,0,0,0,0,0,0,0,0,0,0,0,0,0,0],"sum_hessian":[6.783054E3,2.6181196E3,4.1649346E3,8.249199E2,1.7931996E3,2.814644E3,1.3502905E3,3.7432834E2,4.5059158E2,7.8858826E2,1.0046113E3,1.2159786E3,1.5986654E3,7.2735095E2,6.2293964E2],"tree_param":{"num_deleted":"0","num_feature":"106","num_nodes":"15","size_leaf_vector":"1"}},{"base_weights":[1.2707096E-1,-1.0340299E-1,2.7193925E-1,1.2572353E-1,-2.0881864E-1,3.7661293E-1,5.3632535E-2,-5.5877905E-4,2.7637829E-3,-7.360945E-4,-3.1477485E-3,5.0345515E-3,2.7987962E-3,1.731382E-3,-8.595741E-4],"categories":[],"categories_nodes":[],"categories_segments":[],"categories_sizes":[],"default_left":[0,0,0,0,0,0,0,0,0,0,0,0,0,0,0],"id":35,"left_children":[1,3,5,7,9,11,13,-1,-1,-1,-1,-1,-1,-1,-1],"loss_changes":[2.2653656E2,6.3287216E1,9.5175476E1,2.261189E1,2.5680992E1,3.4406647E1,2.2556828E1,0E0,0E0,0E0,0E0,0E0,0E0,0E0,0E0],"parents":[2147483647,0,0,1,1,2,2,3,3,4,4,5,5,6,6],"right_children":[2,4,6,8,10,12,14,-1,-1,-1,-1,-1,-1,-1,-1],"split_conditions":[4.69E-1,-2E0,2.9E0,-4.6E0,2.4E1,-1.9E0,1E1,-5.5877905E-4,2.7637829E-3,-7.360945E-4,-3.1477485E-3,5.0345515E-3,2.7987962E-3,1.731382E-3,-8.595741E-4],"split_indices":[3,77,77,25,51,77,51,0,0,0,0,0,0,0,0],"split_type":[0,0,0,0,0,0,0,0,0,0,0,0,0,0,0],"sum_hessian":[6.783054E3,2.6181194E3,4.1649346E3,8.249199E2,1.7931996E3,2.814644E3,1.3502905E3,3.7432834E2,4.5059158E2,7.8858826E2,1.0046113E3,1.2159786E3,1.5986654E3,7.2735095E2,6.2293964E2],"tree_param":{"num_deleted":"0","num_feature":"106","num_nodes":"15","size_leaf_vector":"1"}},{"base_weights":[-1.2583876E-1,-3.1018853E-1,5.2170843E-2,-1.6230842E-1,-4.426698E-1,-1.7243406E-1,1.7443272E-1,-2.3243926E-3,-5.302078E-5,-3.620291E-3,-5.8109844E-3,6.401637E-4,-3.0159196E-3,6.663813E-4,3.1746647E-3],"categories":[],"categories_nodes":[],"categories_segments":[],"categories_sizes":[],"default_left":[0,0,0,0,0,0,0,0,0,0,0,0,0,0,0],"id":36,"left_children":[1,3,5,7,9,11,13,-1,-1,-1,-1,-1,-1,-1,-1],"loss_changes":[2.2257635E2,6.520337E1,9.4802635E1,1.7352066E1,1.9401245E1,3.7184906E1,3.4442467E1,0E0,0E0,0E0,0E0,0E0,0E0,0E0,0E0],"parents":[2147483647,0,0,1,1,2,2,3,3,4,4,5,5,6,6],"right_children":[2,4,6,8,10,12,14,-1,-1,-1,-1,-1,-1,-1,-1],"split_conditions":[1.5E1,1.2E1,-1.4E0,6E0,2.3E1,-4.8E0,2.4E1,-2.3243926E-3,-5.302078E-5,-3.620291E-3,-5.8109844E-3,6.401637E-4,-3.0159196E-3,6.663813E-4,3.1746647E-3],"split_indices":[51,80,77,77,80,25,51,0,0,0,0,0,0,0,0],"split_type":[0,0,0,0,0,0,0,0,0,0,0,0,0,0,0],"sum_hessian":[6.781057E3,3.33084E3,3.450217E3,1.5749984E3,1.7558417E3,1.2159707E3,2.2342463E3,1.0883701E3,4.8662836E2,1.1117906E3,6.4405096E2,4.297423E2,7.862284E2,1.274905E3,9.593413E2],"tree_param":{"num_deleted":"0","num_feature":"106","num_nodes":"15","size_leaf_vector":"1"}},{"base_weights":[1.2583876E-1,3.1018853E-1,-5.217084E-2,1.6230841E-1,4.426698E-1,1.7243405E-1,-1.7443271E-1,2.3243923E-3,5.3020907E-5,3.620291E-3,5.810985E-3,-6.4016413E-4,3.0159196E-3,-6.6638127E-4,-3.1746642E-3],"categories":[],"categories_nodes":[],"categories_segments":[],"categories_sizes":[],"default_left":[0,0,0,0,0,0,0,0,0,0,0,0,0,0,0],"id":37,"left_children":[1,3,5,7,9,11,13,-1,-1,-1,-1,-1,-1,-1,-1],"loss_changes":[2.2257635E2,6.520337E1,9.480261E1,1.7352055E1,1.9401245E1,3.718492E1,3.444246E1,0E0,0E0,0E0,0E0,0E0,0E0,0E0,0E0],"parents":[2147483647,0,0,1,1,2,2,3,3,4,4,5,5,6,6],"right_children":[2,4,6,8,10,12,14,-1,-1,-1,-1,-1,-1,-1,-1],"split_conditions":[1.5E1,1.2E1,-1.4E0,6E0,2.3E1,-4.8E0,2.4E1,2.3243923E-3,5.3020907E-5,3.620291E-3,5.810985E-3,-6.4016413E-4,3.0159196E-3,-6.6638127E-4,-3.1746642E-3],"split_indices":[51,80,77,77,80,25,51,0,0,0,0,0,0,0,0],"split_type":[0,0,0,0,0,0,0,0,0,0,0,0,0,0,0],"sum_hessian":[6.781057E3,3.33084E3,3.450217E3,1.5749984E3,1.7558417E3,1.2159707E3,2.2342463E3,1.0883701E3,4.8662836E2,1.1117906E3,6.4405096E2,4.297423E2,7.862284E2,1.274905E3,9.593413E2],"tree_param":{"num_deleted":"0","num_feature":"106","num_nodes":"15","size_leaf_vector":"1"}},{"base_weights":[-1.2462138E-1,-2.3372354E-1,1.7081334E-1,-1.4004716E-1,-4.6793258E-1,2.3899626E-2,3.3278298E-1,-2.0467723E-4,-2.9073905E-3,-4.07679E-3,-6.019231E-3,1.4786911E-3,-1.4648262E-3,2.576495E-3,4.465545E-3],"categories":[],"categories_nodes":[],"categories_segments":[],"categories_sizes":[],"default_left":[0,0,0,0,0,0,0,0,0,0,0,0,0,0,0],"id":38,"left_children":[1,3,5,7,9,11,13,-1,-1,-1,-1,-1,-1,-1,-1],"loss_changes":[2.1857458E2,1.08576965E2,4.351656E1,6.375712E1,1.1172882E1,2.030333E1,7.320854E0,0E0,0E0,0E0,0E0,0E0,0E0,0E0,0E0],"parents":[2147483647,0,0,1,1,2,2,3,3,4,4,5,5,6,6],"right_children":[2,4,6,8,10,12,14,-1,-1,-1,-1,-1,-1,-1,-1],"split_conditions":[2.1E1,2E1,5.14E-1,2.9E0,3.7E1,-4.8E0,3.5E1,-2.0467723E-4,-2.9073905E-3,-4.07679E-3,-6.019231E-3,1.4786911E-3,-1.4648262E-3,2.576495E-3,4.465545E-3],"split_indices":[28,80,55,25,54,25,2,0,0,0,0,0,0,0,0],"split_type":[0,0,0,0,0,0,0,0,0,0,0,0,0,0,0],"sum_hessian":[6.7789346E3,4.9508325E3,1.828102E3,3.5375286E3,1.413304E3,9.592065E2,8.6889557E2,1.97301E3,1.5645186E3,9.776926E2,4.356113E2,5.5530255E2,4.0390393E2,5.2527466E2,3.436209E2],"tree_param":{"num_deleted":"0","num_feature":"106","num_nodes":"15","size_leaf_vector":"1"}},{"base_weights":[1.24621384E-1,2.3372352E-1,-1.708133E-1,1.4004716E-1,4.6793258E-1,-2.389959E-2,-3.3278295E-1,2.046771E-4,2.9073905E-3,4.07679E-3,6.019231E-3,-1.4786909E-3,1.4648268E-3,-2.576495E-3,-4.4655446E-3],"categories":[],"categories_nodes":[],"categories_segments":[],"categories_sizes":[],"default_left":[0,0,0,0,0,0,0,0,0,0,0,0,0,0,0],"id":39,"left_children":[1,3,5,7,9,11,13,-1,-1,-1,-1,-1,-1,-1,-1],"loss_changes":[2.1857454E2,1.08576965E2,4.3516563E1,6.375712E1,1.1172852E1,2.0303339E1,7.3208466E0,0E0,0E0,0E0,0E0,0E0,0E0,0E0,0E0],"parents":[2147483647,0,0,1,1,2,2,3,3,4,4,5,5,6,6],"right_children":[2,4,6,8,10,12,14,-1,-1,-1,-1,-1,-1,-1,-1],"split_conditions":[2.1E1,2E1,5.14E-1,2.9E0,3.7E1,-4.8E0,3.5E1,2.046771E-4,2.9073905E-3,4.07679E-3,6.019231E-3,-1.4786909E-3,1.4648268E-3,-2.576495E-3,-4.4655446E-3],"split_indices":[28,80,55,25,54,25,2,0,0,0,0,0,0,0,0],"split_type":[0,0,0,0,0,0,0,0,0,0,0,0,0,0,0],"sum_hessian":[6.7789346E3,4.9508325E3,1.828102E3,3.5375286E3,1.413304E3,9.592064E2,8.6889557E2,1.97301E3,1.5645186E3,9.776926E2,4.3561133E2,5.553025E2,4.0390393E2,5.2527466E2,3.436209E2],"tree_param":{"num_deleted":"0","num_feature":"106","num_nodes":"15","size_leaf_vector":"1"}},{"base_weights":[-1.2341516E-1,-3.0464694E-1,5.150811E-2,-9.758286E-2,-3.97121E-1,-1.73654E-1,1.6937229E-1,-1.3675449E-4,-2.1602851E-3,-3.2907245E-3,-5.7183336E-3,5.642982E-4,-2.9954356E-3,4.5432567E-4,2.8664875E-3],"categories":[],"categories_nodes":[],"categories_segments":[],"categories_sizes":[],"default_left":[0,0,0,0,0,0,0,0,0,0,0,0,0,0,0],"id":40,"left_children":[1,3,5,7,9,11,13,-1,-1,-1,-1,-1,-1,-1,-1],"loss_changes":[2.1488351E2,6.3705627E1,9.158179E1,1.022442E1,2.7167664E1,3.4365067E1,3.290841E1,0E0,0E0,0E0,0E0,0E0,0E0,0E0,0E0],"parents":[2147483647,0,0,1,1,2,2,3,3,4,4,5,5,6,6],"right_children":[2,4,6,8,10,12,14,-1,-1,-1,-1,-1,-1,-1,-1],"split_conditions":[1.5E1,9E0,-1.5E0,6.55E-1,2.3E1,-4.8E0,2.2E1,-1.3675449E-4,-2.1602851E-3,-3.2907245E-3,-5.7183336E-3,5.642982E-4,-2.9954356E-3,4.5432567E-4,2.8664875E-3],"split_indices":[51,103,77,3,80,25,29,0,0,0,0,0,0,0,0],"split_type":[0,0,0,0,0,0,0,0,0,0,0,0,0,0,0],"sum_hessian":[6.7768115E3,3.3280234E3,3.448788E3,1.0280692E3,2.299954E3,1.1848444E3,2.2639436E3,6.0242456E2,4.2564462E2,1.6573269E3,6.426273E2,4.192139E2,7.656305E2,1.1013773E3,1.1625664E3],"tree_param":{"num_deleted":"0","num_feature":"106","num_nodes":"15","size_leaf_vector":"1"}},{"base_weights":[1.2341516E-1,3.0464694E-1,-5.1508106E-2,9.7582854E-2,3.97121E-1,1.73654E-1,-1.6937228E-1,1.3675442E-4,2.1602851E-3,3.290724E-3,5.7183336E-3,-5.6429824E-4,2.9954351E-3,-4.5432558E-4,-2.8664875E-3],"categories":[],"categories_nodes":[],"categories_segments":[],"categories_sizes":[],"default_left":[0,0,0,0,0,0,0,0,0,0,0,0,0,0,0],"id":41,"left_children":[1,3,5,7,9,11,13,-1,-1,-1,-1,-1,-1,-1,-1],"loss_changes":[2.1488351E2,6.3705627E1,9.1581764E1,1.0224418E1,2.7167694E1,3.4365055E1,3.2908424E1,0E0,0E0,0E0,0E0,0E0,0E0,0E0,0E0],"parents":[2147483647,0,0,1,1,2,2,3,3,4,4,5,5,6,6],"right_children":[2,4,6,8,10,12,14,-1,-1,-1,-1,-1,-1,-1,-1],"split_conditions":[1.5E1,9E0,-1.5E0,6.55E-1,2.3E1,-4.8E0,2.2E1,1.3675442E-4,2.1602851E-3,3.290724E-3,5.7183336E-3,-5.6429824E-4,2.9954351E-3,-4.5432558E-4,-2.8664875E-3],"split_indices":[51,103,77,3,80,25,29,0,0,0,0,0,0,0,0],"split_type":[0,0,0,0,0,0,0,0,0,0,0,0,0,0,0],"sum_hessian":[6.7768115E3,3.3280234E3,3.448788E3,1.0280691E3,2.299954E3,1.1848444E3,2.2639438E3,6.0242456E2,4.2564462E2,1.6573269E3,6.426273E2,4.192139E2,7.6563055E2,1.1013773E3,1.1625664E3],"tree_param":{"num_deleted":"0","num_feature":"106","num_nodes":"15","size_leaf_vector":"1"}},{"base_weights":[-1.2222393E-1,1.0024498E-1,-2.621563E-1,-1.895126E-1,1.7777124E-1,-3.6419722E-1,-4.970433E-2,-1.2711564E-3,-5.704618E-3,4.1907773E-4,2.8496417E-3,-4.8714587E-3,-2.7064807E-3,-1.6590677E-3,8.5939927E-4],"categories":[],"categories_nodes":[],"categories_segments":[],"categories_sizes":[],"default_left":[0,0,0,0,0,0,0,0,0,0,0,0,0,0,0],"id":42,"left_children":[1,3,5,7,9,11,13,-1,-1,-1,-1,-1,-1,-1,-1],"loss_changes":[2.1095306E2,5.882003E1,9.015726E1,1.306916E1,3.0062881E1,3.2185944E1,2.1305714E1,0E0,0E0,0E0,0E0,0E0,0E0,0E0,0E0],"parents":[2147483647,0,0,1,1,2,2,3,3,4,4,5,5,6,6],"right_children":[2,4,6,8,10,12,14,-1,-1,-1,-1,-1,-1,-1,-1],"split_conditions":[4.69E-1,3.58E-1,2.9E0,-1E0,2.4E1,-1.9E0,1E1,-1.2711564E-3,-5.704618E-3,4.1907773E-4,2.8496417E-3,-4.8714587E-3,-2.7064807E-3,-1.6590677E-3,8.5939927E-4],"split_indices":[3,55,77,25,51,77,51,0,0,0,0,0,0,0,0],"split_type":[0,0,0,0,0,0,0,0,0,0,0,0,0,0,0],"sum_hessian":[6.7745444E3,2.6159338E3,4.1586104E3,5.518664E2,2.0640674E3,2.8088179E3,1.3497926E3,4.7534216E2,7.652423E1,9.1091016E2,1.1531572E3,1.2118782E3,1.5969397E3,7.268761E2,6.2291644E2],"tree_param":{"num_deleted":"0","num_feature":"106","num_nodes":"15","size_leaf_vector":"1"}},{"base_weights":[1.2222394E-1,-1.0024496E-1,2.621563E-1,1.8951264E-1,-1.7777124E-1,3.6419722E-1,4.9704343E-2,1.2711568E-3,5.704618E-3,-4.190778E-4,-2.8496417E-3,4.8714587E-3,2.7064807E-3,1.6590678E-3,-8.593992E-4],"categories":[],"categories_nodes":[],"categories_segments":[],"categories_sizes":[],"default_left":[0,0,0,0,0,0,0,0,0,0,0,0,0,0,0],"id":43,"left_children":[1,3,5,7,9,11,13,-1,-1,-1,-1,-1,-1,-1,-1],"loss_changes":[2.1095306E2,5.8820038E1,9.015723E1,1.3069159E1,3.0062881E1,3.2185944E1,2.1305714E1,0E0,0E0,0E0,0E0,0E0,0E0,0E0,0E0],"parents":[2147483647,0,0,1,1,2,2,3,3,4,4,5,5,6,6],"right_children":[2,4,6,8,10,12,14,-1,-1,-1,-1,-1,-1,-1,-1],"split_conditions":[4.69E-1,3.58E-1,2.9E0,-1E0,2.4E1,-1.9E0,1E1,1.2711568E-3,5.704618E-3,-4.190778E-4,-2.8496417E-3,4.8714587E-3,2.7064807E-3,1.6590678E-3,-8.593992E-4],"split_indices":[3,55,77,25,51,77,51,0,0,0,0,0,0,0,0],"split_type":[0,0,0,0,0,0,0,0,0,0,0,0,0,0,0],"sum_hessian":[6.7745444E3,2.6159338E3,4.1586104E3,5.518664E2,2.0640674E3,2.8088179E3,1.3497926E3,4.7534213E2,7.652423E1,9.1091016E2,1.1531572E3,1.2118782E3,1.5969398E3,7.268761E2,6.2291644E2],"tree_param":{"num_deleted":"0","num_feature":"106","num_nodes":"15","size_leaf_vector":"1"}},{"base_weights":[-1.2104383E-1,-2.9923198E-1,5.0853327E-2,-1.5557964E-1,-4.2821676E-1,-1.6638435E-1,1.6905132E-1,-2.244969E-3,-1.3640023E-5,-3.5006835E-3,-5.6274496E-3,6.1388034E-4,-2.909814E-3,6.5187353E-4,3.0704183E-3],"categories":[],"categories_nodes":[],"categories_segments":[],"categories_sizes":[],"default_left":[0,0,0,0,0,0,0,0,0,0,0,0,0,0,0],"id":44,"left_children":[1,3,5,7,9,11,13,-1,-1,-1,-1,-1,-1,-1,-1],"loss_changes":[2.0748203E2,6.155966E1,8.857208E1,1.67398E1,1.8220673E1,3.451663E1,3.1994747E1,0E0,0E0,0E0,0E0,0E0,0E0,0E0,0E0],"parents":[2147483647,0,0,1,1,2,2,3,3,4,4,5,5,6,6],"right_children":[2,4,6,8,10,12,14,-1,-1,-1,-1,-1,-1,-1,-1],"split_conditions":[1.5E1,1.2E1,-1.4E0,6E0,2.3E1,-4.8E0,2.4E1,-2.244969E-3,-1.3640023E-5,-3.5006835E-3,-5.6274496E-3,6.1388034E-4,-2.909814E-3,6.5187353E-4,3.0704183E-3],"split_indices":[51,80,77,77,80,25,51,0,0,0,0,0,0,0,0],"split_type":[0,0,0,0,0,0,0,0,0,0,0,0,0,0,0],"sum_hessian":[6.7723125E3,3.3249438E3,3.447369E3,1.5740765E3,1.7508673E3,1.2146111E3,2.2327578E3,1.0875891E3,4.8648734E2,1.1097867E3,6.4108057E2,4.2966318E2,7.849479E2,1.2747441E3,9.580136E2],"tree_param":{"num_deleted":"0","num_feature":"106","num_nodes":"15","size_leaf_vector":"1"}},{"base_weights":[1.2104384E-1,2.9923198E-1,-5.0853312E-2,1.5557966E-1,4.2821673E-1,1.6638437E-1,-1.6905129E-1,2.2449691E-3,1.3640343E-5,3.5006835E-3,5.6274496E-3,-6.138802E-4,2.9098142E-3,-6.5187336E-4,-3.0704183E-3],"categories":[],"categories_nodes":[],"categories_segments":[],"categories_sizes":[],"default_left":[0,0,0,0,0,0,0,0,0,0,0,0,0,0,0],"id":45,"left_children":[1,3,5,7,9,11,13,-1,-1,-1,-1,-1,-1,-1,-1],"loss_changes":[2.07482E2,6.1559692E1,8.857209E1,1.67398E1,1.8220673E1,3.451663E1,3.1994755E1,0E0,0E0,0E0,0E0,0E0,0E0,0E0,0E0],"parents":[2147483647,0,0,1,1,2,2,3,3,4,4,5,5,6,6],"right_children":[2,4,6,8,10,12,14,-1,-1,-1,-1,-1,-1,-1,-1],"split_conditions":[1.5E1,1.2E1,-1.4E0,6E0,2.3E1,-4.8E0,2.4E1,2.2449691E-3,1.3640343E-5,3.5006835E-3,5.6274496E-3,-6.138802E-4,2.9098142E-3,-6.5187336E-4,-3.0704183E-3],"split_indices":[51,80,77,77,80,25,51,0,0,0,0,0,0,0,0],"split_type":[0,0,0,0,0,0,0,0,0,0,0,0,0,0,0],"sum_hessian":[6.7723125E3,3.3249438E3,3.447369E3,1.5740765E3,1.7508673E3,1.2146111E3,2.2327578E3,1.0875891E3,4.864873E2,1.1097867E3,6.4108057E2,4.2966318E2,7.849479E2,1.2747441E3,9.580136E2],"tree_param":{"num_deleted":"0","num_feature":"106","num_nodes":"15","size_leaf_vector":"1"}},{"base_weights":[-1.1987873E-1,-2.4452955E-1,1.2149072E-1,-1.0793109E-1,-3.985002E-1,-1.8140233E-1,1.983936E-1,-2.6599567E-3,-4.6763096E-5,-5.336987E-3,-3.333814E-3,-2.2398663E-4,-3.3309816E-3,9.499007E-4,3.2301624E-3],"categories":[],"categories_nodes":[],"categories_segments":[],"categories_sizes":[],"default_left":[0,0,0,0,0,0,0,0,0,0,0,0,0,0,0],"id":46,"left_children":[1,3,5,7,9,11,13,-1,-1,-1,-1,-1,-1,-1,-1],"loss_changes":[2.03744E2,9.387247E1,5.3762894E1,3.863888E1,1.8299927E1,1.12701845E1,2.3679993E1,0E0,0E0,0E0,0E0,0E0,0E0,0E0,0E0],"parents":[2147483647,0,0,1,1,2,2,3,3,4,4,5,5,6,6],"right_children":[2,4,6,8,10,12,14,-1,-1,-1,-1,-1,-1,-1,-1],"split_conditions":[1.9E1,1.4E1,3.58E-1,8E0,7E0,-4.6E0,2.6E1,-2.6599567E-3,-4.6763096E-5,-5.336987E-3,-3.333814E-3,-2.2398663E-4,-3.3309816E-3,9.499007E-4,3.2301624E-3],"split_indices":[27,80,55,51,51,25,51,0,0,0,0,0,0,0,0],"split_type":[0,0,0,0,0,0,0,0,0,0,0,0,0,0,0],"sum_hessian":[6.769864E3,4.4643296E3,2.305534E3,2.3665203E3,2.0978096E3,4.6656033E2,1.8389736E3,9.3445734E2,1.432063E3,6.7961316E2,1.4181963E3,2.2835362E2,2.3820671E2,1.00601337E3,8.329603E2],"tree_param":{"num_deleted":"0","num_feature":"106","num_nodes":"15","size_leaf_vector":"1"}},{"base_weights":[1.19878754E-1,2.4452956E-1,-1.2149072E-1,1.07931115E-1,3.9850023E-1,1.8140231E-1,-1.983936E-1,2.6599572E-3,4.6763285E-5,5.3369873E-3,3.333814E-3,2.2398702E-4,3.3309811E-3,-9.499008E-4,-3.2301622E-3],"categories":[],"categories_nodes":[],"categories_segments":[],"categories_sizes":[],"default_left":[0,0,0,0,0,0,0,0,0,0,0,0,0,0,0],"id":47,"left_children":[1,3,5,7,9,11,13,-1,-1,-1,-1,-1,-1,-1,-1],"loss_changes":[2.0374403E2,9.387247E1,5.376289E1,3.8638878E1,1.8299927E1,1.1270177E1,2.3679977E1,0E0,0E0,0E0,0E0,0E0,0E0,0E0,0E0],"parents":[2147483647,0,0,1,1,2,2,3,3,4,4,5,5,6,6],"right_children":[2,4,6,8,10,12,14,-1,-1,-1,-1,-1,-1,-1,-1],"split_conditions":[1.9E1,1.4E1,3.58E-1,8E0,7E0,-4.6E0,2.6E1,2.6599572E-3,4.6763285E-5,5.3369873E-3,3.333814E-3,2.2398702E-4,3.3309811E-3,-9.499008E-4,-3.2301622E-3],"split_indices":[27,80,55,51,51,25,51,0,0,0,0,0,0,0,0],"split_type":[0,0,0,0,0,0,0,0,0,0,0,0,0,0,0],"sum_hessian":[6.769864E3,4.4643296E3,2.305534E3,2.3665203E3,2.0978093E3,4.6656033E2,1.8389736E3,9.3445734E2,1.432063E3,6.7961316E2,1.4181963E3,2.2835362E2,2.3820671E2,1.00601337E3,8.329603E2],"tree_param":{"num_deleted":"0","num_feature":"106","num_nodes":"15","size_leaf_vector":"1"}},{"base_weights":[-1.1872425E-1,-2.9387122E-1,5.0144006E-2,-9.3149245E-2,-3.837076E-1,-1.6786191E-1,1.6421318E-1,-1.1117398E-4,-2.0900907E-3,-3.17462E-3,-5.543295E-3,5.4152036E-4,-2.8951562E-3,4.488289E-4,2.7725354E-3],"categories":[],"categories_nodes":[],"categories_segments":[],"categories_sizes":[],"default_left":[0,0,0,0,0,0,0,0,0,0,0,0,0,0,0],"id":48,"left_children":[1,3,5,7,9,11,13,-1,-1,-1,-1,-1,-1,-1,-1],"loss_changes":[2.0020378E2,5.987802E1,8.5742966E1,9.773906E0,2.576416E1,3.2007675E1,3.0518166E1,0E0,0E0,0E0,0E0,0E0,0E0,0E0,0E0],"parents":[2147483647,0,0,1,1,2,2,3,3,4,4,5,5,6,6],"right_children":[2,4,6,8,10,12,14,-1,-1,-1,-1,-1,-1,-1,-1],"split_conditions":[1.5E1,9E0,-1.5E0,6.55E-1,2.3E1,-4.8E0,2.2E1,-1.1117398E-4,-2.0900907E-3,-3.17462E-3,-5.543295E-3,5.4152036E-4,-2.8951562E-3,4.488289E-4,2.7725354E-3],"split_indices":[51,103,77,3,80,25,29,0,0,0,0,0,0,0,0],"split_type":[0,0,0,0,0,0,0,0,0,0,0,0,0,0,0],"sum_hessian":[6.7674575E3,3.3216082E3,3.4458494E3,1.0276226E3,2.2939856E3,1.1835016E3,2.2623477E3,6.022848E2,4.2533774E2,1.6544784E3,6.395071E2,4.1914E2,7.643616E2,1.1012344E3,1.1611134E3],"tree_param":{"num_deleted":"0","num_feature":"106","num_nodes":"15","size_leaf_vector":"1"}},{"base_weights":[1.1872426E-1,2.938712E-1,-5.0143994E-2,9.314922E-2,3.8370764E-1,1.678619E-1,-1.6421315E-1,1.1117369E-4,2.0900904E-3,3.17462E-3,5.543295E-3,-5.4152065E-4,2.8951562E-3,-4.4882845E-4,-2.7725354E-3],"categories":[],"categories_nodes":[],"categories_segments":[],"categories_sizes":[],"default_left":[0,0,0,0,0,0,0,0,0,0,0,0,0,0,0],"id":49,"left_children":[1,3,5,7,9,11,13,-1,-1,-1,-1,-1,-1,-1,-1],"loss_changes":[2.0020377E2,5.987802E1,8.574296E1,9.773907E0,2.576419E1,3.2007675E1,3.0518188E1,0E0,0E0,0E0,0E0,0E0,0E0,0E0,0E0],"parents":[2147483647,0,0,1,1,2,2,3,3,4,4,5,5,6,6],"right_children":[2,4,6,8,10,12,14,-1,-1,-1,-1,-1,-1,-1,-1],"split_conditions":[1.5E1,9E0,-1.5E0,6.55E-1,2.3E1,-4.8E0,2.2E1,1.1117369E-4,2.0900904E-3,3.17462E-3,5.543295E-3,-5.4152065E-4,2.8951562E-3,-4.4882845E-4,-2.7725354E-3],"split_indices":[51,103,77,3,80,25,29,0,0,0,0,0,0,0,0],"split_type":[0,0,0,0,0,0,0,0,0,0,0,0,0,0,0],"sum_hessian":[6.7674575E3,3.3216082E3,3.4458494E3,1.0276226E3,2.2939856E3,1.1835016E3,2.2623477E3,6.022848E2,4.2533777E2,1.6544784E3,6.395071E2,4.1914E2,7.643616E2,1.1012344E3,1.1611134E3],"tree_param":{"num_deleted":"0","num_feature":"106","num_nodes":"15","size_leaf_vector":"1"}},{"base_weights":[-1.17583804E-1,-2.2115785E-1,1.626476E-1,-1.316308E-1,-4.4590664E-1,2.140729E-2,3.1854966E-1,-3.0490195E-3,-3.550745E-4,-3.8634085E-3,-5.7853716E-3,1.3935673E-3,-1.40727E-3,2.4453416E-3,4.3072435E-3],"categories":[],"categories_nodes":[],"categories_segments":[],"categories_sizes":[],"default_left":[0,0,0,0,0,0,0,0,0,0,0,0,0,0,0],"id":50,"left_children":[1,3,5,7,9,11,13,-1,-1,-1,-1,-1,-1,-1,-1],"loss_changes":[1.964137E2,9.934874E1,4.021039E1,5.8857704E1,1.0891815E1,1.8365757E1,7.1020355E0,0E0,0E0,0E0,0E0,0E0,0E0,0E0,0E0],"parents":[2147483647,0,0,1,1,2,2,3,3,4,4,5,5,6,6],"right_children":[2,4,6,8,10,12,14,-1,-1,-1,-1,-1,-1,-1,-1],"split_conditions":[2.1E1,2E1,5.14E-1,8E0,3.7E1,-4.8E0,3.5E1,-3.0490195E-3,-3.550745E-4,-3.8634085E-3,-5.7853716E-3,1.3935673E-3,-1.40727E-3,2.4453416E-3,4.3072435E-3],"split_indices":[28,80,55,51,54,25,2,0,0,0,0,0,0,0,0],"split_type":[0,0,0,0,0,0,0,0,0,0,0,0,0,0,0],"sum_hessian":[6.764882E3,4.939459E3,1.8254226E3,3.5335005E3,1.4059587E3,9.5834344E2,8.670791E2,1.2600223E3,2.273478E3,9.72922E2,4.3303677E2,5.548452E2,4.0349826E2,5.243082E2,3.4277094E2],"tree_param":{"num_deleted":"0","num_feature":"106","num_nodes":"15","size_leaf_vector":"1"}},{"base_weights":[1.175838E-1,2.2115785E-1,-1.626476E-1,1.316308E-1,4.4590667E-1,-2.1407304E-2,-3.1854963E-1,3.0490195E-3,3.5507447E-4,3.8634085E-3,5.785372E-3,-1.3935674E-3,1.40727E-3,-2.4453416E-3,-4.307243E-3],"categories":[],"categories_nodes":[],"categories_segments":[],"categories_sizes":[],"default_left":[0,0,0,0,0,0,0,0,0,0,0,0,0,0,0],"id":51,"left_children":[1,3,5,7,9,11,13,-1,-1,-1,-1,-1,-1,-1,-1],"loss_changes":[1.964137E2,9.934877E1,4.0210373E1,5.8857708E1,1.0891815E1,1.836576E1,7.1020355E0,0E0,0E0,0E0,0E0,0E0,0E0,0E0,0E0],"parents":[2147483647,0,0,1,1,2,2,3,3,4,4,5,5,6,6],"right_children":[2,4,6,8,10,12,14,-1,-1,-1,-1,-1,-1,-1,-1],"split_conditions":[2.1E1,2E1,5.14E-1,8E0,3.7E1,-4.8E0,3.5E1,3.0490195E-3,3.5507447E-4,3.8634085E-3,5.785372E-3,-1.3935674E-3,1.40727E-3,-2.4453416E-3,-4.307243E-3],"split_indices":[28,80,55,51,54,25,2,0,0,0,0,0,0,0,0],"split_type":[0,0,0,0,0,0,0,0,0,0,0,0,0,0,0],"sum_hessian":[6.764882E3,4.939459E3,1.8254226E3,3.5335005E3,1.4059587E3,9.5834344E2,8.6707916E2,1.2600223E3,2.273478E3,9.7292194E2,4.3303677E2,5.548452E2,4.0349823E2,5.243082E2,3.4277094E2],"tree_param":{"num_deleted":"0","num_feature":"106","num_nodes":"15","size_leaf_vector":"1"}},{"base_weights":[-1.1645317E-1,-2.887365E-1,4.956448E-2,-9.055111E-2,-3.7753555E-1,-1.6070668E-1,1.6391562E-1,-2.0842442E-4,-2.2224635E-3,-3.1233819E-3,-5.4577077E-3,5.834606E-4,-2.807219E-3,6.368698E-4,2.972614E-3],"categories":[],"categories_nodes":[],"categories_segments":[],"categories_sizes":[],"default_left":[0,0,0,0,0,0,0,0,0,0,0,0,0,0,0],"id":52,"left_children":[1,3,5,7,9,11,13,-1,-1,-1,-1,-1,-1,-1,-1],"loss_changes":[1.9345984E2,5.837909E1,8.286423E1,9.43585E0,2.496756E1,3.193445E1,2.9812744E1,0E0,0E0,0E0,0E0,0E0,0E0,0E0,0E0],"parents":[2147483647,0,0,1,1,2,2,3,3,4,4,5,5,6,6],"right_children":[2,4,6,8,10,12,14,-1,-1,-1,-1,-1,-1,-1,-1],"split_conditions":[1.5E1,9E0,-1.4E0,6.71E-1,2.3E1,-4.8E0,2.4E1,-2.0842442E-4,-2.2224635E-3,-3.1233819E-3,-5.4577077E-3,5.834606E-4,-2.807219E-3,6.368698E-4,2.972614E-3],"split_indices":[51,103,77,3,80,25,51,0,0,0,0,0,0,0,0],"split_type":[0,0,0,0,0,0,0,0,0,0,0,0,0,0,0],"sum_hessian":[6.7623394E3,3.318184E3,3.444155E3,1.0273412E3,2.2908428E3,1.2130919E3,2.231063E3,6.7252167E2,3.5481955E2,1.6530726E3,6.377702E2,4.2956335E2,7.835286E2,1.2745397E3,9.565233E2],"tree_param":{"num_deleted":"0","num_feature":"106","num_nodes":"15","size_leaf_vector":"1"}},{"base_weights":[1.1645317E-1,2.8873652E-1,-4.9564485E-2,9.055114E-2,3.7753555E-1,1.6070665E-1,-1.6391562E-1,2.0842467E-4,2.222464E-3,3.1233816E-3,5.4577077E-3,-5.834608E-4,2.8072186E-3,-6.3686987E-4,-2.9726138E-3],"categories":[],"categories_nodes":[],"categories_segments":[],"categories_sizes":[],"default_left":[0,0,0,0,0,0,0,0,0,0,0,0,0,0,0],"id":53,"left_children":[1,3,5,7,9,11,13,-1,-1,-1,-1,-1,-1,-1,-1],"loss_changes":[1.9345987E2,5.837906E1,8.286421E1,9.435851E0,2.496756E1,3.1934452E1,2.9812737E1,0E0,0E0,0E0,0E0,0E0,0E0,0E0,0E0],"parents":[2147483647,0,0,1,1,2,2,3,3,4,4,5,5,6,6],"right_children":[2,4,6,8,10,12,14,-1,-1,-1,-1,-1,-1,-1,-1],"split_conditions":[1.5E1,9E0,-1.4E0,6.71E-1,2.3E1,-4.8E0,2.4E1,2.0842467E-4,2.222464E-3,3.1233816E-3,5.4577077E-3,-5.834608E-4,2.8072186E-3,-6.3686987E-4,-2.9726138E-3],"split_indices":[51,103,77,3,80,25,51,0,0,0,0,0,0,0,0],"split_type":[0,0,0,0,0,0,0,0,0,0,0,0,0,0,0],"sum_hessian":[6.7623394E3,3.318184E3,3.444155E3,1.0273412E3,2.2908428E3,1.213092E3,2.231063E3,6.7252167E2,3.5481955E2,1.6530726E3,6.3777026E2,4.2956335E2,7.835286E2,1.2745398E3,9.565233E2],"tree_param":{"num_deleted":"0","num_feature":"106","num_nodes":"15","size_leaf_vector":"1"}},{"base_weights":[-1.15337156E-1,9.579154E-2,-2.4830832E-1,-1.8067303E-1,1.6974568E-1,-3.4665743E-1,-4.4168796E-2,-1.2028292E-3,-5.5046976E-3,4.127328E-4,2.7126714E-3,-4.6469225E-3,-2.571925E-3,-1.1602473E-3,1.6030812E-3],"categories":[],"categories_nodes":[],"categories_segments":[],"categories_sizes":[],"default_left":[0,0,0,0,0,0,0,0,0,0,0,0,0,0,0],"id":54,"left_children":[1,3,5,7,9,11,13,-1,-1,-1,-1,-1,-1,-1,-1],"loss_changes":[1.8982138E2,5.3460136E1,8.327135E1,1.22609825E1,2.688602E1,2.9442657E1,1.9852814E1,0E0,0E0,0E0,0E0,0E0,0E0,0E0,0E0],"parents":[2147483647,0,0,1,1,2,2,3,3,4,4,5,5,6,6],"right_children":[2,4,6,8,10,12,14,-1,-1,-1,-1,-1,-1,-1,-1],"split_conditions":[4.69E-1,3.58E-1,2.9E0,-1E0,2.4E1,-1.9E0,1.4E1,-1.2028292E-3,-5.5046976E-3,4.127328E-4,2.7126714E-3,-4.6469225E-3,-2.571925E-3,-1.1602473E-3,1.6030812E-3],"split_indices":[3,55,77,25,51,77,51,0,0,0,0,0,0,0,0],"split_type":[0,0,0,0,0,0,0,0,0,0,0,0,0,0,0],"sum_hessian":[6.7596113E3,2.6122375E3,4.1473735E3,5.509953E2,2.0612422E3,2.7984536E3,1.3489202E3,4.7478516E2,7.6210106E1,9.104727E2,1.1507695E3,1.2047637E3,1.5936898E3,9.984752E2,3.5044498E2],"tree_param":{"num_deleted":"0","num_feature":"106","num_nodes":"15","size_leaf_vector":"1"}},{"base_weights":[1.1533716E-1,-9.579154E-2,2.4830833E-1,1.8067303E-1,-1.6974568E-1,3.4665743E-1,4.4168808E-2,1.2028293E-3,5.5046966E-3,-4.127329E-4,-2.7126714E-3,4.6469225E-3,2.571925E-3,1.160247E-3,-1.6030803E-3],"categories":[],"categories_nodes":[],"categories_segments":[],"categories_sizes":[],"default_left":[0,0,0,0,0,0,0,0,0,0,0,0,0,0,0],"id":55,"left_children":[1,3,5,7,9,11,13,-1,-1,-1,-1,-1,-1,-1,-1],"loss_changes":[1.8982138E2,5.3460136E1,8.327135E1,1.2260979E1,2.6886017E1,2.9442657E1,1.9852798E1,0E0,0E0,0E0,0E0,0E0,0E0,0E0,0E0],"parents":[2147483647,0,0,1,1,2,2,3,3,4,4,5,5,6,6],"right_children":[2,4,6,8,10,12,14,-1,-1,-1,-1,-1,-1,-1,-1],"split_conditions":[4.69E-1,3.58E-1,2.9E0,-1E0,2.4E1,-1.9E0,1.4E1,1.2028293E-3,5.5046966E-3,-4.127329E-4,-2.7126714E-3,4.6469225E-3,2.571925E-3,1.160247E-3,-1.6030803E-3],"split_indices":[3,55,77,25,51,77,51,0,0,0,0,0,0,0,0],"split_type":[0,0,0,0,0,0,0,0,0,0,0,0,0,0,0],"sum_hessian":[6.7596113E3,2.6122375E3,4.1473735E3,5.509953E2,2.0612422E3,2.7984536E3,1.3489202E3,4.7478516E2,7.6210106E1,9.1047266E2,1.1507695E3,1.2047637E3,1.5936898E3,9.984752E2,3.5044498E2],"tree_param":{"num_deleted":"0","num_feature":"106","num_nodes":"15","size_leaf_vector":"1"}},{"base_weights":[-1.1423025E-1,-2.835891E-1,4.8869837E-2,-8.8651665E-2,-3.7104842E-1,-1.579215E-1,1.6130206E-1,-8.901735E-5,-2.013707E-3,-3.0672052E-3,-5.373587E-3,5.744377E-4,-2.7601614E-3,6.317514E-4,2.9195985E-3],"categories":[],"categories_nodes":[],"categories_segments":[],"categories_sizes":[],"default_left":[0,0,0,0,0,0,0,0,0,0,0,0,0,0,0],"id":56,"left_children":[1,3,5,7,9,11,13,-1,-1,-1,-1,-1,-1,-1,-1],"loss_changes":[1.866859E2,5.6493896E1,8.008588E1,9.240551E0,2.431717E1,3.0874533E1,2.8587208E1,0E0,0E0,0E0,0E0,0E0,0E0,0E0,0E0],"parents":[2147483647,0,0,1,1,2,2,3,3,4,4,5,5,6,6],"right_children":[2,4,6,8,10,12,14,-1,-1,-1,-1,-1,-1,-1,-1],"split_conditions":[1.5E1,9E0,-1.4E0,6.55E-1,2.3E1,-4.8E0,2.4E1,-8.901735E-5,-2.013707E-3,-3.0672052E-3,-5.373587E-3,5.744377E-4,-2.7601614E-3,6.317514E-4,2.9195985E-3],"split_indices":[51,103,77,3,80,25,51,0,0,0,0,0,0,0,0],"split_type":[0,0,0,0,0,0,0,0,0,0,0,0,0,0,0],"sum_hessian":[6.756985E3,3.3145278E3,3.442457E3,1.0271453E3,2.2873823E3,1.2123091E3,2.230148E3,6.021773E2,4.2496796E2,1.6514537E3,6.359287E2,4.295205E2,7.827886E2,1.2744735E3,9.556745E2],"tree_param":{"num_deleted":"0","num_feature":"106","num_nodes":"15","size_leaf_vector":"1"}},{"base_weights":[1.14230245E-1,2.835891E-1,-4.8869845E-2,8.8651665E-2,3.7104842E-1,1.5792148E-1,-1.6130206E-1,8.901725E-5,2.013707E-3,3.0672052E-3,5.373587E-3,-5.744377E-4,2.7601614E-3,-6.3175155E-4,-2.9195985E-3],"categories":[],"categories_nodes":[],"categories_segments":[],"categories_sizes":[],"default_left":[0,0,0,0,0,0,0,0,0,0,0,0,0,0,0],"id":57,"left_children":[1,3,5,7,9,11,13,-1,-1,-1,-1,-1,-1,-1,-1],"loss_changes":[1.8668591E2,5.6493866E1,8.008588E1,9.24055E0,2.431717E1,3.0874537E1,2.8587204E1,0E0,0E0,0E0,0E0,0E0,0E0,0E0,0E0],"parents":[2147483647,0,0,1,1,2,2,3,3,4,4,5,5,6,6],"right_children":[2,4,6,8,10,12,14,-1,-1,-1,-1,-1,-1,-1,-1],"split_conditions":[1.5E1,9E0,-1.4E0,6.55E-1,2.3E1,-4.8E0,2.4E1,8.901725E-5,2.013707E-3,3.0672052E-3,5.373587E-3,-5.744377E-4,2.7601614E-3,-6.3175155E-4,-2.9195985E-3],"split_indices":[51,103,77,3,80,25,51,0,0,0,0,0,0,0,0],"split_type":[0,0,0,0,0,0,0,0,0,0,0,0,0,0,0],"sum_hessian":[6.756985E3,3.3145276E3,3.442457E3,1.0271453E3,2.2873823E3,1.2123091E3,2.230148E3,6.021773E2,4.24968E2,1.6514537E3,6.359287E2,4.295205E2,7.827886E2,1.2744735E3,9.556745E2],"tree_param":{"num_deleted":"0","num_feature":"106","num_nodes":"15","size_leaf_vector":"1"}},{"base_weights":[-1.13137856E-1,-2.3159061E-1,1.1595798E-1,-1.0073954E-1,-3.796532E-1,-1.7361161E-1,1.8948111E-1,-2.5237906E-3,-1.833593E-5,-5.118276E-3,-3.161216E-3,-2.6482027E-3,6.379413E-4,9.1011095E-4,3.0834766E-3],"categories":[],"categories_nodes":[],"categories_segments":[],"categories_sizes":[],"default_left":[0,0,0,0,0,0,0,0,0,0,0,0,0,0,0],"id":58,"left_children":[1,3,5,7,9,11,13,-1,-1,-1,-1,-1,-1,-1,-1],"loss_changes":[1.833408E2,8.623773E1,4.9063286E1,3.5474968E1,1.737851E1,1.0125888E1,2.1475014E1,0E0,0E0,0E0,0E0,0E0,0E0,0E0,0E0],"parents":[2147483647,0,0,1,1,2,2,3,3,4,4,5,5,6,6],"right_children":[2,4,6,8,10,12,14,-1,-1,-1,-1,-1,-1,-1,-1],"split_conditions":[1.9E1,1.4E1,3.58E-1,8E0,7E0,2.7E1,2.6E1,-2.5237906E-3,-1.833593E-5,-5.118276E-3,-3.161216E-3,-2.6482027E-3,6.379413E-4,9.1011095E-4,3.0834766E-3],"split_indices":[27,80,55,51,51,28,51,0,0,0,0,0,0,0,0],"split_type":[0,0,0,0,0,0,0,0,0,0,0,0,0,0,0],"sum_hessian":[6.754121E3,4.45215E3,2.301971E3,2.3643362E3,2.087814E3,4.6585345E2,1.8361174E3,9.327386E2,1.4315975E3,6.754716E2,1.4123423E3,3.364699E2,1.2938353E2,1.0051822E3,8.3093524E2],"tree_param":{"num_deleted":"0","num_feature":"106","num_nodes":"15","size_leaf_vector":"1"}},{"base_weights":[1.13137834E-1,2.3159058E-1,-1.1595799E-1,1.007395E-1,3.796532E-1,1.7361155E-1,-1.8948111E-1,2.5237903E-3,1.8335611E-5,5.118276E-3,3.161216E-3,2.6482025E-3,-6.379422E-4,-9.101111E-4,-3.0834763E-3],"categories":[],"categories_nodes":[],"categories_segments":[],"categories_sizes":[],"default_left":[0,0,0,0,0,0,0,0,0,0,0,0,0,0,0],"id":59,"left_children":[1,3,5,7,9,11,13,-1,-1,-1,-1,-1,-1,-1,-1],"loss_changes":[1.8334077E2,8.623772E1,4.9063274E1,3.5474964E1,1.737854E1,1.0125891E1,2.1475006E1,0E0,0E0,0E0,0E0,0E0,0E0,0E0,0E0],"parents":[2147483647,0,0,1,1,2,2,3,3,4,4,5,5,6,6],"right_children":[2,4,6,8,10,12,14,-1,-1,-1,-1,-1,-1,-1,-1],"split_conditions":[1.9E1,1.4E1,3.58E-1,8E0,7E0,2.7E1,2.6E1,2.5237903E-3,1.8335611E-5,5.118276E-3,3.161216E-3,2.6482025E-3,-6.379422E-4,-9.101111E-4,-3.0834763E-3],"split_indices":[27,80,55,51,51,28,51,0,0,0,0,0,0,0,0],"split_type":[0,0,0,0,0,0,0,0,0,0,0,0,0,0,0],"sum_hessian":[6.754121E3,4.45215E3,2.301971E3,2.3643362E3,2.087814E3,4.6585345E2,1.8361174E3,9.3273865E2,1.4315975E3,6.7547156E2,1.4123423E3,3.3646994E2,1.2938353E2,1.0051822E3,8.3093524E2],"tree_param":{"num_deleted":"0","num_feature":"106","num_nodes":"15","size_leaf_vector":"1"}},{"base_weights":[-1.120542E-1,-2.7855638E-1,4.8187215E-2,-8.6478665E-2,-3.64846E-1,-1.5937114E-1,1.5670729E-1,-1.8646257E-4,-2.1472806E-3,-3.0124797E-3,-5.2956897E-3,5.0756475E-4,-2.7480642E-3,4.371449E-4,2.639545E-3],"categories":[],"categories_nodes":[],"categories_segments":[],"categories_sizes":[],"default_left":[0,0,0,0,0,0,0,0,0,0,0,0,0,0,0],"id":60,"left_children":[1,3,5,7,9,11,13,-1,-1,-1,-1,-1,-1,-1,-1],"loss_changes":[1.8016995E2,5.4856506E1,7.754716E1,8.937887E0,2.3775818E1,2.8688385E1,2.7382408E1,0E0,0E0,0E0,0E0,0E0,0E0,0E0,0E0],"parents":[2147483647,0,0,1,1,2,2,3,3,4,4,5,5,6,6],"right_children":[2,4,6,8,10,12,14,-1,-1,-1,-1,-1,-1,-1,-1],"split_conditions":[1.5E1,9E0,-1.5E0,6.71E-1,2.3E1,-4.8E0,2.2E1,-1.8646257E-4,-2.1472806E-3,-3.0124797E-3,-5.2956897E-3,5.0756475E-4,-2.7480642E-3,4.371449E-4,2.639545E-3],"split_indices":[51,103,77,3,80,25,29,0,0,0,0,0,0,0,0],"split_type":[0,0,0,0,0,0,0,0,0,0,0,0,0,0,0],"sum_hessian":[6.751356E3,3.3106343E3,3.4407217E3,1.026867E3,2.2837673E3,1.1811515E3,2.25957E3,6.7238245E2,3.544845E2,1.6496727E3,6.3409467E2,4.190012E2,7.6215027E2,1.1009968E3,1.1585732E3],"tree_param":{"num_deleted":"0","num_feature":"106","num_nodes":"15","size_leaf_vector":"1"}},{"base_weights":[1.1205419E-1,2.7855638E-1,-4.818723E-2,8.6478665E-2,3.64846E-1,1.5937112E-1,-1.567073E-1,1.8646268E-4,2.1472804E-3,3.0124797E-3,5.2956897E-3,-5.075649E-4,2.748064E-3,-4.3714527E-4,-2.639545E-3],"categories":[],"categories_nodes":[],"categories_segments":[],"categories_sizes":[],"default_left":[0,0,0,0,0,0,0,0,0,0,0,0,0,0,0],"id":61,"left_children":[1,3,5,7,9,11,13,-1,-1,-1,-1,-1,-1,-1,-1],"loss_changes":[1.8016995E2,5.4856506E1,7.754716E1,8.937886E0,2.3775818E1,2.8688389E1,2.7382408E1,0E0,0E0,0E0,0E0,0E0,0E0,0E0,0E0],"parents":[2147483647,0,0,1,1,2,2,3,3,4,4,5,5,6,6],"right_children":[2,4,6,8,10,12,14,-1,-1,-1,-1,-1,-1,-1,-1],"split_conditions":[1.5E1,9E0,-1.5E0,6.71E-1,2.3E1,-4.8E0,2.2E1,1.8646268E-4,2.1472804E-3,3.0124797E-3,5.2956897E-3,-5.075649E-4,2.748064E-3,-4.3714527E-4,-2.639545E-3],"split_indices":[51,103,77,3,80,25,29,0,0,0,0,0,0,0,0],"split_type":[0,0,0,0,0,0,0,0,0,0,0,0,0,0,0],"sum_hessian":[6.751356E3,3.3106343E3,3.4407217E3,1.026867E3,2.2837673E3,1.1811515E3,2.25957E3,6.7238245E2,3.5448447E2,1.6496727E3,6.3409467E2,4.190012E2,7.6215027E2,1.1009968E3,1.1585732E3],"tree_param":{"num_deleted":"0","num_feature":"106","num_nodes":"15","size_leaf_vector":"1"}},{"base_weights":[-1.1098449E-1,-2.1719788E-1,1.3573375E-1,-9.199577E-2,-3.6090434E-1,-1.5395582E-1,2.116011E-1,-2.4509488E-3,-1.837417E-5,-5.0393227E-3,-2.9729004E-3,-2.4992807E-3,6.282881E-4,3.3817312E-3,1.217279E-3],"categories":[],"categories_nodes":[],"categories_segments":[],"categories_sizes":[],"default_left":[0,0,0,0,0,0,0,0,0,0,0,0,0,0,0],"id":62,"left_children":[1,3,5,7,9,11,13,-1,-1,-1,-1,-1,-1,-1,-1],"loss_changes":[1.7689575E2,8.486499E1,4.468782E1,3.4824615E1,1.9836182E1,8.800964E0,1.8279625E1,0E0,0E0,0E0,0E0,0E0,0E0,0E0,0E0],"parents":[2147483647,0,0,1,1,2,2,3,3,4,4,5,5,6,6],"right_children":[2,4,6,8,10,12,14,-1,-1,-1,-1,-1,-1,-1,-1],"split_conditions":[2E1,1.4E1,3.58E-1,8E0,7E0,2.7E1,-6E0,-2.4509488E-3,-1.837417E-5,-5.0393227E-3,-2.9729004E-3,-2.4992807E-3,6.282881E-4,3.3817312E-3,1.217279E-3],"split_indices":[28,80,55,51,51,28,25,0,0,0,0,0,0,0,0],"split_type":[0,0,0,0,0,0,0,0,0,0,0,0,0,0,0],"sum_hessian":[6.748389E3,4.717572E3,2.0308177E3,2.5219768E3,2.1955947E3,4.2126035E2,1.6095574E3,9.3408167E2,1.5878953E3,6.7377747E2,1.5218173E3,2.9188684E2,1.293735E2,6.6717914E2,9.423782E2],"tree_param":{"num_deleted":"0","num_feature":"106","num_nodes":"15","size_leaf_vector":"1"}},{"base_weights":[1.1098449E-1,2.1719788E-1,-1.3573375E-1,9.199579E-2,3.609043E-1,1.539558E-1,-2.1160108E-1,2.4509488E-3,1.837448E-5,5.0393227E-3,2.9729E-3,2.4992805E-3,-6.282883E-4,-3.3817308E-3,-1.217279E-3],"categories":[],"categories_nodes":[],"categories_segments":[],"categories_sizes":[],"default_left":[0,0,0,0,0,0,0,0,0,0,0,0,0,0,0],"id":63,"left_children":[1,3,5,7,9,11,13,-1,-1,-1,-1,-1,-1,-1,-1],"loss_changes":[1.7689575E2,8.486493E1,4.468781E1,3.48246E1,1.9836182E1,8.8009615E0,1.8279617E1,0E0,0E0,0E0,0E0,0E0,0E0,0E0,0E0],"parents":[2147483647,0,0,1,1,2,2,3,3,4,4,5,5,6,6],"right_children":[2,4,6,8,10,12,14,-1,-1,-1,-1,-1,-1,-1,-1],"split_conditions":[2E1,1.4E1,3.58E-1,8E0,7E0,2.7E1,-6E0,2.4509488E-3,1.837448E-5,5.0393227E-3,2.9729E-3,2.4992805E-3,-6.282883E-4,-3.3817308E-3,-1.217279E-3],"split_indices":[28,80,55,51,51,28,25,0,0,0,0,0,0,0,0],"split_type":[0,0,0,0,0,0,0,0,0,0,0,0,0,0,0],"sum_hessian":[6.748389E3,4.717572E3,2.0308177E3,2.5219768E3,2.1955947E3,4.2126038E2,1.6095574E3,9.3408167E2,1.5878953E3,6.7377747E2,1.5218173E3,2.9188687E2,1.293735E2,6.6717914E2,9.423782E2],"tree_param":{"num_deleted":"0","num_feature":"106","num_nodes":"15","size_leaf_vector":"1"}},{"base_weights":[-1.0992335E-1,-2.7365068E-1,4.753862E-2,-8.436478E-2,-3.588025E-1,-1.5283245E-1,1.5643214E-1,-1.7705542E-4,-2.1045913E-3,-2.9590663E-3,-5.2201324E-3,5.5227056E-4,-2.6710376E-3,6.184524E-4,2.8258075E-3],"categories":[],"categories_nodes":[],"categories_segments":[],"categories_sizes":[],"default_left":[0,0,0,0,0,0,0,0,0,0,0,0,0,0,0],"id":64,"left_children":[1,3,5,7,9,11,13,-1,-1,-1,-1,-1,-1,-1,-1],"loss_changes":[1.7394344E2,5.328174E1,7.507955E1,8.633451E0,2.3260803E1,2.8823503E1,2.658126E1,0E0,0E0,0E0,0E0,0E0,0E0,0E0,0E0],"parents":[2147483647,0,0,1,1,2,2,3,3,4,4,5,5,6,6],"right_children":[2,4,6,8,10,12,14,-1,-1,-1,-1,-1,-1,-1,-1],"split_conditions":[1.5E1,9E0,-1.4E0,6.71E-1,2.3E1,-4.8E0,2.4E1,-1.7705542E-4,-2.1045913E-3,-2.9590663E-3,-5.2201324E-3,5.5227056E-4,-2.6710376E-3,6.184524E-4,2.8258075E-3],"split_indices":[51,103,77,3,80,25,51,0,0,0,0,0,0,0,0],"split_type":[0,0,0,0,0,0,0,0,0,0,0,0,0,0,0],"sum_hessian":[6.7455024E3,3.3065981E3,3.4389043E3,1.0265806E3,2.2800176E3,1.2107124E3,2.2281921E3,6.7230817E2,3.542724E2,1.6478177E3,6.321999E2,4.293997E2,7.813127E2,1.274246E3,9.5394604E2],"tree_param":{"num_deleted":"0","num_feature":"106","num_nodes":"15","size_leaf_vector":"1"}},{"base_weights":[1.0992335E-1,2.7365068E-1,-4.753861E-2,8.436477E-2,3.588025E-1,1.5283246E-1,-1.5643212E-1,1.770555E-4,2.1045909E-3,2.9590663E-3,5.2201324E-3,-5.522705E-4,2.6710378E-3,-6.184523E-4,-2.8258075E-3],"categories":[],"categories_nodes":[],"categories_segments":[],"categories_sizes":[],"default_left":[0,0,0,0,0,0,0,0,0,0,0,0,0,0,0],"id":65,"left_children":[1,3,5,7,9,11,13,-1,-1,-1,-1,-1,-1,-1,-1],"loss_changes":[1.7394342E2,5.3281723E1,7.507957E1,8.633448E0,2.3260834E1,2.88235E1,2.6581253E1,0E0,0E0,0E0,0E0,0E0,0E0,0E0,0E0],"parents":[2147483647,0,0,1,1,2,2,3,3,4,4,5,5,6,6],"right_children":[2,4,6,8,10,12,14,-1,-1,-1,-1,-1,-1,-1,-1],"split_conditions":[1.5E1,9E0,-1.4E0,6.71E-1,2.3E1,-4.8E0,2.4E1,1.770555E-4,2.1045909E-3,2.9590663E-3,5.2201324E-3,-5.522705E-4,2.6710378E-3,-6.184523E-4,-2.8258075E-3],"split_indices":[51,103,77,3,80,25,51,0,0,0,0,0,0,0,0],"split_type":[0,0,0,0,0,0,0,0,0,0,0,0,0,0,0],"sum_hessian":[6.7455024E3,3.3065981E3,3.4389045E3,1.0265806E3,2.2800176E3,1.2107124E3,2.2281921E3,6.7230817E2,3.542724E2,1.6478177E3,6.321999E2,4.293997E2,7.813127E2,1.274246E3,9.5394604E2],"tree_param":{"num_deleted":"0","num_feature":"106","num_nodes":"15","size_leaf_vector":"1"}},{"base_weights":[-1.08876064E-1,9.146411E-2,-2.3524855E-1,-2.7971689E-2,2.5035357E-1,-3.2994062E-1,-3.9412428E-2,1.2997261E-3,-1.6202019E-3,-1.5280007E-3,2.7972774E-3,-4.4395323E-3,-2.438899E-3,-1.0866374E-3,1.5747916E-3],"categories":[],"categories_nodes":[],"categories_segments":[],"categories_sizes":[],"default_left":[0,0,0,0,0,0,0,0,0,0,0,0,0,0,0],"id":66,"left_children":[1,3,5,7,9,11,13,-1,-1,-1,-1,-1,-1,-1,-1],"loss_changes":[1.7074762E2,4.9519577E1,7.667317E1,3.1575201E1,1.3302719E1,2.723822E1,1.8410305E1,0E0,0E0,0E0,0E0,0E0,0E0,0E0,0E0],"parents":[2147483647,0,0,1,1,2,2,3,3,4,4,5,5,6,6],"right_children":[2,4,6,8,10,12,14,-1,-1,-1,-1,-1,-1,-1,-1],"split_conditions":[4.69E-1,5.4E-1,2.9E0,-4.6E0,5E0,-1.9E0,1.4E1,1.2997261E-3,-1.6202019E-3,-1.5280007E-3,2.7972774E-3,-4.4395323E-3,-2.438899E-3,-1.0866374E-3,1.5747916E-3],"split_indices":[3,55,77,25,53,77,51,0,0,0,0,0,0,0,0],"split_type":[0,0,0,0,0,0,0,0,0,0,0,0,0,0,0],"sum_hessian":[6.7424062E3,2.6080703E3,4.134336E3,1.4893575E3,1.1187128E3,2.7863672E3,1.3479689E3,6.837505E2,8.0560706E2,7.568958E1,1.0430232E3,1.1966761E3,1.589691E3,9.975542E2,3.504147E2],"tree_param":{"num_deleted":"0","num_feature":"106","num_nodes":"15","size_leaf_vector":"1"}},{"base_weights":[1.08876064E-1,-9.146411E-2,2.3524855E-1,2.7971683E-2,-2.5035357E-1,3.2994065E-1,3.94124E-2,-1.2997258E-3,1.6202016E-3,1.5280008E-3,-2.7972774E-3,4.4395328E-3,2.4388991E-3,1.0866373E-3,-1.5747925E-3],"categories":[],"categories_nodes":[],"categories_segments":[],"categories_sizes":[],"default_left":[0,0,0,0,0,0,0,0,0,0,0,0,0,0,0],"id":67,"left_children":[1,3,5,7,9,11,13,-1,-1,-1,-1,-1,-1,-1,-1],"loss_changes":[1.7074763E2,4.9519573E1,7.667322E1,3.157519E1,1.3302719E1,2.723822E1,1.8410315E1,0E0,0E0,0E0,0E0,0E0,0E0,0E0,0E0],"parents":[2147483647,0,0,1,1,2,2,3,3,4,4,5,5,6,6],"right_children":[2,4,6,8,10,12,14,-1,-1,-1,-1,-1,-1,-1,-1],"split_conditions":[4.69E-1,5.4E-1,2.9E0,-4.6E0,5E0,-1.9E0,1.4E1,-1.2997258E-3,1.6202016E-3,1.5280008E-3,-2.7972774E-3,4.4395328E-3,2.4388991E-3,1.0866373E-3,-1.5747925E-3],"split_indices":[3,55,77,25,53,77,51,0,0,0,0,0,0,0,0],"split_type":[0,0,0,0,0,0,0,0,0,0,0,0,0,0,0],"sum_hessian":[6.7424062E3,2.6080703E3,4.134336E3,1.4893575E3,1.1187128E3,2.7863672E3,1.3479689E3,6.837505E2,8.0560706E2,7.568958E1,1.0430232E3,1.1966761E3,1.589691E3,9.975542E2,3.5041467E2],"tree_param":{"num_deleted":"0","num_feature":"106","num_nodes":"15","size_leaf_vector":"1"}},{"base_weights":[-1.0783602E-1,-2.6884624E-1,4.6905868E-2,-1.3742968E-1,-3.8787737E-1,-8.028425E-2,2.1319927E-1,-2.0383561E-3,1.0919621E-4,-3.1518321E-3,-5.1427255E-3,1.1859717E-3,-1.9263376E-3,1.1873604E-3,3.249841E-3],"categories":[],"categories_nodes":[],"categories_segments":[],"categories_sizes":[],"default_left":[0,0,0,0,0,0,0,0,0,0,0,0,0,0,0],"id":68,"left_children":[1,3,5,7,9,11,13,-1,-1,-1,-1,-1,-1,-1,-1],"loss_changes":[1.6795099E2,5.162169E1,7.273341E1,1.5484467E1,1.5759857E1,4.356621E1,1.5697563E1,0E0,0E0,0E0,0E0,0E0,0E0,0E0,0E0],"parents":[2147483647,0,0,1,1,2,2,3,3,4,4,5,5,6,6],"right_children":[2,4,6,8,10,12,14,-1,-1,-1,-1,-1,-1,-1,-1],"split_conditions":[1.5E1,1.2E1,5.4E-1,6E0,2.3E1,-4.6E0,2.2E1,-2.0383561E-3,1.0919621E-4,-3.1518321E-3,-5.1427255E-3,1.1859717E-3,-1.9263376E-3,1.1873604E-3,3.249841E-3],"split_indices":[51,80,55,77,80,25,28,0,0,0,0,0,0,0,0],"split_type":[0,0,0,0,0,0,0,0,0,0,0,0,0,0,0],"sum_hessian":[6.7394453E3,3.3024653E3,3.43698E3,1.5705978E3,1.7318674E3,1.9477521E3,1.489228E3,1.0846842E3,4.8591364E2,1.1017231E3,6.3014435E2,7.03088E2,1.2446641E3,8.082676E2,6.8096045E2],"tree_param":{"num_deleted":"0","num_feature":"106","num_nodes":"15","size_leaf_vector":"1"}},{"base_weights":[1.0783602E-1,2.6884627E-1,-4.690588E-2,1.3742968E-1,3.878774E-1,8.028425E-2,-2.131993E-1,2.0383564E-3,-1.0919661E-4,3.1518324E-3,5.142726E-3,-1.1859719E-3,1.9263376E-3,-1.1873606E-3,-3.2498413E-3],"categories":[],"categories_nodes":[],"categories_segments":[],"categories_sizes":[],"default_left":[0,0,0,0,0,0,0,0,0,0,0,0,0,0,0],"id":69,"left_children":[1,3,5,7,9,11,13,-1,-1,-1,-1,-1,-1,-1,-1],"loss_changes":[1.6795102E2,5.162172E1,7.273343E1,1.5484476E1,1.5759827E1,4.356622E1,1.5697556E1,0E0,0E0,0E0,0E0,0E0,0E0,0E0,0E0],"parents":[2147483647,0,0,1,1,2,2,3,3,4,4,5,5,6,6],"right_children":[2,4,6,8,10,12,14,-1,-1,-1,-1,-1,-1,-1,-1],"split_conditions":[1.5E1,1.2E1,5.4E-1,6E0,2.3E1,-4.6E0,2.2E1,2.0383564E-3,-1.0919661E-4,3.1518324E-3,5.142726E-3,-1.1859719E-3,1.9263376E-3,-1.1873606E-3,-3.2498413E-3],"split_indices":[51,80,55,77,80,25,28,0,0,0,0,0,0,0,0],"split_type":[0,0,0,0,0,0,0,0,0,0,0,0,0,0,0],"sum_hessian":[6.7394453E3,3.3024653E3,3.4369802E3,1.5705978E3,1.7318676E3,1.9477521E3,1.489228E3,1.0846842E3,4.8591364E2,1.1017231E3,6.3014435E2,7.03088E2,1.2446641E3,8.082676E2,6.8096045E2],"tree_param":{"num_deleted":"0","num_feature":"106","num_nodes":"15","size_leaf_vector":"1"}},{"base_weights":[-1.0680862E-1,-2.1939652E-1,1.10632956E-1,-3.0919555E-1,-2.193894E-2,-1.6729374E-1,1.812148E-1,-2.488057E-3,-4.6009803E-3,8.5397065E-4,-1.6827801E-3,-2.546996E-3,5.9843337E-4,8.7364553E-4,2.947104E-3],"categories":[],"categories_nodes":[],"categories_segments":[],"categories_sizes":[],"default_left":[0,0,0,0,0,0,0,0,0,0,0,0,0,0,0],"id":70,"left_children":[1,3,5,7,9,11,13,-1,-1,-1,-1,-1,-1,-1,-1],"loss_changes":[1.649628E2,7.8707886E1,4.513021E1,2.7693146E1,2.1829329E1,9.26958E0,1.9508533E1,0E0,0E0,0E0,0E0,0E0,0E0,0E0,0E0],"parents":[2147483647,0,0,1,1,2,2,3,3,4,4,5,5,6,6],"right_children":[2,4,6,8,10,12,14,-1,-1,-1,-1,-1,-1,-1,-1],"split_conditions":[1.9E1,3.1E0,3.58E-1,2.3E1,3.6E0,2.7E1,2.6E1,-2.488057E-3,-4.6009803E-3,8.5397065E-4,-1.6827801E-3,-2.546996E-3,5.9843337E-4,8.7364553E-4,2.947104E-3],"split_indices":[27,77,55,80,25,28,51,0,0,0,0,0,0,0,0],"split_type":[0,0,0,0,0,0,0,0,0,0,0,0,0,0,0],"sum_hessian":[6.7363286E3,4.438258E3,2.2980706E3,3.0504292E3,1.3878287E3,4.6514026E2,1.8329304E3,2.1804722E3,8.699569E2,8.008454E2,5.869834E2,3.3579843E2,1.2934181E2,1.004266E3,8.2866437E2],"tree_param":{"num_deleted":"0","num_feature":"106","num_nodes":"15","size_leaf_vector":"1"}},{"base_weights":[1.0680862E-1,2.1939652E-1,-1.10632956E-1,3.0919555E-1,2.1938952E-2,1.6729374E-1,-1.812148E-1,2.488057E-3,4.6009803E-3,-8.5397036E-4,1.6827799E-3,2.546996E-3,-5.984336E-4,-8.7364536E-4,-2.947104E-3],"categories":[],"categories_nodes":[],"categories_segments":[],"categories_sizes":[],"default_left":[0,0,0,0,0,0,0,0,0,0,0,0,0,0,0],"id":71,"left_children":[1,3,5,7,9,11,13,-1,-1,-1,-1,-1,-1,-1,-1],"loss_changes":[1.6496277E2,7.8707886E1,4.513021E1,2.7693146E1,2.1829323E1,9.269581E0,1.950853E1,0E0,0E0,0E0,0E0,0E0,0E0,0E0,0E0],"parents":[2147483647,0,0,1,1,2,2,3,3,4,4,5,5,6,6],"right_children":[2,4,6,8,10,12,14,-1,-1,-1,-1,-1,-1,-1,-1],"split_conditions":[1.9E1,3.1E0,3.58E-1,2.3E1,3.6E0,2.7E1,2.6E1,2.488057E-3,4.6009803E-3,-8.5397036E-4,1.6827799E-3,2.546996E-3,-5.984336E-4,-8.7364536E-4,-2.947104E-3],"split_indices":[27,77,55,80,25,28,51,0,0,0,0,0,0,0,0],"split_type":[0,0,0,0,0,0,0,0,0,0,0,0,0,0,0],"sum_hessian":[6.7363286E3,4.438258E3,2.2980706E3,3.0504292E3,1.3878287E3,4.6514026E2,1.8329304E3,2.1804722E3,8.699569E2,8.008454E2,5.869834E2,3.3579843E2,1.2934183E2,1.004266E3,8.286644E2],"tree_param":{"num_deleted":"0","num_feature":"106","num_nodes":"15","size_leaf_vector":"1"}},{"base_weights":[-1.05789885E-1,-2.6427814E-1,4.641907E-2,-1.3489269E-1,-3.816696E-1,-1.5202783E-1,1.5009637E-1,-2.0040711E-3,1.1402337E-4,-3.100846E-3,-5.064129E-3,4.650255E-4,-2.6138062E-3,4.309354E-4,2.518665E-3],"categories":[],"categories_nodes":[],"categories_segments":[],"categories_sizes":[],"default_left":[0,0,0,0,0,0,0,0,0,0,0,0,0,0,0],"id":72,"left_children":[1,3,5,7,9,11,13,-1,-1,-1,-1,-1,-1,-1,-1],"loss_changes":[1.6246552E2,5.00598E1,7.071744E1,1.5059326E1,1.5284729E1,2.562137E1,2.4571846E1,0E0,0E0,0E0,0E0,0E0,0E0,0E0,0E0],"parents":[2147483647,0,0,1,1,2,2,3,3,4,4,5,5,6,6],"right_children":[2,4,6,8,10,12,14,-1,-1,-1,-1,-1,-1,-1,-1],"split_conditions":[1.5E1,1.2E1,-1.5E0,6E0,2.3E1,-4.8E0,2.2E1,-2.0040711E-3,1.1402337E-4,-3.100846E-3,-5.064129E-3,4.650255E-4,-2.6138062E-3,4.309354E-4,2.518665E-3],"split_indices":[51,80,77,77,80,25,29,0,0,0,0,0,0,0,0],"split_type":[0,0,0,0,0,0,0,0,0,0,0,0,0,0,0],"sum_hessian":[6.7332783E3,3.2982373E3,3.4350413E3,1.5699894E3,1.7282479E3,1.1786128E3,2.2564285E3,1.0841232E3,4.858662E2,1.1003109E3,6.2793695E2,4.1881934E2,7.597934E2,1.1006306E3,1.1557979E3],"tree_param":{"num_deleted":"0","num_feature":"106","num_nodes":"15","size_leaf_vector":"1"}},{"base_weights":[1.0578988E-1,2.6427814E-1,-4.6419073E-2,1.3489266E-1,3.816696E-1,1.5202785E-1,-1.5009637E-1,2.0040707E-3,-1.1402358E-4,3.100846E-3,5.064129E-3,-4.6502563E-4,2.6138062E-3,-4.309356E-4,-2.518665E-3],"categories":[],"categories_nodes":[],"categories_segments":[],"categories_sizes":[],"default_left":[0,0,0,0,0,0,0,0,0,0,0,0,0,0,0],"id":73,"left_children":[1,3,5,7,9,11,13,-1,-1,-1,-1,-1,-1,-1,-1],"loss_changes":[1.6246552E2,5.00598E1,7.0717445E1,1.5059326E1,1.5284729E1,2.5621376E1,2.4571842E1,0E0,0E0,0E0,0E0,0E0,0E0,0E0,0E0],"parents":[2147483647,0,0,1,1,2,2,3,3,4,4,5,5,6,6],"right_children":[2,4,6,8,10,12,14,-1,-1,-1,-1,-1,-1,-1,-1],"split_conditions":[1.5E1,1.2E1,-1.5E0,6E0,2.3E1,-4.8E0,2.2E1,2.0040707E-3,-1.1402358E-4,3.100846E-3,5.064129E-3,-4.6502563E-4,2.6138062E-3,-4.309356E-4,-2.518665E-3],"split_indices":[51,80,77,77,80,25,29,0,0,0,0,0,0,0,0],"split_type":[0,0,0,0,0,0,0,0,0,0,0,0,0,0,0],"sum_hessian":[6.7332783E3,3.2982373E3,3.4350413E3,1.5699894E3,1.7282479E3,1.1786128E3,2.2564285E3,1.0841232E3,4.858662E2,1.1003109E3,6.2793695E2,4.1881934E2,7.597934E2,1.1006306E3,1.1557979E3],"tree_param":{"num_deleted":"0","num_feature":"106","num_nodes":"15","size_leaf_vector":"1"}},{"base_weights":[-1.0478499E-1,-2.6182282E-1,4.5968104E-2,-7.9969354E-2,-3.4394717E-1,-7.803985E-2,2.094323E-1,-1.4457155E-4,-2.0398516E-3,-2.8327366E-3,-5.0231777E-3,1.1506983E-3,-1.8716775E-3,1.1832387E-3,3.1792175E-3],"categories":[],"categories_nodes":[],"categories_segments":[],"categories_sizes":[],"default_left":[0,0,0,0,0,0,0,0,0,0,0,0,0,0,0],"id":74,"left_children":[1,3,5,7,9,11,13,-1,-1,-1,-1,-1,-1,-1,-1],"loss_changes":[1.5936137E2,4.9210815E1,6.96482E1,8.34087E0,2.1678986E1,4.1199463E1,1.4611626E1,0E0,0E0,0E0,0E0,0E0,0E0,0E0,0E0],"parents":[2147483647,0,0,1,1,2,2,3,3,4,4,5,5,6,6],"right_children":[2,4,6,8,10,12,14,-1,-1,-1,-1,-1,-1,-1,-1],"split_conditions":[1.5E1,9E0,5.42E-1,6.71E-1,2.3E1,-4.6E0,2.2E1,-1.4457155E-4,-2.0398516E-3,-2.8327366E-3,-5.0231777E-3,1.1506983E-3,-1.8716775E-3,1.1832387E-3,3.1792175E-3],"split_indices":[51,103,55,3,80,25,28,0,0,0,0,0,0,0,0],"split_type":[0,0,0,0,0,0,0,0,0,0,0,0,0,0,0],"sum_hessian":[6.730003E3,3.2959312E3,3.4340718E3,1.0259888E3,2.2699424E3,1.9530005E3,1.4810714E3,6.720765E2,3.5391238E2,1.6432026E3,6.267398E2,7.051436E2,1.2478569E3,8.0615796E2,6.749134E2],"tree_param":{"num_deleted":"0","num_feature":"106","num_nodes":"15","size_leaf_vector":"1"}},{"base_weights":[1.0478498E-1,2.618228E-1,-4.5968104E-2,7.996933E-2,3.4394714E-1,7.803984E-2,-2.094323E-1,1.4457156E-4,2.0398512E-3,2.8327366E-3,5.0231777E-3,-1.1506983E-3,1.8716773E-3,-1.1832386E-3,-3.1792175E-3],"categories":[],"categories_nodes":[],"categories_segments":[],"categories_sizes":[],"default_left":[0,0,0,0,0,0,0,0,0,0,0,0,0,0,0],"id":75,"left_children":[1,3,5,7,9,11,13,-1,-1,-1,-1,-1,-1,-1,-1],"loss_changes":[1.5936137E2,4.921083E1,6.96482E1,8.340866E0,2.1678955E1,4.1199463E1,1.4611626E1,0E0,0E0,0E0,0E0,0E0,0E0,0E0,0E0],"parents":[2147483647,0,0,1,1,2,2,3,3,4,4,5,5,6,6],"right_children":[2,4,6,8,10,12,14,-1,-1,-1,-1,-1,-1,-1,-1],"split_conditions":[1.5E1,9E0,5.42E-1,6.71E-1,2.3E1,-4.6E0,2.2E1,1.4457156E-4,2.0398512E-3,2.8327366E-3,5.0231777E-3,-1.1506983E-3,1.8716773E-3,-1.1832386E-3,-3.1792175E-3],"split_indices":[51,103,55,3,80,25,28,0,0,0,0,0,0,0,0],"split_type":[0,0,0,0,0,0,0,0,0,0,0,0,0,0,0],"sum_hessian":[6.730003E3,3.2959312E3,3.4340718E3,1.0259888E3,2.2699424E3,1.9530005E3,1.4810714E3,6.720765E2,3.5391238E2,1.6432026E3,6.267398E2,7.051436E2,1.2478569E3,8.0615796E2,6.7491345E2],"tree_param":{"num_deleted":"0","num_feature":"106","num_nodes":"15","size_leaf_vector":"1"}},{"base_weights":[-1.0378903E-1,-2.039607E-1,1.2854622E-1,-1.2430918E-1,-4.0955132E-1,-1.4809072E-1,2.0104909E-1,-2.7611642E-3,-3.5230714E-4,-3.4792938E-3,-5.4718168E-3,-2.3949542E-3,5.8043015E-4,3.2235002E-3,1.1509653E-3],"categories":[],"categories_nodes":[],"categories_segments":[],"categories_sizes":[],"default_left":[0,0,0,0,0,0,0,0,0,0,0,0,0,0,0],"id":76,"left_children":[1,3,5,7,9,11,13,-1,-1,-1,-1,-1,-1,-1,-1],"loss_changes":[1.5660364E2,7.6935974E1,4.069377E1,4.583168E1,1.093985E1,7.9573994E0,1.671592E1,0E0,0E0,0E0,0E0,0E0,0E0,0E0,0E0],"parents":[2147483647,0,0,1,1,2,2,3,3,4,4,5,5,6,6],"right_children":[2,4,6,8,10,12,14,-1,-1,-1,-1,-1,-1,-1,-1],"split_conditions":[2E1,2E1,3.58E-1,8E0,3.7E1,2.7E1,-6E0,-2.7611642E-3,-3.5230714E-4,-3.4792938E-3,-5.4718168E-3,-2.3949542E-3,5.8043015E-4,3.2235002E-3,1.1509653E-3],"split_indices":[28,80,55,51,54,28,25,0,0,0,0,0,0,0,0],"split_type":[0,0,0,0,0,0,0,0,0,0,0,0,0,0,0],"sum_hessian":[6.726739E3,4.700314E3,2.0264248E3,3.3889463E3,1.3113674E3,4.2059375E2,1.605831E3,1.2524409E3,2.1365054E3,9.0824316E2,4.031243E2,2.9127396E2,1.293198E2,6.648327E2,9.409984E2],"tree_param":{"num_deleted":"0","num_feature":"106","num_nodes":"15","size_leaf_vector":"1"}},{"base_weights":[1.0378903E-1,2.0396072E-1,-1.2854622E-1,1.243092E-1,4.095513E-1,1.4809072E-1,-2.0104909E-1,2.7611644E-3,3.5230716E-4,3.4792938E-3,5.471816E-3,2.3949542E-3,-5.8043003E-4,-3.2235002E-3,-1.1509652E-3],"categories":[],"categories_nodes":[],"categories_segments":[],"categories_sizes":[],"default_left":[0,0,0,0,0,0,0,0,0,0,0,0,0,0,0],"id":77,"left_children":[1,3,5,7,9,11,13,-1,-1,-1,-1,-1,-1,-1,-1],"loss_changes":[1.5660364E2,7.693593E1,4.069377E1,4.5831696E1,1.0939865E1,7.9573984E0,1.671592E1,0E0,0E0,0E0,0E0,0E0,0E0,0E0,0E0],"parents":[2147483647,0,0,1,1,2,2,3,3,4,4,5,5,6,6],"right_children":[2,4,6,8,10,12,14,-1,