{"learner":{"attributes":{},"feature_names":[],"feature_types":[],"gradient_booster":{"model":{"gbtree_model_param":{"num_parallel_tree":"1","num_trees":"300"},"iteration_indptr":[0,3,6,9,12,15,18,21,24,27,30,33,36,39,42,45,48,51,54,57,60,63,66,69,72,75,78,81,84,87,90,93,96,99,102,105,108,111,114,117,120,123,126,129,132,135,138,141,144,147,150,153,156,159,162,165,168,171,174,177,180,183,186,189,192,195,198,201,204,207,210,213,216,219,222,225,228,231,234,237,240,243,246,249,252,255,258,261,264,267,270,273,276,279,282,285,288,291,294,297,300],"tree_info":[0,1,2,0,1,2,0,1,2,0,1,2,0,1,2,0,1,2,0,1,2,0,1,2,0,1,2,0,1,2,0,1,2,0,1,2,0,1,2,0,1,2,0,1,2,0,1,2,0,1,2,0,1,2,0,1,2,0,1,2,0,1,2,0,1,2,0,1,2,0,1,2,0,1,2,0,1,2,0,1,2,0,1,2,0,1,2,0,1,2,0,1,2,0,1,2,0,1,2,0,1,2,0,1,2,0,1,2,0,1,2,0,1,2,0,1,2,0,1,2,0,1,2,0,1,2,0,1,2,0,1,2,0,1,2,0,1,2,0,1,2,0,1,2,0,1,2,0,1,2,0,1,2,0,1,2,0,1,2,0,1,2,0,1,2,0,1,2,0,1,2,0,1,2,0,1,2,0,1,2,0,1,2,0,1,2,0,1,2,0,1,2,0,1,2,0,1,2,0,1,2,0,1,2,0,1,2,0,1,2,0,1,2,0,1,2,0,1,2,0,1,2,0,1,2,0,1,2,0,1,2,0,1,2,0,1,2,0,1,2,0,1,2,0,1,2,0,1,2,0,1,2,0,1,2,0,1,2,0,1,2,0,1,2,0,1,2,0,1,2,0,1,2,0,1,2,0,1,2,0,1,2,0,1,2,0,1,2,0,1,2,0,1,2,0,1,2,0,1,2],"trees":[{"base_weights":[3.717131E-1,4.0447262E-1,3.2811895E-1,3.8442066E-1,5.3271025E-1,1.8265948E-1,3.4196597E-1,4.4004717E-1,3.4556454E-1,8.1042653E-1,4.8182583E-1,2.2268684E-1,-3.4228194E-1,9.55414E-1,3.372789E-1,6.8323696E-1,4.189548E-1,3.5861254E-1,-1.6042825E-2,8.508914E-1,-4.8000004E-2,-1.2972978E-1,5.140824E-1,1.3398054E-1,5.809018E-1,6E-2,-4.9624065E-1,-1.2000003E-2,1.0851064E0,3.5103923E-1,1.804511E-1,8.836773E-1,3.5190612E-1,-3.8709682E-1,4.260196E-1,3.1782943E-1,4.4547132E-1,-2.9692838E-1,2.815884E-1,9.005059E-1,-2.727273E-1,-3.4228194E-1,5.9999996E-1,2.877792E-1,5.780236E-1,2.568402E-1,-1.9952498E-1,-5.454546E-2,6.713881E-1,2.3999998E-2,-6.153847E-1,1.0344825E-2,1.2396694E0,3.398306E-1,6.4016736E-1,-1.4634152E-1,2.6734838E-1,-3.7645043E-9,9.71134E-2,-8.2758665E-3,6.439024E-2,-5.555556E-2,4.285714E-2,4.897005E-2,3.3975396E-2,1.5027153E-2,3.490512E-2,5.4496974E-2,3.079903E-2,-5.070423E-2,2.3595503E-2,6.6206895E-2,-1.2765962E-2,1.1306991E-1,5.9340656E-2,-2.5544848E-9,-4.2857148E-2,-6.000001E-2,2.2641508E-2,-1.2000003E-2,1.0344827E-1,3.6363635E-2,-4.285715E-2,8.148148E-2,4.8448183E-2,1.2105923E-2,5.5873927E-2,-4.698796E-2,1.823204E-2,1.6799998E-2,9.113924E-2,-6.831684E-2,-1.2000003E-2,5.454545E-2,1.3608247E-1,3.3406995E-2,7.854077E-2,-6.7415773E-3,7.299843E-2,5.0649345E-2,-3.0897016E-2,1.5047018E-2,5.2731592E-2],"categories":[],"categories_nodes":[],"categories_segments":[],"categories_sizes":[],"default_left":[0,0,0,0,0,0,0,0,0,0,0,0,0,0,0,0,0,0,0,0,0,0,0,0,0,0,0,0,0,0,0,0,0,0,0,0,0,0,0,0,0,0,0,0,0,0,0,0,0,0,0,0,0,0,0,0,0,0,0,0,0,0,0,0,0,0,0,0,0,0,0,0,0,0,0,0,0,0,0,0,0,0,0,0,0,0,0,0,0,0,0,0,0,0,0,0,0,0,0,0,0,0,0],"id":0,"left_children":[1,3,5,7,9,11,13,15,17,19,21,23,25,27,29,31,33,35,37,39,-1,41,43,45,47,-1,49,-1,51,53,55,57,59,61,63,65,67,69,71,73,75,77,79,81,83,85,87,-1,89,-1,91,-1,93,95,97,99,101,-1,-1,-1,-1,-1,-1,-1,-1,-1,-1,-1,-1,-1,-1,-1,-1,-1,-1,-1,-1,-1,-1,-1,-1,-1,-1,-1,-1,-1,-1,-1,-1,-1,-1,-1,-1,-1,-1,-1,-1,-1,-1,-1,-1,-1,-1],"loss_changes":[8.502869E0,8.661682E0,5.1737366E0,6.3007812E0,6.161789E0,4.869297E0,6.4994507E0,5.992798E0,8.320877E0,4.0810204E0,7.8455887E0,6.676319E0,2.6995006E0,2.563243E0,5.0212097E0,6.0719643E0,6.594101E0,5.884018E0,5.2946978E0,4.0674095E0,0E0,3.393651E0,5.2567215E0,7.085181E0,4.635518E0,0E0,1.4439795E0,0E0,2.2488308E0,6.798584E0,5.494579E0,4.5769005E0,4.862165E0,1.6579621E0,5.984482E0,6.0212555E0,7.232559E0,3.7647614E0,4.876955E0,3.9868622E0,1.5584415E-1,2.5622897E0,1.6882759E0,4.7506194E0,6.0557785E0,5.0928144E0,4.914709E0,0E0,4.585533E0,0E0,3.5454655E-1,0E0,3.8851547E-1,5.0928802E0,5.1122665E0,4.509447E0,4.5424805E0,0E0,0E0,0E0,0E0,0E0,0E0,0E0,0E0,0E0,0E0,0E0,0E0,0E0,0E0,0E0,0E0,0E0,0E0,0E0,0E0,0E0,0E0,0E0,0E0,0E0,0E0,0E0,0E0,0E0,0E0,0E0,0E0,0E0,0E0,0E0,0E0,0E0,0E0,0E0,0E0,0E0,0E0,0E0,0E0,0E0,0E0],"parents":[2147483647,0,0,1,1,2,2,3,3,4,4,5,5,6,6,7,7,8,8,9,9,10,10,11,11,12,12,13,13,14,14,15,15,16,16,17,17,18,18,19,19,21,21,22,22,23,23,24,24,26,26,28,28,29,29,30,30,31,31,32,32,33,33,34,34,35,35,36,36,37,37,38,38,39,39,40,40,41,41,42,42,43,43,44,44,45,45,46,46,48,48,50,50,52,52,53,53,54,54,55,55,56,56],"right_children":[2,4,6,8,10,12,14,16,18,20,22,24,26,28,30,32,34,36,38,40,-1,42,44,46,48,-1,50,-1,52,54,56,58,60,62,64,66,68,70,72,74,76,78,80,82,84,86,88,-1,90,-1,92,-1,94,96,98,100,102,-1,-1,-1,-1,-1,-1,-1,-1,-1,-1,-1,-1,-1,-1,-1,-1,-1,-1,-1,-1,-1,-1,-1,-1,-1,-1,-1,-1,-1,-1,-1,-1,-1,-1,-1,-1,-1,-1,-1,-1,-1,-1,-1,-1,-1,-1],"split_conditions":[4.43E1,1.96E1,3.29E1,1.3E1,5E0,2.6E1,3.42E1,8.2E0,3E1,3E1,3.5E0,2.5E1,2E0,4.06E-1,6.2E0,3.23E1,1.85E1,2E1,1.4E1,4.18E-1,-4.8000004E-2,6E0,8E0,2.9E0,8.59E1,6E-2,4.11E1,-1.2000003E-2,2.04E1,9.6E0,3.74E1,-2.8E0,1.31E1,6E0,2.45E1,3E0,1.7E1,2.3E1,7.64E-1,1.6E1,3E0,2.2E1,2E1,2.8E1,5E0,4.74E-1,2E1,-5.454546E-2,9E0,2.3999998E-2,2.1E1,1.0344825E-2,3E0,2.41E2,2E0,8E0,6.16E-1,-3.7645043E-9,9.71134E-2,-8.2758665E-3,6.439024E-2,-5.555556E-2,4.285714E-2,4.897005E-2,3.3975396E-2,1.5027153E-2,3.490512E-2,5.4496974E-2,3.079903E-2,-5.070423E-2,2.3595503E-2,6.6206895E-2,-1.2765962E-2,1.1306991E-1,5.9340656E-2,-2.5544848E-9,-4.2857148E-2,-6.000001E-2,2.2641508E-2,-1.2000003E-2,1.0344827E-1,3.6363635E-2,-4.285715E-2,8.148148E-2,4.8448183E-2,1.2105923E-2,5.5873927E-2,-4.698796E-2,1.823204E-2,1.6799998E-2,9.113924E-2,-6.831684E-2,-1.2000003E-2,5.454545E-2,1.3608247E-1,3.3406995E-2,7.854077E-2,-6.7415773E-3,7.299843E-2,5.0649345E-2,-3.0897016E-2,1.5047018E-2,5.2731592E-2],"split_indices":[68,63,67,50,85,101,57,66,85,27,73,93,26,7,73,9,17,82,78,62,0,89,40,77,58,0,16,0,17,71,5,25,8,21,17,78,85,53,65,30,0,47,48,51,26,55,31,0,86,0,28,0,50,106,26,100,3,0,0,0,0,0,0,0,0,0,0,0,0,0,0,0,0,0,0,0,0,0,0,0,0,0,0,0,0,0,0,0,0,0,0,0,0,0,0,0,0,0,0,0,0,0,0],"split_type":[0,0,0,0,0,0,0,0,0,0,0,0,0,0,0,0,0,0,0,0,0,0,0,0,0,0,0,0,0,0,0,0,0,0,0,0,0,0,0,0,0,0,0,0,0,0,0,0,0,0,0,0,0,0,0,0,0,0,0,0,0,0,0,0,0,0,0,0,0,0,0,0,0,0,0,0,0,0,0,0,0,0,0,0,0,0,0,0,0,0,0,0,0,0,0,0,0,0,0,0,0,0,0],"sum_hessian":[6.0457773E3,3.4471108E3,2.5986665E3,2.9844443E3,4.6266663E2,2.271111E2,2.3715554E3,1.2231111E3,1.7613333E3,6.933333E1,3.933333E2,2.1155554E2,1.5555554E1,1.6444443E1,2.355111E3,9.511111E1,1.1279999E3,1.6999999E3,6.133333E1,6.755555E1,1.7777777E0,1.9555553E1,3.7377774E2,1.7066666E2,4.0888885E1,1.7777777E0,1.3777777E1,1.7777777E0,1.4666666E1,2.1639998E3,1.911111E2,5.8222218E1,3.6888885E1,9.333333E0,1.1186666E3,1.1599999E3,5.3999994E2,3.1555553E1,2.9777777E1,6.4888885E1,2.6666665E0,1.5555554E1,3.9999998E0,8.355555E1,2.902222E2,1.2488888E2,4.5777775E1,2.6666665E0,3.822222E1,1.7777777E0,1.1999999E1,2.222222E0,1.2444444E1,2.0853333E3,7.8666664E1,3.9999996E1,1.511111E2,5.333333E0,5.2888885E1,1.5111111E1,2.1777777E1,7.9999995E0,1.3333333E0,6.4088885E2,4.7777774E2,1.831111E2,9.7688885E2,3.1155554E2,2.2844443E2,2.2666666E1,8.888888E0,1.5111111E1,1.4666666E1,3.5555553E1,2.9333332E1,1.3333333E0,1.3333333E0,1.0666666E1,4.8888884E0,1.7777777E0,2.222222E0,7.599999E1,7.5555553E0,7.999999E1,2.1022221E2,8.711111E1,3.7777775E1,2.6666664E1,1.911111E1,1.2888888E1,2.5333332E1,1.0222221E1,1.7777777E0,2.6666665E0,9.777777E0,2.0604443E3,2.4888887E1,8.888888E0,6.977777E1,7.5555553E0,3.2444443E1,1.0533333E2,4.5777775E1],"tree_param":{"num_deleted":"0","num_feature":"107","num_nodes":"103","size_leaf_vector":"1"}},{"base_weights":[3.5385233E-1,3.2007858E-1,3.985126E-1,-1.4687927E-2,3.290322E-1,-9.6774235E-2,4.0299276E-1,1.1822656E-1,-3.8709682E-1,3.4705946E-1,2.0512816E-1,2.846715E-1,-6.741574E-2,3.8707826E-1,5.5020076E-1,8.769231E-1,2.712473E-2,3.9999998E-1,-5.63536E-1,2.9406846E-1,3.834326E-1,1.5718153E-1,4.9180326E-1,8.769231E-1,-2.2222227E-1,3.9739832E-1,1.3090906E-1,-6.2264156E-2,5.762403E-1,1.2244898E-1,-1.2000003E-2,-1.1670485E-1,5.28E-1,-4.2857148E-2,8.1818186E-2,-6.4429533E-1,-1.463415E-1,3.8686942E-2,3.1574172E-1,3.6999398E-1,7.379679E-1,6.37413E-2,3.296137E-1,-1.094891E-1,6.769596E-1,1.2E-1,1.0344825E-2,6E-2,-5.0769234E-1,5.3012043E-1,3.8059074E-1,5.1502144E-1,-1.9966766E-2,-1.643836E-1,5.991561E-1,8.571429E-2,-2.3425698E-2,-3.2432437E-2,8.041237E-2,-7.0073E-2,-2.5544848E-9,-4.8000004E-2,2.3999998E-2,-1.4971214E-2,3.2551315E-2,2.1983912E-2,3.6423035E-2,3.629699E-2,8.832487E-2,8.979592E-2,1.3953485E-2,3.4235973E-2,-2.3536559E-3,-2.2556396E-2,3.9769452E-2,9.6E-2,-3.2231413E-2,-6.0000002E-2,8.103896E-2,-6.2264156E-2,-2.5544848E-9,3.7600715E-2,6.778464E-2,3.237331E-2,4.285272E-2,-5.675676E-2,6.878049E-2,1.4251778E-2,-3.8095247E-2,8.571428E-2,-4.9180333E-2,1.4354064E-2,6.456285E-2],"categories":[],"categories_nodes":[],"categories_segments":[],"categories_sizes":[],"default_left":[0,0,0,0,0,0,0,0,0,0,0,0,0,0,0,0,0,0,0,0,0,0,0,0,0,0,0,0,0,0,0,0,0,0,0,0,0,0,0,0,0,0,0,0,0,0,0,0,0,0,0,0,0,0,0,0,0,0,0,0,0,0,0,0,0,0,0,0,0,0,0,0,0,0,0,0,0,0,0,0,0,0,0,0,0,0,0,0,0,0,0,0,0],"id":1,"left_children":[1,3,5,7,9,11,13,15,17,19,21,23,-1,25,27,29,31,33,35,37,39,41,43,45,47,49,51,-1,53,-1,-1,55,57,-1,-1,59,61,63,65,67,69,71,73,75,77,-1,-1,-1,79,81,83,85,87,89,91,-1,-1,-1,-1,-1,-1,-1,-1,-1,-1,-1,-1,-1,-1,-1,-1,-1,-1,-1,-1,-1,-1,-1,-1,-1,-1,-1,-1,-1,-1,-1,-1,-1,-1,-1,-1,-1,-1],"loss_changes":[8.993103E0,1.0340088E1,5.8075256E0,4.5391316E0,7.4301453E0,5.502152E0,5.8232727E0,4.6532416E0,3.573837E0,5.535309E0,5.8193474E0,4.7647142E0,0E0,6.103943E0,7.9633102E0,2.6494184E0,4.488119E0,2.083117E0,5.8330345E-1,6.613121E0,7.990143E0,5.9243546E0,6.8654385E0,1.6806364E0,2.417094E0,4.7903748E0,5.322666E0,0E0,4.241539E0,0E0,0E0,5.759328E0,3.529505E0,0E0,0E0,6.019697E-1,7.02439E-1,5.1703153E0,5.05011E0,5.7108154E0,5.8427505E0,5.8576994E0,4.9823112E0,3.7742121E0,8.456453E0,0E0,0E0,0E0,4.2148054E-1,5.413994E0,5.28479E0,5.2329807E0,3.9711156E0,3.1344519E0,4.925461E0,0E0,0E0,0E0,0E0,0E0,0E0,0E0,0E0,0E0,0E0,0E0,0E0,0E0,0E0,0E0,0E0,0E0,0E0,0E0,0E0,0E0,0E0,0E0,0E0,0E0,0E0,0E0,0E0,0E0,0E0,0E0,0E0,0E0,0E0,0E0,0E0,0E0,0E0],"parents":[2147483647,0,0,1,1,2,2,3,3,4,4,5,5,6,6,7,7,8,8,9,9,10,10,11,11,13,13,14,14,15,15,16,16,17,17,18,18,19,19,20,20,21,21,22,22,23,23,24,24,25,25,26,26,28,28,31,31,32,32,35,35,36,36,37,37,38,38,39,39,40,40,41,41,42,42,43,43,44,44,48,48,49,49,50,50,51,51,52,52,53,53,54,54],"right_children":[2,4,6,8,10,12,14,16,18,20,22,24,-1,26,28,30,32,34,36,38,40,42,44,46,48,50,52,-1,54,-1,-1,56,58,-1,-1,60,62,64,66,68,70,72,74,76,78,-1,-1,-1,80,82,84,86,88,90,92,-1,-1,-1,-1,-1,-1,-1,-1,-1,-1,-1,-1,-1,-1,-1,-1,-1,-1,-1,-1,-1,-1,-1,-1,-1,-1,-1,-1,-1,-1,-1,-1,-1,-1,-1,-1,-1,-1],"split_conditions":[4.43E1,2E0,3.42E1,2.6E1,1.96E1,7.9E0,6.2E0,9.1E0,2.02E1,1.3E1,2.86E1,2E1,-6.741574E-2,9.6E0,-1.05E1,1.126E2,4.85E1,1.24E1,1.96E1,8.2E0,3E1,1.7E1,3.63E1,3.79E1,2.5E1,4E0,1.95E1,-6.2264156E-2,1.75E1,1.2244898E-1,-1.2000003E-2,1.85E1,4.08E1,-4.2857148E-2,8.1818186E-2,3.46E1,2.195E2,3.23E1,1.1E1,1.43E1,2.2E1,8E0,9.2E0,4E0,4E0,1.2E-1,1.0344825E-2,6E-2,3.66E1,2.23E1,1.2E1,3E0,6.39E-1,1.69E1,1E1,8.571429E-2,-2.3425698E-2,-3.2432437E-2,8.041237E-2,-7.0073E-2,-2.5544848E-9,-4.8000004E-2,2.3999998E-2,-1.4971214E-2,3.2551315E-2,2.1983912E-2,3.6423035E-2,3.629699E-2,8.832487E-2,8.979592E-2,1.3953485E-2,3.4235973E-2,-2.3536559E-3,-2.2556396E-2,3.9769452E-2,9.6E-2,-3.2231413E-2,-6.0000002E-2,8.103896E-2,-6.2264156E-2,-2.5544848E-9,3.7600715E-2,6.778464E-2,3.237331E-2,4.285272E-2,-5.675676E-2,6.878049E-2,1.4251778E-2,-3.8095247E-2,8.571428E-2,-4.9180333E-2,1.4354064E-2,6.456285E-2],"split_indices":[68,102,57,92,63,8,73,66,12,50,64,34,0,71,77,24,56,11,11,66,85,80,57,5,102,39,75,0,22,0,0,75,16,0,0,15,106,9,100,8,78,40,66,32,45,0,0,0,5,12,30,86,3,23,66,0,0,0,0,0,0,0,0,0,0,0,0,0,0,0,0,0,0,0,0,0,0,0,0,0,0,0,0,0,0,0,0,0,0,0,0,0,0],"split_type":[0,0,0,0,0,0,0,0,0,0,0,0,0,0,0,0,0,0,0,0,0,0,0,0,0,0,0,0,0,0,0,0,0,0,0,0,0,0,0,0,0,0,0,0,0,0,0,0,0,0,0,0,0,0,0,0,0,0,0,0,0,0,0,0,0,0,0,0,0,0,0,0,0,0,0,0,0,0,0,0,0,0,0,0,0,0,0,0,0,0,0,0,0],"sum_hessian":[6.0457773E3,3.4471108E3,2.5986665E3,8.977777E1,3.3573333E3,2.311111E1,2.5755554E3,6.6666664E1,2.311111E1,2.9293333E3,4.2799997E2,1.4222221E1,8.888888E0,2.3275554E3,2.4799998E2,6.222222E0,6.0444443E1,3.9999998E0,1.911111E1,1.1959999E3,1.7333333E3,3.6799997E2,5.9999996E1,6.222222E0,7.9999995E0,2.2368887E3,9.0666664E1,4.8888884E0,2.431111E2,4.444444E0,1.7777777E0,4.7555553E1,1.2888888E1,1.3333333E0,2.6666665E0,1.5555554E1,3.5555553E0,9.377777E1,1.1022222E3,1.6719999E3,6.133333E1,2.3955554E2,1.2844444E2,1.4222221E1,4.5777775E1,3.9999998E0,2.222222E0,1.7777777E0,6.222222E0,2.4799998E2,1.9888888E3,2.4888887E1,6.577777E1,7.1111107E0,2.3599998E2,4.444444E0,4.3111107E1,3.111111E0,9.777777E0,1.4222221E1,1.3333333E0,1.7777777E0,1.7777777E0,5.6888885E1,3.6888885E1,3.7199997E2,7.3022217E2,1.651111E3,2.0888887E1,4.7999996E1,1.3333332E1,5.6444443E1,1.831111E2,1.3777777E1,1.1466666E2,1.7777777E0,1.2444444E1,3.9999998E0,4.1777775E1,4.8888884E0,1.3333333E0,1.2311111E2,1.2488888E2,9.1333325E2,1.0755555E3,3.111111E0,2.1777777E1,4.5777775E1,1.9999998E1,1.3333333E0,5.7777777E0,2.2222221E1,2.1377777E2],"tree_param":{"num_deleted":"0","num_feature":"107","num_nodes":"93","size_leaf_vector":"1"}},{"base_weights":[-7.2556555E-1,-7.257256E-1,-2.5544848E-9,-2.5544848E-9,-7.258857E-1,-5.5299544E-1,-7.264575E-1,5.6603737E-2,-7.1098275E-2,-7.266115E-1,-3.2432437E-1,-5.454546E-2,7.2413795E-2,-3.658537E-1,-7.267639E-1,-2.5544848E-9,-4.8000004E-2,-5.1724143E-2,-2.5544848E-9,-2.0689659E-2,-7.269217E-2],"categories":[],"categories_nodes":[],"categories_segments":[],"categories_sizes":[],"default_left":[0,0,0,0,0,0,0,0,0,0,0,0,0,0,0,0,0,0,0,0,0],"id":2,"left_children":[1,3,-1,-1,5,7,9,11,-1,13,15,-1,-1,17,19,-1,-1,-1,-1,-1,-1],"loss_changes":[7.0214844E-1,7.0214844E-1,0E0,0E0,1.9580078E-1,2.362358E0,1.3671875E-1,2.7616963E0,0E0,6.542969E-2,2.0756751E-1,0E0,0E0,2.5231284E-1,3.4277344E-1,0E0,0E0,0E0,0E0,0E0,0E0],"parents":[2147483647,0,0,1,1,4,4,5,5,6,6,7,7,9,9,10,10,13,13,14,14],"right_children":[2,4,-1,-1,6,8,10,12,-1,14,16,-1,-1,18,20,-1,-1,-1,-1,-1,-1],"split_conditions":[3.26E1,2.4E1,-2.5544848E-9,-2.5544848E-9,1.37E1,4.2E0,2.6E2,4.6E0,-7.1098275E-2,3.1E1,9E0,-5.454546E-2,7.2413795E-2,2E0,1.45E1,-2.5544848E-9,-4.8000004E-2,-5.1724143E-2,-2.5544848E-9,-2.0689659E-2,-7.269217E-2],"split_indices":[63,67,0,0,9,72,106,8,0,5,1,0,0,0,17,0,0,0,0,0,0],"split_type":[0,0,0,0,0,0,0,0,0,0,0,0,0,0,0,0,0,0,0,0,0],"sum_hessian":[6.0457773E3,6.044444E3,1.3333333E0,1.3333333E0,6.043111E3,2.311111E1,6.0199995E3,4.8888884E0,1.8222221E1,6.0168887E3,3.111111E0,2.6666665E0,2.222222E0,3.5555553E0,6.013333E3,1.3333333E0,1.7777777E0,2.222222E0,1.3333333E0,2.222222E0,6.011111E3],"tree_param":{"num_deleted":"0","num_feature":"107","num_nodes":"21","size_leaf_vector":"1"}},{"base_weights":[3.3846962E-1,3.6754853E-1,2.996315E-1,3.4972832E-1,4.8075882E-1,2.8770447E-1,4.6226057E-1,3.99169E-1,3.1504235E-1,5.376486E-1,2.7938294E-1,3.0222753E-1,1.339237E-1,5.076976E-1,-1.2350845E-1,6.1285454E-1,3.80427E-1,3.266834E-1,-1.3784126E-2,3.133487E-1,6.0083693E-1,6.784243E-1,1.6591923E-1,4.0951416E-1,2.749961E-1,9.291361E-2,7.0968515E-1,1.7497091E-1,5.9556377E-1,4.5334187E-1,-4.6013075E-1,7.8584385E-1,3.2031202E-1,-3.7967408E-1,3.869225E-1,2.7261955E-1,3.8307557E-1,-2.8089303E-1,2.6244393E-1,3.990842E-1,-5.326655E-1,8.20654E-1,4.9826145E-1,7.9899126E-1,-4.8921864E-2,-1.6421305E-1,3.098532E-1,3.3283395E-1,5.491546E-1,5.0042797E-2,2.9080722E-1,5.8200055E-1,3.892201E-2,8.6299354E-1,-4.3066632E-2,-9.734991E-2,7.4355483E-1,6.466731E-1,-8.607328E-2,8.461433E-2,-4.381393E-2,4.053534E-2,-6.639488E-2,-5.063064E-2,8.341456E-2,-8.736644E-3,5.8874276E-2,4.3080326E-2,-5.486381E-2,-6.4929896E-3,3.9742727E-2,2.6068224E-2,7.7762656E-2,3.9225757E-2,-4.650101E-2,1.3802114E-2,-5.488775E-2,8.038928E-2,3.708037E-4,4.9918484E-2,-1.8877003E-2,-6.3800864E-2,2.2227666E-4,8.9102454E-2,1.8268166E-2,5.8130324E-2,1.2909062E-2,9.5703386E-2,-9.369424E-3,5.053393E-2,-3.8237557E-2,8.920732E-3,6.4841285E-2,-1.8802778E-3,4.041533E-2,7.372481E-3,6.1310768E-2,-5.434298E-3,4.2968474E-2,2.991092E-2,-1.445501E-2,9.629107E-2,-1.428503E-2,-1.6503831E-3,5.3165793E-2,-6.220557E-4,1.09496675E-1,-2.3710249E-2,7.725297E-2,9.3755625E-2,-4.3633204E-2,4.9799163E-2,8.556043E-2,-6.344983E-2,5.7879806E-2],"categories":[],"categories_nodes":[],"categories_segments":[],"categories_sizes":[],"default_left":[0,0,0,0,0,0,0,0,0,0,0,0,0,0,0,0,0,0,0,0,0,0,0,0,0,0,0,0,0,0,0,0,0,0,0,0,0,0,0,0,0,0,0,0,0,0,0,0,0,0,0,0,0,0,0,0,0,0,0,0,0,0,0,0,0,0,0,0,0,0,0,0,0,0,0,0,0,0,0,0,0,0,0,0,0,0,0,0,0,0,0,0,0,0,0,0,0,0,0,0,0,0,0,0,0,0,0,0,0,0,0,0,0,0,0],"id":3,"left_children":[1,3,5,7,9,11,13,15,17,19,21,23,25,27,29,31,33,35,37,39,41,43,45,47,49,51,53,55,57,59,61,63,65,67,69,71,73,75,77,79,81,83,85,87,-1,89,91,93,95,97,99,101,103,105,-1,107,109,111,113,-1,-1,-1,-1,-1,-1,-1,-1,-1,-1,-1,-1,-1,-1,-1,-1,-1,-1,-1,-1,-1,-1,-1,-1,-1,-1,-1,-1,-1,-1,-1,-1,-1,-1,-1,-1,-1,-1,-1,-1,-1,-1,-1,-1,-1,-1,-1,-1,-1,-1,-1,-1,-1,-1,-1,-1],"loss_changes":[6.8378906E0,6.9203796E0,4.9866943E0,5.086609E0,5.2936325E0,5.4575043E0,4.818901E0,4.7707367E0,6.8602753E0,5.04776E0,4.7209215E0,6.4566345E0,4.992279E0,4.749798E0,2.8626423E0,4.764065E0,5.8312683E0,5.169388E0,4.66277E0,6.2538357E0,6.065567E0,3.672534E0,4.0634117E0,4.6693115E0,6.374756E0,5.2884717E0,2.8355308E0,5.662275E0,4.616993E0,2.310859E0,1.879229E0,4.266674E0,4.2665863E0,1.6413887E0,5.446747E0,5.1421432E0,6.75634E0,3.6797488E0,4.352956E0,4.5780134E0,4.5738912E-1,3.8694153E0,6.0050507E0,3.1241655E0,0E0,4.033738E0,4.3608894E0,7.407089E0,4.7919197E0,4.746262E0,6.1088257E0,5.6386533E0,4.98484E0,2.5788689E0,0E0,3.258189E0,3.1117144E0,3.3611107E0,4.0190134E0,0E0,0E0,0E0,0E0,0E0,0E0,0E0,0E0,0E0,0E0,0E0,0E0,0E0,0E0,0E0,0E0,0E0,0E0,0E0,0E0,0E0,0E0,0E0,0E0,0E0,0E0,0E0,0E0,0E0,0E0,0E0,0E0,0E0,0E0,0E0,0E0,0E0,0E0,0E0,0E0,0E0,0E0,0E0,0E0,0E0,0E0,0E0,0E0,0E0,0E0,0E0,0E0,0E0,0E0,0E0,0E0],"parents":[2147483647,0,0,1,1,2,2,3,3,4,4,5,5,6,6,7,7,8,8,9,9,10,10,11,11,12,12,13,13,14,14,15,15,16,16,17,17,18,18,19,19,20,20,21,21,22,22,23,23,24,24,25,25,26,26,27,27,28,28,29,29,30,30,31,31,32,32,33,33,34,34,35,35,36,36,37,37,38,38,39,39,40,40,41,41,42,42,43,43,45,45,46,46,47,47,48,48,49,49,50,50,51,51,52,52,53,53,55,55,56,56,57,57,58,58],"right_children":[2,4,6,8,10,12,14,16,18,20,22,24,26,28,30,32,34,36,38,40,42,44,46,48,50,52,54,56,58,60,62,64,66,68,70,72,74,76,78,80,82,84,86,88,-1,90,92,94,96,98,100,102,104,106,-1,108,110,112,114,-1,-1,-1,-1,-1,-1,-1,-1,-1,-1,-1,-1,-1,-1,-1,-1,-1,-1,-1,-1,-1,-1,-1,-1,-1,-1,-1,-1,-1,-1,-1,-1,-1,-1,-1,-1,-1,-1,-1,-1,-1,-1,-1,-1,-1,-1,-1,-1,-1,-1,-1,-1,-1,-1,-1,-1],"split_conditions":[4.43E1,1.96E1,2.7E1,1.3E1,2.4E1,6.2E0,2.61E1,8.2E0,3E1,8E0,4.33E-1,8E0,3E1,3.22E1,2.46E1,3.23E1,1.85E1,1E1,1.4E1,2.8E1,5E0,2.23E2,8E0,1.1E1,3.3E-1,1.87E1,2.4E1,2.4E1,2.9E1,2.25E1,7.25E-1,6.2E0,1.31E1,1.1E1,1.75E1,3.87E-1,1.44E1,1.01E1,2.11E1,2.6E1,7E0,2E1,2E1,1.22E1,-4.8921864E-2,1.1E1,1.09E1,-1.6E0,3E0,2.4E1,8.33E-1,1.8E1,2.9E1,1.93E1,-4.3066632E-2,2E1,4.69E1,3.63E-1,1.43E1,8.461433E-2,-4.381393E-2,4.053534E-2,-6.639488E-2,-5.063064E-2,8.341456E-2,-8.736644E-3,5.8874276E-2,4.3080326E-2,-5.486381E-2,-6.4929896E-3,3.9742727E-2,2.6068224E-2,7.7762656E-2,3.9225757E-2,-4.650101E-2,1.3802114E-2,-5.488775E-2,8.038928E-2,3.708037E-4,4.9918484E-2,-1.8877003E-2,-6.3800864E-2,2.2227666E-4,8.9102454E-2,1.8268166E-2,5.8130324E-2,1.2909062E-2,9.5703386E-2,-9.369424E-3,5.053393E-2,-3.8237557E-2,8.920732E-3,6.4841285E-2,-1.8802778E-3,4.041533E-2,7.372481E-3,6.1310768E-2,-5.434298E-3,4.2968474E-2,2.991092E-2,-1.445501E-2,9.629107E-2,-1.428503E-2,-1.6503831E-3,5.3165793E-2,-6.220557E-4,1.09496675E-1,-2.3710249E-2,7.725297E-2,9.3755625E-2,-4.3633204E-2,4.9799163E-2,8.556043E-2,-6.344983E-2,5.7879806E-2],"split_indices":[68,63,103,50,88,73,64,66,85,40,59,1,83,15,9,9,17,66,78,29,26,106,96,94,10,74,36,46,90,12,13,19,8,31,22,10,8,14,9,86,89,101,91,14,0,83,14,77,0,100,13,81,35,23,0,93,68,10,63,0,0,0,0,0,0,0,0,0,0,0,0,0,0,0,0,0,0,0,0,0,0,0,0,0,0,0,0,0,0,0,0,0,0,0,0,0,0,0,0,0,0,0,0,0,0,0,0,0,0,0,0,0,0,0,0],"split_type":[0,0,0,0,0,0,0,0,0,0,0,0,0,0,0,0,0,0,0,0,0,0,0,0,0,0,0,0,0,0,0,0,0,0,0,0,0,0,0,0,0,0,0,0,0,0,0,0,0,0,0,0,0,0,0,0,0,0,0,0,0,0,0,0,0,0,0,0,0,0,0,0,0,0,0,0,0,0,0,0,0,0,0,0,0,0,0,0,0,0,0,0,0,0,0,0,0,0,0,0,0,0,0,0,0,0,0,0,0,0,0,0,0,0,0],"sum_hessian":[6.1510884E3,3.5126392E3,2.6384495E3,3.038452E3,4.7418723E2,2.4607498E3,1.7769952E2,1.2484406E3,1.7900112E3,3.6843295E2,1.05754295E2,2.2475278E3,2.1322209E2,1.6503162E2,1.2667918E1,9.811295E1,1.1503276E3,1.7288146E3,6.1196613E1,8.228926E1,2.8614368E2,2.2310638E1,8.344366E1,4.5214114E2,1.7953866E3,2.0012878E2,1.3093311E1,3.5101715E1,1.299299E2,4.540458E0,8.12746E0,6.059502E1,3.7517937E1,9.2600975E0,1.1410675E3,8.856068E2,8.432078E2,3.110327E1,3.0093346E1,7.519704E1,7.0922275E0,8.881487E1,1.9732881E2,2.0508701E1,1.8019385E0,2.5292027E1,5.815163E1,2.940526E2,1.5808853E2,1.1817753E2,1.6772091E3,1.8924084E1,1.812047E2,1.1756054E1,1.3372571E0,2.4294672E1,1.0807043E1,1.2091496E2,9.014936E0,3.1870484E0,1.3534096E0,1.3606887E0,6.7667713E0,1.8417995E0,5.875322E1,1.5163277E1,2.2354658E1,1.3301301E0,7.9299674E0,2.5807402E1,1.1152601E3,8.6663745E2,1.896933E1,8.347081E2,8.499681E0,1.2323733E1,1.8779537E1,9.04925E0,2.1044096E1,6.438441E1,1.0812628E1,5.7642117E0,1.3280162E0,7.963429E1,9.180586E0,1.6062335E2,3.6705452E1,1.7362696E1,3.1460047E0,5.892202E0,1.9399824E1,3.597168E1,2.2179949E1,4.9707687E1,2.4434491E2,1.8999372E1,1.3908916E2,9.336334E1,2.4814186E1,1.6461315E3,3.1077635E1,1.2189865E1,6.7342186E0,1.6375146E2,1.7453226E1,2.6815076E0,9.074547E0,2.1558561E1,2.7361112E0,9.457406E0,1.349637E0,7.262E1,4.8294956E1,4.9651065E0,4.0498295E0],"tree_param":{"num_deleted":"0","num_feature":"107","num_nodes":"115","size_leaf_vector":"1"}},{"base_weights":[3.2250562E-1,2.9231498E-1,3.6227885E-1,-1.6699655E-2,3.0045956E-1,2.7362278E-1,3.867072E-1,1.1002461E-1,-3.7690163E-1,3.165908E-1,1.8880983E-1,3.2803133E-1,-2.3156632E-2,3.7279543E-1,5.514912E-1,8.1163186E-1,2.3734536E-2,3.7117794E-1,-5.4952365E-1,-2.9450673E-1,3.194749E-1,7.205065E-1,1.6523992E-1,-6.895828E-2,3.6428282E-1,5.9792924E-1,-1.0016402E-1,2.6504093E-1,4.011368E-1,8.461159E-1,4.3999153E-1,1.1253096E-1,-1.1838909E-2,-1.1271509E-1,4.8889783E-1,-4.295783E-2,7.7184774E-2,-6.293051E-1,-1.4326383E-1,2.8276935E-1,-5.834943E-1,-2.9488534E-1,3.2238817E-1,1.0112604E0,-3.6542365E-1,8.6314E-2,3.1378332E-1,8.2243294E-1,-2.0007698E-1,4.9540892E-1,2.498684E-1,9.6629864E-1,-2.9156673E-1,3.569147E-1,-1.7246726E-1,1.4338648E-1,3.8978776E-1,2.1757667E-1,4.2228565E-1,-8.277904E-2,9.584385E-1,-3.2545668E-1,4.9611384E-1,7.955903E-2,-2.2589965E-2,7.504812E-2,-3.287958E-2,-6.866284E-2,1.327568E-3,-4.6863668E-2,2.2721129E-2,1.0093796E-1,-5.29243E-2,6.124814E-4,-6.742033E-2,-4.6576884E-2,5.8959085E-2,3.2421425E-2,-6.341299E-2,-1.2139655E-2,1.1789789E-1,8.421332E-4,-5.206707E-2,3.296552E-2,1.3374862E-3,3.7057742E-2,-3.0375415E-2,-1.6914916E-3,1.100202E-1,2.356018E-2,-3.886273E-2,6.421932E-2,3.230615E-2,3.6897767E-2,8.500988E-3,1.195746E-1,-2.285135E-3,-4.420363E-2,-1.7431536E-3,-2.9673098E-2,9.0534694E-2,3.5933685E-2,-2.7004585E-2,7.295665E-2,8.902954E-3,5.552534E-2,2.581524E-2,1.5564511E-2,1.03675745E-1,-1.0577361E-2,4.2841144E-2,5.7175178E-2,-5.5708278E-2,-2.014675E-3,1.0757708E-1,2.4620794E-2,-6.292806E-2,2.9228112E-2,7.058583E-2],"categories":[],"categories_nodes":[],"categories_segments":[],"categories_sizes":[],"default_left":[0,0,0,0,0,0,0,0,0,0,0,0,0,0,0,0,0,0,0,0,0,0,0,0,0,0,0,0,0,0,0,0,0,0,0,0,0,0,0,0,0,0,0,0,0,0,0,0,0,0,0,0,0,0,0,0,0,0,0,0,0,0,0,0,0,0,0,0,0,0,0,0,0,0,0,0,0,0,0,0,0,0,0,0,0,0,0,0,0,0,0,0,0,0,0,0,0,0,0,0,0,0,0,0,0,0,0,0,0,0,0,0,0,0,0,0,0,0,0],"id":4,"left_children":[1,3,5,7,9,11,13,15,17,19,21,23,25,27,29,31,33,35,37,39,41,43,45,47,49,51,53,55,57,59,61,-1,-1,63,65,-1,-1,67,69,71,73,75,77,79,81,83,85,87,89,91,93,95,97,99,101,103,105,107,109,111,113,115,117,-1,-1,-1,-1,-1,-1,-1,-1,-1,-1,-1,-1,-1,-1,-1,-1,-1,-1,-1,-1,-1,-1,-1,-1,-1,-1,-1,-1,-1,-1,-1,-1,-1,-1,-1,-1,-1,-1,-1,-1,-1,-1,-1,-1,-1,-1,-1,-1,-1,-1,-1,-1,-1,-1,-1,-1],"loss_changes":[7.2754517E0,8.812988E0,5.6298523E0,4.1869993E0,6.081543E0,9.300751E0,4.5486145E0,4.094953E0,3.2853627E0,5.3426514E0,5.3065977E0,7.0254784E0,4.3691225E0,5.7434387E0,4.8630447E0,2.2956362E0,3.9614027E0,1.9584439E0,5.513134E-1,2.5854506E0,5.400696E0,6.078064E0,4.8484564E0,5.0199466E0,6.565647E0,3.5853384E0,2.73899E0,6.0424747E0,5.7881775E0,4.531397E0,5.2176E0,0E0,0E0,5.1553626E0,3.2725098E0,0E0,0E0,6.075964E-1,6.5414965E-1,3.787427E0,5.387058E-1,2.468128E0,5.359894E0,2.9027643E0,2.6863438E-1,4.8401804E0,5.1599846E0,1.3062103E0,3.132629E0,5.0228615E0,4.6839104E0,1.6980662E0,1.4577535E-1,4.352084E0,3.7619524E0,6.46774E0,4.16535E0,7.8821363E0,4.4352875E0,2.033301E0,4.4016647E0,1.6562531E0,4.4987946E0,0E0,0E0,0E0,0E0,0E0,0E0,0E0,0E0,0E0,0E0,0E0,0E0,0E0,0E0,0E0,0E0,0E0,0E0,0E0,0E0,0E0,0E0,0E0,0E0,0E0,0E0,0E0,0E0,0E0,0E0,0E0,0E0,0E0,0E0,0E0,0E0,0E0,0E0,0E0,0E0,0E0,0E0,0E0,0E0,0E0,0E0,0E0,0E0,0E0,0E0,0E0,0E0,0E0,0E0,0E0,0E0],"parents":[2147483647,0,0,1,1,2,2,3,3,4,4,5,5,6,6,7,7,8,8,9,9,10,10,11,11,12,12,13,13,14,14,15,15,16,16,17,17,18,18,19,19,20,20,21,21,22,22,23,23,24,24,25,25,26,26,27,27,28,28,29,29,30,30,33,33,34,34,37,37,38,38,39,39,40,40,41,41,42,42,43,43,44,44,45,45,46,46,47,47,48,48,49,49,50,50,51,51,52,52,53,53,54,54,55,55,56,56,57,57,58,58,59,59,60,60,61,61,62,62],"right_children":[2,4,6,8,10,12,14,16,18,20,22,24,26,28,30,32,34,36,38,40,42,44,46,48,50,52,54,56,58,60,62,-1,-1,64,66,-1,-1,68,70,72,74,76,78,80,82,84,86,88,90,92,94,96,98,100,102,104,106,108,110,112,114,116,118,-1,-1,-1,-1,-1,-1,-1,-1,-1,-1,-1,-1,-1,-1,-1,-1,-1,-1,-1,-1,-1,-1,-1,-1,-1,-1,-1,-1,-1,-1,-1,-1,-1,-1,-1,-1,-1,-1,-1,-1,-1,-1,-1,-1,-1,-1,-1,-1,-1,-1,-1,-1,-1,-1,-1,-1],"split_conditions":[4.43E1,2E0,7E0,2.6E1,1.96E1,1.33E1,2.31E1,9.1E0,2.02E1,7.51E1,6E0,6E0,9.1E0,8E0,4E0,1.126E2,4.85E1,1E1,1.96E1,7.34E-1,1.37E1,2.3E1,1.7E1,5.5E0,1.5E1,2.245E2,3.32E-1,1.7E1,4E0,4E0,8.13E1,1.1253096E-1,-1.1838909E-2,1.85E1,2.1E1,-4.295783E-2,7.7184774E-2,2.7E1,2.195E2,1.8E1,3.4E0,2.6E1,5.21E-1,1.92E1,1.59E1,8E0,3.93E-1,3.91E1,8.46E1,2.2E1,1.6E1,1.72E1,3.1E1,2.1E1,6E0,3.3E0,3.33E1,3.69E1,2.27E-1,2.2E1,3E0,1.2E1,5.1E0,7.955903E-2,-2.2589965E-2,7.504812E-2,-3.287958E-2,-6.866284E-2,1.327568E-3,-4.6863668E-2,2.2721129E-2,1.0093796E-1,-5.29243E-2,6.124814E-4,-6.742033E-2,-4.6576884E-2,5.8959085E-2,3.2421425E-2,-6.341299E-2,-1.2139655E-2,1.1789789E-1,8.421332E-4,-5.206707E-2,3.296552E-2,1.3374862E-3,3.7057742E-2,-3.0375415E-2,-1.6914916E-3,1.100202E-1,2.356018E-2,-3.886273E-2,6.421932E-2,3.230615E-2,3.6897767E-2,8.500988E-3,1.195746E-1,-2.285135E-3,-4.420363E-2,-1.7431536E-3,-2.9673098E-2,9.0534694E-2,3.5933685E-2,-2.7004585E-2,7.295665E-2,8.902954E-3,5.552534E-2,2.581524E-2,1.5564511E-2,1.03675745E-1,-1.0577361E-2,4.2841144E-2,5.7175178E-2,-5.5708278E-2,-2.014675E-3,1.0757708E-1,2.4620794E-2,-6.292806E-2,2.9228112E-2,7.058583E-2],"split_indices":[68,102,45,92,63,8,23,66,12,58,19,52,14,1,78,24,56,34,11,13,9,96,80,60,44,106,62,99,43,33,58,0,0,75,100,0,0,45,106,47,72,31,7,69,11,40,10,16,6,35,89,70,2,100,49,73,15,67,55,39,85,31,21,0,0,0,0,0,0,0,0,0,0,0,0,0,0,0,0,0,0,0,0,0,0,0,0,0,0,0,0,0,0,0,0,0,0,0,0,0,0,0,0,0,0,0,0,0,0,0,0,0,0,0,0,0,0,0,0],"split_type":[0,0,0,0,0,0,0,0,0,0,0,0,0,0,0,0,0,0,0,0,0,0,0,0,0,0,0,0,0,0,0,0,0,0,0,0,0,0,0,0,0,0,0,0,0,0,0,0,0,0,0,0,0,0,0,0,0,0,0,0,0,0,0,0,0,0,0,0,0,0,0,0,0,0,0,0,0,0,0,0,0,0,0,0,0,0,0,0,0,0,0,0,0,0,0,0,0,0,0,0,0,0,0,0,0,0,0,0,0,0,0,0,0,0,0,0,0,0,0],"sum_hessian":[6.1460737E3,3.4986792E3,2.6473943E3,8.981849E1,3.4088608E3,5.7452234E2,2.072872E3,6.6956696E1,2.2861788E1,2.9769185E3,4.319424E2,4.8542422E2,8.909814E1,1.914504E3,1.58368E2,6.4124556E0,6.0544243E1,4.0706916E0,1.8791098E1,1.35089E1,2.9634094E3,1.7079922E1,4.148625E2,4.0542416E1,4.448818E2,9.082301E0,8.001584E1,4.0084244E2,1.5136616E3,4.167039E1,1.166976E2,4.638125E0,1.7743309E0,4.7398262E1,1.3145979E1,1.3334942E0,2.7371974E0,1.5247721E1,3.543376E0,4.5137787E0,8.995121E0,1.3512901E1,2.9498965E3,1.3526904E1,3.5530186E0,2.7194852E2,1.4291397E2,4.522748E0,3.6019665E1,2.0574976E2,2.3913205E2,6.3614655E0,2.7208354E0,1.0390972E1,6.962486E1,2.0402472E2,1.9681772E2,1.5754533E2,1.3561162E3,4.52362E0,3.714677E1,7.6439013E0,1.09053696E2,4.583839E0,4.2814423E1,1.0022076E1,3.1239038E0,1.3935976E1,1.3117449E0,1.7454548E0,1.7979212E0,2.253884E0,2.2598948E0,1.3236593E0,7.6714616E0,1.172164E1,1.7912612E0,2.9449355E3,4.9611425E0,1.7802818E0,1.1746622E1,1.3200376E0,2.2329807E0,6.1903866E1,2.1004465E2,1.3124359E2,1.1670389E1,1.3580794E0,3.1646686E0,1.0804474E1,2.5215193E1,1.0964312E2,9.610664E1,1.3811015E2,1.010219E2,4.9941416E0,1.3673241E0,1.3612087E0,1.3596267E0,4.9501333E0,5.4408393E0,1.0378641E1,5.9246223E1,1.6259716E1,1.8776501E2,8.577742E1,1.11040306E2,1.4757816E2,9.967176E0,1.5364738E1,1.3407515E3,1.8143685E0,2.7092516E0,4.065724E0,3.3081047E1,2.7185006E0,4.9254007E0,5.6520123E1,5.2533573E1],"tree_param":{"num_deleted":"0","num_feature":"107","num_nodes":"119","size_leaf_vector":"1"}},{"base_weights":[-6.988599E-1,-6.990242E-1,2.0503865E-3,1.0177837E-3,-6.991866E-1,-5.2575016E-1,-6.997654E-1,7.105175E-2,-6.851635E-2,-6.9991946E-1,-3.062281E-1,-5.3029317E-2,7.20639E-2,-3.460739E-1,-7.00072E-1,1.8025719E-3,-4.6706717E-2,-5.0329316E-2,2.1656721E-3,-1.912149E-2,-7.002309E-2],"categories":[],"categories_nodes":[],"categories_segments":[],"categories_sizes":[],"default_left":[0,0,0,0,0,0,0,0,0,0,0,0,0,0,0,0,0,0,0,0,0],"id":5,"left_children":[1,3,-1,-1,5,7,9,11,-1,13,15,-1,-1,17,19,-1,-1,-1,-1,-1,-1],"loss_changes":[7.0166016E-1,6.772461E-1,0E0,0E0,2.1557617E-1,2.27077E0,1.3696289E-1,2.6593719E0,0E0,7.006836E-2,2.1937197E-1,0E0,0E0,2.6942396E-1,3.3398438E-1,0E0,0E0,0E0,0E0,0E0,0E0],"parents":[2147483647,0,0,1,1,4,4,5,5,6,6,7,7,9,9,10,10,13,13,14,14],"right_children":[2,4,-1,-1,6,8,10,12,-1,14,16,-1,-1,18,20,-1,-1,-1,-1,-1,-1],"split_conditions":[3.98E1,2.4E1,2.0503865E-3,1.0177837E-3,1.37E1,4.2E0,2.6E2,1.008E2,-6.851635E-2,3.1E1,1.93E1,-5.3029317E-2,7.20639E-2,4.11E1,1.45E1,1.8025719E-3,-4.6706717E-2,-5.0329316E-2,2.1656721E-3,-1.912149E-2,-7.002309E-2],"split_indices":[64,67,0,0,9,72,106,76,0,5,23,0,0,57,17,0,0,0,0,0,0],"split_type":[0,0,0,0,0,0,0,0,0,0,0,0,0,0,0,0,0,0,0,0,0],"sum_hessian":[5.815275E3,5.813975E3,1.2998085E0,1.3172395E0,5.8126577E3,2.235641E1,5.7903013E3,4.829673E0,1.7526735E1,5.7872563E3,3.0449066E0,2.603329E0,2.2263439E0,3.4716291E0,5.783785E3,1.303984E0,1.7409227E0,2.1736586E0,1.2979708E0,2.1815443E0,5.7816035E3],"tree_param":{"num_deleted":"0","num_feature":"107","num_nodes":"21","size_leaf_vector":"1"}},{"base_weights":[3.0958346E-1,3.3554468E-1,2.7481246E-1,3.1791216E-1,4.277538E-1,1.9568644E-1,2.9605052E-1,3.676659E-1,2.8309852E-1,5.677364E-1,3.6478055E-1,2.957995E-1,5.9759118E-2,4.3249303E-1,2.7202222E-1,4.501723E-1,3.2486898E-1,2.9405472E-1,-3.0711865E-2,1.0471609E0,5.085063E-1,-3.886232E-2,3.900167E-1,1.91233E-1,4.3289378E-1,-5.0833095E-2,2.0468421E-1,1.5747695E-1,5.349632E-1,5.7214506E-2,2.8871122E-1,4.6320018E-1,-3.8255584E-1,5.4173046E-1,2.9135874E-1,2.4387129E-1,3.4593594E-1,-1.7514369E-1,4.3083477E-1,1.7967805E-2,1.1347815E0,4.7232902E-1,1.1669337E-1,-3.9307904E-1,5.2693796E-1,-2.829979E-1,4.0685984E-1,6.6414887E-1,1.24819435E-1,5.654617E-1,1.571689E-1,3.4951314E-1,-1.3303128E-1,5.7966757E-1,4.28541E-2,-1.605209E-1,4.9446E-1,5.839024E-1,4.1670576E-2,-2.4151039E-1,2.4520983E-1,-6.555048E-2,2.9246324E-1,4.883497E-2,3.789225E-3,-6.410981E-2,3.8608097E-2,7.800289E-2,3.3586517E-2,3.957926E-2,2.1577409E-2,5.2818317E-2,2.2241633E-2,3.324149E-2,9.547656E-2,3.0805482E-2,-3.5004452E-2,-5.3561468E-2,6.506464E-2,2.0088399E-2,1.2380507E-1,8.776702E-2,4.068531E-2,3.6841787E-2,-6.204122E-2,9.091806E-2,-5.226751E-2,-5.5797856E-2,7.8419134E-2,5.0055232E-2,2.9203897E-2,-2.9286018E-2,8.082204E-2,-6.606453E-2,1.5812462E-2,1.0654374E-2,6.986325E-2,3.9872315E-2,-1.861385E-2,6.9854155E-2,-3.3656623E-2,3.0801553E-2,-2.189209E-2,9.4084844E-2,9.871087E-3,1.9096863E-2,-4.081027E-2,7.023695E-2,-2.6576025E-2,1.0587392E-1,2.934201E-2,2.111834E-2,6.34174E-2,3.1989377E-2,-5.363637E-2,5.251341E-2,-3.364986E-2,5.236134E-2,4.307603E-3,3.7954438E-3,3.0432684E-2],"categories":[],"categories_nodes":[],"categories_segments":[],"categories_sizes":[],"default_left":[0,0,0,0,0,0,0,0,0,0,0,0,0,0,0,0,0,0,0,0,0,0,0,0,0,0,0,0,0,0,0,0,0,0,0,0,0,0,0,0,0,0,0,0,0,0,0,0,0,0,0,0,0,0,0,0,0,0,0,0,0,0,0,0,0,0,0,0,0,0,0,0,0,0,0,0,0,0,0,0,0,0,0,0,0,0,0,0,0,0,0,0,0,0,0,0,0,0,0,0,0,0,0,0,0,0,0,0,0,0,0,0,0,0,0,0,0,0,0,0,0],"id":6,"left_children":[1,3,5,7,9,11,13,15,17,19,21,23,25,27,29,31,33,35,37,39,41,43,45,47,49,51,53,55,57,59,61,63,65,67,69,71,73,75,77,-1,79,81,-1,83,85,87,89,91,93,95,97,99,101,103,105,107,109,111,113,115,117,-1,119,-1,-1,-1,-1,-1,-1,-1,-1,-1,-1,-1,-1,-1,-1,-1,-1,-1,-1,-1,-1,-1,-1,-1,-1,-1,-1,-1,-1,-1,-1,-1,-1,-1,-1,-1,-1,-1,-1,-1,-1,-1,-1,-1,-1,-1,-1,-1,-1,-1,-1,-1,-1,-1,-1,-1,-1,-1,-1],"loss_changes":[5.5406494E0,5.665222E0,4.433899E0,5.0908203E0,4.816429E0,7.7194786E0,6.784729E0,4.201538E0,6.090683E0,4.4375343E0,4.0474434E0,4.607294E0,3.8955505E0,8.752022E0,6.4105835E0,4.711502E0,5.7601624E0,4.3658905E0,4.1137805E0,1.1871834E0,3.2057762E0,5.0576067E0,4.3393593E0,5.802738E0,5.0567093E0,4.5972505E0,6.3539352E0,9.352219E0,5.4804153E0,7.3876266E0,6.084366E0,4.388069E0,1.6357774E0,5.0279446E0,5.4995155E0,5.2031403E0,6.5813217E0,4.067323E0,3.4772081E0,0E0,1.3362694E0,3.6554413E0,0E0,2.9043424E0,4.385092E0,3.2806041E0,3.7692528E0,3.3864183E0,4.435219E0,5.7119427E0,3.979464E0,5.941984E0,4.441064E0,5.397949E0,5.054476E0,4.298126E0,4.4831305E0,3.751503E0,3.6545093E0,3.8838713E0,4.512464E0,0E0,4.992874E0,0E0,0E0,0E0,0E0,0E0,0E0,0E0,0E0,0E0,0E0,0E0,0E0,0E0,0E0,0E0,0E0,0E0,0E0,0E0,0E0,0E0,0E0,0E0,0E0,0E0,0E0,0E0,0E0,0E0,0E0,0E0,0E0,0E0,0E0,0E0,0E0,0E0,0E0,0E0,0E0,0E0,0E0,0E0,0E0,0E0,0E0,0E0,0E0,0E0,0E0,0E0,0E0,0E0,0E0,0E0,0E0,0E0,0E0],"parents":[2147483647,0,0,1,1,2,2,3,3,4,4,5,5,6,6,7,7,8,8,9,9,10,10,11,11,12,12,13,13,14,14,15,15,16,16,17,17,18,18,19,19,20,20,21,21,22,22,23,23,24,24,25,25,26,26,27,27,28,28,29,29,30,30,31,31,32,32,33,33,34,34,35,35,36,36,37,37,38,38,40,40,41,41,43,43,44,44,45,45,46,46,47,47,48,48,49,49,50,50,51,51,52,52,53,53,54,54,55,55,56,56,57,57,58,58,59,59,60,60,62,62],"right_children":[2,4,6,8,10,12,14,16,18,20,22,24,26,28,30,32,34,36,38,40,42,44,46,48,50,52,54,56,58,60,62,64,66,68,70,72,74,76,78,-1,80,82,-1,84,86,88,90,92,94,96,98,100,102,104,106,108,110,112,114,116,118,-1,120,-1,-1,-1,-1,-1,-1,-1,-1,-1,-1,-1,-1,-1,-1,-1,-1,-1,-1,-1,-1,-1,-1,-1,-1,-1,-1,-1,-1,-1,-1,-1,-1,-1,-1,-1,-1,-1,-1,-1,-1,-1,-1,-1,-1,-1,-1,-1,-1,-1,-1,-1,-1,-1,-1,-1,-1,-1,-1],"split_conditions":[4.43E1,1.94E1,7E0,1.3E1,1.1E1,2.04E1,5E0,1.1E1,3E1,4.04E1,3.5E0,7.76E-1,1.107E2,8.46E1,3.27E-1,5.4E1,8.6E0,1E1,2.2E1,1.92E2,3E1,2E1,5.8E0,9.85E1,1.128E2,1.37E1,4.58E-1,2.3E1,2.7E1,2E1,1.83E1,9.5E0,1.5E1,1.11E1,8E0,4.24E-1,4.43E1,9E0,8E0,1.7967805E-2,3.1E0,2.08E1,1.1669337E-1,6.9E0,1.9E1,7.34E-1,5.2E0,3.19E-1,1.93E1,8.58E1,1.1E1,2.2E1,-8.7E0,5.1E0,2.2E1,9.52E1,1.96E1,8E0,4E0,4E0,1.4E1,-6.555048E-2,1.82E1,4.883497E-2,3.789225E-3,-6.410981E-2,3.8608097E-2,7.800289E-2,3.3586517E-2,3.957926E-2,2.1577409E-2,5.2818317E-2,2.2241633E-2,3.324149E-2,9.547656E-2,3.0805482E-2,-3.5004452E-2,-5.3561468E-2,6.506464E-2,2.0088399E-2,1.2380507E-1,8.776702E-2,4.068531E-2,3.6841787E-2,-6.204122E-2,9.091806E-2,-5.226751E-2,-5.5797856E-2,7.8419134E-2,5.0055232E-2,2.9203897E-2,-2.9286018E-2,8.082204E-2,-6.606453E-2,1.5812462E-2,1.0654374E-2,6.986325E-2,3.9872315E-2,-1.861385E-2,6.9854155E-2,-3.3656623E-2,3.0801553E-2,-2.189209E-2,9.4084844E-2,9.871087E-3,1.9096863E-2,-4.081027E-2,7.023695E-2,-2.6576025E-2,1.0587392E-1,2.934201E-2,2.111834E-2,6.34174E-2,3.1989377E-2,-5.363637E-2,5.251341E-2,-3.364986E-2,5.236134E-2,4.307603E-3,3.7954438E-3,3.0432684E-2],"split_indices":[68,63,19,50,88,22,54,100,85,68,73,65,24,6,10,54,66,66,78,106,98,48,19,24,24,18,7,42,100,74,17,19,35,8,36,7,57,92,35,0,73,12,0,19,50,3,73,62,64,58,93,99,25,20,98,76,74,8,2,30,85,0,23,0,0,0,0,0,0,0,0,0,0,0,0,0,0,0,0,0,0,0,0,0,0,0,0,0,0,0,0,0,0,0,0,0,0,0,0,0,0,0,0,0,0,0,0,0,0,0,0,0,0,0,0,0,0,0,0,0,0],"split_type":[0,0,0,0,0,0,0,0,0,0,0,0,0,0,0,0,0,0,0,0,0,0,0,0,0,0,0,0,0,0,0,0,0,0,0,0,0,0,0,0,0,0,0,0,0,0,0,0,0,0,0,0,0,0,0,0,0,0,0,0,0,0,0,0,0,0,0,0,0,0,0,0,0,0,0,0,0,0,0,0,0,0,0,0,0,0,0,0,0,0,0,0,0,0,0,0,0,0,0,0,0,0,0,0,0,0,0,0,0,0,0,0,0,0,0,0,0,0,0,0,0],"sum_hessian":[6.238986E3,3.5670503E3,2.6719355E3,2.9981768E3,5.6887354E2,5.675697E2,2.1043657E3,1.2303156E3,1.7678611E3,1.7402338E2,3.9485016E2,3.2616605E2,2.4140364E2,3.1255453E2,1.7918113E3,4.1695886E2,8.1335675E2,1.708282E3,5.9579056E1,1.730141E1,1.5672197E2,2.3202063E1,3.716481E2,1.8639278E2,1.3977327E2,1.372883E2,1.0411534E2,8.553282E1,2.2702171E2,1.2949416E2,1.6623171E3,4.1097302E2,5.985841E0,1.0683147E2,7.0652527E2,8.7124677E2,8.370352E2,4.5851326E1,1.372773E1,1.8670851E0,1.5434325E1,1.5018729E2,6.53468E0,1.4456749E1,8.745314E0,8.688125E0,3.6296E2,2.1844301E1,1.6454848E2,9.3680885E1,4.6092384E1,2.2832165E1,1.1445614E2,3.0608696E1,7.3506645E1,4.4275448E1,4.125737E1,2.0636473E2,2.0656979E1,4.990707E1,7.958708E1,5.8918533E0,1.6564253E3,3.8788803E2,2.3084984E1,4.6033616E0,1.3824792E0,4.8222595E1,5.860887E1,2.9487106E2,4.116542E2,5.947618E1,8.117706E2,8.203624E2,1.6672789E1,1.198342E1,3.3867905E1,2.2775018E0,1.1450229E1,1.8300277E0,1.3604298E1,1.9161278E1,1.3102602E2,3.180944E0,1.12758045E1,6.5087757E0,2.2365372E0,7.2875156E0,1.4006095E0,1.9801924E2,1.6494075E2,2.7231014E0,1.9121199E1,5.927155E0,1.5862132E2,2.1475283E1,7.22056E1,2.6960978E1,1.9131409E1,1.5121339E1,7.7108254E0,1.8234585E1,9.622155E1,1.693496E1,1.3673737E1,5.576683E1,1.7739815E1,4.1961203E0,4.0079327E1,9.717095E0,3.1540276E1,2.514415E1,1.8122058E2,1.4246394E1,6.410583E0,5.00264E0,4.490443E1,3.2808605E1,4.6778477E1,7.396032E1,1.582465E3],"tree_param":{"num_deleted":"0","num_feature":"107","num_nodes":"121","size_leaf_vector":"1"}},{"base_weights":[2.9527956E-1,2.6814356E-1,3.3092493E-1,-1.8618494E-2,2.7560017E-1,2.4879564E-1,3.5348094E-1,1.0231708E-1,-3.6721733E-1,2.773074E-1,-6.367947E-2,2.989405E-1,-2.793027E-2,3.4555542E-1,6.229707E-1,3.7785545E-1,-9.417437E-2,3.481601E-1,-5.365386E-1,2.9173422E-1,1.767876E-1,-7.209923E-2,3.3236313E-1,5.5432606E-1,-1.0132895E-1,2.5015202E-1,3.715645E-1,7.064765E-1,-4.1096178E-1,5.978246E-1,-2.031085E-1,7.4280167E-1,-2.2443356E-1,-4.2982496E-2,7.354652E-2,-6.1564034E-1,-1.3936333E-1,-2.8659636E-1,2.9441395E-1,1.3213214E-1,4.4247946E-1,7.603002E-1,-1.97626E-1,4.53259E-1,2.2618897E-1,8.9549476E-1,-2.8884447E-1,-1.8469123E-2,-4.9436212E-1,1.4301725E-1,3.7361488E-1,2.084266E-1,3.906367E-1,7.9956365E-1,2.3678418E-3,-5.585578E-2,1.4211297E-4,3.561177E-3,8.34396E-2,-6.018858E-2,2.7576258E-2,9.796231E-2,1.707882E-2,-3.2511786E-2,6.2297057E-2,-6.7334436E-2,1.866144E-3,-4.5810174E-2,2.1765092E-2,2.6499689E-2,-5.6899674E-2,-2.8264126E-2,2.9709121E-2,2.2380548E-3,2.5086183E-2,-3.721629E-2,5.3975053E-2,-3.6007303E-3,1.0261669E-1,6.2258877E-2,-2.9275818E-2,5.444271E-2,1.9705651E-2,9.1402404E-2,1.9797323E-2,1.11152306E-1,-3.8114258E-3,-4.411144E-2,-1.3491616E-3,-1.9351242E-2,2.4919687E-2,-6.131899E-2,9.090059E-3,2.9822176E-2,5.188393E-4,6.20978E-2,2.4308352E-2,4.8779897E-2,2.7120209E-3,2.9464094E-2,4.2501267E-2,8.463189E-2,-4.5729704E-2,-4.2856537E-2,6.714795E-2],"categories":[],"categories_nodes":[],"categories_segments":[],"categories_sizes":[],"default_left":[0,0,0,0,0,0,0,0,0,0,0,0,0,0,0,0,0,0,0,0,0,0,0,0,0,0,0,0,0,0,0,0,0,0,0,0,0,0,0,0,0,0,0,0,0,0,0,0,0,0,0,0,0,0,0,0,0,0,0,0,0,0,0,0,0,0,0,0,0,0,0,0,0,0,0,0,0,0,0,0,0,0,0,0,0,0,0,0,0,0,0,0,0,0,0,0,0,0,0,0,0,0,0,0,0],"id":7,"left_children":[1,3,5,7,9,11,13,15,17,19,-1,21,23,25,27,29,31,33,35,37,39,41,43,45,47,49,51,53,55,57,59,61,63,-1,-1,65,67,69,71,73,75,77,79,81,83,85,87,89,91,93,95,97,99,101,103,-1,-1,-1,-1,-1,-1,-1,-1,-1,-1,-1,-1,-1,-1,-1,-1,-1,-1,-1,-1,-1,-1,-1,-1,-1,-1,-1,-1,-1,-1,-1,-1,-1,-1,-1,-1,-1,-1,-1,-1,-1,-1,-1,-1,-1,-1,-1,-1,-1,-1],"loss_changes":[5.9382324E0,7.581009E0,4.8932495E0,3.8625271E0,5.555603E0,8.094692E0,4.2853394E0,3.7248836E0,3.0438044E0,4.947937E0,0E0,6.1430435E0,3.9158297E0,4.991867E0,5.3804092E0,3.771881E0,4.59061E0,1.8590653E0,5.257664E-1,4.7542114E0,5.105359E0,4.496567E0,5.710045E0,3.211449E0,2.6303163E0,5.793558E0,4.922226E0,3.597517E0,3.0742854E-1,2.7598414E0,1.806649E0,6.0439086E-1,3.2638924E0,0E0,0E0,5.960088E-1,6.146895E-1,2.3945603E0,4.7185364E0,4.868298E0,5.129586E0,1.2346165E0,3.0645776E0,4.8151093E0,4.5369263E0,1.5654364E0,1.4972901E-1,3.2330549E0,1.0344334E0,5.0959187E0,6.460207E0,8.621569E0,4.62236E0,3.2371693E0,2.4259644E0,0E0,0E0,0E0,0E0,0E0,0E0,0E0,0E0,0E0,0E0,0E0,0E0,0E0,0E0,0E0,0E0,0E0,0E0,0E0,0E0,0E0,0E0,0E0,0E0,0E0,0E0,0E0,0E0,0E0,0E0,0E0,0E0,0E0,0E0,0E0,0E0,0E0,0E0,0E0,0E0,0E0,0E0,0E0,0E0,0E0,0E0,0E0,0E0,0E0,0E0],"parents":[2147483647,0,0,1,1,2,2,3,3,4,4,5,5,6,6,7,7,8,8,9,9,11,11,12,12,13,13,14,14,15,15,16,16,17,17,18,18,19,19,20,20,21,21,22,22,23,23,24,24,25,25,26,26,27,27,28,28,29,29,30,30,31,31,32,32,35,35,36,36,37,37,38,38,39,39,40,40,41,41,42,42,43,43,44,44,45,45,46,46,47,47,48,48,49,49,50,50,51,51,52,52,53,53,54,54],"right_children":[2,4,6,8,10,12,14,16,18,20,-1,22,24,26,28,30,32,34,36,38,40,42,44,46,48,50,52,54,56,58,60,62,64,-1,-1,66,68,70,72,74,76,78,80,82,84,86,88,90,92,94,96,98,100,102,104,-1,-1,-1,-1,-1,-1,-1,-1,-1,-1,-1,-1,-1,-1,-1,-1,-1,-1,-1,-1,-1,-1,-1,-1,-1,-1,-1,-1,-1,-1,-1,-1,-1,-1,-1,-1,-1,-1,-1,-1,-1,-1,-1,-1,-1,-1,-1,-1,-1,-1],"split_conditions":[4.43E1,2E0,7E0,2.6E1,5.21E-1,1.33E1,2.41E1,1.7E1,2.02E1,1.96E1,-6.367947E-2,6E0,9.1E0,8E0,2.9E1,2.3E1,1.85E1,1.4E1,1.96E1,7.51E1,2.86E1,5.5E0,1.5E1,2.245E2,1.15E2,5.3E0,4E0,2.4E1,1.84E1,1.3E1,7.76E-1,3.7E1,2.9E1,-4.2982496E-2,7.354652E-2,7.9E0,2.195E2,7.34E-1,1.37E1,1.5E1,4.22E-1,1.4E1,8.1E0,6.4E-1,8.07E1,1.6E1,4.71E-1,2.27E2,2.93E1,2.155E2,3.24E1,1.99E1,1.36E1,4.61E1,2.28E2,-5.585578E-2,1.4211297E-4,3.561177E-3,8.34396E-2,-6.018858E-2,2.7576258E-2,9.796231E-2,1.707882E-2,-3.2511786E-2,6.2297057E-2,-6.7334436E-2,1.866144E-3,-4.5810174E-2,2.1765092E-2,2.6499689E-2,-5.6899674E-2,-2.8264126E-2,2.9709121E-2,2.2380548E-3,2.5086183E-2,-3.721629E-2,5.3975053E-2,-3.6007303E-3,1.0261669E-1,6.2258877E-2,-2.9275818E-2,5.444271E-2,1.9705651E-2,9.1402404E-2,1.9797323E-2,1.11152306E-1,-3.8114258E-3,-4.411144E-2,-1.3491616E-3,-1.9351242E-2,2.4919687E-2,-6.131899E-2,9.090059E-3,2.9822176E-2,5.188393E-4,6.20978E-2,2.4308352E-2,4.8779897E-2,2.7120209E-3,2.9464094E-2,4.2501267E-2,8.463189E-2,-4.5729704E-2,-4.2856537E-2,6.714795E-2],"split_indices":[68,102,45,92,7,8,22,100,12,63,0,52,14,1,32,32,75,32,11,58,64,60,44,106,76,73,43,92,11,36,13,9,39,0,0,72,106,13,9,102,59,61,66,55,58,36,59,106,69,106,15,74,18,5,106,0,0,0,0,0,0,0,0,0,0,0,0,0,0,0,0,0,0,0,0,0,0,0,0,0,0,0,0,0,0,0,0,0,0,0,0,0,0,0,0,0,0,0,0,0,0,0,0,0,0],"split_type":[0,0,0,0,0,0,0,0,0,0,0,0,0,0,0,0,0,0,0,0,0,0,0,0,0,0,0,0,0,0,0,0,0,0,0,0,0,0,0,0,0,0,0,0,0,0,0,0,0,0,0,0,0,0,0,0,0,0,0,0,0,0,0,0,0,0,0,0,0,0,0,0,0,0,0,0,0,0,0,0,0,0,0,0,0,0,0,0,0,0,0,0,0,0,0,0,0,0,0,0,0,0,0,0,0],"sum_hessian":[6.2298857E3,3.5419805E3,2.6879055E3,8.972904E1,3.4522512E3,5.8174164E2,2.1061638E3,6.714252E1,2.2586525E1,3.4464985E3,5.752879E0,4.924294E2,8.9312256E1,2.0482095E3,5.795426E1,2.7565134E1,3.9577377E1,4.1206574E0,1.8465868E1,3.0122686E3,4.3422983E2,4.059611E1,4.5183328E2,9.264741E0,8.0047516E1,4.4104395E2,1.6071655E3,5.39164E1,4.0378623E0,1.9973564E1,7.59157E0,4.69666E0,3.488072E1,1.3330858E0,2.7875717E0,1.4940299E1,3.5255685E0,1.3404416E1,2.9988643E3,3.730309E2,6.119889E1,4.657066E0,3.593905E1,2.0974117E2,2.4209213E2,6.5516973E0,2.7130435E0,6.6974785E1,1.307273E1,2.3729222E2,2.0375171E2,1.6947298E2,1.4376926E3,4.7500942E1,6.415459E0,2.7125497E0,1.3253126E0,6.2562046E0,1.37173605E1,4.0020227E0,3.5895476E0,2.8175623E0,1.8790975E0,3.172737E1,3.1533499E0,1.3638059E1,1.3022403E0,1.713039E0,1.8125296E0,4.559766E0,8.84465E0,1.3366193E1,2.985498E3,1.9446214E2,1.7856879E2,6.226458E0,5.4972435E1,1.3820882E0,3.2749777E0,3.1589143E0,3.2780132E1,1.5386443E2,5.5876728E1,8.302485E0,2.3378964E2,5.1658115E0,1.385886E0,1.3593352E0,1.3537083E0,4.0661053E1,2.6313734E1,1.0826811E1,2.2459195E0,1.1106353E2,1.2622869E2,6.9081566E1,1.3467015E2,6.603309E1,1.0343989E2,3.8160925E2,1.0560834E3,4.611221E1,1.388734E0,4.1209273E0,2.294532E0],"tree_param":{"num_deleted":"0","num_feature":"107","num_nodes":"105","size_leaf_vector":"1"}},{"base_weights":[-6.7590165E-1,-6.760689E-1,2.718555E-3,1.9966243E-3,-6.7623484E-1,-5.0669086E-1,-6.768074E-1,8.341069E-2,-6.678831E-2,-6.769622E-1,-2.9150724E-1,-5.1009785E-2,6.969205E-2,-3.2947758E-1,-6.7711556E-1,2.8805619E-3,-4.545522E-2,3.6027932E-3,-4.8998773E-2,-1.7915446E-2,-6.772762E-2],"categories":[],"categories_nodes":[],"categories_segments":[],"categories_sizes":[],"default_left":[0,0,0,0,0,0,0,0,0,0,0,0,0,0,0,0,0,0,0,0,0],"id":8,"left_children":[1,3,-1,-1,5,7,9,11,-1,13,15,-1,-1,17,19,-1,-1,-1,-1,-1,-1],"loss_changes":[6.7456055E-1,6.582031E-1,0E0,0E0,1.9824219E-1,2.2197237E0,1.340332E-1,2.4565418E0,0E0,7.2753906E-2,2.2134614E-1,0E0,0E0,2.7563503E-1,3.2250977E-1,0E0,0E0,0E0,0E0,0E0,0E0],"parents":[2147483647,0,0,1,1,4,4,5,5,6,6,7,7,9,9,10,10,13,13,14,14],"right_children":[2,4,-1,-1,6,8,10,12,-1,14,16,-1,-1,18,20,-1,-1,-1,-1,-1,-1],"split_conditions":[3.26E1,2.4E1,2.718555E-3,1.9966243E-3,1.37E1,4.2E0,2.6E2,4.6E0,-6.678831E-2,3.1E1,8.4E0,-5.1009785E-2,6.969205E-2,7.44E-1,1.45E1,2.8805619E-3,-4.545522E-2,3.6027932E-3,-4.8998773E-2,-1.7915446E-2,-6.772762E-2],"split_indices":[63,67,0,0,9,72,106,8,0,5,14,0,0,13,17,0,0,0,0,0,0],"split_type":[0,0,0,0,0,0,0,0,0,0,0,0,0,0,0,0,0,0,0,0,0],"sum_hessian":[5.5791753E3,5.5778867E3,1.2884345E0,1.301256E0,5.5765854E3,2.1750422E1,5.554835E3,4.7701445E0,1.6980278E1,5.5518477E3,2.987572E0,2.5102706E0,2.259874E0,3.3973665E0,5.54845E3,1.2854822E0,1.7020898E0,1.2733347E0,2.124032E0,2.1483972E0,5.546302E3],"tree_param":{"num_deleted":"0","num_feature":"107","num_nodes":"21","size_leaf_vector":"1"}},{"base_weights":[2.8428078E-1,2.773588E-1,4.0989745E-1,1.4104441E-1,2.8432104E-1,3.6552346E-1,8.441561E-1,2.6178476E-1,-1.8576951E-1,3.247413E-1,2.584662E-1,1.5802214E-1,4.7347593E-1,9.7439206E-1,2.3932546E-1,-2.8247032E-1,3.135863E-1,-4.418863E-1,1.5723942E-1,3.3022472E-1,-1.0314168E-1,2.70786E-1,1.3656823E-1,-4.972575E-1,2.552348E-1,5.561834E-1,1.2645927E-1,1.0757606E0,2.8679816E-3,-5.139925E-2,6.4495224E-1,2.8448275E-1,-5.1436055E-1,1.1204526E-1,4.5365635E-1,9.604347E-3,-6.1174E-1,-6.633591E-2,3.3543262E-1,3.6618423E-1,2.5780112E-1,-2.5087947E-1,8.116773E-2,2.5446203E-1,4.0158218E-1,3.303605E-1,2.7342265E-2,3.6609244E-2,-7.0241466E-2,-2.1022591E-1,3.6977127E-1,8.470431E-1,4.212867E-1,-3.5798508E-1,3.6779127E-1,1.1488441E0,1.8874614E-2,9.714063E-2,-6.816504E-3,5.9283912E-2,-4.564851E-2,-1.1383874E-2,-7.010759E-2,2.6820553E-2,-3.6565498E-2,5.513061E-2,-6.7379135E-3,-2.676273E-2,9.338362E-2,-6.674322E-2,3.995874E-2,6.662144E-2,-2.6218656E-2,2.4208548E-2,4.0546622E-2,-4.4097654E-3,2.837348E-2,-3.1033615E-3,-6.953897E-2,2.30794E-2,3.322651E-2,-3.3284895E-2,4.27878E-2,5.1097568E-2,-1.9830434E-2,-3.408676E-2,1.4112345E-2,8.027362E-2,-3.3817165E-2,5.273464E-2,-1.1027698E-2,9.2381686E-2,-3.1650897E-2,8.8887304E-2,3.2461427E-2,-5.4924484E-2,5.550748E-2,5.2286327E-2,-5.8704924E-2,1.2393993E-1,3.3233825E-2],"categories":[],"categories_nodes":[],"categories_segments":[],"categories_sizes":[],"default_left":[0,0,0,0,0,0,0,0,0,0,0,0,0,0,0,0,0,0,0,0,0,0,0,0,0,0,0,0,0,0,0,0,0,0,0,0,0,0,0,0,0,0,0,0,0,0,0,0,0,0,0,0,0,0,0,0,0,0,0,0,0,0,0,0,0,0,0,0,0,0,0,0,0,0,0,0,0,0,0,0,0,0,0,0,0,0,0,0,0,0,0,0,0,0,0,0,0,0,0,0,0],"id":9,"left_children":[1,3,5,7,9,11,13,15,17,19,21,23,25,27,29,31,33,35,37,39,41,43,45,47,49,51,53,55,-1,-1,57,59,61,63,65,67,69,-1,71,73,75,77,-1,79,81,83,85,-1,-1,87,89,91,93,95,97,99,-1,-1,-1,-1,-1,-1,-1,-1,-1,-1,-1,-1,-1,-1,-1,-1,-1,-1,-1,-1,-1,-1,-1,-1,-1,-1,-1,-1,-1,-1,-1,-1,-1,-1,-1,-1,-1,-1,-1,-1,-1,-1,-1,-1,-1],"loss_changes":[5.376007E0,5.6417236E0,6.0049133E0,1.1606448E1,5.867584E0,6.6234055E0,2.0993137E0,6.130354E0,7.062683E0,5.237503E0,5.1863556E0,6.7411065E0,5.560585E0,2.273697E0,2.3396811E0,2.6640172E0,5.4864197E0,3.520975E0,5.3062935E0,5.6089325E0,4.099239E0,6.640259E0,6.791467E0,2.6930885E0,4.9333124E0,5.84787E0,4.6976466E0,1.1888981E0,0E0,0E0,1.1639436E0,1.687861E0,9.632206E-1,6.196767E0,5.908287E0,3.7127411E0,2.1434946E0,0E0,5.9525623E0,7.0238953E0,5.727642E0,2.4781792E0,0E0,5.0981903E0,6.8758774E0,1.115055E1,8.701974E0,0E0,0E0,2.6851366E0,5.6145363E0,4.679863E0,4.6848125E0,2.6611965E0,4.2399244E0,1.0548592E0,0E0,0E0,0E0,0E0,0E0,0E0,0E0,0E0,0E0,0E0,0E0,0E0,0E0,0E0,0E0,0E0,0E0,0E0,0E0,0E0,0E0,0E0,0E0,0E0,0E0,0E0,0E0,0E0,0E0,0E0,0E0,0E0,0E0,0E0,0E0,0E0,0E0,0E0,0E0,0E0,0E0,0E0,0E0,0E0,0E0],"parents":[2147483647,0,0,1,1,2,2,3,3,4,4,5,5,6,6,7,7,8,8,9,9,10,10,11,11,12,12,13,13,14,14,15,15,16,16,17,17,18,18,19,19,20,20,21,21,22,22,23,23,24,24,25,25,26,26,27,27,30,30,31,31,32,32,33,33,34,34,35,35,36,36,38,38,39,39,40,40,41,41,43,43,44,44,45,45,46,46,49,49,50,50,51,51,52,52,53,53,54,54,55,55],"right_children":[2,4,6,8,10,12,14,16,18,20,22,24,26,28,30,32,34,36,38,40,42,44,46,48,50,52,54,56,-1,-1,58,60,62,64,66,68,70,-1,72,74,76,78,-1,80,82,84,86,-1,-1,88,90,92,94,96,98,100,-1,-1,-1,-1,-1,-1,-1,-1,-1,-1,-1,-1,-1,-1,-1,-1,-1,-1,-1,-1,-1,-1,-1,-1,-1,-1,-1,-1,-1,-1,-1,-1,-1,-1,-1,-1,-1,-1,-1,-1,-1,-1,-1,-1,-1],"split_conditions":[4.89E1,1.905E2,9.6E0,2.16E1,1.2E1,1.1E1,3.44E1,3.9E0,1.5E1,3E1,2.8E1,6E0,2.5E1,3.96E-1,2.17E1,1.83E1,1.65E1,7E0,1.91E1,2.1E1,2.7E1,2E1,1.5E1,5E0,1E1,1.2E1,5E0,2.8E1,2.8679816E-3,-5.139925E-2,2.61E1,7.62E-1,7.59E-1,8.5E0,2.4E1,7.88E-1,2.9E1,-6.633591E-2,1.5E1,7E0,1.81E1,3.74E-1,8.116773E-2,2.4E1,2E0,5.4E0,2E1,3.6609244E-2,-7.0241466E-2,3E0,2.4E1,9.1E0,8E0,2.2E1,2.05E1,2.7E1,1.8874614E-2,9.714063E-2,-6.816504E-3,5.9283912E-2,-4.564851E-2,-1.1383874E-2,-7.010759E-2,2.6820553E-2,-3.6565498E-2,5.513061E-2,-6.7379135E-3,-2.676273E-2,9.338362E-2,-6.674322E-2,3.995874E-2,6.662144E-2,-2.6218656E-2,2.4208548E-2,4.0546622E-2,-4.4097654E-3,2.837348E-2,-3.1033615E-3,-6.953897E-2,2.30794E-2,3.322651E-2,-3.3284895E-2,4.27878E-2,5.1097568E-2,-1.9830434E-2,-3.408676E-2,1.4112345E-2,8.027362E-2,-3.3817165E-2,5.273464E-2,-1.1027698E-2,9.2381686E-2,-3.1650897E-2,8.8887304E-2,3.2461427E-2,-5.4924484E-2,5.550748E-2,5.2286327E-2,-5.8704924E-2,1.2393993E-1,3.3233825E-2],"split_indices":[4,106,71,61,36,94,9,21,18,48,86,38,45,62,22,74,11,87,75,100,99,63,79,40,99,98,26,36,0,0,17,13,13,71,42,65,88,0,80,19,22,62,0,94,45,72,103,0,0,101,46,71,33,11,63,93,0,0,0,0,0,0,0,0,0,0,0,0,0,0,0,0,0,0,0,0,0,0,0,0,0,0,0,0,0,0,0,0,0,0,0,0,0,0,0,0,0,0,0,0,0],"split_type":[0,0,0,0,0,0,0,0,0,0,0,0,0,0,0,0,0,0,0,0,0,0,0,0,0,0,0,0,0,0,0,0,0,0,0,0,0,0,0,0,0,0,0,0,0,0,0,0,0,0,0,0,0,0,0,0,0,0,0,0,0,0,0,0,0,0,0,0,0,0,0,0,0,0,0,0,0,0,0,0,0,0,0,0,0,0,0,0,0,0,0,0,0,0,0,0,0,0,0,0,0],"sum_hessian":[6.312467E3,5.985831E3,3.2663568E2,2.919023E2,5.6939287E3,2.980243E2,2.8611393E1,2.1329875E2,7.860357E1,2.2167705E3,3.4771584E3,1.0283099E2,1.951933E2,2.3039389E1,5.572005E0,1.8150171E1,1.9514857E2,4.4836746E1,3.3766823E1,2.188947E3,2.7823603E1,3.1568823E3,3.2027615E2,1.2752864E1,9.007813E1,1.571384E2,3.80549E1,2.0684729E1,2.3546596E0,1.8566792E0,3.7153256E0,5.2028418E0,1.29473295E1,8.075437E1,1.143942E2,1.2514697E1,3.232205E1,5.5385447E0,2.8228277E1,1.4599844E3,7.289625E2,2.4579863E1,3.24374E0,2.8092239E3,3.476583E2,1.1471698E2,2.0555917E2,2.297978E0,1.0454886E1,1.762343E1,7.2454704E1,4.8115078E1,1.0902332E2,1.2493121E1,2.556178E1,1.8837479E1,1.8472503E0,2.3001537E0,1.4151719E0,3.8150907E0,1.387751E0,4.6284857E0,8.318845E0,6.1189926E1,1.9564445E1,9.628995E1,1.8104254E1,1.0173497E1,2.3411994E0,3.0957323E1,1.3647258E0,1.8096886E1,1.0131391E1,3.527494E2,1.1072351E3,5.7610256E1,6.7135223E2,1.7161797E1,7.418065E0,2.1570164E3,6.5220764E2,1.1614444E1,3.3604385E2,8.5529724E1,2.9187256E1,4.805417E1,1.5750499E2,1.3849077E0,1.6238522E1,5.447488E1,1.7979822E1,4.533013E1,2.7849476E0,1.727461E1,9.174871E1,1.0658855E1,1.834266E0,2.2379602E1,3.1821785E0,1.649064E1,2.3468373E0],"tree_param":{"num_deleted":"0","num_feature":"107","num_nodes":"101","size_leaf_vector":"1"}},{"base_weights":[2.7134535E-1,2.3416656E-1,2.9383808E-1,2.6002714E-1,1.4721917E-1,2.9828936E-1,-3.8043484E-2,1.9280657E-1,3.0417946E-1,7.14264E-2,2.7369794E-1,3.0860382E-1,1.3297667E-1,-1.3135128E-1,7.634924E-1,5.045258E-1,1.68413E-1,2.809834E-1,5.11164E-1,2.986907E-2,5.004936E-1,5.363907E-1,1.6889629E-1,2.961533E-1,4.223477E-1,1.4875239E-2,3.257865E-1,-4.2244804E-1,1.8559514E-1,-4.8694736E-3,1.0428784E-1,7.684368E-1,1.7575721E-1,2.9530078E-1,9.700741E-2,6.016071E-1,2.6599094E-1,-3.5477284E-1,5.6030214E-1,2.3749831E-1,-4.328087E-2,7.2189415E-1,-3.625057E-1,6.1359125E-1,-2.9099196E-1,-2.5103864E-1,2.4838561E-1,3.1196195E-1,1.6343604E-1,3.48487E-1,6.8202835E-1,-4.053517E-1,8.4156E-2,-3.6511123E-1,4.25781E-1,-5.254012E-1,7.80829E-2,7.9048026E-1,-8.700313E-2,-1.3008638E-2,8.8757575E-2,4.014898E-2,-4.0336035E-2,1.4900324E-2,4.843842E-2,-1.5119342E-3,2.0026637E-2,6.872984E-2,-3.6092352E-2,3.0108957E-2,7.529013E-3,3.815153E-2,-6.278216E-2,6.269011E-2,-7.540685E-3,-1.2038596E-3,4.92806E-2,7.809805E-3,-1.851852E-2,8.128147E-2,-4.5777015E-2,-6.211978E-2,3.8690563E-2,1.09594E-1,4.608796E-2,3.8003903E-2,-6.0055744E-2,1.655568E-2,-6.44316E-2,4.8014168E-2,4.8918533E-3,2.8966838E-2,4.2718165E-2,-6.773221E-2,1.8313803E-2,1.1432131E-2,4.8920326E-2,2.0542E-2,8.526668E-2,6.556477E-2,-5.7733674E-2,-7.0990324E-3,3.835885E-2,-5.9985198E-2,7.7255E-2,5.1931735E-2,-2.1361766E-2,-6.7109965E-2,2.3865206E-3,9.838039E-2,-3.5095122E-3,6.294131E-2,-3.920188E-2],"categories":[],"categories_nodes":[],"categories_segments":[],"categories_sizes":[],"default_left":[0,0,0,0,0,0,0,0,0,0,0,0,0,0,0,0,0,0,0,0,0,0,0,0,0,0,0,0,0,0,0,0,0,0,0,0,0,0,0,0,0,0,0,0,0,0,0,0,0,0,0,0,0,0,0,0,0,0,0,0,0,0,0,0,0,0,0,0,0,0,0,0,0,0,0,0,0,0,0,0,0,0,0,0,0,0,0,0,0,0,0,0,0,0,0,0,0,0,0,0,0,0,0,0,0,0,0,0,0,0,0,0,0],"id":10,"left_children":[1,3,5,7,9,11,13,15,17,19,21,23,25,27,29,31,33,35,37,39,41,43,45,47,49,51,53,55,57,-1,-1,59,61,63,65,67,69,71,73,75,77,79,81,83,85,87,89,91,93,95,97,99,101,103,105,107,-1,109,111,-1,-1,-1,-1,-1,-1,-1,-1,-1,-1,-1,-1,-1,-1,-1,-1,-1,-1,-1,-1,-1,-1,-1,-1,-1,-1,-1,-1,-1,-1,-1,-1,-1,-1,-1,-1,-1,-1,-1,-1,-1,-1,-1,-1,-1,-1,-1,-1,-1,-1,-1,-1,-1,-1],"loss_changes":[5.200592E0,5.3134613E0,5.8054504E0,5.3821487E0,5.2330446E0,6.5582886E0,4.0487685E0,5.46192E0,5.160347E0,6.1183777E0,5.552148E0,5.0329285E0,5.211057E0,4.520155E0,1.3332584E0,4.41502E0,6.1146812E0,4.625801E0,4.8838005E0,4.7893844E0,6.053002E0,3.8827095E0,5.001674E0,6.843811E0,6.609707E0,4.2001805E0,6.16325E0,3.5568242E0,3.9837399E0,0E0,0E0,3.1977577E0,3.3840346E0,6.6683636E0,5.043698E0,3.8510303E0,6.355568E0,1.55128E0,4.4749413E0,5.2384143E0,4.0368385E0,2.9951315E0,1.5691248E0,3.4256973E0,1.3972267E0,4.0467467E0,5.751381E0,7.4162292E0,5.9527655E0,9.170048E0,6.169323E0,4.1055326E0,5.772525E0,3.543384E0,4.6818686E0,1.9363317E0,0E0,1.2275715E0,4.020056E0,0E0,0E0,0E0,0E0,0E0,0E0,0E0,0E0,0E0,0E0,0E0,0E0,0E0,0E0,0E0,0E0,0E0,0E0,0E0,0E0,0E0,0E0,0E0,0E0,0E0,0E0,0E0,0E0,0E0,0E0,0E0,0E0,0E0,0E0,0E0,0E0,0E0,0E0,0E0,0E0,0E0,0E0,0E0,0E0,0E0,0E0,0E0,0E0,0E0,0E0,0E0,0E0,0E0,0E0],"parents":[2147483647,0,0,1,1,2,2,3,3,4,4,5,5,6,6,7,7,8,8,9,9,10,10,11,11,12,12,13,13,14,14,15,15,16,16,17,17,18,18,19,19,20,20,21,21,22,22,23,23,24,24,25,25,26,26,27,27,28,28,31,31,32,32,33,33,34,34,35,35,36,36,37,37,38,38,39,39,40,40,41,41,42,42,43,43,44,44,45,45,46,46,47,47,48,48,49,49,50,50,51,51,52,52,53,53,54,54,55,55,57,57,58,58],"right_children":[2,4,6,8,10,12,14,16,18,20,22,24,26,28,30,32,34,36,38,40,42,44,46,48,50,52,54,56,58,-1,-1,60,62,64,66,68,70,72,74,76,78,80,82,84,86,88,90,92,94,96,98,100,102,104,106,108,-1,110,112,-1,-1,-1,-1,-1,-1,-1,-1,-1,-1,-1,-1,-1,-1,-1,-1,-1,-1,-1,-1,-1,-1,-1,-1,-1,-1,-1,-1,-1,-1,-1,-1,-1,-1,-1,-1,-1,-1,-1,-1,-1,-1,-1,-1,-1,-1,-1,-1,-1,-1,-1,-1,-1,-1],"split_conditions":[1.2E1,2.4E1,5.05E-1,7.69E-1,2.4E1,4.89E1,5.28E-1,1.81E1,2.9E1,1.19E2,6.1E1,2.8E1,1.53E1,4.83E1,2E0,4.5E1,2E1,2E0,8.02E1,4.53E-1,3.99E-1,2.4E1,3.79E1,2E1,5.4E0,8E0,9.3E1,1.51E1,1E1,-4.8694736E-3,1.0428784E-1,1.49E1,8E0,7.71E-1,1.7E1,8.94E1,2.4E1,6E0,2.26E1,2.65E1,7.81E-1,2.7E1,5E0,2.26E1,2.04E1,3.18E1,1.095E2,2.6E1,3E0,1.5E1,2.14E1,3E0,-8E-1,2.8E1,7.7E0,2.5E1,7.80829E-2,2.7E1,9E0,-1.3008638E-2,8.8757575E-2,4.014898E-2,-4.0336035E-2,1.4900324E-2,4.843842E-2,-1.5119342E-3,2.0026637E-2,6.872984E-2,-3.6092352E-2,3.0108957E-2,7.529013E-3,3.815153E-2,-6.278216E-2,6.269011E-2,-7.540685E-3,-1.2038596E-3,4.92806E-2,7.809805E-3,-1.851852E-2,8.128147E-2,-4.5777015E-2,-6.211978E-2,3.8690563E-2,1.09594E-1,4.608796E-2,3.8003903E-2,-6.0055744E-2,1.655568E-2,-6.44316E-2,4.8014168E-2,4.8918533E-3,2.8966838E-2,4.2718165E-2,-6.773221E-2,1.8313803E-2,1.1432131E-2,4.8920326E-2,2.0542E-2,8.526668E-2,6.556477E-2,-5.7733674E-2,-7.0990324E-3,3.835885E-2,-5.9985198E-2,7.7255E-2,5.1931735E-2,-2.1361766E-2,-6.7109965E-2,2.3865206E-3,9.838039E-2,-3.5095122E-3,6.294131E-2,-3.920188E-2],"split_indices":[36,92,59,13,2,4,59,22,45,24,52,86,70,4,103,68,75,90,6,59,10,26,57,63,72,29,76,14,54,0,0,63,94,65,100,58,44,90,74,9,65,39,31,61,22,67,76,38,83,79,17,87,25,97,77,40,0,48,43,0,0,0,0,0,0,0,0,0,0,0,0,0,0,0,0,0,0,0,0,0,0,0,0,0,0,0,0,0,0,0,0,0,0,0,0,0,0,0,0,0,0,0,0,0,0,0,0,0,0,0,0,0,0],"split_type":[0,0,0,0,0,0,0,0,0,0,0,0,0,0,0,0,0,0,0,0,0,0,0,0,0,0,0,0,0,0,0,0,0,0,0,0,0,0,0,0,0,0,0,0,0,0,0,0,0,0,0,0,0,0,0,0,0,0,0,0,0,0,0,0,0,0,0,0,0,0,0,0,0,0,0,0,0,0,0,0,0,0,0,0,0,0,0,0,0,0,0,0,0,0,0,0,0,0,0,0,0,0,0,0,0,0,0,0,0,0,0,0,0],"sum_hessian":[6.3002197E3,2.3791228E3,3.921097E3,1.8321885E3,5.4693427E2,3.8693022E3,5.179458E1,7.28475E2,1.1037135E3,3.4297202E2,2.0396227E2,3.6412444E3,2.2805786E2,4.7142757E1,4.6518216E0,5.1441006E1,6.77034E2,9.946085E2,1.0910495E2,3.136619E2,2.9310131E1,5.6991314E1,1.4697095E2,3.2852417E3,3.5600275E2,1.4209677E2,8.59611E1,2.4399956E1,2.2742804E1,1.4019628E0,3.2498589E0,2.7793295E1,2.3647713E1,2.4267133E2,4.3436267E2,4.2682693E1,9.5192584E2,5.5247703E0,1.0358018E2,8.113137E1,2.3253052E2,2.3456041E1,5.8540893E0,5.2363804E1,4.62751E0,2.304868E1,1.2392227E2,2.9343635E3,3.5087827E2,2.789915E2,7.701128E1,1.942462E1,1.2267215E2,1.0533066E1,7.542803E1,2.2995779E1,1.4041754E0,6.4750705E0,1.6267733E1,3.2430372E0,2.4550257E1,1.7236044E1,6.411668E0,1.37823E2,1.04848335E2,2.0864883E2,2.2571382E2,3.945599E1,3.2267034E0,8.034682E2,1.4845767E2,1.3871137E0,4.1376567E0,9.377035E1,9.80983E0,4.1511253E1,3.962012E1,1.2557159E2,1.0695894E2,2.20663E1,1.3897429E0,4.479039E0,1.3750501E0,1.1106556E1,4.1257248E1,1.3889952E0,3.238515E0,1.1473707E1,1.1574972E1,5.667075E1,6.725152E1,2.46159E3,4.727733E2,7.269804E0,3.4360846E2,1.0540298E2,1.735885E2,2.0884062E1,5.6127216E1,2.317208E0,1.7107412E1,8.130707E1,4.1365086E1,9.123325E0,1.4097403E0,6.596583E1,9.462204E0,1.7999437E1,4.9963427E0,5.091212E0,1.383859E0,4.5402107E0,1.1727522E1],"tree_param":{"num_deleted":"0","num_feature":"107","num_nodes":"113","size_leaf_vector":"1"}},{"base_weights":[-6.559243E-1,-6.560956E-1,3.446281E-3,2.2558372E-3,-6.5626466E-1,-4.8987716E-1,-6.568341E-1,8.6549774E-2,-6.5181665E-2,-6.569909E-1,-2.7761802E-1,-4.992538E-2,6.753922E-2,-3.1182182E-1,-6.5714747E-1,3.885017E-3,-4.4278614E-2,-4.7657542E-2,5.260046E-3,-1.6688026E-2,-6.573111E-2],"categories":[],"categories_nodes":[],"categories_segments":[],"categories_sizes":[],"default_left":[0,0,0,0,0,0,0,0,0,0,0,0,0,0,0,0,0,0,0,0,0],"id":11,"left_children":[1,3,-1,-1,5,7,9,11,-1,13,15,-1,-1,17,19,-1,-1,-1,-1,-1,-1],"loss_changes":[6.542969E-1,6.279297E-1,0E0,0E0,1.8432617E-1,2.1239486E0,1.340332E-1,2.317371E0,0E0,8.227539E-2,2.2263724E-1,0E0,0E0,2.8402457E-1,3.166504E-1,0E0,0E0,0E0,0E0,0E0,0E0],"parents":[2147483647,0,0,1,1,4,4,5,5,6,6,7,7,9,9,10,10,13,13,14,14],"right_children":[2,4,-1,-1,6,8,10,12,-1,14,16,-1,-1,18,20,-1,-1,-1,-1,-1,-1],"split_conditions":[3.26E1,2.4E1,3.446281E-3,2.2558372E-3,1.37E1,4.2E0,2.6E2,1.008E2,-6.5181665E-2,3.1E1,1.67E1,-4.992538E-2,6.753922E-2,7.1E0,1.45E1,3.885017E-3,-4.4278614E-2,-4.7657542E-2,5.260046E-3,-1.6688026E-2,-6.573111E-2],"split_indices":[63,67,0,0,9,72,106,76,0,5,11,0,0,8,17,0,0,0,0,0,0],"split_type":[0,0,0,0,0,0,0,0,0,0,0,0,0,0,0,0,0,0,0,0,0],"sum_hessian":[5.3420005E3,5.340725E3,1.2755625E0,1.2968904E0,5.339428E3,2.114908E1,5.318279E3,4.7405477E0,1.6408533E1,5.3153486E3,2.930231E0,2.4526744E0,2.2878733E0,3.3130748E0,5.3120356E3,1.2671359E0,1.6630952E0,2.069643E0,1.2434318E0,2.1129355E0,5.309923E3],"tree_param":{"num_deleted":"0","num_feature":"107","num_nodes":"21","size_leaf_vector":"1"}},{"base_weights":[2.6177216E-1,-4.6860817E-1,2.627444E-1,-6.749911E-2,3.66352E-2,2.564226E-1,3.770717E-1,2.9073283E-1,2.3493177E-1,4.1336766E-1,-5.838087E-2,2.9873115E-1,3.192984E-2,-1.8505949E-1,2.3782465E-1,3.6948124E-1,8.3817345E-1,6.7201865E-1,-3.1646922E-1,3.0408034E-1,-1.0426393E-1,4.8059517E-1,-1.8231761E-1,-4.5525956E-1,3.3828804E-1,2.3361221E-1,5.3714055E-1,4.27678E-1,-1.0253286E-2,9.849703E-1,2.1889792E-1,1.02952816E-1,-4.693029E-2,-6.1026365E-1,4.4409075E-1,2.8354546E-2,4.1688476E-2,-6.0537994E-2,1.4248016E-2,8.612005E-2,7.397228E-3,1.21608E-2,-4.094343E-2,1.9840276E-2,-6.476387E-2,6.002316E-2,-4.933537E-2,2.353119E-2,-4.148225E-2,2.9476468E-2,9.1489874E-2,5.088022E-2,2.2424629E-2,-4.505868E-2,2.5517026E-2,1.6740656E-2,1.0518686E-1,-5.0538313E-2,6.022188E-2,1.6306616E-2,-7.342444E-2,8.837717E-2,-6.5104063E-3],"categories":[],"categories_nodes":[],"categories_segments":[],"categories_sizes":[],"default_left":[0,0,0,0,0,0,0,0,0,0,0,0,0,0,0,0,0,0,0,0,0,0,0,0,0,0,0,0,0,0,0,0,0,0,0,0,0,0,0,0,0,0,0,0,0,0,0,0,0,0,0,0,0,0,0,0,0,0,0,0,0,0,0],"id":12,"left_children":[1,3,5,-1,-1,7,9,11,13,15,17,19,21,23,25,27,29,31,33,35,37,39,41,43,45,47,49,51,53,55,57,-1,-1,59,61,-1,-1,-1,-1,-1,-1,-1,-1,-1,-1,-1,-1,-1,-1,-1,-1,-1,-1,-1,-1,-1,-1,-1,-1,-1,-1,-1,-1],"loss_changes":[4.65094E0,1.769865E0,4.506134E0,0E0,0E0,4.3836975E0,5.264599E0,4.795273E0,4.5609436E0,5.398491E0,5.1867704E0,4.885193E0,6.884157E0,3.8298461E0,4.5304413E0,6.1767006E0,2.3190002E0,3.424906E0,4.779561E0,5.029419E0,3.825146E0,3.5153723E0,3.40301E0,2.3379042E0,2.3492372E0,4.1128693E0,4.352085E0,3.8830948E0,4.567053E0,1.0409927E0,2.1446066E0,0E0,0E0,1.5555997E0,1.4458679E0,0E0,0E0,0E0,0E0,0E0,0E0,0E0,0E0,0E0,0E0,0E0,0E0,0E0,0E0,0E0,0E0,0E0,0E0,0E0,0E0,0E0,0E0,0E0,0E0,0E0,0E0,0E0,0E0],"parents":[2147483647,0,0,1,1,2,2,5,5,6,6,7,7,8,8,9,9,10,10,11,11,12,12,13,13,14,14,15,15,16,16,17,17,18,18,19,19,20,20,21,21,22,22,23,23,24,24,25,25,26,26,27,27,28,28,29,29,30,30,33,33,34,34],"right_children":[2,4,6,-1,-1,8,10,12,14,16,18,20,22,24,26,28,30,32,34,36,38,40,42,44,46,48,50,52,54,56,58,-1,-1,60,62,-1,-1,-1,-1,-1,-1,-1,-1,-1,-1,-1,-1,-1,-1,-1,-1,-1,-1,-1,-1,-1,-1,-1,-1,-1,-1,-1,-1],"split_conditions":[1.78E2,1.29E1,4.89E1,-6.749911E-2,3.66352E-2,1.2E1,3.99E-1,3E1,2.7E-1,9.6E0,1E1,3E1,1.2E1,9.5E0,5.05E-1,4.65E1,3.44E1,2.26E2,3.51E1,2.19E1,1E1,1.6E1,1.9E1,8E0,2.2E1,8.64E-1,7.78E-1,2.2E1,7E0,8.7E0,2.17E1,1.02952816E-1,-4.693029E-2,2E0,1.4E1,2.8354546E-2,4.1688476E-2,-6.0537994E-2,1.4248016E-2,8.612005E-2,7.397228E-3,1.21608E-2,-4.094343E-2,1.9840276E-2,-6.476387E-2,6.002316E-2,-4.933537E-2,2.353119E-2,-4.148225E-2,2.9476468E-2,9.1489874E-2,5.088022E-2,2.2424629E-2,-4.505868E-2,2.5517026E-2,1.6740656E-2,1.0518686E-1,-5.0538313E-2,6.022188E-2,1.6306616E-2,-7.342444E-2,8.837717E-2,-6.5104063E-3],"split_indices":[106,66,4,0,0,36,62,100,62,71,90,48,49,19,59,68,9,106,67,22,95,43,83,39,33,13,13,96,49,14,22,0,0,53,38,0,0,0,0,0,0,0,0,0,0,0,0,0,0,0,0,0,0,0,0,0,0,0,0,0,0,0,0],"split_type":[0,0,0,0,0,0,0,0,0,0,0,0,0,0,0,0,0,0,0,0,0,0,0,0,0,0,0,0,0,0,0,0,0,0,0,0,0,0,0,0,0,0,0,0,0,0,0,0,0,0,0,0,0,0,0,0,0,0,0,0,0,0,0],"sum_hessian":[6.375255E3,7.835696E0,6.367419E3,6.4363637E0,1.399332E0,6.036852E3,3.3056683E2,2.320169E3,3.7166833E3,3.051801E2,2.5386717E1,2.2504639E3,6.970489E1,2.499445E1,3.6916887E3,2.7829898E2,2.6881132E1,6.2095714E0,1.9177147E1,2.2212256E3,2.923833E1,2.2126207E1,4.7578674E1,1.6569733E1,8.424717E0,3.6422104E3,4.94783E1,2.4120631E2,3.7092674E1,2.1252735E1,5.6283965E0,4.8030167E0,1.4065547E0,1.3976008E1,5.2011375E0,1.8821188E3,3.391069E2,9.167155E0,2.0071177E1,1.08512945E1,1.1274914E1,2.0547176E1,2.70315E1,3.7606282E0,1.2809105E1,6.618374E0,1.8063427E0,3.633324E3,8.886532E0,3.1224466E1,1.8253832E1,1.7136751E2,6.98388E1,1.368758E1,2.3405094E1,1.8724124E0,1.9380323E1,1.8376817E0,3.790715E0,1.8874964E0,1.2088512E1,2.3963256E0,2.804812E0],"tree_param":{"num_deleted":"0","num_feature":"107","num_nodes":"63","size_leaf_vector":"1"}},{"base_weights":[2.5020015E-1,2.2656362E-1,2.8117922E-1,-3.0311318E-2,2.3313771E-1,4.025043E-1,2.6772118E-1,8.3246216E-2,-3.6304146E-1,2.3468687E-1,-6.234894E-2,4.1683033E-1,-6.0217004E-2,-2.692489E-1,2.7145594E-1,1.794762E-1,-4.1295403E-1,3.1625503E-1,-5.272331E-1,2.6264248E-2,2.4094614E-1,3.4788933E-1,6.493254E-1,3.6355596E-2,-6.443142E-2,1.8372512E-1,2.9266366E-1,2.7803557E-2,4.8123837E-1,-5.6322134E-1,4.0628545E-2,-4.180726E-2,6.717964E-2,-6.0414225E-1,-1.4542054E-1,8.8501084E-1,-4.1032597E-2,2.7343112E-1,1.9518383E-1,3.654028E-1,-5.9399556E-2,7.200775E-1,-1.506139E-1,8.004264E-2,-5.0499815E-1,2.5877908E-1,3.5734937E-2,3.1896618E-1,2.0612387E-1,-2.9596616E-2,2.5062392E-2,4.471052E-3,8.206484E-2,1.4551518E-3,-6.505422E-2,3.1918548E-3,-6.62864E-2,-4.4996504E-2,1.9243686E-2,-4.8879753E-3,1.1049008E-1,-2.3151282E-2,2.051705E-2,1.8195713E-2,3.1195244E-2,1.2298348E-2,2.485635E-2,-5.3539956E-3,4.0748727E-2,4.324041E-2,8.744026E-2,7.283686E-2,-6.1675977E-2,-6.255758E-2,-3.5530332E-4,1.3948123E-2,3.6858153E-2,1.825051E-2,-1.7114593E-2,3.0316537E-2,5.119889E-2,1.7704366E-2,7.1098626E-2],"categories":[],"categories_nodes":[],"categories_segments":[],"categories_sizes":[],"default_left":[0,0,0,0,0,0,0,0,0,0,0,0,0,0,0,0,0,0,0,0,0,0,0,0,0,0,0,0,0,0,0,0,0,0,0,0,0,0,0,0,0,0,0,0,0,0,0,0,0,0,0,0,0,0,0,0,0,0,0,0,0,0,0,0,0,0,0,0,0,0,0,0,0,0,0,0,0,0,0,0,0,0,0],"id":13,"left_children":[1,3,5,7,9,11,13,15,17,19,-1,21,-1,23,25,27,29,31,33,35,37,39,41,43,-1,45,47,49,51,53,-1,-1,-1,55,57,59,61,63,65,67,-1,69,71,-1,73,75,77,79,81,-1,-1,-1,-1,-1,-1,-1,-1,-1,-1,-1,-1,-1,-1,-1,-1,-1,-1,-1,-1,-1,-1,-1,-1,-1,-1,-1,-1,-1,-1,-1,-1,-1,-1],"loss_changes":[4.5940857E0,6.1088867E0,4.3804626E0,3.4704714E0,4.8217773E0,4.1727943E0,5.041214E0,3.354312E0,2.7715507E0,4.5826263E0,0E0,4.0895996E0,0E0,2.042293E0,4.524536E0,2.6519685E0,1.639789E0,1.6309631E0,4.7545338E-1,6.0281467E0,5.0231934E0,3.6781063E0,3.5282516E0,4.810209E0,0E0,5.3414E0,4.441101E0,2.9466507E0,2.8403206E0,5.192323E-1,0E0,0E0,0E0,6.056886E-1,5.530269E-1,1.6103721E0,4.6012845E0,6.9718933E0,5.446846E0,3.6644707E0,0E0,2.0941124E0,2.799871E0,0E0,4.1181576E-1,4.133333E0,4.9884543E0,4.4703827E0,6.691349E0,0E0,0E0,0E0,0E0,0E0,0E0,0E0,0E0,0E0,0E0,0E0,0E0,0E0,0E0,0E0,0E0,0E0,0E0,0E0,0E0,0E0,0E0,0E0,0E0,0E0,0E0,0E0,0E0,0E0,0E0,0E0,0E0,0E0,0E0],"parents":[2147483647,0,0,1,1,2,2,3,3,4,4,5,5,6,6,7,7,8,8,9,9,11,11,13,13,14,14,15,15,16,16,17,17,18,18,19,19,20,20,21,21,22,22,23,23,25,25,26,26,27,27,28,28,29,29,33,33,34,34,35,35,36,36,37,37,38,38,39,39,41,41,42,42,44,44,45,45,46,46,47,47,48,48],"right_children":[2,4,6,8,10,12,14,16,18,20,-1,22,-1,24,26,28,30,32,34,36,38,40,42,44,-1,46,48,50,52,54,-1,-1,-1,56,58,60,62,64,66,68,-1,70,72,-1,74,76,78,80,82,-1,-1,-1,-1,-1,-1,-1,-1,-1,-1,-1,-1,-1,-1,-1,-1,-1,-1,-1,-1,-1,-1,-1,-1,-1,-1,-1,-1,-1,-1,-1,-1,-1,-1],"split_conditions":[4.43E1,2E0,3.3E1,2.6E1,5.21E-1,9.73E1,3.42E1,2.23E1,2.02E1,1E1,-6.234894E-2,5.7E0,-6.0217004E-2,7.9E0,7.36E-1,2E1,8.31E-1,1.4E1,1.96E1,4E0,2.06E1,4.88E1,1.161E2,1.6E1,-6.443142E-2,7.26E-1,2.4E1,4.6E-1,1.1E1,5E0,4.0628545E-2,-4.180726E-2,6.717964E-2,1.93E1,2.195E2,1.955E2,1.24E1,8E0,1.2E1,1.99E1,-5.9399556E-2,7.61E-1,1.67E-1,8.004264E-2,2.29E1,1.1E1,2.1E1,2.9E1,2.9E1,-2.9596616E-2,2.5062392E-2,4.471052E-3,8.206484E-2,1.4551518E-3,-6.505422E-2,3.1918548E-3,-6.62864E-2,-4.4996504E-2,1.9243686E-2,-4.8879753E-3,1.1049008E-1,-2.3151282E-2,2.051705E-2,1.8195713E-2,3.1195244E-2,1.2298348E-2,2.485635E-2,-5.3539956E-3,4.0748727E-2,4.324041E-2,8.744026E-2,7.283686E-2,-6.1675977E-2,-6.255758E-2,-3.5530332E-4,1.3948123E-2,3.6858153E-2,1.825051E-2,-1.7114593E-2,3.0316537E-2,5.119889E-2,1.7704366E-2,7.1098626E-2],"split_indices":[68,102,67,92,7,58,57,74,12,94,0,72,0,8,65,47,13,32,11,49,23,16,76,34,0,65,46,7,97,43,0,0,0,17,106,106,66,36,50,17,0,13,3,0,22,30,22,36,96,0,0,0,0,0,0,0,0,0,0,0,0,0,0,0,0,0,0,0,0,0,0,0,0,0,0,0,0,0,0,0,0,0,0],"split_type":[0,0,0,0,0,0,0,0,0,0,0,0,0,0,0,0,0,0,0,0,0,0,0,0,0,0,0,0,0,0,0,0,0,0,0,0,0,0,0,0,0,0,0,0,0,0,0,0,0,0,0,0,0,0,0,0,0,0,0,0,0,0,0,0,0,0,0,0,0,0,0,0,0,0,0,0,0,0,0,0,0,0,0],"sum_hessian":[6.360062E3,3.6122695E3,2.7477925E3,9.00504E1,3.522219E3,2.7147937E2,2.476313E3,6.769617E1,2.235423E1,3.5165857E3,5.6334543E0,2.6823956E2,3.2398195E0,1.661333E1,2.4596997E3,5.7234722E1,1.0461446E1,4.171149E0,1.818308E1,1.0268118E2,3.4139043E3,2.0881628E2,5.9423267E1,9.651954E0,6.9613776E0,4.807258E2,1.978974E3,3.8816692E1,1.841803E1,9.104059E0,1.3573865E0,1.3033537E0,2.8677952E0,1.4649839E1,3.533242E0,6.5789633E0,9.610222E1,1.9936854E3,1.420219E3,2.056053E2,3.2109852E0,5.4686275E1,4.736995E0,3.8041637E0,5.8477902E0,3.1846573E2,1.6226009E2,1.5156333E3,4.6334073E2,1.5690009E1,2.3126682E1,8.551437E0,9.866592E0,1.3046937E0,7.799366E0,1.2767556E0,1.3373084E1,1.683719E0,1.849523E0,1.4020503E0,5.1769133E0,5.42163E1,4.188592E1,5.9248193E2,1.4012035E3,6.0508966E2,8.1512933E2,1.8743645E1,1.8686165E2,2.0421322E1,3.426495E1,1.4466338E0,3.2903616E0,4.51465E0,1.3331403E0,1.537213E2,1.6474442E2,9.4988785E1,6.72713E1,1.4033276E3,1.12305595E2,4.393828E2,2.3957916E1],"tree_param":{"num_deleted":"0","num_feature":"107","num_nodes":"83","size_leaf_vector":"1"}},{"base_weights":[-6.3832915E-1,-6.385069E-1,4.9463646E-3,2.752845E-3,-6.386804E-1,-4.6865597E-1,-6.392682E-1,9.300474E-2,-6.325605E-2,-6.3942903E-1,-2.6257932E-1,-4.8631705E-2,6.570517E-2,-2.9773954E-1,-6.395884E-1,5.179047E-3,-4.3137677E-2,-4.6390463E-2,6.09493E-3,-1.5342364E-2,-6.3975684E-2],"categories":[],"categories_nodes":[],"categories_segments":[],"categories_sizes":[],"default_left":[0,0,0,0,0,0,0,0,0,0,0,0,0,0,0,0,0,0,0,0,0],"id":14,"left_children":[1,3,-1,-1,5,7,9,11,-1,13,15,-1,-1,17,19,-1,-1,-1,-1,-1,-1],"loss_changes":[6.5649414E-1,6.074219E-1,0E0,0E0,2.1044922E-1,2.0231795E0,1.4038086E-1,2.1794968E0,0E0,8.642578E-2,2.2749737E-1,0E0,0E0,2.810518E-1,3.1762695E-1,0E0,0E0,0E0,0E0,0E0,0E0],"parents":[2147483647,0,0,1,1,4,4,5,5,6,6,7,7,9,9,10,10,13,13,14,14],"right_children":[2,4,-1,-1,6,8,10,12,-1,14,16,-1,-1,18,20,-1,-1,-1,-1,-1,-1],"split_conditions":[3.98E1,2.4E1,4.9463646E-3,2.752845E-3,1.37E1,4.2E0,2.6E2,4.6E0,-6.325605E-2,3.1E1,4.13E1,-4.8631705E-2,6.570517E-2,3E1,1.45E1,5.179047E-3,-4.3137677E-2,-4.6390463E-2,6.09493E-3,-1.5342364E-2,-6.3975684E-2],"split_indices":[64,67,0,0,9,72,106,8,0,5,16,0,0,5,17,0,0,0,0,0,0],"split_type":[0,0,0,0,0,0,0,0,0,0,0,0,0,0,0,0,0,0,0,0,0],"sum_hessian":[5.107124E3,5.105876E3,1.2479249E0,1.2886376E0,5.1045874E3,2.0338003E1,5.0842495E3,4.6920514E0,1.5645952E1,5.0813833E3,2.8661435E0,2.382667E0,2.309384E0,3.2411165E0,5.078142E3,1.2434714E0,1.6226721E0,2.014535E0,1.2265816E0,2.0742857E0,5.076068E3],"tree_param":{"num_deleted":"0","num_feature":"107","num_nodes":"21","size_leaf_vector":"1"}},{"base_weights":[2.417237E-1,-4.5611498E-1,2.4263589E-1,3.5865273E-2,-6.609878E-2,1.9446373E-1,2.5588468E-1,4.2015168E-1,1.7752253E-1,2.4831744E-1,3.8992152E-1,6.589496E-1,1.22285545E-1,1.9941682E-1,-3.3736233E-2,1.8610087E-1,2.694794E-1,4.134999E-1,-1.9833378E-1,7.5874156E-1,-3.0844352E-1,-2.770671E-1,4.014345E-1,2.127627E-1,-1.6575868E-1,1.7391373E-1,-1.8814398E-1,2.5451615E-1,1.1611407E-1,3.9554414E-1,2.570024E-1,3.8617745E-1,1.0095788E0,6.84332E-2,-5.93824E-1,8.635446E-2,-4.044805E-2,3.636052E-2,-6.1392855E-2,-4.0550802E-2,7.52657E-2,-6.29307E-2,5.9913006E-2,2.6976857E-2,1.3892668E-2,3.187118E-2,-3.3508416E-2,3.20031E-2,-3.343477E-2,1.1624746E-2,-3.6637094E-2,3.1953685E-2,1.2649732E-2,-2.4528475E-2,1.52628245E-2,5.058703E-2,2.0768085E-2,2.052814E-2,2.9350374E-2,3.4323607E-2,7.884618E-2,2.9338075E-2,1.0917391E-1,-4.122674E-3,-7.0207424E-2],"categories":[],"categories_nodes":[],"categories_segments":[],"categories_sizes":[],"default_left":[0,0,0,0,0,0,0,0,0,0,0,0,0,0,0,0,0,0,0,0,0,0,0,0,0,0,0,0,0,0,0,0,0,0,0,0,0,0,0,0,0,0,0,0,0,0,0,0,0,0,0,0,0,0,0,0,0,0,0,0,0,0,0,0,0],"id":15,"left_children":[1,3,5,-1,-1,7,9,11,13,15,17,19,21,23,25,27,29,31,33,35,37,39,41,43,45,47,49,51,53,55,57,59,61,-1,63,-1,-1,-1,-1,-1,-1,-1,-1,-1,-1,-1,-1,-1,-1,-1,-1,-1,-1,-1,-1,-1,-1,-1,-1,-1,-1,-1,-1,-1,-1],"loss_changes":[4.2034607E0,1.6960826E0,4.048706E0,0E0,0E0,5.237545E0,5.008484E0,6.7676907E0,5.9923363E0,6.226349E0,3.7884789E0,5.370802E0,5.023947E0,5.7505684E0,3.956454E0,5.779255E0,5.48999E0,3.7998276E0,4.237249E0,6.264717E0,1.3906918E0,2.7814033E0,5.7456975E0,4.7263603E0,3.544753E0,4.021548E0,3.8763113E0,5.0590134E0,7.9753456E0,6.4921722E0,6.0520935E0,4.0065346E0,3.067007E-1,0E0,4.5641446E-1,0E0,0E0,0E0,0E0,0E0,0E0,0E0,0E0,0E0,0E0,0E0,0E0,0E0,0E0,0E0,0E0,0E0,0E0,0E0,0E0,0E0,0E0,0E0,0E0,0E0,0E0,0E0,0E0,0E0,0E0],"parents":[2147483647,0,0,1,1,2,2,5,5,6,6,7,7,8,8,9,9,10,10,11,11,12,12,13,13,14,14,15,15,16,16,17,17,18,18,19,19,20,20,21,21,22,22,23,23,24,24,25,25,26,26,27,27,28,28,29,29,30,30,31,31,32,32,34,34],"right_children":[2,4,6,-1,-1,8,10,12,14,16,18,20,22,24,26,28,30,32,34,36,38,40,42,44,46,48,50,52,54,56,58,60,62,-1,64,-1,-1,-1,-1,-1,-1,-1,-1,-1,-1,-1,-1,-1,-1,-1,-1,-1,-1,-1,-1,-1,-1,-1,-1,-1,-1,-1,-1,-1,-1],"split_conditions":[1.78E2,4.35E-1,7E0,3.5865273E-2,-6.609878E-2,3.54E1,4.89E1,1.8E1,2.64E1,2.045E2,3E1,3.6E1,1.6E1,3E1,7E0,2.15E1,8.32E1,2.9E1,8.47E1,2.47E1,7.43E-1,2.7E1,6.1E0,1.47E1,7E0,2E1,9E0,2.1E1,1.905E2,1.8E1,1.3E1,3.65E1,1.97E1,6.84332E-2,1.28E1,8.635446E-2,-4.044805E-2,3.636052E-2,-6.1392855E-2,-4.0550802E-2,7.52657E-2,-6.29307E-2,5.9913006E-2,2.6976857E-2,1.3892668E-2,3.187118E-2,-3.3508416E-2,3.20031E-2,-3.343477E-2,1.1624746E-2,-3.6637094E-2,3.1953685E-2,1.2649732E-2,-2.4528475E-2,1.52628245E-2,5.058703E-2,2.0768085E-2,2.052814E-2,2.9350374E-2,3.4323607E-2,7.884618E-2,2.9338075E-2,1.0917391E-1,-4.122674E-3,-7.0207424E-2],"split_indices":[106,59,19,0,0,5,4,99,12,106,87,0,81,34,30,61,6,86,6,74,65,97,71,70,26,78,82,49,106,88,84,15,23,0,70,0,0,0,0,0,0,0,0,0,0,0,0,0,0,0,0,0,0,0,0,0,0,0,0,0,0,0,0,0,0],"split_type":[0,0,0,0,0,0,0,0,0,0,0,0,0,0,0,0,0,0,0,0,0,0,0,0,0,0,0,0,0,0,0,0,0,0,0,0,0,0,0,0,0,0,0,0,0,0,0,0,0,0,0,0,0,0,0,0,0,0,0,0,0,0,0,0,0],"sum_hessian":[6.4284634E3,7.740623E0,6.4207227E3,1.4044784E0,6.3361444E0,1.3883632E3,5.03236E3,9.5278496E1,1.2930846E3,4.766133E3,2.66227E2,5.2209858E1,4.3068638E1,1.171708E3,1.2137665E2,1.2121587E3,3.553974E3,2.5625296E2,9.974027E0,4.752326E1,4.686602E0,1.7722359E1,2.5346281E1,1.1307986E3,4.0909348E1,5.1709957E1,6.9666695E1,6.116279E2,6.0053076E2,3.173036E2,3.2366704E3,2.4659755E2,9.655415E0,2.860205E0,7.113822E0,4.3831768E1,3.691491E0,1.4051347E0,3.2814674E0,1.6295912E1,1.4264462E0,3.7276921E0,2.161859E1,6.366289E2,4.941697E2,1.0366551E1,3.0542797E1,4.0451206E1,1.1258751E1,2.5855753E1,4.381094E1,4.0462378E2,2.0700414E2,5.458257E1,5.459482E2,1.9883902E2,1.1846458E2,1.3418881E3,1.8947825E3,2.2448804E2,2.2109509E1,1.4640443E0,8.191371E0,1.3914704E0,5.7223516E0],"tree_param":{"num_deleted":"0","num_feature":"107","num_nodes":"65","size_leaf_vector":"1"}},{"base_weights":[2.3131685E-1,2.3215331E-1,-5.112993E-1,2.779532E-1,2.1797843E-1,-6.2341373E-2,1.5002443E-3,2.9378226E-1,5.255309E-2,2.1350448E-1,4.6021992E-1,8.405656E-2,3.0887905E-1,-2.9941958E-1,2.2696179E-1,2.2334348E-1,1.0365011E-1,-1.660762E-1,5.514346E-1,-7.399499E-2,4.4719106E-1,3.0013624E-1,7.5421274E-1,7.638671E-2,-3.6988917E-1,8.7760526E-1,1.1264177E-1,1.9405141E-1,2.703405E-1,1.7790054E-1,-5.9005696E-2,6.742319E-2,-5.066415E-1,5.9339356E-1,-5.5544097E-2,-2.1347998E-2,5.1081616E-2,-5.128063E-2,5.3074576E-2,4.6971377E-2,2.7562046E-2,2.4154231E-2,1.0509405E-1,1.3037455E-2,-4.7059085E-2,1.1361766E-1,2.9774602E-3,3.0593013E-2,-2.973733E-2,2.2107443E-2,1.3078901E-2,5.8472473E-2,2.5911534E-2,1.9860053E-2,-6.543642E-2,-1.4730871E-2,3.005639E-2,-7.091045E-2,3.3842947E-2,4.5155514E-2,9.7178824E-2],"categories":[],"categories_nodes":[],"categories_segments":[],"categories_sizes":[],"default_left":[0,0,0,0,0,0,0,0,0,0,0,0,0,0,0,0,0,0,0,0,0,0,0,0,0,0,0,0,0,0,0,0,0,0,0,0,0,0,0,0,0,0,0,0,0,0,0,0,0,0,0,0,0,0,0,0,0,0,0,0,0],"id":16,"left_children":[1,3,5,7,9,-1,-1,11,13,15,17,19,21,23,25,27,29,31,33,35,37,39,41,-1,43,45,47,49,51,53,55,-1,57,59,-1,-1,-1,-1,-1,-1,-1,-1,-1,-1,-1,-1,-1,-1,-1,-1,-1,-1,-1,-1,-1,-1,-1,-1,-1,-1,-1],"loss_changes":[4.101593E0,4.09787E0,4.5345366E-1,5.3730316E0,5.2081146E0,0E0,0E0,4.4413834E0,6.226292E0,5.174942E0,5.1143417E0,5.5497694E0,4.8968277E0,2.8054652E0,4.9329906E0,6.0227203E0,4.80752E0,3.7602339E0,3.9046383E0,5.6420174E0,2.621632E0,5.242485E0,3.4996862E0,0E0,1.6861019E0,2.1502137E0,4.7419486E0,4.6247253E0,5.819214E0,4.832409E0,4.020732E0,0E0,1.7920859E0,3.5676308E0,0E0,0E0,0E0,0E0,0E0,0E0,0E0,0E0,0E0,0E0,0E0,0E0,0E0,0E0,0E0,0E0,0E0,0E0,0E0,0E0,0E0,0E0,0E0,0E0,0E0,0E0,0E0],"parents":[2147483647,0,0,1,1,2,2,3,3,4,4,7,7,8,8,9,9,10,10,11,11,12,12,13,13,14,14,15,15,16,16,17,17,18,18,19,19,20,20,21,21,22,22,24,24,25,25,26,26,27,27,28,28,29,29,30,30,32,32,33,33],"right_children":[2,4,6,8,10,-1,-1,12,14,16,18,20,22,24,26,28,30,32,34,36,38,40,42,-1,44,46,48,50,52,54,56,-1,58,60,-1,-1,-1,-1,-1,-1,-1,-1,-1,-1,-1,-1,-1,-1,-1,-1,-1,-1,-1,-1,-1,-1,-1,-1,-1,-1,-1],"split_conditions":[5.24E-1,4E0,2.7E1,8.5E0,6E0,-6.2341373E-2,1.5002443E-3,1.95E1,1.1E1,4.88E1,5E0,2.2E1,8.35E-1,2E0,4.12E1,5.2E0,2.2E1,1.1E1,7.2E1,2.64E1,8.1E1,1.955E2,2E0,7.638671E-2,7.2E0,2E1,1.6E1,1.83E1,1.83E1,2.52E1,3.44E1,6.742319E-2,8.3E0,2.3E1,-5.5544097E-2,-2.1347998E-2,5.1081616E-2,-5.128063E-2,5.3074576E-2,4.6971377E-2,2.7562046E-2,2.4154231E-2,1.0509405E-1,1.3037455E-2,-4.7059085E-2,1.1361766E-1,2.9774602E-3,3.0593013E-2,-2.973733E-2,2.2107443E-2,1.3078901E-2,5.8472473E-2,2.5911534E-2,1.9860053E-2,-6.543642E-2,-1.4730871E-2,3.005639E-2,-7.091045E-2,3.3842947E-2,4.5155514E-2,9.7178824E-2],"split_indices":[7,78,40,25,104,0,0,64,89,4,94,38,13,104,68,73,83,85,52,12,6,106,26,0,8,35,79,63,12,75,9,0,19,88,0,0,0,0,0,0,0,0,0,0,0,0,0,0,0,0,0,0,0,0,0,0,0,0,0,0,0],"split_type":[0,0,0,0,0,0,0,0,0,0,0,0,0,0,0,0,0,0,0,0,0,0,0,0,0,0,0,0,0,0,0,0,0,0,0,0,0,0,0,0,0,0,0,0,0,0,0,0,0,0,0,0,0,0,0,0,0,0,0,0,0],"sum_hessian":[6.410977E3,6.4044507E3,6.5263643E0,1.5092775E3,4.8951733E3,5.228133E0,1.2982312E0,1.4099578E3,9.931971E1,4.808251E3,8.692215E1,9.511951E1,1.3148383E3,3.267063E1,6.6649086E1,4.4120566E3,3.9619455E2,1.0945777E1,7.597637E1,6.682895E1,2.8290562E1,1.291164E3,2.367424E1,1.4190778E0,3.1251553E1,8.962571E0,5.7686512E1,2.7211577E3,1.690899E3,2.7195612E2,1.2423844E2,2.874216E0,8.071561E0,7.364844E1,2.3279321E0,5.4471703E1,1.23572445E1,1.853819E0,2.6436743E1,1.6079227E2,1.1303717E3,9.344072E0,1.4330168E1,5.1873384E0,2.6064215E1,6.6073604E0,2.3552108E0,3.937724E1,1.830927E1,1.9049498E3,8.162078E2,5.6531292E1,1.6343678E3,2.660991E2,5.8570094E0,1.0021739E2,2.4021046E1,6.6413198E0,1.4302408E0,5.5163982E1,1.8484457E1],"tree_param":{"num_deleted":"0","num_feature":"107","num_nodes":"61","size_leaf_vector":"1"}},{"base_weights":[-6.2269354E-1,-6.228775E-1,5.7558357E-3,2.5041697E-3,-6.2305444E-1,-4.5147005E-1,-6.236551E-1,9.9489704E-2,-6.1762583E-2,-6.238195E-1,-2.5080243E-1,-4.7493458E-2,6.421989E-2,-4.6001133E-1,-6.243241E-1,-4.210536E-2,5.918896E-3,-5.5939686E-2,4.2677652E-2,-1.888809E-2,-6.244991E-2],"categories":[],"categories_nodes":[],"categories_segments":[],"categories_sizes":[],"default_left":[0,0,0,0,0,0,0,0,0,0,0,0,0,0,0,0,0,0,0,0,0],"id":17,"left_children":[1,3,-1,-1,5,7,9,11,-1,13,15,-1,-1,17,19,-1,-1,-1,-1,-1,-1],"loss_changes":[6.45874E-1,5.748291E-1,0E0,0E0,2.2094727E-1,1.9498687E0,1.4135742E-1,2.0635097E0,0E0,1.1376953E-1,2.2613305E-1,0E0,0E0,1.887181E0,2.5061035E-1,0E0,0E0,0E0,0E0,0E0,0E0],"parents":[2147483647,0,0,1,1,4,4,5,5,6,6,7,7,9,9,10,10,13,13,14,14],"right_children":[2,4,-1,-1,6,8,10,12,-1,14,16,-1,-1,18,20,-1,-1,-1,-1,-1,-1],"split_conditions":[3.98E1,2.4E1,5.7558357E-3,2.5041697E-3,1.37E1,4.2E0,2.6E2,1.008E2,-6.1762583E-2,3.66E1,1.4E1,-4.7493458E-2,6.421989E-2,2.8E1,3.1E1,-4.210536E-2,5.918896E-3,-5.5939686E-2,4.2677652E-2,-1.888809E-2,-6.244991E-2],"split_indices":[64,67,0,0,9,72,106,76,0,16,44,0,0,97,5,0,0,0,0,0,0],"split_type":[0,0,0,0,0,0,0,0,0,0,0,0,0,0,0,0,0,0,0,0,0],"sum_hessian":[4.8767637E3,4.8755303E3,1.2338166E0,1.2928047E0,4.8742373E3,1.9628305E1,4.854609E3,4.6408453E0,1.498746E1,4.8517964E3,2.8125243E0,2.3152149E0,2.3256304E0,1.7703856E1,4.834093E3,1.5841914E0,1.228333E0,1.625166E1,1.4521948E0,2.3757026E0,4.831717E3],"tree_param":{"num_deleted":"0","num_feature":"107","num_nodes":"21","size_leaf_vector":"1"}},{"base_weights":[2.2373174E-1,-4.4419923E-1,2.2458954E-1,-6.473008E-2,3.4849007E-2,2.2634542E-1,-1.0442257E-1,2.4855828E-1,1.9664858E-1,-3.2394567E-1,2.5674987E-1,1.9378477E-1,2.7157456E-1,1.8582928E-1,3.435977E-1,-3.4848903E-3,-7.223027E-2,7.95566E-1,-2.2099622E-1,2.6735455E-1,1.1727362E-1,3.7358302E-1,2.4731098E-1,1.529542E-1,2.3449458E-1,3.8401186E-1,-1.816204E-1,-3.645497E-1,5.3282094E-1,1.03371374E-1,-5.7092127E-3,-5.4594105E-1,7.695733E-2,3.8687866E-2,1.5107432E-2,9.916275E-3,6.246662E-2,3.2458574E-2,5.6073636E-2,2.3455283E-2,4.1746188E-2,8.301008E-3,1.9448802E-2,2.6084347E-2,2.129451E-3,9.658643E-3,4.5921445E-2,3.6534775E-2,-4.9709443E-2,1.7632876E-2,-6.65106E-2,-4.8347335E-2,9.7910866E-2,-6.7266285E-2,-3.4609013E-3],"categories":[],"categories_nodes":[],"categories_segments":[],"categories_sizes":[],"default_left":[0,0,0,0,0,0,0,0,0,0,0,0,0,0,0,0,0,0,0,0,0,0,0,0,0,0,0,0,0,0,0,0,0,0,0,0,0,0,0,0,0,0,0,0,0,0,0,0,0,0,0,0,0,0,0],"id":18,"left_children":[1,3,5,-1,-1,7,9,11,13,15,17,19,21,23,25,27,-1,29,31,33,35,37,39,41,43,45,47,49,51,-1,-1,53,-1,-1,-1,-1,-1,-1,-1,-1,-1,-1,-1,-1,-1,-1,-1,-1,-1,-1,-1,-1,-1,-1,-1],"loss_changes":[3.8095703E0,1.6166818E0,3.7598267E0,0E0,0E0,4.194824E0,2.8594275E0,4.582367E0,4.320526E0,2.8341377E0,3.7269049E0,6.1115456E0,6.3088837E0,4.0769653E0,4.0588818E0,2.7733922E0,0E0,1.4196224E0,3.0256045E0,7.663006E0,4.8703623E0,4.35717E0,4.444008E0,4.4493446E0,5.806278E0,3.7345715E0,2.6157873E0,1.5078346E0,3.088303E0,0E0,0E0,4.0956867E-1,0E0,0E0,0E0,0E0,0E0,0E0,0E0,0E0,0E0,0E0,0E0,0E0,0E0,0E0,0E0,0E0,0E0,0E0,0E0,0E0,0E0,0E0,0E0],"parents":[2147483647,0,0,1,1,2,2,5,5,6,6,7,7,8,8,9,9,10,10,11,11,12,12,13,13,14,14,15,15,17,17,18,18,19,19,20,20,21,21,22,22,23,23,24,24,25,25,26,26,27,27,28,28,31,31],"right_children":[2,4,6,-1,-1,8,10,12,14,16,18,20,22,24,26,28,-1,30,32,34,36,38,40,42,44,46,48,50,52,-1,-1,54,-1,-1,-1,-1,-1,-1,-1,-1,-1,-1,-1,-1,-1,-1,-1,-1,-1,-1,-1,-1,-1,-1,-1],"split_conditions":[1.78E2,1.29E1,5.9E1,-6.473008E-2,3.4849007E-2,4.43E1,1.77E1,4.47E-1,2.7E1,1.6E1,7.54E-1,1.6E1,2.19E1,1.9E1,2.61E1,1.5E1,-7.223027E-2,2.7E1,8.88E1,1.2E1,4.93E-1,2.2E1,3.89E-1,4.49E1,2.9E1,3.22E1,1.032E2,1.5E1,2.11E1,1.03371374E-1,-5.7092127E-3,1.6E1,7.695733E-2,3.8687866E-2,1.5107432E-2,9.916275E-3,6.246662E-2,3.2458574E-2,5.6073636E-2,2.3455283E-2,4.1746188E-2,8.301008E-3,1.9448802E-2,2.6084347E-2,2.129451E-3,9.658643E-3,4.5921445E-2,3.6534775E-2,-4.9709443E-2,1.7632876E-2,-6.65106E-2,-4.8347335E-2,9.7910866E-2,-6.7266285E-2,-3.4609013E-3],"split_indices":[106,66,2,0,0,68,11,59,103,91,65,38,69,42,64,99,0,102,58,26,7,96,10,16,38,15,24,79,17,0,0,18,0,0,0,0,0,0,0,0,0,0,0,0,0,0,0,0,0,0,0,0,0,0,0],"split_type":[0,0,0,0,0,0,0,0,0,0,0,0,0,0,0,0,0,0,0,0,0,0,0,0,0,0,0,0,0,0,0,0,0,0,0,0,0,0,0,0,0,0,0,0,0,0,0,0,0,0,0,0,0,0,0],"sum_hessian":[6.4739067E3,7.640588E0,6.466266E3,6.228216E0,1.4123716E0,6.43225E3,3.4015835E1,3.675588E3,2.7566624E3,2.1220774E1,1.2795061E1,1.0903116E3,2.5852764E3,2.5697278E3,1.869344E2,1.2319236E1,8.901538E0,5.7005563E0,7.0945044E0,5.545684E2,5.3574316E2,4.940026E2,2.0912737E3,1.5361493E3,1.0335786E3,1.7382768E2,1.3106723E1,7.5538845E0,4.765351E0,4.290012E0,1.4105444E0,5.6800814E0,1.4144233E0,2.723221E2,2.822463E2,5.1843365E2,1.7309536E1,3.9367236E2,1.0033023E2,1.9476171E3,1.4365659E2,5.7344684E2,9.627024E2,9.1969257E2,1.13886055E2,3.65225E1,1.3730518E2,4.7365E0,8.370223E0,2.8458476E0,4.708037E0,1.4286596E0,3.3366914E0,4.2991304E0,1.3809506E0],"tree_param":{"num_deleted":"0","num_feature":"107","num_nodes":"55","size_leaf_vector":"1"}},{"base_weights":[2.1438324E-1,1.9280796E-1,2.4264722E-1,-4.3935336E-2,1.9881082E-1,1.6987178E-1,2.6260296E-1,6.326637E-2,-3.6218655E-1,1.841074E-1,2.797499E-1,2.1471006E-1,-7.9021245E-2,3.3950847E-1,2.3878129E-1,5.909103E-1,-2.1124616E-2,2.870739E-1,-5.214832E-1,-3.6701307E-2,1.91831E-1,3.4828416E-1,9.3356766E-2,2.4310374E-1,-1.397713E-1,4.5927182E-1,-1.4662656E-1,3.0260208E-1,6.6792274E-1,3.2356918E-1,2.0938668E-1,-4.2553525E-2,8.0549926E-1,-1.5127994E-1,3.9760026E-1,-4.215085E-2,6.327081E-2,2.5687728E-3,-5.626801E-1,-3.1353667E-1,2.8690222E-1,2.2344607E-1,1.446644E-1,7.022655E-2,3.9530239E-1,-3.7474748E-2,3.341287E-1,3.6887306E-1,1.5267031E-1,-2.9837644E-1,4.538383E-1,7.738358E-1,-3.1382987E-1,2.8225362E-1,-2.141326E-1,3.9020553E-1,1.4776778E-1,-1.2894236E-1,7.504013E-1,1.6334404E-1,4.4876018E-1,-1.7409085E-1,2.2546318E-1,1.4471433E-2,9.804287E-2,6.418579E-2,-2.5818834E-2,-3.5156753E-2,6.3572474E-2,-6.546107E-2,-1.5244052E-2,-4.1126914E-2,4.0993392E-2,-2.0538094E-3,5.94864E-2,3.194016E-2,1.9028196E-2,1.5579064E-2,-2.7331725E-2,7.4772514E-2,-7.6376423E-3,4.6331506E-2,2.0543596E-2,-3.2049466E-2,1.7910704E-2,-1.985671E-2,5.191965E-2,5.4384746E-2,1.7616136E-2,1.722555E-3,2.7757088E-2,-3.740999E-2,7.453456E-2,8.97096E-2,-5.340909E-2,9.761699E-2,-7.7838474E-3,-4.609978E-2,-3.4056231E-3,-5.812613E-2,6.1503705E-2,2.7363861E-2,-3.0428683E-2,1.6185459E-2,4.8024535E-2,-3.1746149E-3,4.5081485E-2,4.7855716E-2,-5.679918E-2,3.659135E-2,9.456367E-2,4.6708535E-2,9.727268E-3,6.0588986E-2,2.6776982E-2,-3.171754E-2,4.307102E-2,2.5439912E-2,5.1767854E-3],"categories":[],"categories_nodes":[],"categories_segments":[],"categories_sizes":[],"default_left":[0,0,0,0,0,0,0,0,0,0,0,0,0,0,0,0,0,0,0,0,0,0,0,0,0,0,0,0,0,0,0,0,0,0,0,0,0,0,0,0,0,0,0,0,0,0,0,0,0,0,0,0,0,0,0,0,0,0,0,0,0,0,0,0,0,0,0,0,0,0,0,0,0,0,0,0,0,0,0,0,0,0,0,0,0,0,0,0,0,0,0,0,0,0,0,0,0,0,0,0,0,0,0,0,0,0,0,0,0,0,0,0,0,0,0,0,0,0,0],"id":19,"left_children":[1,3,5,7,9,11,13,15,17,19,21,23,25,27,29,31,33,35,37,39,41,43,45,47,49,51,53,55,57,59,61,-1,63,65,67,-1,-1,-1,69,71,73,75,77,79,81,83,85,87,89,91,93,95,97,99,101,103,105,107,109,111,113,115,117,-1,-1,-1,-1,-1,-1,-1,-1,-1,-1,-1,-1,-1,-1,-1,-1,-1,-1,-1,-1,-1,-1,-1,-1,-1,-1,-1,-1,-1,-1,-1,-1,-1,-1,-1,-1,-1,-1,-1,-1,-1,-1,-1,-1,-1,-1,-1,-1,-1,-1,-1,-1,-1,-1,-1,-1],"loss_changes":[3.8900146E0,5.218628E0,4.0085144E0,3.1437926E0,4.2036743E0,6.7511387E0,3.9281921E0,3.097307E0,2.5489445E0,5.1724243E0,6.9646454E0,5.1830463E0,3.4460716E0,6.042259E0,4.104973E0,2.4338503E0,3.3677514E0,1.5439596E0,4.4235563E-1,9.335245E0,4.331711E0,5.203438E0,4.6942296E0,5.334919E0,3.7670696E0,2.8210082E0,2.4704797E0,6.2491837E0,3.4630413E0,8.535427E0,7.721237E0,0E0,8.130646E-1,4.1529975E0,2.8400478E0,0E0,0E0,0E0,5.676327E-1,4.135069E0,4.5666714E0,5.5091705E0,5.5175514E0,5.926107E0,4.3216896E0,6.015224E0,5.271601E0,6.565893E0,4.6887903E0,2.7323248E0,4.2144237E0,1.4242206E0,1.3983375E-1,3.7345796E0,3.271014E0,6.015335E0,9.242012E0,1.7807757E0,3.1490974E0,3.76399E0,6.673233E0,4.5241776E0,5.999817E0,0E0,0E0,0E0,0E0,0E0,0E0,0E0,0E0,0E0,0E0,0E0,0E0,0E0,0E0,0E0,0E0,0E0,0E0,0E0,0E0,0E0,0E0,0E0,0E0,0E0,0E0,0E0,0E0,0E0,0E0,0E0,0E0,0E0,0E0,0E0,0E0,0E0,0E0,0E0,0E0,0E0,0E0,0E0,0E0,0E0,0E0,0E0,0E0,0E0,0E0,0E0,0E0,0E0,0E0,0E0,0E0],"parents":[2147483647,0,0,1,1,2,2,3,3,4,4,5,5,6,6,7,7,8,8,9,9,10,10,11,11,12,12,13,13,14,14,15,15,16,16,17,17,18,18,19,19,20,20,21,21,22,22,23,23,24,24,25,25,26,26,27,27,28,28,29,29,30,30,32,32,33,33,34,34,38,38,39,39,40,40,41,41,42,42,43,43,44,44,45,45,46,46,47,47,48,48,49,49,50,50,51,51,52,52,53,53,54,54,55,55,56,56,57,57,58,58,59,59,60,60,61,61,62,62],"right_children":[2,4,6,8,10,12,14,16,18,20,22,24,26,28,30,32,34,36,38,40,42,44,46,48,50,52,54,56,58,60,62,-1,64,66,68,-1,-1,-1,70,72,74,76,78,80,82,84,86,88,90,92,94,96,98,100,102,104,106,108,110,112,114,116,118,-1,-1,-1,-1,-1,-1,-1,-1,-1,-1,-1,-1,-1,-1,-1,-1,-1,-1,-1,-1,-1,-1,-1,-1,-1,-1,-1,-1,-1,-1,-1,-1,-1,-1,-1,-1,-1,-1,-1,-1,-1,-1,-1,-1,-1,-1,-1,-1,-1,-1,-1,-1,-1,-1,-1,-1],"split_conditions":[4.43E1,2E0,7E0,2.6E1,2.6E1,1.33E1,4E0,9.2E0,2.02E1,3.33E-1,5.5E0,4.88E1,9.1E0,2.29E1,8E0,9E0,4.85E1,1.24E1,1.93E1,7.68E-1,1.79E1,7E0,1.9E1,1.3E1,2E1,2.245E2,3.32E-1,3.5E1,4E0,1.1E1,8.08E1,-4.2553525E-2,3.22E1,1.85E1,4.08E1,-4.215085E-2,6.327081E-2,2.5687728E-3,1.96E1,2.6E1,8.2E0,4.47E-1,2.9E1,1.4E1,2.6E1,3.86E1,1.66E1,2.2E1,1.78E1,4.47E1,2.3E1,1.72E1,3.1E1,1.1E1,6E0,8E0,1.6E1,2.2E1,7E0,1.35E1,1.6E1,2.2E1,4.28E1,1.4471433E-2,9.804287E-2,6.418579E-2,-2.5818834E-2,-3.5156753E-2,6.3572474E-2,-6.546107E-2,-1.5244052E-2,-4.1126914E-2,4.0993392E-2,-2.0538094E-3,5.94864E-2,3.194016E-2,1.9028196E-2,1.5579064E-2,-2.7331725E-2,7.4772514E-2,-7.6376423E-3,4.6331506E-2,2.0543596E-2,-3.2049466E-2,1.7910704E-2,-1.985671E-2,5.191965E-2,5.4384746E-2,1.7616136E-2,1.722555E-3,2.7757088E-2,-3.740999E-2,7.453456E-2,8.97096E-2,-5.340909E-2,9.761699E-2,-7.7838474E-3,-4.609978E-2,-3.4056231E-3,-5.812613E-2,6.1503705E-2,2.7363861E-2,-3.0428683E-2,1.6185459E-2,4.8024535E-2,-3.1746149E-3,4.5081485E-2,4.7855716E-2,-5.679918E-2,3.659135E-2,9.456367E-2,4.6708535E-2,9.727268E-3,6.0588986E-2,2.6776982E-2,-3.171754E-2,4.307102E-2,2.5439912E-2,5.1767854E-3],"split_indices":[68,102,45,92,88,8,78,66,12,62,21,68,14,23,41,90,56,11,17,65,11,40,97,44,87,106,62,15,33,31,6,0,15,75,16,0,0,0,11,28,19,59,99,86,96,5,11,35,63,61,34,70,2,96,49,44,82,39,102,70,101,101,57,0,0,0,0,0,0,0,0,0,0,0,0,0,0,0,0,0,0,0,0,0,0,0,0,0,0,0,0,0,0,0,0,0,0,0,0,0,0,0,0,0,0,0,0,0,0,0,0,0,0,0,0,0,0,0,0],"split_type":[0,0,0,0,0,0,0,0,0,0,0,0,0,0,0,0,0,0,0,0,0,0,0,0,0,0,0,0,0,0,0,0,0,0,0,0,0,0,0,0,0,0,0,0,0,0,0,0,0,0,0,0,0,0,0,0,0,0,0,0,0,0,0,0,0,0,0,0,0,0,0,0,0,0,0,0,0,0,0,0,0,0,0,0,0,0,0,0,0,0,0,0,0,0,0,0,0,0,0,0,0,0,0,0,0,0,0,0,0,0,0,0,0,0,0,0,0,0,0],"sum_hessian":[6.454858E3,3.6650022E3,2.7898557E3,9.047556E1,3.5745266E3,6.024238E2,2.187432E3,6.827769E1,2.2197872E1,3.0277744E3,5.467523E2,5.105798E2,9.1843994E1,5.14187E2,1.6732449E3,8.586931E0,5.9690758E1,4.2152486E0,1.7982624E1,1.0220144E2,2.925573E3,3.9912927E2,1.4762302E2,4.7300653E2,3.7573265E1,9.601406E0,8.224259E1,4.6396875E2,5.021827E1,4.2817593E2,1.245069E3,1.3254822E0,7.261449E0,4.6023613E1,1.3667145E1,1.310034E0,2.9052148E0,1.2854846E0,1.669714E1,5.5097717E1,4.710372E1,1.749303E3,1.1762699E3,5.808984E1,3.4103946E2,9.619604E1,5.1426987E1,1.9656161E2,2.7644492E2,3.0043394E1,7.529872E0,6.823907E0,2.777499E0,1.0751959E1,7.149063E1,2.9534552E2,1.6862321E2,4.6574154E0,4.5560856E1,1.8882013E2,2.3935582E2,4.9701237E1,1.1953677E3,1.9024259E0,5.359023E0,4.872373E0,4.1151237E1,3.1814675E0,1.0485677E1,1.3153821E1,3.5433187E0,4.8920643E1,6.1770754E0,2.4038868E1,2.3064854E1,4.4708813E2,1.3022148E3,1.1463817E3,2.9888243E1,9.604424E0,4.8485416E1,2.500338E2,9.1005646E1,4.1493847E1,5.4702187E1,1.3241098E1,3.818589E1,1.02066925E2,9.44947E1,1.3317024E2,1.4327466E2,2.860932E1,1.4340742E0,5.2612367E0,2.2686353E0,5.3958297E0,1.4280771E0,1.395617E0,1.3818821E0,2.7832482E0,7.9687104E0,1.0834786E1,6.0655846E1,8.431386E1,2.1103168E2,1.0645715E2,6.216606E1,1.9161339E0,2.7412817E0,1.6311646E1,2.924921E1,3.2650555E1,1.5616957E2,1.2686675E2,1.1248906E2,4.0577045E1,9.124193E0,1.0242697E3,1.71098E2],"tree_param":{"num_deleted":"0","num_feature":"107","num_nodes":"119","size_leaf_vector":"1"}},{"base_weights":[-6.0868496E-1,-6.088757E-1,6.6903094E-3,-6.0907173E-1,7.113104E-4,-4.4112247E-1,-6.096778E-1,6.902803E-2,-6.071825E-2,-6.098477E-1,-2.3752052E-1,-4.7169156E-2,5.406609E-1,-4.424151E-1,-6.103698E-1,-4.1250344E-2,7.3084035E-3,7.419788E-2,6.6981264E-3,-5.4412253E-2,4.218494E-2,-1.7502882E-2,-6.1055135E-2],"categories":[],"categories_nodes":[],"categories_segments":[],"categories_sizes":[],"default_left":[0,0,0,0,0,0,0,0,0,0,0,0,0,0,0,0,0,0,0,0,0,0,0],"id":20,"left_children":[1,3,-1,5,-1,7,9,11,-1,13,15,-1,17,19,21,-1,-1,-1,-1,-1,-1,-1,-1],"loss_changes":[6.4038086E-1,5.6640625E-1,0E0,2.043457E-1,0E0,1.7649941E0,1.4807129E-1,1.757815E0,0E0,1.3464355E-1,2.3409338E-1,0E0,2.9487705E-1,1.8137727E0,2.5756836E-1,0E0,0E0,0E0,0E0,0E0,0E0,0E0,0E0],"parents":[2147483647,0,0,1,1,3,3,5,5,6,6,7,7,9,9,10,10,12,12,13,13,14,14],"right_children":[2,4,-1,6,-1,8,10,12,-1,14,16,-1,18,20,22,-1,-1,-1,-1,-1,-1,-1,-1],"split_conditions":[3.26E1,1.3E1,6.6903094E-3,1.37E1,7.113104E-4,9E0,2.6E2,7E0,-6.071825E-2,3.66E1,8.99E1,-4.7169156E-2,1.5E1,2.8E1,3.1E1,-4.1250344E-2,7.3084035E-3,7.419788E-2,6.6981264E-3,-5.4412253E-2,4.218494E-2,-1.7502882E-2,-6.1055135E-2],"split_indices":[63,20,0,9,0,86,106,79,0,16,6,0,30,97,5,0,0,0,0,0,0,0,0],"split_type":[0,0,0,0,0,0,0,0,0,0,0,0,0,0,0,0,0,0,0,0,0,0,0],"sum_hessian":[4.652754E3,4.6515396E3,1.2143703E0,4.6500703E3,1.4689541E0,1.9339598E1,4.630731E3,4.892805E0,1.4446793E1,4.6279785E3,2.7524219E0,2.2793927E0,2.613412E0,1.7022715E1,4.6109556E3,1.5507317E0,1.2016903E0,1.4364806E0,1.1769314E0,1.5561809E1,1.460906E0,2.3244896E0,4.6086313E3],"tree_param":{"num_deleted":"0","num_feature":"107","num_nodes":"23","size_leaf_vector":"1"}},{"base_weights":[2.075061E-1,1.6513318E-1,2.2048998E-1,1.5250887E-1,4.4186482E-1,1.7115594E-1,2.4553843E-1,-6.750393E-2,1.5635371E-1,-5.6798805E-2,4.879671E-1,1.6390201E-1,6.140785E-1,3.867524E-1,2.343216E-1,1.6393545E-1,-2.757779E-1,2.776845E-1,7.086289E-1,1.711759E-1,-1.9938587E-1,7.259349E-1,-5.483473E-2,4.0396246E-1,-6.427039E-2,2.1410842E-1,3.1834912E-1,-9.7311944E-2,1.7687273E-1,3.3784062E-1,-4.3393973E-1,-1.5869999E-1,6.828614E-1,8.360135E-1,8.454663E-2,1.3353735E-1,2.3341177E-1,2.7309188E-1,-4.6417245E-1,8.46028E-1,-2.8701654E-2,9.040494E-1,3.6711127E-1,4.334371E-1,2.056069E-1,3.6949217E-1,1.0029482E-1,-2.0701714E-2,4.6565298E-2,-1.1914689E-2,1.8633684E-2,9.062255E-2,-5.4245245E-2,-6.803528E-2,1.2737693E-2,-3.472316E-2,4.769972E-2,8.4513925E-2,-1.2109234E-2,9.1910526E-2,2.2223217E-3,6.325244E-2,-5.772671E-2,5.113102E-3,2.1489864E-2,1.46497255E-2,3.2490555E-2,5.6417447E-2,-4.0413875E-2,7.3603444E-2,-5.8699038E-2,9.0849526E-2,-5.2427812E-3,-1.6042463E-3,1.0732489E-1,3.9739944E-2,-1.1954424E-2,5.013602E-2,-1.622705E-2,4.5577026E-4,2.1457406E-2,4.817028E-2,2.7443578E-2,-1.2424246E-2,2.4370845E-2],"categories":[],"categories_nodes":[],"categories_segments":[],"categories_sizes":[],"default_left":[0,0,0,0,0,0,0,0,0,0,0,0,0,0,0,0,0,0,0,0,0,0,0,0,0,0,0,0,0,0,0,0,0,0,0,0,0,0,0,0,0,0,0,0,0,0,0,0,0,0,0,0,0,0,0,0,0,0,0,0,0,0,0,0,0,0,0,0,0,0,0,0,0,0,0,0,0,0,0,0,0,0,0,0,0],"id":21,"left_children":[1,3,5,7,9,11,13,-1,15,-1,17,19,21,23,25,27,29,31,33,35,37,39,-1,41,-1,43,45,47,49,51,53,55,57,59,61,63,65,67,69,71,-1,73,75,77,79,81,83,-1,-1,-1,-1,-1,-1,-1,-1,-1,-1,-1,-1,-1,-1,-1,-1,-1,-1,-1,-1,-1,-1,-1,-1,-1,-1,-1,-1,-1,-1,-1,-1,-1,-1,-1,-1,-1,-1],"loss_changes":[3.5468445E0,5.283348E0,6.114975E0,4.771038E0,3.3636417E0,5.3007355E0,5.1401215E0,0E0,4.8297462E0,0E0,2.770074E0,4.408592E0,3.8729773E0,4.5376816E0,5.132202E0,4.869938E0,2.6265209E0,6.1878653E0,2.3584003E0,3.7717323E0,4.2498317E0,3.260849E0,0E0,4.0561867E0,0E0,4.5186844E0,6.561096E0,4.3203115E0,3.8558502E0,3.3929896E0,2.9572554E0,2.2469003E0,2.4530373E0,1.6878433E0,2.647003E0,6.787443E0,4.807003E0,2.6854067E0,3.5999331E0,1.3066711E0,0E0,2.4548798E0,3.341158E0,3.77594E0,4.291313E0,4.9756927E0,3.694121E0,0E0,0E0,0E0,0E0,0E0,0E0,0E0,0E0,0E0,0E0,0E0,0E0,0E0,0E0,0E0,0E0,0E0,0E0,0E0,0E0,0E0,0E0,0E0,0E0,0E0,0E0,0E0,0E0,0E0,0E0,0E0,0E0,0E0,0E0,0E0,0E0,0E0,0E0],"parents":[2147483647,0,0,1,1,2,2,3,3,4,4,5,5,6,6,8,8,10,10,11,11,12,12,13,13,14,14,15,15,16,16,17,17,18,18,19,19,20,20,21,21,23,23,25,25,26,26,27,27,28,28,29,29,30,30,31,31,32,32,33,33,34,34,35,35,36,36,37,37,38,38,39,39,41,41,42,42,43,43,44,44,45,45,46,46],"right_children":[2,4,6,8,10,12,14,-1,16,-1,18,20,22,24,26,28,30,32,34,36,38,40,-1,42,-1,44,46,48,50,52,54,56,58,60,62,64,66,68,70,72,-1,74,76,78,80,82,84,-1,-1,-1,-1,-1,-1,-1,-1,-1,-1,-1,-1,-1,-1,-1,-1,-1,-1,-1,-1,-1,-1,-1,-1,-1,-1,-1,-1,-1,-1,-1,-1,-1,-1,-1,-1,-1,-1],"split_conditions":[4E0,9.9E0,1.1E1,1.805E2,2.8E-1,4.94E1,3E0,-6.750393E-2,5.5E1,-5.6798805E-2,1.6E1,8.33E-1,2.2E1,2.86E1,4.74E-1,3.5E0,5E0,1.5E1,2.4E1,2.09E1,1.2E1,2.58E1,-5.483473E-2,9.52E1,-6.427039E-2,6E0,3E0,9.01E1,2E0,1.02E1,8.82E1,2.45E1,1.57E1,2.8E1,9.4E0,3.63E-1,1.6E1,2E1,1.2E1,3E1,-2.8701654E-2,1E1,2.8E1,9.25E1,1.42E1,2.24E1,3.54E-1,-2.0701714E-2,4.6565298E-2,-1.1914689E-2,1.8633684E-2,9.062255E-2,-5.4245245E-2,-6.803528E-2,1.2737693E-2,-3.472316E-2,4.769972E-2,8.4513925E-2,-1.2109234E-2,9.1910526E-2,2.2223217E-3,6.325244E-2,-5.772671E-2,5.113102E-3,2.1489864E-2,1.46497255E-2,3.2490555E-2,5.6417447E-2,-4.0413875E-2,7.3603444E-2,-5.8699038E-2,9.0849526E-2,-5.2427812E-3,-1.6042463E-3,1.0732489E-1,3.9739944E-2,-1.1954424E-2,5.013602E-2,-1.622705E-2,4.5577026E-4,2.1457406E-2,4.817028E-2,2.7443578E-2,-1.2424246E-2,2.4370845E-2],"split_indices":[78,25,41,106,10,4,30,0,2,0,86,13,0,17,59,73,88,93,84,23,88,22,0,76,0,0,105,6,94,60,6,12,18,94,66,10,84,26,32,48,0,99,26,6,11,12,10,0,0,0,0,0,0,0,0,0,0,0,0,0,0,0,0,0,0,0,0,0,0,0,0,0,0,0,0,0,0,0,0,0,0,0,0,0,0],"split_type":[0,0,0,0,0,0,0,0,0,0,0,0,0,0,0,0,0,0,0,0,0,0,0,0,0,0,0,0,0,0,0,0,0,0,0,0,0,0,0,0,0,0,0,0,0,0,0,0,0,0,0,0,0,0,0,0,0,0,0,0,0,0,0,0,0,0,0,0,0,0,0,0,0,0,0,0,0,0,0,0,0,0,0,0,0],"sum_hessian":[6.5120312E3,1.5306075E3,4.981424E3,1.4653123E3,6.529539E1,1.6801417E3,3.301282E3,5.9691305E0,1.4593431E3,2.3565218E0,6.2938866E1,1.6544167E3,2.5725014E1,2.4046591E2,3.060816E3,1.4347904E3,2.4552727E1,3.3383774E1,2.9555092E1,1.6224601E3,3.1956673E1,2.3809414E1,1.9156011E0,2.371096E2,3.356317E0,2.4701577E3,5.906582E2,6.73922E1,1.3673982E3,4.798807E0,1.975392E1,1.6365782E1,1.7017992E1,2.426305E1,5.2920427E0,1.01298206E3,6.09478E2,1.1465893E1,2.0490782E1,2.1433142E1,2.376271E0,1.4658252E1,2.2245135E2,9.0309364E1,2.3798484E3,4.7788034E2,1.1277789E2,5.6930416E1,1.0461779E1,4.2003914E1,1.3253943E3,2.8981075E0,1.9006996E0,1.3580246E1,6.1736746E0,1.2972304E1,3.393477E0,1.4117208E1,2.900783E0,2.1897772E1,2.3652763E0,2.9192102E0,2.3728325E0,5.0406805E2,5.08914E2,3.1389478E2,2.9558322E2,8.13591E0,3.329982E0,1.4386864E0,1.9052095E1,2.0029377E1,1.4037647E0,2.417467E0,1.2240785E1,2.0959041E2,1.2860946E1,8.1208305E1,9.101064E0,1.0167782E2,2.2781707E3,2.1729915E2,2.6058118E2,4.4008743E1,6.876915E1],"tree_param":{"num_deleted":"0","num_feature":"107","num_nodes":"85","size_leaf_vector":"1"}},{"base_weights":[1.9918478E-1,1.9995764E-1,-5.0164676E-1,8.124317E-1,1.9904408E-1,-6.1378717E-2,2.1534625E-3,-7.6777483E-3,9.819873E-2,1.8896775E-1,2.519573E-1,1.6335951E-1,2.1850024E-1,3.872833E-2,2.7411914E-1,1.793135E-1,5.8134664E-2,2.5083625E-1,1.6959941E-1,2.4064912E-1,-1.9888097E-1,5.1482387E-2,3.0040663E-1,1.7353062E-2,4.5910396E-2,5.0302394E-2,2.9222888E-3,3.721175E-2,2.2450332E-2,5.1319014E-2,1.5506987E-2,8.701747E-3,9.7007744E-2,-6.3853815E-2,2.0075676E-3,1.4551512E-2,-4.509478E-2,2.7586615E-2,5.2414007E-2],"categories":[],"categories_nodes":[],"categories_segments":[],"categories_sizes":[],"default_left":[0,0,0,0,0,0,0,0,0,0,0,0,0,0,0,0,0,0,0,0,0,0,0,0,0,0,0,0,0,0,0,0,0,0,0,0,0,0,0],"id":22,"left_children":[1,3,5,7,9,-1,-1,-1,-1,11,13,15,17,19,21,23,25,27,29,31,33,35,37,-1,-1,-1,-1,-1,-1,-1,-1,-1,-1,-1,-1,-1,-1,-1,-1],"loss_changes":[3.6165771E0,3.467163E0,4.49499E-1,1.4828005E0,3.4058228E0,0E0,0E0,0E0,0E0,4.08226E0,4.871544E0,4.8919296E0,3.9514008E0,4.770553E0,5.460823E0,4.022423E0,4.9495687E0,4.765518E0,4.9549274E0,5.9295483E0,4.4187384E0,4.7911377E0,4.4492645E0,0E0,0E0,0E0,0E0,0E0,0E0,0E0,0E0,0E0,0E0,0E0,0E0,0E0,0E0,0E0,0E0],"parents":[2147483647,0,0,1,1,2,2,3,3,4,4,9,9,10,10,11,11,12,12,13,13,14,14,15,15,16,16,17,17,18,18,19,19,20,20,21,21,22,22],"right_children":[2,4,6,8,10,-1,-1,-1,-1,12,14,16,18,20,22,24,26,28,30,32,34,36,38,-1,-1,-1,-1,-1,-1,-1,-1,-1,-1,-1,-1,-1,-1,-1,-1],"split_conditions":[5.24E-1,1.78E2,9E0,4.35E-1,2.6E1,-6.1378717E-2,2.1534625E-3,-7.6777483E-3,9.819873E-2,4.41E1,3.9E0,1.96E1,1.9E1,2.145E2,4E0,1.1E1,1.75E1,5E0,1E1,3.7E1,9E0,4.86E1,2.8E1,1.7353062E-2,4.5910396E-2,5.0302394E-2,2.9222888E-3,3.721175E-2,2.2450332E-2,5.1319014E-2,1.5506987E-2,8.701747E-3,9.7007744E-2,-6.3853815E-2,2.0075676E-3,1.4551512E-2,-4.509478E-2,2.7586615E-2,5.2414007E-2],"split_indices":[7,106,27,59,88,0,0,0,0,68,20,63,42,106,50,25,9,87,41,54,37,4,37,0,0,0,0,0,0,0,0,0,0,0,0,0,0,0,0],"split_type":[0,0,0,0,0,0,0,0,0,0,0,0,0,0,0,0,0,0,0,0,0,0,0,0,0,0,0,0,0,0,0,0,0,0,0,0,0,0,0],"sum_hessian":[6.4909443E3,6.4845083E3,6.436218E0,8.334766E0,6.4761733E3,5.1575494E0,1.2786686E0,1.4223974E0,6.9123693E0,5.444031E3,1.0321427E3,2.9192344E3,2.5247964E3,9.743402E1,