{"learner":{"attributes":{},"feature_names":[],"feature_types":[],"gradient_booster":{"model":{"gbtree_model_param":{"num_parallel_tree":"1","num_trees":"1500"},"iteration_indptr":[0,2,4,6,8,10,12,14,16,18,20,22,24,26,28,30,32,34,36,38,40,42,44,46,48,50,52,54,56,58,60,62,64,66,68,70,72,74,76,78,80,82,84,86,88,90,92,94,96,98,100,102,104,106,108,110,112,114,116,118,120,122,124,126,128,130,132,134,136,138,140,142,144,146,148,150,152,154,156,158,160,162,164,166,168,170,172,174,176,178,180,182,184,186,188,190,192,194,196,198,200,202,204,206,208,210,212,214,216,218,220,222,224,226,228,230,232,234,236,238,240,242,244,246,248,250,252,254,256,258,260,262,264,266,268,270,272,274,276,278,280,282,284,286,288,290,292,294,296,298,300,302,304,306,308,310,312,314,316,318,320,322,324,326,328,330,332,334,336,338,340,342,344,346,348,350,352,354,356,358,360,362,364,366,368,370,372,374,376,378,380,382,384,386,388,390,392,394,396,398,400,402,404,406,408,410,412,414,416,418,420,422,424,426,428,430,432,434,436,438,440,442,444,446,448,450,452,454,456,458,460,462,464,466,468,470,472,474,476,478,480,482,484,486,488,490,492,494,496,498,500,502,504,506,508,510,512,514,516,518,520,522,524,526,528,530,532,534,536,538,540,542,544,546,548,550,552,554,556,558,560,562,564,566,568,570,572,574,576,578,580,582,584,586,588,590,592,594,596,598,600,602,604,606,608,610,612,614,616,618,620,622,624,626,628,630,632,634,636,638,640,642,644,646,648,650,652,654,656,658,660,662,664,666,668,670,672,674,676,678,680,682,684,686,688,690,692,694,696,698,700,702,704,706,708,710,712,714,716,718,720,722,724,726,728,730,732,734,736,738,740,742,744,746,748,750,752,754,756,758,760,762,764,766,768,770,772,774,776,778,780,782,784,786,788,790,792,794,796,798,800,802,804,806,808,810,812,814,816,818,820,822,824,826,828,830,832,834,836,838,840,842,844,846,848,850,852,854,856,858,860,862,864,866,868,870,872,874,876,878,880,882,884,886,888,890,892,894,896,898,900,902,904,906,908,910,912,914,916,918,920,922,924,926,928,930,932,934,936,938,940,942,944,946,948,950,952,954,956,958,960,962,964,966,968,970,972,974,976,978,980,982,984,986,988,990,992,994,996,998,1000,1002,1004,1006,1008,1010,1012,1014,1016,1018,1020,1022,1024,1026,1028,1030,1032,1034,1036,1038,1040,1042,1044,1046,1048,1050,1052,1054,1056,1058,1060,1062,1064,1066,1068,1070,1072,1074,1076,1078,1080,1082,1084,1086,1088,1090,1092,1094,1096,1098,1100,1102,1104,1106,1108,1110,1112,1114,1116,1118,1120,1122,1124,1126,1128,1130,1132,1134,1136,1138,1140,1142,1144,1146,1148,1150,1152,1154,1156,1158,1160,1162,1164,1166,1168,1170,1172,1174,1176,1178,1180,1182,1184,1186,1188,1190,1192,1194,1196,1198,1200,1202,1204,1206,1208,1210,1212,1214,1216,1218,1220,1222,1224,1226,1228,1230,1232,1234,1236,1238,1240,1242,1244,1246,1248,1250,1252,1254,1256,1258,1260,1262,1264,1266,1268,1270,1272,1274,1276,1278,1280,1282,1284,1286,1288,1290,1292,1294,1296,1298,1300,1302,1304,1306,1308,1310,1312,1314,1316,1318,1320,1322,1324,1326,1328,1330,1332,1334,1336,1338,1340,1342,1344,1346,1348,1350,1352,1354,1356,1358,1360,1362,1364,1366,1368,1370,1372,1374,1376,1378,1380,1382,1384,1386,1388,1390,1392,1394,1396,1398,1400,1402,1404,1406,1408,1410,1412,1414,1416,1418,1420,1422,1424,1426,1428,1430,1432,1434,1436,1438,1440,1442,1444,1446,1448,1450,1452,1454,1456,1458,1460,1462,1464,1466,1468,1470,1472,1474,1476,1478,1480,1482,1484,1486,1488,1490,1492,1494,1496,1498,1500],"tree_info":[0,1,0,1,0,1,0,1,0,1,0,1,0,1,0,1,0,1,0,1,0,1,0,1,0,1,0,1,0,1,0,1,0,1,0,1,0,1,0,1,0,1,0,1,0,1,0,1,0,1,0,1,0,1,0,1,0,1,0,1,0,1,0,1,0,1,0,1,0,1,0,1,0,1,0,1,0,1,0,1,0,1,0,1,0,1,0,1,0,1,0,1,0,1,0,1,0,1,0,1,0,1,0,1,0,1,0,1,0,1,0,1,0,1,0,1,0,1,0,1,0,1,0,1,0,1,0,1,0,1,0,1,0,1,0,1,0,1,0,1,0,1,0,1,0,1,0,1,0,1,0,1,0,1,0,1,0,1,0,1,0,1,0,1,0,1,0,1,0,1,0,1,0,1,0,1,0,1,0,1,0,1,0,1,0,1,0,1,0,1,0,1,0,1,0,1,0,1,0,1,0,1,0,1,0,1,0,1,0,1,0,1,0,1,0,1,0,1,0,1,0,1,0,1,0,1,0,1,0,1,0,1,0,1,0,1,0,1,0,1,0,1,0,1,0,1,0,1,0,1,0,1,0,1,0,1,0,1,0,1,0,1,0,1,0,1,0,1,0,1,0,1,0,1,0,1,0,1,0,1,0,1,0,1,0,1,0,1,0,1,0,1,0,1,0,1,0,1,0,1,0,1,0,1,0,1,0,1,0,1,0,1,0,1,0,1,0,1,0,1,0,1,0,1,0,1,0,1,0,1,0,1,0,1,0,1,0,1,0,1,0,1,0,1,0,1,0,1,0,1,0,1,0,1,0,1,0,1,0,1,0,1,0,1,0,1,0,1,0,1,0,1,0,1,0,1,0,1,0,1,0,1,0,1,0,1,0,1,0,1,0,1,0,1,0,1,0,1,0,1,0,1,0,1,0,1,0,1,0,1,0,1,0,1,0,1,0,1,0,1,0,1,0,1,0,1,0,1,0,1,0,1,0,1,0,1,0,1,0,1,0,1,0,1,0,1,0,1,0,1,0,1,0,1,0,1,0,1,0,1,0,1,0,1,0,1,0,1,0,1,0,1,0,1,0,1,0,1,0,1,0,1,0,1,0,1,0,1,0,1,0,1,0,1,0,1,0,1,0,1,0,1,0,1,0,1,0,1,0,1,0,1,0,1,0,1,0,1,0,1,0,1,0,1,0,1,0,1,0,1,0,1,0,1,0,1,0,1,0,1,0,1,0,1,0,1,0,1,0,1,0,1,0,1,0,1,0,1,0,1,0,1,0,1,0,1,0,1,0,1,0,1,0,1,0,1,0,1,0,1,0,1,0,1,0,1,0,1,0,1,0,1,0,1,0,1,0,1,0,1,0,1,0,1,0,1,0,1,0,1,0,1,0,1,0,1,0,1,0,1,0,1,0,1,0,1,0,1,0,1,0,1,0,1,0,1,0,1,0,1,0,1,0,1,0,1,0,1,0,1,0,1,0,1,0,1,0,1,0,1,0,1,0,1,0,1,0,1,0,1,0,1,0,1,0,1,0,1,0,1,0,1,0,1,0,1,0,1,0,1,0,1,0,1,0,1,0,1,0,1,0,1,0,1,0,1,0,1,0,1,0,1,0,1,0,1,0,1,0,1,0,1,0,1,0,1,0,1,0,1,0,1,0,1,0,1,0,1,0,1,0,1,0,1,0,1,0,1,0,1,0,1,0,1,0,1,0,1,0,1,0,1,0,1,0,1,0,1,0,1,0,1,0,1,0,1,0,1,0,1,0,1,0,1,0,1,0,1,0,1,0,1,0,1,0,1,0,1,0,1,0,1,0,1,0,1,0,1,0,1,0,1,0,1,0,1,0,1,0,1,0,1,0,1,0,1,0,1,0,1,0,1,0,1,0,1,0,1,0,1,0,1,0,1,0,1,0,1,0,1,0,1,0,1,0,1,0,1,0,1,0,1,0,1,0,1,0,1,0,1,0,1,0,1,0,1,0,1,0,1,0,1,0,1,0,1,0,1,0,1,0,1,0,1,0,1,0,1,0,1,0,1,0,1,0,1,0,1,0,1,0,1,0,1,0,1,0,1,0,1,0,1,0,1,0,1,0,1,0,1,0,1,0,1,0,1,0,1,0,1,0,1,0,1,0,1,0,1,0,1,0,1,0,1,0,1,0,1,0,1,0,1,0,1,0,1,0,1,0,1,0,1,0,1,0,1,0,1,0,1,0,1,0,1,0,1,0,1,0,1,0,1,0,1,0,1,0,1,0,1,0,1,0,1,0,1,0,1,0,1,0,1,0,1,0,1,0,1,0,1,0,1,0,1,0,1,0,1,0,1,0,1,0,1,0,1,0,1,0,1,0,1,0,1,0,1,0,1,0,1,0,1,0,1,0,1,0,1,0,1,0,1,0,1,0,1,0,1,0,1,0,1,0,1,0,1,0,1,0,1,0,1,0,1,0,1,0,1,0,1,0,1,0,1,0,1,0,1,0,1,0,1,0,1,0,1,0,1,0,1,0,1,0,1,0,1,0,1,0,1,0,1,0,1,0,1,0,1,0,1,0,1,0,1,0,1,0,1,0,1,0,1,0,1,0,1,0,1,0,1,0,1,0,1,0,1,0,1,0,1,0,1,0,1,0,1,0,1,0,1,0,1,0,1,0,1,0,1,0,1,0,1,0,1,0,1,0,1,0,1,0,1,0,1,0,1,0,1,0,1,0,1,0,1,0,1,0,1,0,1,0,1,0,1,0,1,0,1,0,1,0,1,0,1,0,1,0,1,0,1,0,1,0,1,0,1,0,1,0,1,0,1,0,1,0,1,0,1,0,1,0,1,0,1,0,1,0,1,0,1,0,1,0,1,0,1,0,1,0,1,0,1,0,1,0,1,0,1,0,1,0,1,0,1,0,1,0,1,0,1,0,1,0,1,0,1,0,1,0,1,0,1,0,1,0,1,0,1,0,1,0,1,0,1,0,1,0,1,0,1,0,1,0,1,0,1,0,1,0,1,0,1,0,1,0,1,0,1,0,1,0,1,0,1,0,1,0,1,0,1,0,1,0,1,0,1,0,1,0,1,0,1,0,1,0,1,0,1,0,1,0,1,0,1,0,1,0,1,0,1,0,1,0,1,0,1,0,1,0,1,0,1,0,1,0,1,0,1,0,1,0,1,0,1,0,1,0,1,0,1,0,1,0,1,0,1,0,1,0,1,0,1,0,1,0,1,0,1,0,1,0,1,0,1,0,1,0,1,0,1,0,1,0,1,0,1,0,1,0,1,0,1,0,1,0,1,0,1,0,1,0,1,0,1,0,1,0,1,0,1,0,1,0,1,0,1,0,1,0,1,0,1,0,1,0,1,0,1,0,1,0,1,0,1,0,1,0,1,0,1],"trees":[{"base_weights":[-1.5385807E-1,-3.6504945E-1,5.182694E-2,-2.0609263E-1,-5.269499E-1,-2.0304568E-1,1.959799E-1,-2.9602358E-3,-5.0761417E-4,-4.2515593E-3,-6.850649E-3,6.203474E-4,-3.3974359E-3,7.239057E-4,3.5844874E-3],"categories":[],"categories_nodes":[],"categories_segments":[],"categories_sizes":[],"default_left":[0,0,0,0,0,0,0,0,0,0,0,0,0,0,0],"id":0,"left_children":[1,3,5,7,9,11,13,-1,-1,-1,-1,-1,-1,-1,-1],"loss_changes":[2.803736E2,8.184509E1,1.2020007E2,2.2454239E1,2.509082E1,4.285195E1,4.1929985E1,0E0,0E0,0E0,0E0,0E0,0E0,0E0,0E0],"parents":[2147483647,0,0,1,1,2,2,3,3,4,4,5,5,6,6],"right_children":[2,4,6,8,10,12,14,-1,-1,-1,-1,-1,-1,-1,-1],"split_conditions":[1.5E1,1.3E1,-1.3E0,5.1E0,2.3E1,-4.8E0,2.4E1,-2.9602358E-3,-5.0761417E-4,-4.2515593E-3,-6.850649E-3,6.203474E-4,-3.3974359E-3,7.239057E-4,3.5844874E-3],"split_indices":[51,80,77,77,80,25,51,0,0,0,0,0,0,0,0],"split_type":[0,0,0,0,0,0,0,0,0,0,0,0,0,0,0],"sum_hessian":[6.453E3,3.1835E3,3.2695E3,1.6075E3,1.576E3,1.181E3,2.0885E3,1.0175E3,5.9E2,9.61E2,6.15E2,4.02E2,7.79E2,1.187E3,9.015E2],"tree_param":{"num_deleted":"0","num_feature":"107","num_nodes":"15","size_leaf_vector":"1"}},{"base_weights":[1.5385807E-1,3.6504945E-1,-5.182694E-2,2.0609263E-1,5.269499E-1,2.0304568E-1,-1.959799E-1,2.9602358E-3,5.0761417E-4,4.2515593E-3,6.850649E-3,-6.203474E-4,3.3974359E-3,-7.239057E-4,-3.5844874E-3],"categories":[],"categories_nodes":[],"categories_segments":[],"categories_sizes":[],"default_left":[0,0,0,0,0,0,0,0,0,0,0,0,0,0,0],"id":1,"left_children":[1,3,5,7,9,11,13,-1,-1,-1,-1,-1,-1,-1,-1],"loss_changes":[2.803736E2,8.184509E1,1.2020007E2,2.2454239E1,2.509082E1,4.285195E1,4.1929985E1,0E0,0E0,0E0,0E0,0E0,0E0,0E0,0E0],"parents":[2147483647,0,0,1,1,2,2,3,3,4,4,5,5,6,6],"right_children":[2,4,6,8,10,12,14,-1,-1,-1,-1,-1,-1,-1,-1],"split_conditions":[1.5E1,1.3E1,-1.3E0,5.1E0,2.3E1,-4.8E0,2.4E1,2.9602358E-3,5.0761417E-4,4.2515593E-3,6.850649E-3,-6.203474E-4,3.3974359E-3,-7.239057E-4,-3.5844874E-3],"split_indices":[51,80,77,77,80,25,51,0,0,0,0,0,0,0,0],"split_type":[0,0,0,0,0,0,0,0,0,0,0,0,0,0,0],"sum_hessian":[6.453E3,3.1835E3,3.2695E3,1.6075E3,1.576E3,1.181E3,2.0885E3,1.0175E3,5.9E2,9.61E2,6.15E2,4.02E2,7.79E2,1.187E3,9.015E2],"tree_param":{"num_deleted":"0","num_feature":"107","num_nodes":"15","size_leaf_vector":"1"}},{"base_weights":[-1.5232332E-1,-3.6140987E-1,5.130953E-2,-2.0403503E-1,-5.217028E-1,-2.0101912E-1,1.9402339E-1,-2.930688E-3,-5.0254696E-4,-4.209164E-3,-6.782573E-3,6.1415933E-4,-3.3635437E-3,7.166738E-4,3.548729E-3],"categories":[],"categories_nodes":[],"categories_segments":[],"categories_sizes":[],"default_left":[0,0,0,0,0,0,0,0,0,0,0,0,0,0,0],"id":2,"left_children":[1,3,5,7,9,11,13,-1,-1,-1,-1,-1,-1,-1,-1],"loss_changes":[2.748065E2,8.022461E1,1.1781153E2,2.2008156E1,2.4596588E1,4.2001095E1,4.109758E1,0E0,0E0,0E0,0E0,0E0,0E0,0E0,0E0],"parents":[2147483647,0,0,1,1,2,2,3,3,4,4,5,5,6,6],"right_children":[2,4,6,8,10,12,14,-1,-1,-1,-1,-1,-1,-1,-1],"split_conditions":[1.5E1,1.3E1,-1.3E0,5.1E0,2.3E1,-4.8E0,2.4E1,-2.930688E-3,-5.0254696E-4,-4.209164E-3,-6.782573E-3,6.1415933E-4,-3.3635437E-3,7.166738E-4,3.548729E-3],"split_indices":[51,80,77,77,80,25,51,0,0,0,0,0,0,0,0],"split_type":[0,0,0,0,0,0,0,0,0,0,0,0,0,0,0],"sum_hessian":[6.4529233E3,3.1834446E3,3.2694785E3,1.6074908E3,1.5759537E3,1.1809908E3,2.0884878E3,1.017491E3,5.899999E2,9.609826E2,6.149711E2,4.0199985E2,7.7899097E2,1.1869994E3,9.014884E2],"tree_param":{"num_deleted":"0","num_feature":"107","num_nodes":"15","size_leaf_vector":"1"}},{"base_weights":[1.5232337E-1,3.6140987E-1,-5.1309463E-2,2.0403504E-1,5.217028E-1,2.0101918E-1,-1.9402331E-1,2.9306882E-3,5.0254696E-4,4.2091645E-3,6.782573E-3,-6.141596E-4,3.3635448E-3,-7.166735E-4,-3.5487278E-3],"categories":[],"categories_nodes":[],"categories_segments":[],"categories_sizes":[],"default_left":[0,0,0,0,0,0,0,0,0,0,0,0,0,0,0],"id":3,"left_children":[1,3,5,7,9,11,13,-1,-1,-1,-1,-1,-1,-1,-1],"loss_changes":[2.7480646E2,8.022458E1,1.1781154E2,2.2008163E1,2.4596588E1,4.2001118E1,4.109754E1,0E0,0E0,0E0,0E0,0E0,0E0,0E0,0E0],"parents":[2147483647,0,0,1,1,2,2,3,3,4,4,5,5,6,6],"right_children":[2,4,6,8,10,12,14,-1,-1,-1,-1,-1,-1,-1,-1],"split_conditions":[1.5E1,1.3E1,-1.3E0,5.1E0,2.3E1,-4.8E0,2.4E1,2.9306882E-3,5.0254696E-4,4.2091645E-3,6.782573E-3,-6.141596E-4,3.3635448E-3,-7.166735E-4,-3.5487278E-3],"split_indices":[51,80,77,77,80,25,51,0,0,0,0,0,0,0,0],"split_type":[0,0,0,0,0,0,0,0,0,0,0,0,0,0,0],"sum_hessian":[6.4529233E3,3.1834448E3,3.2694785E3,1.607491E3,1.5759537E3,1.1809908E3,2.0884878E3,1.0174911E3,5.899999E2,9.6098267E2,6.149711E2,4.0199988E2,7.7899097E2,1.1869993E3,9.014884E2],"tree_param":{"num_deleted":"0","num_feature":"107","num_nodes":"15","size_leaf_vector":"1"}},{"base_weights":[-1.5080746E-1,-3.5781878E-1,5.0797835E-2,-2.0200017E-1,-5.1653785E-1,-1.9901589E-1,1.9208848E-1,-2.9014852E-3,-4.9753004E-4,-4.16734E-3,-6.7157936E-3,6.080336E-4,-3.330066E-3,7.095141E-4,3.513414E-3],"categories":[],"categories_nodes":[],"categories_segments":[],"categories_sizes":[],"default_left":[0,0,0,0,0,0,0,0,0,0,0,0,0,0,0],"id":4,"left_children":[1,3,5,7,9,11,13,-1,-1,-1,-1,-1,-1,-1,-1],"loss_changes":[2.693605E2,7.864728E1,1.1547192E2,2.1571693E1,2.4119415E1,4.1168385E1,4.0283592E1,0E0,0E0,0E0,0E0,0E0,0E0,0E0,0E0],"parents":[2147483647,0,0,1,1,2,2,3,3,4,4,5,5,6,6],"right_children":[2,4,6,8,10,12,14,-1,-1,-1,-1,-1,-1,-1,-1],"split_conditions":[1.5E1,1.3E1,-1.3E0,5.1E0,2.3E1,-4.8E0,2.4E1,-2.9014852E-3,-4.9753004E-4,-4.16734E-3,-6.7157936E-3,6.080336E-4,-3.330066E-3,7.095141E-4,3.513414E-3],"split_indices":[51,80,77,77,80,25,51,0,0,0,0,0,0,0,0],"split_type":[0,0,0,0,0,0,0,0,0,0,0,0,0,0,0],"sum_hessian":[6.4526963E3,3.183281E3,3.2694153E3,1.607464E3,1.5758169E3,1.1809637E3,2.0884517E3,1.01746466E3,5.899994E2,9.609312E2,6.148857E2,4.019994E2,7.7896436E2,1.1869976E3,9.014541E2],"tree_param":{"num_deleted":"0","num_feature":"107","num_nodes":"15","size_leaf_vector":"1"}},{"base_weights":[1.5080746E-1,3.5781878E-1,-5.0797842E-2,2.0200019E-1,5.165378E-1,1.9901583E-1,-1.9208847E-1,2.9014854E-3,4.9753004E-4,4.16734E-3,6.715792E-3,-6.080336E-4,3.330065E-3,-7.095138E-4,-3.513414E-3],"categories":[],"categories_nodes":[],"categories_segments":[],"categories_sizes":[],"default_left":[0,0,0,0,0,0,0,0,0,0,0,0,0,0,0],"id":5,"left_children":[1,3,5,7,9,11,13,-1,-1,-1,-1,-1,-1,-1,-1],"loss_changes":[2.693605E2,7.864728E1,1.15471886E2,2.1571701E1,2.4119385E1,4.116836E1,4.0283607E1,0E0,0E0,0E0,0E0,0E0,0E0,0E0,0E0],"parents":[2147483647,0,0,1,1,2,2,3,3,4,4,5,5,6,6],"right_children":[2,4,6,8,10,12,14,-1,-1,-1,-1,-1,-1,-1,-1],"split_conditions":[1.5E1,1.3E1,-1.3E0,5.1E0,2.3E1,-4.8E0,2.4E1,2.9014854E-3,4.9753004E-4,4.16734E-3,6.715792E-3,-6.080336E-4,3.330065E-3,-7.095138E-4,-3.513414E-3],"split_indices":[51,80,77,77,80,25,51,0,0,0,0,0,0,0,0],"split_type":[0,0,0,0,0,0,0,0,0,0,0,0,0,0,0],"sum_hessian":[6.4526963E3,3.183281E3,3.2694153E3,1.6074641E3,1.5758169E3,1.1809637E3,2.0884517E3,1.0174647E3,5.899994E2,9.609312E2,6.148857E2,4.019994E2,7.789644E2,1.1869974E3,9.014541E2],"tree_param":{"num_deleted":"0","num_feature":"107","num_nodes":"15","size_leaf_vector":"1"}},{"base_weights":[-1.493101E-1,-3.542752E-1,5.029189E-2,-1.999878E-1,-5.114526E-1,-2.211614E-1,1.7776255E-1,-2.8726219E-3,-4.9256353E-4,-4.126074E-3,-6.650266E-3,2.0925411E-4,-3.6553435E-3,5.7735294E-4,3.335615E-3],"categories":[],"categories_nodes":[],"categories_segments":[],"categories_sizes":[],"default_left":[0,0,0,0,0,0,0,0,0,0,0,0,0,0,0],"id":6,"left_children":[1,3,5,7,9,11,13,-1,-1,-1,-1,-1,-1,-1,-1],"loss_changes":[2.640326E2,7.711157E1,1.1319972E2,2.1144615E1,2.3658356E1,3.654621E1,4.160501E1,0E0,0E0,0E0,0E0,0E0,0E0,0E0,0E0],"parents":[2147483647,0,0,1,1,2,2,3,3,4,4,5,5,6,6],"right_children":[2,4,6,8,10,12,14,-1,-1,-1,-1,-1,-1,-1,-1],"split_conditions":[1.5E1,1.3E1,-1.9E0,5.1E0,2.3E1,-4.3E0,2.4E1,-2.8726219E-3,-4.9256353E-4,-4.126074E-3,-6.650266E-3,2.0925411E-4,-3.6553435E-3,5.7735294E-4,3.335615E-3],"split_indices":[51,80,77,77,80,25,51,0,0,0,0,0,0,0,0],"split_type":[0,0,0,0,0,0,0,0,0,0,0,0,0,0,0],"sum_hessian":[6.4523237E3,3.183012E3,3.2693115E3,1.6074199E3,1.575592E3,1.0444287E3,2.2248828E3,1.01742126E3,5.899987E2,9.6084674E2,6.1474536E2,3.9049527E2,6.539334E2,1.2574873E3,9.673956E2],"tree_param":{"num_deleted":"0","num_feature":"107","num_nodes":"15","size_leaf_vector":"1"}},{"base_weights":[1.4931008E-1,3.542752E-1,-5.0291907E-2,1.9998778E-1,5.114526E-1,2.2116141E-1,-1.7776258E-1,2.872621E-3,4.925644E-4,4.126074E-3,6.6502667E-3,-2.0925383E-4,3.6553435E-3,-5.7735405E-4,-3.3356138E-3],"categories":[],"categories_nodes":[],"categories_segments":[],"categories_sizes":[],"default_left":[0,0,0,0,0,0,0,0,0,0,0,0,0,0,0],"id":7,"left_children":[1,3,5,7,9,11,13,-1,-1,-1,-1,-1,-1,-1,-1],"loss_changes":[2.6403262E2,7.71116E1,1.1319973E2,2.114457E1,2.3658325E1,3.654621E1,4.1604965E1,0E0,0E0,0E0,0E0,0E0,0E0,0E0,0E0],"parents":[2147483647,0,0,1,1,2,2,3,3,4,4,5,5,6,6],"right_children":[2,4,6,8,10,12,14,-1,-1,-1,-1,-1,-1,-1,-1],"split_conditions":[1.5E1,1.3E1,-1.9E0,5.1E0,2.3E1,-4.3E0,2.4E1,2.872621E-3,4.925644E-4,4.126074E-3,6.6502667E-3,-2.0925383E-4,3.6553435E-3,-5.7735405E-4,-3.3356138E-3],"split_indices":[51,80,77,77,80,25,51,0,0,0,0,0,0,0,0],"split_type":[0,0,0,0,0,0,0,0,0,0,0,0,0,0,0],"sum_hessian":[6.4523237E3,3.1830122E3,3.2693115E3,1.60742E3,1.5755922E3,1.0444287E3,2.224883E3,1.0174213E3,5.8999866E2,9.608468E2,6.147454E2,3.9049527E2,6.539334E2,1.2574873E3,9.673956E2],"tree_param":{"num_deleted":"0","num_feature":"107","num_nodes":"15","size_leaf_vector":"1"}},{"base_weights":[-1.4783078E-1,-3.50778E-1,4.9791194E-2,-1.9799758E-1,-5.06445E-1,-1.9531226E-1,1.8841507E-1,-2.8440915E-3,-4.8764786E-4,-4.0853526E-3,-6.58595E-3,5.963156E-4,-3.2680456E-3,6.9665996E-4,3.445502E-3],"categories":[],"categories_nodes":[],"categories_segments":[],"categories_sizes":[],"default_left":[0,0,0,0,0,0,0,0,0,0,0,0,0,0,0],"id":8,"left_children":[1,3,5,7,9,11,13,-1,-1,-1,-1,-1,-1,-1,-1],"loss_changes":[2.5881964E2,7.5615845E1,1.1114825E2,2.0726635E1,2.3212769E1,3.9639263E1,3.8713783E1,0E0,0E0,0E0,0E0,0E0,0E0,0E0,0E0],"parents":[2147483647,0,0,1,1,2,2,3,3,4,4,5,5,6,6],"right_children":[2,4,6,8,10,12,14,-1,-1,-1,-1,-1,-1,-1,-1],"split_conditions":[1.5E1,1.3E1,-1.3E0,5.1E0,2.3E1,-4.8E0,2.4E1,-2.8440915E-3,-4.8764786E-4,-4.0853526E-3,-6.58595E-3,5.963156E-4,-3.2680456E-3,6.9665996E-4,3.445502E-3],"split_indices":[51,80,77,77,80,25,51,0,0,0,0,0,0,0,0],"split_type":[0,0,0,0,0,0,0,0,0,0,0,0,0,0,0],"sum_hessian":[6.4518193E3,3.1826414E3,3.269178E3,1.6073591E3,1.5752822E3,1.180863E3,2.088315E3,1.0173615E3,5.899976E2,9.607303E2,6.1455194E2,4.0199725E2,7.788658E2,1.1869912E3,9.013237E2],"tree_param":{"num_deleted":"0","num_feature":"107","num_nodes":"15","size_leaf_vector":"1"}},{"base_weights":[1.4783083E-1,3.5077807E-1,-4.979115E-2,1.9799758E-1,5.0644505E-1,1.9531232E-1,-1.8841502E-1,2.8440915E-3,4.8764786E-4,4.085354E-3,6.5859514E-3,-5.963157E-4,3.2680465E-3,-6.966591E-4,-3.4455021E-3],"categories":[],"categories_nodes":[],"categories_segments":[],"categories_sizes":[],"default_left":[0,0,0,0,0,0,0,0,0,0,0,0,0,0,0],"id":9,"left_children":[1,3,5,7,9,11,13,-1,-1,-1,-1,-1,-1,-1,-1],"loss_changes":[2.5881964E2,7.5615906E1,1.1114828E2,2.0726635E1,2.3212769E1,3.9639286E1,3.8713806E1,0E0,0E0,0E0,0E0,0E0,0E0,0E0,0E0],"parents":[2147483647,0,0,1,1,2,2,3,3,4,4,5,5,6,6],"right_children":[2,4,6,8,10,12,14,-1,-1,-1,-1,-1,-1,-1,-1],"split_conditions":[1.5E1,1.3E1,-1.3E0,5.1E0,2.3E1,-4.8E0,2.4E1,2.8440915E-3,4.8764786E-4,4.085354E-3,6.5859514E-3,-5.963157E-4,3.2680465E-3,-6.966591E-4,-3.4455021E-3],"split_indices":[51,80,77,77,80,25,51,0,0,0,0,0,0,0,0],"split_type":[0,0,0,0,0,0,0,0,0,0,0,0,0,0,0],"sum_hessian":[6.4518193E3,3.1826414E3,3.269178E3,1.6073591E3,1.5752822E3,1.180863E3,2.088315E3,1.0173615E3,5.899976E2,9.6073035E2,6.145519E2,4.0199728E2,7.788658E2,1.1869912E3,9.013238E2],"tree_param":{"num_deleted":"0","num_feature":"107","num_nodes":"15","size_leaf_vector":"1"}},{"base_weights":[-1.463693E-1,-2.7484927E-1,1.5996455E-1,-1.1718714E-1,-4.5302603E-1,-1.15125254E-1,2.7165127E-1,-2.8158708E-3,3.3530593E-4,-3.5572543E-3,-5.8959536E-3,3.686637E-4,-2.9596696E-3,4.364289E-3,1.7803063E-3],"categories":[],"categories_nodes":[],"categories_segments":[],"categories_sizes":[],"default_left":[0,0,0,0,0,0,0,0,0,0,0,0,0,0,0],"id":10,"left_children":[1,3,5,7,9,11,13,-1,-1,-1,-1,-1,-1,-1,-1],"loss_changes":[2.5398701E2,1.2765283E2,5.8625923E1,5.9803997E1,2.814505E1,1.5167282E1,2.0851929E1,0E0,0E0,0E0,0E0,0E0,0E0,0E0,0E0],"parents":[2147483647,0,0,1,1,2,2,3,3,4,4,5,5,6,6],"right_children":[2,4,6,8,10,12,14,-1,-1,-1,-1,-1,-1,-1,-1],"split_conditions":[2E1,1.4E1,-2.4E0,1E1,2.3E1,-4.3E0,-6.4E0,-2.8158708E-3,3.3530593E-4,-3.5572543E-3,-5.8959536E-3,3.686637E-4,-2.9596696E-3,4.364289E-3,1.7803063E-3],"split_indices":[28,80,77,51,80,25,25,0,0,0,0,0,0,0,0],"split_type":[0,0,0,0,0,0,0,0,0,0,0,0,0,0,0],"sum_hessian":[6.4511714E3,4.545034E3,1.9061371E3,2.412213E3,2.1328213E3,5.504129E2,1.3557242E3,1.1533228E3,1.2588901E3,1.2475752E3,8.8524615E2,2.99494E2,2.509189E2,4.8986774E2,8.658565E2],"tree_param":{"num_deleted":"0","num_feature":"107","num_nodes":"15","size_leaf_vector":"1"}},{"base_weights":[1.4636932E-1,2.7484927E-1,-1.5996452E-1,1.17187165E-1,4.5302606E-1,1.151253E-1,-2.7165124E-1,2.8158708E-3,-3.3530546E-4,3.5572546E-3,5.895954E-3,-3.6866378E-4,2.9596707E-3,-4.364289E-3,-1.7803058E-3],"categories":[],"categories_nodes":[],"categories_segments":[],"categories_sizes":[],"default_left":[0,0,0,0,0,0,0,0,0,0,0,0,0,0,0],"id":11,"left_children":[1,3,5,7,9,11,13,-1,-1,-1,-1,-1,-1,-1,-1],"loss_changes":[2.5398697E2,1.2765289E2,5.8625935E1,5.9803974E1,2.814505E1,1.5167292E1,2.0851936E1,0E0,0E0,0E0,0E0,0E0,0E0,0E0,0E0],"parents":[2147483647,0,0,1,1,2,2,3,3,4,4,5,5,6,6],"right_children":[2,4,6,8,10,12,14,-1,-1,-1,-1,-1,-1,-1,-1],"split_conditions":[2E1,1.4E1,-2.4E0,1E1,2.3E1,-4.3E0,-6.4E0,2.8158708E-3,-3.3530546E-4,3.5572546E-3,5.895954E-3,-3.6866378E-4,2.9596707E-3,-4.364289E-3,-1.7803058E-3],"split_indices":[28,80,77,51,80,25,25,0,0,0,0,0,0,0,0],"split_type":[0,0,0,0,0,0,0,0,0,0,0,0,0,0,0],"sum_hessian":[6.4511714E3,4.545034E3,1.9061372E3,2.412213E3,2.1328213E3,5.504129E2,1.3557242E3,1.1533228E3,1.2588901E3,1.2475752E3,8.852461E2,2.99494E2,2.509189E2,4.8986774E2,8.658565E2],"tree_param":{"num_deleted":"0","num_feature":"107","num_nodes":"15","size_leaf_vector":"1"}},{"base_weights":[-1.4492252E-1,-3.4433943E-1,4.9227223E-2,-1.9425051E-1,-4.97328E-1,-2.3625036E-1,1.6386221E-1,-2.7978262E-3,-4.655669E-4,-4.012371E-3,-6.467286E-3,3.045818E-4,-3.7293863E-3,7.601221E-4,3.5455567E-3],"categories":[],"categories_nodes":[],"categories_segments":[],"categories_sizes":[],"default_left":[0,0,0,0,0,0,0,0,0,0,0,0,0,0,0],"id":12,"left_children":[1,3,5,7,9,11,13,-1,-1,-1,-1,-1,-1,-1,-1],"loss_changes":[2.497974E2,7.298419E1,1.07044876E2,2.0302845E1,2.2358154E1,3.4178802E1,3.9065865E1,0E0,0E0,0E0,0E0,0E0,0E0,0E0,0E0],"parents":[2147483647,0,0,1,1,2,2,3,3,4,4,5,5,6,6],"right_children":[2,4,6,8,10,12,14,-1,-1,-1,-1,-1,-1,-1,-1],"split_conditions":[1.5E1,1.3E1,-2.4E0,5.1E0,2.3E1,-4.8E0,2.6E1,-2.7978262E-3,-4.655669E-4,-4.012371E-3,-6.467286E-3,3.045818E-4,-3.7293863E-3,7.601221E-4,3.5455567E-3],"split_indices":[51,80,77,77,80,25,51,0,0,0,0,0,0,0,0],"split_type":[0,0,0,0,0,0,0,0,0,0,0,0,0,0,0],"sum_hessian":[6.450485E3,3.181697E3,3.268788E3,1.6072145E3,1.5744824E3,9.362262E2,2.3325618E3,1.0172263E3,5.8998816E2,9.604375E2,6.14045E2,3.1749722E2,6.18729E2,1.5978511E3,7.3471075E2],"tree_param":{"num_deleted":"0","num_feature":"107","num_nodes":"15","size_leaf_vector":"1"}},{"base_weights":[1.4492251E-1,3.443394E-1,-4.922723E-2,1.9425043E-1,4.9732804E-1,2.3625036E-1,-1.6386221E-1,2.7978253E-3,4.6556644E-4,4.012371E-3,6.467286E-3,-3.045825E-4,3.7293863E-3,-7.601222E-4,-3.5455562E-3],"categories":[],"categories_nodes":[],"categories_segments":[],"categories_sizes":[],"default_left":[0,0,0,0,0,0,0,0,0,0,0,0,0,0,0],"id":13,"left_children":[1,3,5,7,9,11,13,-1,-1,-1,-1,-1,-1,-1,-1],"loss_changes":[2.497974E2,7.298419E1,1.0704488E2,2.0302837E1,2.2358185E1,3.417882E1,3.906585E1,0E0,0E0,0E0,0E0,0E0,0E0,0E0,0E0],"parents":[2147483647,0,0,1,1,2,2,3,3,4,4,5,5,6,6],"right_children":[2,4,6,8,10,12,14,-1,-1,-1,-1,-1,-1,-1,-1],"split_conditions":[1.5E1,1.3E1,-2.4E0,5.1E0,2.3E1,-4.8E0,2.6E1,2.7978253E-3,4.6556644E-4,4.012371E-3,6.467286E-3,-3.045825E-4,3.7293863E-3,-7.601222E-4,-3.5455562E-3],"split_indices":[51,80,77,77,80,25,51,0,0,0,0,0,0,0,0],"split_type":[0,0,0,0,0,0,0,0,0,0,0,0,0,0,0],"sum_hessian":[6.450485E3,3.181697E3,3.268788E3,1.6072145E3,1.5744825E3,9.362262E2,2.3325618E3,1.0172263E3,5.8998816E2,9.604375E2,6.14045E2,3.1749722E2,6.18729E2,1.5978511E3,7.3471075E2],"tree_param":{"num_deleted":"0","num_feature":"107","num_nodes":"15","size_leaf_vector":"1"}},{"base_weights":[-1.4349487E-1,-2.697135E-1,1.5741034E-1,-1.1485583E-1,-4.44792E-1,-7.174256E-3,3.3879006E-1,-2.7673857E-3,3.3537112E-4,-3.4937607E-3,-5.7878243E-3,1.2704418E-3,-1.779323E-3,5.0596935E-3,2.419611E-3],"categories":[],"categories_nodes":[],"categories_segments":[],"categories_sizes":[],"default_left":[0,0,0,0,0,0,0,0,0,0,0,0,0,0,0],"id":14,"left_children":[1,3,5,7,9,11,13,-1,-1,-1,-1,-1,-1,-1,-1],"loss_changes":[2.4503578E2,1.2316797E2,5.6926056E1,5.7975075E1,2.706482E1,2.2957176E1,1.4562454E1,0E0,0E0,0E0,0E0,0E0,0E0,0E0,0E0],"parents":[2147483647,0,0,1,1,2,2,3,3,4,4,5,5,6,6],"right_children":[2,4,6,8,10,12,14,-1,-1,-1,-1,-1,-1,-1,-1],"split_conditions":[2E1,1.4E1,5.14E-1,1E1,2.3E1,-4.3E0,-6.2E0,-2.7673857E-3,3.3537112E-4,-3.4937607E-3,-5.7878243E-3,1.2704418E-3,-1.779323E-3,5.0596935E-3,2.419611E-3],"split_indices":[28,80,55,51,80,25,25,0,0,0,0,0,0,0,0],"split_type":[0,0,0,0,0,0,0,0,0,0,0,0,0,0,0],"sum_hessian":[6.4496157E3,4.5437744E3,1.9058417E3,2.4120037E3,2.1317708E3,9.996847E2,9.061569E2,1.153155E3,1.2588485E3,1.2472202E3,8.845505E2,5.5987244E2,4.3981232E2,3.3079688E2,5.7536005E2],"tree_param":{"num_deleted":"0","num_feature":"107","num_nodes":"15","size_leaf_vector":"1"}},{"base_weights":[1.4349484E-1,2.6971343E-1,-1.5741034E-1,1.1485582E-1,4.4479194E-1,7.174278E-3,-3.387901E-1,2.7673857E-3,-3.3537144E-4,3.4937605E-3,5.787823E-3,-1.2704413E-3,1.7793229E-3,-5.059694E-3,-2.419611E-3],"categories":[],"categories_nodes":[],"categories_segments":[],"categories_sizes":[],"default_left":[0,0,0,0,0,0,0,0,0,0,0,0,0,0,0],"id":15,"left_children":[1,3,5,7,9,11,13,-1,-1,-1,-1,-1,-1,-1,-1],"loss_changes":[2.4503574E2,1.2316797E2,5.6926064E1,5.797509E1,2.706482E1,2.2957169E1,1.4562454E1,0E0,0E0,0E0,0E0,0E0,0E0,0E0,0E0],"parents":[2147483647,0,0,1,1,2,2,3,3,4,4,5,5,6,6],"right_children":[2,4,6,8,10,12,14,-1,-1,-1,-1,-1,-1,-1,-1],"split_conditions":[2E1,1.4E1,5.14E-1,1E1,2.3E1,-4.3E0,-6.2E0,2.7673857E-3,-3.3537144E-4,3.4937605E-3,5.787823E-3,-1.2704413E-3,1.7793229E-3,-5.059694E-3,-2.419611E-3],"split_indices":[28,80,55,51,80,25,25,0,0,0,0,0,0,0,0],"split_type":[0,0,0,0,0,0,0,0,0,0,0,0,0,0,0],"sum_hessian":[6.449616E3,4.5437744E3,1.9058417E3,2.4120037E3,2.1317708E3,9.9968475E2,9.061569E2,1.153155E3,1.2588485E3,1.2472203E3,8.845505E2,5.5987244E2,4.3981232E2,3.307969E2,5.7536005E2],"tree_param":{"num_deleted":"0","num_feature":"107","num_nodes":"15","size_leaf_vector":"1"}},{"base_weights":[-1.420809E-1,-3.380484E-1,4.866374E-2,-1.9058481E-1,-4.884451E-1,-1.8799165E-1,1.8249011E-1,-2.752516E-3,-4.4409573E-4,-3.9407564E-3,-6.3527133E-3,5.665743E-4,-3.1423473E-3,6.806795E-4,3.3300382E-3],"categories":[],"categories_nodes":[],"categories_segments":[],"categories_sizes":[],"default_left":[0,0,0,0,0,0,0,0,0,0,0,0,0,0,0],"id":16,"left_children":[1,3,5,7,9,11,13,-1,-1,-1,-1,-1,-1,-1,-1],"loss_changes":[2.4110484E2,7.046466E1,1.0357484E2,1.9888893E1,2.1564545E1,3.650659E1,3.595173E1,0E0,0E0,0E0,0E0,0E0,0E0,0E0,0E0],"parents":[2147483647,0,0,1,1,2,2,3,3,4,4,5,5,6,6],"right_children":[2,4,6,8,10,12,14,-1,-1,-1,-1,-1,-1,-1,-1],"split_conditions":[1.5E1,1.3E1,-1.3E0,5.1E0,2.3E1,-4.8E0,2.4E1,-2.752516E-3,-4.4409573E-4,-3.9407564E-3,-6.3527133E-3,5.665743E-4,-3.1423473E-3,6.806795E-4,3.3300382E-3],"split_indices":[51,80,77,77,80,25,51,0,0,0,0,0,0,0,0],"split_type":[0,0,0,0,0,0,0,0,0,0,0,0,0,0,0],"sum_hessian":[6.448706E3,3.1804248E3,3.2682812E3,1.6070165E3,1.5734083E3,1.1804307E3,2.0878506E3,1.01704584E3,5.899707E2,9.600441E2,6.133642E2,4.0197882E2,7.7845184E2,1.1869617E3,9.0088885E2],"tree_param":{"num_deleted":"0","num_feature":"107","num_nodes":"15","size_leaf_vector":"1"}},{"base_weights":[1.4208092E-1,3.3804843E-1,-4.8663758E-2,1.9058487E-1,4.884451E-1,1.8799163E-1,-1.8249013E-1,2.752517E-3,4.440959E-4,3.9407564E-3,6.3527133E-3,-5.665748E-4,3.1423473E-3,-6.8067975E-4,-3.3300382E-3],"categories":[],"categories_nodes":[],"categories_segments":[],"categories_sizes":[],"default_left":[0,0,0,0,0,0,0,0,0,0,0,0,0,0,0],"id":17,"left_children":[1,3,5,7,9,11,13,-1,-1,-1,-1,-1,-1,-1,-1],"loss_changes":[2.4110492E2,7.04646E1,1.0357483E2,1.9888905E1,2.1564575E1,3.65066E1,3.595173E1,0E0,0E0,0E0,0E0,0E0,0E0,0E0,0E0],"parents":[2147483647,0,0,1,1,2,2,3,3,4,4,5,5,6,6],"right_children":[2,4,6,8,10,12,14,-1,-1,-1,-1,-1,-1,-1,-1],"split_conditions":[1.5E1,1.3E1,-1.3E0,5.1E0,2.3E1,-4.8E0,2.4E1,2.752517E-3,4.440959E-4,3.9407564E-3,6.3527133E-3,-5.665748E-4,3.1423473E-3,-6.8067975E-4,-3.3300382E-3],"split_indices":[51,80,77,77,80,25,51,0,0,0,0,0,0,0,0],"split_type":[0,0,0,0,0,0,0,0,0,0,0,0,0,0,0],"sum_hessian":[6.448706E3,3.1804248E3,3.2682812E3,1.6070165E3,1.5734083E3,1.1804307E3,2.0878506E3,1.01704584E3,5.8997064E2,9.6004407E2,6.133642E2,4.0197882E2,7.7845184E2,1.1869618E3,9.0088885E2],"tree_param":{"num_deleted":"0","num_feature":"107","num_nodes":"15","size_leaf_vector":"1"}},{"base_weights":[-1.4068662E-1,-3.347578E-1,4.818211E-2,-4.374193E-1,-1.22787476E-1,-2.3007624E-1,1.5989947E-1,-3.6008467E-3,-6.293679E-3,3.0601013E-4,-2.0958984E-3,1.1009977E-4,-3.7287574E-3,7.457122E-4,3.4519355E-3],"categories":[],"categories_nodes":[],"categories_segments":[],"categories_sizes":[],"default_left":[0,0,0,0,0,0,0,0,0,0,0,0,0,0,0],"id":18,"left_children":[1,3,5,7,9,11,13,-1,-1,-1,-1,-1,-1,-1,-1],"loss_changes":[2.363826E2,6.916031E1,1.01657036E2,3.157605E1,1.3842778E1,3.2258106E1,3.6862354E1,0E0,0E0,0E0,0E0,0E0,0E0,0E0,0E0],"parents":[2147483647,0,0,1,1,2,2,3,3,4,4,5,5,6,6],"right_children":[2,4,6,8,10,12,14,-1,-1,-1,-1,-1,-1,-1,-1],"split_conditions":[1.5E1,2.9E0,-2.4E0,2.3E1,3.1E0,-4.3E0,2.6E1,-3.6008467E-3,-6.293679E-3,3.0601013E-4,-2.0958984E-3,1.1009977E-4,-3.7287574E-3,7.457122E-4,3.4519355E-3],"split_indices":[51,77,77,80,25,25,51,0,0,0,0,0,0,0,0],"split_type":[0,0,0,0,0,0,0,0,0,0,0,0,0,0,0],"sum_hessian":[6.4475903E3,3.179617E3,3.2679731E3,2.1414204E3,1.0381967E3,9.3588135E2,2.3320918E3,1.5284825E3,6.129378E2,3.7542694E2,6.627697E2,3.4847656E2,5.874048E2,1.5977347E3,7.343572E2],"tree_param":{"num_deleted":"0","num_feature":"107","num_nodes":"15","size_leaf_vector":"1"}},{"base_weights":[1.4068659E-1,3.3475775E-1,-4.818211E-2,4.3741927E-1,1.2278742E-1,2.300763E-1,-1.5989949E-1,3.600846E-3,6.293679E-3,-3.0601045E-4,2.0958977E-3,-1.1009908E-4,3.728758E-3,-7.4571243E-4,-3.451936E-3],"categories":[],"categories_nodes":[],"categories_segments":[],"categories_sizes":[],"default_left":[0,0,0,0,0,0,0,0,0,0,0,0,0,0,0],"id":19,"left_children":[1,3,5,7,9,11,13,-1,-1,-1,-1,-1,-1,-1,-1],"loss_changes":[2.3638257E2,6.916025E1,1.01657074E2,3.157608E1,1.3842773E1,3.2258114E1,3.6862362E1,0E0,0E0,0E0,0E0,0E0,0E0,0E0,0E0],"parents":[2147483647,0,0,1,1,2,2,3,3,4,4,5,5,6,6],"right_children":[2,4,6,8,10,12,14,-1,-1,-1,-1,-1,-1,-1,-1],"split_conditions":[1.5E1,2.9E0,-2.4E0,2.3E1,3.1E0,-4.3E0,2.6E1,3.600846E-3,6.293679E-3,-3.0601045E-4,2.0958977E-3,-1.1009908E-4,3.728758E-3,-7.4571243E-4,-3.451936E-3],"split_indices":[51,77,77,80,25,25,51,0,0,0,0,0,0,0,0],"split_type":[0,0,0,0,0,0,0,0,0,0,0,0,0,0,0],"sum_hessian":[6.4475903E3,3.179617E3,3.2679731E3,2.1414204E3,1.0381967E3,9.3588135E2,2.3320918E3,1.5284825E3,6.129378E2,3.7542694E2,6.627697E2,3.484766E2,5.874047E2,1.5977347E3,7.343571E2],"tree_param":{"num_deleted":"0","num_feature":"107","num_nodes":"15","size_leaf_vector":"1"}},{"base_weights":[-1.3930754E-1,-2.623202E-1,1.5387923E-1,-1.11321546E-1,-4.3317577E-1,-7.0216483E-3,3.312267E-1,-2.6947688E-3,3.3620012E-4,-3.4048776E-3,-5.6346897E-3,1.2298375E-3,-1.7244614E-3,4.947453E-3,2.3656425E-3],"categories":[],"categories_nodes":[],"categories_segments":[],"categories_sizes":[],"default_left":[0,0,0,0,0,0,0,0,0,0,0,0,0,0,0],"id":20,"left_children":[1,3,5,7,9,11,13,-1,-1,-1,-1,-1,-1,-1,-1],"loss_changes":[2.3257016E2,1.1713489E2,5.439743E1,5.531247E1,2.5538849E1,2.153675E1,1.3919312E1,0E0,0E0,0E0,0E0,0E0,0E0,0E0,0E0],"parents":[2147483647,0,0,1,1,2,2,3,3,4,4,5,5,6,6],"right_children":[2,4,6,8,10,12,14,-1,-1,-1,-1,-1,-1,-1,-1],"split_conditions":[2E1,1.4E1,5.14E-1,1E1,2.3E1,-4.3E0,-6.2E0,-2.6947688E-3,3.3620012E-4,-3.4048776E-3,-5.6346897E-3,1.2298375E-3,-1.7244614E-3,4.947453E-3,2.3656425E-3],"split_indices":[28,80,55,51,80,25,25,0,0,0,0,0,0,0,0],"split_type":[0,0,0,0,0,0,0,0,0,0,0,0,0,0,0],"sum_hessian":[6.4463984E3,4.5411636E3,1.9052349E3,2.411543E3,2.1296204E3,9.9944E2,9.0579486E2,1.1527938E3,1.2587491E3,1.2464991E3,8.831213E2,5.597751E2,4.3966492E2,3.305614E2,5.7523346E2],"tree_param":{"num_deleted":"0","num_feature":"107","num_nodes":"15","size_leaf_vector":"1"}},{"base_weights":[1.3930756E-1,2.6232022E-1,-1.5387924E-1,1.1132153E-1,4.3317583E-1,7.0216185E-3,-3.312267E-1,2.6947688E-3,-3.362004E-4,3.4048785E-3,5.6346897E-3,-1.229838E-3,1.7244613E-3,-4.947452E-3,-2.365643E-3],"categories":[],"categories_nodes":[],"categories_segments":[],"categories_sizes":[],"default_left":[0,0,0,0,0,0,0,0,0,0,0,0,0,0,0],"id":21,"left_children":[1,3,5,7,9,11,13,-1,-1,-1,-1,-1,-1,-1,-1],"loss_changes":[2.3257018E2,1.1713495E2,5.4397423E1,5.5312477E1,2.5538788E1,2.1536755E1,1.3919289E1,0E0,0E0,0E0,0E0,0E0,0E0,0E0,0E0],"parents":[2147483647,0,0,1,1,2,2,3,3,4,4,5,5,6,6],"right_children":[2,4,6,8,10,12,14,-1,-1,-1,-1,-1,-1,-1,-1],"split_conditions":[2E1,1.4E1,5.14E-1,1E1,2.3E1,-4.3E0,-6.2E0,2.6947688E-3,-3.362004E-4,3.4048785E-3,5.6346897E-3,-1.229838E-3,1.7244613E-3,-4.947452E-3,-2.365643E-3],"split_indices":[28,80,55,51,80,25,25,0,0,0,0,0,0,0,0],"split_type":[0,0,0,0,0,0,0,0,0,0,0,0,0,0,0],"sum_hessian":[6.446398E3,4.5411636E3,1.9052349E3,2.411543E3,2.1296204E3,9.9944E2,9.0579486E2,1.1527938E3,1.2587491E3,1.2464991E3,8.8312134E2,5.597751E2,4.3966492E2,3.3056143E2,5.752334E2],"tree_param":{"num_deleted":"0","num_feature":"107","num_nodes":"15","size_leaf_vector":"1"}},{"base_weights":[-1.379419E-1,-3.2868585E-1,4.7628324E-2,-4.2988783E-1,-1.19861886E-1,-1.8291757E-1,1.7797992E-1,-3.5399084E-3,-6.1846906E-3,3.052659E-4,-2.049817E-3,5.450633E-4,-3.0549713E-3,6.661774E-4,3.2454373E-3],"categories":[],"categories_nodes":[],"categories_segments":[],"categories_sizes":[],"default_left":[0,0,0,0,0,0,0,0,0,0,0,0,0,0,0],"id":22,"left_children":[1,3,5,7,9,11,13,-1,-1,-1,-1,-1,-1,-1,-1],"loss_changes":[2.2818661E2,6.7129395E1,9.8250626E1,3.0422028E1,1.33075075E1,3.4386215E1,3.40632E1,0E0,0E0,0E0,0E0,0E0,0E0,0E0,0E0],"parents":[2147483647,0,0,1,1,2,2,3,3,4,4,5,5,6,6],"right_children":[2,4,6,8,10,12,14,-1,-1,-1,-1,-1,-1,-1,-1],"split_conditions":[1.5E1,2.9E0,-1.3E0,2.3E1,3.1E0,-4.8E0,2.4E1,-3.5399084E-3,-6.1846906E-3,3.052659E-4,-2.049817E-3,5.450633E-4,-3.0549713E-3,6.661774E-4,3.2454373E-3],"split_indices":[51,77,77,80,25,25,51,0,0,0,0,0,0,0,0],"split_type":[0,0,0,0,0,0,0,0,0,0,0,0,0,0,0],"sum_hessian":[6.445164E3,3.177896E3,3.2672678E3,2.13982E3,1.0380759E3,1.1799501E3,2.0873176E3,1.5278102E3,6.1201E2,3.7542386E2,6.626521E2,4.0195682E2,7.779932E2,1.1869235E3,9.0039417E2],"tree_param":{"num_deleted":"0","num_feature":"107","num_nodes":"15","size_leaf_vector":"1"}},{"base_weights":[1.379419E-1,3.2868588E-1,-4.762834E-2,4.2988786E-1,1.19861916E-1,1.8291757E-1,-1.7797995E-1,3.5399084E-3,6.1846916E-3,-3.0526568E-4,2.0498175E-3,-5.4506335E-4,3.0549713E-3,-6.6617783E-4,-3.245437E-3],"categories":[],"categories_nodes":[],"categories_segments":[],"categories_sizes":[],"default_left":[0,0,0,0,0,0,0,0,0,0,0,0,0,0,0],"id":23,"left_children":[1,3,5,7,9,11,13,-1,-1,-1,-1,-1,-1,-1,-1],"loss_changes":[2.2818669E2,6.7129395E1,9.8250626E1,3.0422089E1,1.330751E1,3.4386223E1,3.406318E1,0E0,0E0,0E0,0E0,0E0,0E0,0E0,0E0],"parents":[2147483647,0,0,1,1,2,2,3,3,4,4,5,5,6,6],"right_children":[2,4,6,8,10,12,14,-1,-1,-1,-1,-1,-1,-1,-1],"split_conditions":[1.5E1,2.9E0,-1.3E0,2.3E1,3.1E0,-4.8E0,2.4E1,3.5399084E-3,6.1846916E-3,-3.0526568E-4,2.0498175E-3,-5.4506335E-4,3.0549713E-3,-6.6617783E-4,-3.245437E-3],"split_indices":[51,77,77,80,25,25,51,0,0,0,0,0,0,0,0],"split_type":[0,0,0,0,0,0,0,0,0,0,0,0,0,0,0],"sum_hessian":[6.445164E3,3.177896E3,3.2672678E3,2.13982E3,1.0380759E3,1.1799501E3,2.0873176E3,1.5278102E3,6.1201E2,3.7542383E2,6.626521E2,4.0195682E2,7.779932E2,1.1869236E3,9.0039417E2],"tree_param":{"num_deleted":"0","num_feature":"107","num_nodes":"15","size_leaf_vector":"1"}},{"base_weights":[-1.365946E-1,-2.5743908E-1,1.5136434E-1,-1.0899207E-1,-4.2552143E-1,-6.8491646E-3,3.2578355E-1,-2.6436255E-3,3.3363834E-4,-3.345399E-3,-5.535273E-3,1.2054082E-3,-1.6896448E-3,4.8699444E-3,2.3250007E-3],"categories":[],"categories_nodes":[],"categories_segments":[],"categories_sizes":[],"default_left":[0,0,0,0,0,0,0,0,0,0,0,0,0,0,0],"id":24,"left_children":[1,3,5,7,9,11,13,-1,-1,-1,-1,-1,-1,-1,-1],"loss_changes":[2.243046E2,1.1323285E2,5.2591736E1,5.3360863E1,2.4607727E1,2.0677752E1,1.3518425E1,0E0,0E0,0E0,0E0,0E0,0E0,0E0,0E0],"parents":[2147483647,0,0,1,1,2,2,3,3,4,4,5,5,6,6],"right_children":[2,4,6,8,10,12,14,-1,-1,-1,-1,-1,-1,-1,-1],"split_conditions":[2E1,1.4E1,5.14E-1,1E1,2.3E1,-4.3E0,-6.2E0,-2.6436255E-3,3.3363834E-4,-3.345399E-3,-5.535273E-3,1.2054082E-3,-1.6896448E-3,4.8699444E-3,2.3250007E-3],"split_indices":[28,80,55,51,80,25,25,0,0,0,0,0,0,0,0],"split_type":[0,0,0,0,0,0,0,0,0,0,0,0,0,0,0],"sum_hessian":[6.4437393E3,4.5390103E3,1.9047292E3,2.4111653E3,2.127845E3,9.992671E2,9.0546216E2,1.1524729E3,1.2586923E3,1.2459126E3,8.819323E2,5.597067E2,4.3956036E2,3.3034497E2,5.751172E2],"tree_param":{"num_deleted":"0","num_feature":"107","num_nodes":"15","size_leaf_vector":"1"}},{"base_weights":[1.365946E-1,2.5743905E-1,-1.5136433E-1,1.0899208E-1,4.255214E-1,6.849157E-3,-3.257835E-1,2.643625E-3,-3.33638E-4,3.345398E-3,5.535273E-3,-1.2054084E-3,1.6896448E-3,-4.869943E-3,-2.3250005E-3],"categories":[],"categories_nodes":[],"categories_segments":[],"categories_sizes":[],"default_left":[0,0,0,0,0,0,0,0,0,0,0,0,0,0,0],"id":25,"left_children":[1,3,5,7,9,11,13,-1,-1,-1,-1,-1,-1,-1,-1],"loss_changes":[2.2430458E2,1.1323282E2,5.259171E1,5.3360847E1,2.4607758E1,2.0677755E1,1.3518425E1,0E0,0E0,0E0,0E0,0E0,0E0,0E0,0E0],"parents":[2147483647,0,0,1,1,2,2,3,3,4,4,5,5,6,6],"right_children":[2,4,6,8,10,12,14,-1,-1,-1,-1,-1,-1,-1,-1],"split_conditions":[2E1,1.4E1,5.14E-1,1E1,2.3E1,-4.3E0,-6.2E0,2.643625E-3,-3.33638E-4,3.345398E-3,5.535273E-3,-1.2054084E-3,1.6896448E-3,-4.869943E-3,-2.3250005E-3],"split_indices":[28,80,55,51,80,25,25,0,0,0,0,0,0,0,0],"split_type":[0,0,0,0,0,0,0,0,0,0,0,0,0,0,0],"sum_hessian":[6.4437397E3,4.5390103E3,1.9047292E3,2.4111653E3,2.127845E3,9.9926715E2,9.0546216E2,1.1524729E3,1.2586924E3,1.2459126E3,8.819323E2,5.597067E2,4.3956036E2,3.3034497E2,5.751172E2],"tree_param":{"num_deleted":"0","num_feature":"107","num_nodes":"15","size_leaf_vector":"1"}},{"base_weights":[-1.3525996E-1,5.603562E-2,-3.1402993E-1,-1.9789627E-1,1.7272222E-1,-1.693456E-1,-4.6147883E-1,1.9203662E-4,-3.3581739E-3,6.2221586E-4,3.0325449E-3,-2.5117092E-3,-1.8092884E-4,-3.7433594E-3,-5.9591257E-3],"categories":[],"categories_nodes":[],"categories_segments":[],"categories_sizes":[],"default_left":[0,0,0,0,0,0,0,0,0,0,0,0,0,0,0],"id":26,"left_children":[1,3,5,7,9,11,13,-1,-1,-1,-1,-1,-1,-1,-1],"loss_changes":[2.2036482E2,9.228723E1,7.098056E1,2.9371677E1,3.0757965E1,2.082183E1,1.9095795E1,0E0,0E0,0E0,0E0,0E0,0E0,0E0,0E0],"parents":[2147483647,0,0,1,1,2,2,3,3,4,4,5,5,6,6],"right_children":[2,4,6,8,10,12,14,-1,-1,-1,-1,-1,-1,-1,-1],"split_conditions":[2E-1,-2E0,1.3E1,-4.3E0,2.4E1,1E1,2.3E1,1.9203662E-4,-3.3581739E-3,6.2221586E-4,3.0325449E-3,-2.5117092E-3,-1.8092884E-4,-3.7433594E-3,-5.9591257E-3],"split_indices":[25,77,80,25,51,51,80,0,0,0,0,0,0,0,0],"split_type":[0,0,0,0,0,0,0,0,0,0,0,0,0,0,0],"sum_hessian":[6.442297E3,3.112454E3,3.329843E3,9.7971497E2,2.132739E3,1.6817617E3,1.6480812E3,3.809411E2,5.9877386E2,1.1557925E3,9.7694653E2,1.0909269E3,5.9083484E2,1.00221094E3,6.4587024E2],"tree_param":{"num_deleted":"0","num_feature":"107","num_nodes":"15","size_leaf_vector":"1"}},{"base_weights":[1.3525994E-1,-5.6035623E-2,3.1402993E-1,1.9789627E-1,-1.7272222E-1,1.693456E-1,4.6147883E-1,-1.920366E-4,3.3581739E-3,-6.222162E-4,-3.0325444E-3,2.5117095E-3,1.8092857E-4,3.7433594E-3,5.9591257E-3],"categories":[],"categories_nodes":[],"categories_segments":[],"categories_sizes":[],"default_left":[0,0,0,0,0,0,0,0,0,0,0,0,0,0,0],"id":27,"left_children":[1,3,5,7,9,11,13,-1,-1,-1,-1,-1,-1,-1,-1],"loss_changes":[2.2036484E2,9.228723E1,7.098056E1,2.9371677E1,3.0757942E1,2.0821838E1,1.9095764E1,0E0,0E0,0E0,0E0,0E0,0E0,0E0,0E0],"parents":[2147483647,0,0,1,1,2,2,3,3,4,4,5,5,6,6],"right_children":[2,4,6,8,10,12,14,-1,-1,-1,-1,-1,-1,-1,-1],"split_conditions":[2E-1,-2E0,1.3E1,-4.3E0,2.4E1,1E1,2.3E1,-1.920366E-4,3.3581739E-3,-6.222162E-4,-3.0325444E-3,2.5117095E-3,1.8092857E-4,3.7433594E-3,5.9591257E-3],"split_indices":[25,77,80,25,51,51,80,0,0,0,0,0,0,0,0],"split_type":[0,0,0,0,0,0,0,0,0,0,0,0,0,0,0],"sum_hessian":[6.442297E3,3.112454E3,3.329843E3,9.7971497E2,2.132739E3,1.6817617E3,1.6480812E3,3.809411E2,5.9877386E2,1.1557925E3,9.769466E2,1.0909269E3,5.9083484E2,1.00221094E3,6.458703E2],"tree_param":{"num_deleted":"0","num_feature":"107","num_nodes":"15","size_leaf_vector":"1"}},{"base_weights":[-1.3394277E-1,-2.5265E-1,1.4885488E-1,-1.0681805E-1,-4.1790402E-1,-6.8109147E-3,3.2050467E-1,2.901733E-4,-2.639831E-3,-3.2851764E-3,-5.437909E-3,1.1797453E-3,-1.6563324E-3,4.7955043E-3,2.2852377E-3],"categories":[],"categories_nodes":[],"categories_segments":[],"categories_sizes":[],"default_left":[0,0,0,0,0,0,0,0,0,0,0,0,0,0,0],"id":28,"left_children":[1,3,5,7,9,11,13,-1,-1,-1,-1,-1,-1,-1,-1],"loss_changes":[2.1628635E2,1.0930722E2,5.090794E1,5.1495384E1,2.3753113E1,1.9839739E1,1.314563E1,0E0,0E0,0E0,0E0,0E0,0E0,0E0,0E0],"parents":[2147483647,0,0,1,1,2,2,3,3,4,4,5,5,6,6],"right_children":[2,4,6,8,10,12,14,-1,-1,-1,-1,-1,-1,-1,-1],"split_conditions":[2E1,1.4E1,5.14E-1,2.8E0,2.3E1,-4.3E0,-6.2E0,2.901733E-4,-2.639831E-3,-3.2851764E-3,-5.437909E-3,1.1797453E-3,-1.6563324E-3,4.7955043E-3,2.2852377E-3],"split_indices":[28,80,55,25,80,25,25,0,0,0,0,0,0,0,0],"split_type":[0,0,0,0,0,0,0,0,0,0,0,0,0,0,0],"sum_hessian":[6.4407026E3,4.5365474E3,1.9041556E3,2.410764E3,2.1257832E3,9.9907477E2,9.0508093E2,1.2935679E3,1.1171959E3,1.2452205E3,8.8056287E2,5.596329E2,4.394419E2,3.3009473E2,5.749862E2],"tree_param":{"num_deleted":"0","num_feature":"107","num_nodes":"15","size_leaf_vector":"1"}},{"base_weights":[1.3394278E-1,2.5265002E-1,-1.488549E-1,1.0681805E-1,4.179041E-1,6.8109157E-3,-3.2050467E-1,-2.9017328E-4,2.639831E-3,3.2851773E-3,5.4379096E-3,-1.1797451E-3,1.6563323E-3,-4.7955043E-3,-2.285238E-3],"categories":[],"categories_nodes":[],"categories_segments":[],"categories_sizes":[],"default_left":[0,0,0,0,0,0,0,0,0,0,0,0,0,0,0],"id":29,"left_children":[1,3,5,7,9,11,13,-1,-1,-1,-1,-1,-1,-1,-1],"loss_changes":[2.1628638E2,1.0930722E2,5.0907948E1,5.1495384E1,2.3753143E1,1.9839731E1,1.3145622E1,0E0,0E0,0E0,0E0,0E0,0E0,0E0,0E0],"parents":[2147483647,0,0,1,1,2,2,3,3,4,4,5,5,6,6],"right_children":[2,4,6,8,10,12,14,-1,-1,-1,-1,-1,-1,-1,-1],"split_conditions":[2E1,1.4E1,5.14E-1,2.8E0,2.3E1,-4.3E0,-6.2E0,-2.9017328E-4,2.639831E-3,3.2851773E-3,5.4379096E-3,-1.1797451E-3,1.6563323E-3,-4.7955043E-3,-2.285238E-3],"split_indices":[28,80,55,25,80,25,25,0,0,0,0,0,0,0,0],"split_type":[0,0,0,0,0,0,0,0,0,0,0,0,0,0,0],"sum_hessian":[6.4407026E3,4.5365474E3,1.9041556E3,2.410764E3,2.1257832E3,9.9907477E2,9.0508093E2,1.2935679E3,1.1171959E3,1.2452205E3,8.8056287E2,5.596329E2,4.394419E2,3.3009473E2,5.749862E2],"tree_param":{"num_deleted":"0","num_feature":"107","num_nodes":"15","size_leaf_vector":"1"}},{"base_weights":[-1.32638E-1,-3.1705156E-1,4.6635397E-2,-4.158209E-1,-1.1355114E-1,-2.1828617E-1,1.5293975E-1,-3.4277076E-3,-5.9780953E-3,3.1098613E-4,-1.9546312E-3,2.5985905E-4,-3.4374276E-3,7.251465E-4,3.2779453E-3],"categories":[],"categories_nodes":[],"categories_segments":[],"categories_sizes":[],"default_left":[0,0,0,0,0,0,0,0,0,0,0,0,0,0,0],"id":30,"left_children":[1,3,5,7,9,11,13,-1,-1,-1,-1,-1,-1,-1,-1],"loss_changes":[2.1292642E2,6.3762054E1,9.202327E1,2.8204102E1,1.2313426E1,2.868655E1,3.2765324E1,0E0,0E0,0E0,0E0,0E0,0E0,0E0,0E0],"parents":[2147483647,0,0,1,1,2,2,3,3,4,4,5,5,6,6],"right_children":[2,4,6,8,10,12,14,-1,-1,-1,-1,-1,-1,-1,-1],"split_conditions":[1.5E1,2.9E0,-2.4E0,2.3E1,3.1E0,-4.8E0,2.6E1,-3.4277076E-3,-5.9780953E-3,3.1098613E-4,-1.9546312E-3,2.5985905E-4,-3.4374276E-3,7.251465E-4,3.2779453E-3],"split_indices":[51,77,77,80,25,25,51,0,0,0,0,0,0,0,0],"split_type":[0,0,0,0,0,0,0,0,0,0,0,0,0,0,0],"sum_hessian":[6.4390713E3,3.1736536E3,3.2654177E3,2.1359314E3,1.037722E3,9.347842E2,2.3306335E3,1.5261993E3,6.097322E2,3.7540625E2,6.6231586E2,3.1746063E2,6.1732355E2,1.597344E3,7.332894E2],"tree_param":{"num_deleted":"0","num_feature":"107","num_nodes":"15","size_leaf_vector":"1"}},{"base_weights":[1.32638E-1,3.170516E-1,-4.663541E-2,4.1582093E-1,1.13551155E-1,2.1828619E-1,-1.5293977E-1,3.4277078E-3,5.9780953E-3,-3.1098587E-4,1.9546314E-3,-2.5985987E-4,3.4374278E-3,-7.251468E-4,-3.2779453E-3],"categories":[],"categories_nodes":[],"categories_segments":[],"categories_sizes":[],"default_left":[0,0,0,0,0,0,0,0,0,0,0,0,0,0,0],"id":31,"left_children":[1,3,5,7,9,11,13,-1,-1,-1,-1,-1,-1,-1,-1],"loss_changes":[2.1292645E2,6.3762054E1,9.202329E1,2.8204071E1,1.2313425E1,2.8686562E1,3.276532E1,0E0,0E0,0E0,0E0,0E0,0E0,0E0,0E0],"parents":[2147483647,0,0,1,1,2,2,3,3,4,4,5,5,6,6],"right_children":[2,4,6,8,10,12,14,-1,-1,-1,-1,-1,-1,-1,-1],"split_conditions":[1.5E1,2.9E0,-2.4E0,2.3E1,3.1E0,-4.8E0,2.6E1,3.4277078E-3,5.9780953E-3,-3.1098587E-4,1.9546314E-3,-2.5985987E-4,3.4374278E-3,-7.251468E-4,-3.2779453E-3],"split_indices":[51,77,77,80,25,25,51,0,0,0,0,0,0,0,0],"split_type":[0,0,0,0,0,0,0,0,0,0,0,0,0,0,0],"sum_hessian":[6.4390713E3,3.1736536E3,3.2654175E3,2.1359314E3,1.037722E3,9.347842E2,2.3306333E3,1.5261993E3,6.097322E2,3.7540622E2,6.6231586E2,3.174606E2,6.1732355E2,1.597344E3,7.332894E2],"tree_param":{"num_deleted":"0","num_feature":"107","num_nodes":"15","size_leaf_vector":"1"}},{"base_weights":[-1.3134992E-1,5.4877754E-2,-3.05493E-1,-1.9247027E-1,1.6850804E-1,-1.6436069E-1,-4.4953504E-1,1.8193168E-4,-3.2642642E-3,9.881476E-4,3.653284E-3,-2.440503E-3,-1.7120737E-4,-3.6473859E-3,-5.806037E-3],"categories":[],"categories_nodes":[],"categories_segments":[],"categories_sizes":[],"default_left":[0,0,0,0,0,0,0,0,0,0,0,0,0,0,0],"id":32,"left_children":[1,3,5,7,9,11,13,-1,-1,-1,-1,-1,-1,-1,-1],"loss_changes":[2.0881235E2,8.750026E1,6.7565735E1,2.766373E1,2.9221775E1,1.9733635E1,1.8082947E1,0E0,0E0,0E0,0E0,0E0,0E0,0E0,0E0],"parents":[2147483647,0,0,1,1,2,2,3,3,4,4,5,5,6,6],"right_children":[2,4,6,8,10,12,14,-1,-1,-1,-1,-1,-1,-1,-1],"split_conditions":[2E-1,-2E0,1.3E1,-4.3E0,2.7E1,1E1,2.3E1,1.8193168E-4,-3.2642642E-3,9.881476E-4,3.653284E-3,-2.440503E-3,-1.7120737E-4,-3.6473859E-3,-5.806037E-3],"split_indices":[25,77,80,25,51,51,80,0,0,0,0,0,0,0,0],"split_type":[0,0,0,0,0,0,0,0,0,0,0,0,0,0,0],"sum_hessian":[6.4372944E3,3.1110444E3,3.3262498E3,9.790894E2,2.131955E3,1.6811758E3,1.645074E3,3.809151E2,5.981743E2,1.5755583E3,5.5639667E2,1.0903798E3,5.907961E2,1.0011505E3,6.439235E2],"tree_param":{"num_deleted":"0","num_feature":"107","num_nodes":"15","size_leaf_vector":"1"}},{"base_weights":[1.313499E-1,-5.4877758E-2,3.0549297E-1,1.9247025E-1,-1.6850804E-1,1.6436064E-1,4.4953498E-1,-1.8193135E-4,3.2642635E-3,-9.881473E-4,-3.6532842E-3,2.4405029E-3,1.7120695E-4,3.6473859E-3,5.806036E-3],"categories":[],"categories_nodes":[],"categories_segments":[],"categories_sizes":[],"default_left":[0,0,0,0,0,0,0,0,0,0,0,0,0,0,0],"id":33,"left_children":[1,3,5,7,9,11,13,-1,-1,-1,-1,-1,-1,-1,-1],"loss_changes":[2.0881229E2,8.7500244E1,6.7565704E1,2.7663715E1,2.9221786E1,1.9733635E1,1.8082977E1,0E0,0E0,0E0,0E0,0E0,0E0,0E0,0E0],"parents":[2147483647,0,0,1,1,2,2,3,3,4,4,5,5,6,6],"right_children":[2,4,6,8,10,12,14,-1,-1,-1,-1,-1,-1,-1,-1],"split_conditions":[2E-1,-2E0,1.3E1,-4.3E0,2.7E1,1E1,2.3E1,-1.8193135E-4,3.2642635E-3,-9.881473E-4,-3.6532842E-3,2.4405029E-3,1.7120695E-4,3.6473859E-3,5.806036E-3],"split_indices":[25,77,80,25,51,51,80,0,0,0,0,0,0,0,0],"split_type":[0,0,0,0,0,0,0,0,0,0,0,0,0,0,0],"sum_hessian":[6.4372944E3,3.1110444E3,3.3262498E3,9.790894E2,2.131955E3,1.6811758E3,1.645074E3,3.809151E2,5.981743E2,1.5755585E3,5.5639667E2,1.0903798E3,5.907961E2,1.0011505E3,6.4392346E2],"tree_param":{"num_deleted":"0","num_feature":"107","num_nodes":"15","size_leaf_vector":"1"}},{"base_weights":[-1.3007604E-1,-2.4584629E-1,1.4560747E-1,-1.0358452E-1,-4.0727332E-1,-6.7112884E-3,3.1361756E-1,2.866935E-4,-2.5667772E-3,-3.2034537E-3,-5.2991114E-3,1.1410115E-3,-1.6051272E-3,4.6890704E-3,2.2389672E-3],"categories":[],"categories_nodes":[],"categories_segments":[],"categories_sizes":[],"default_left":[0,0,0,0,0,0,0,0,0,0,0,0,0,0,0],"id":34,"left_children":[1,3,5,7,9,11,13,-1,-1,-1,-1,-1,-1,-1,-1],"loss_changes":[2.0546082E2,1.0406387E2,4.8731842E1,4.8823677E1,2.2465485E1,1.8593887E1,1.2510628E1,0E0,0E0,0E0,0E0,0E0,0E0,0E0,0E0],"parents":[2147483647,0,0,1,1,2,2,3,3,4,4,5,5,6,6],"right_children":[2,4,6,8,10,12,14,-1,-1,-1,-1,-1,-1,-1,-1],"split_conditions":[2E1,1.4E1,5.14E-1,2.8E0,2.3E1,-4.3E0,-6.2E0,2.866935E-4,-2.5667772E-3,-3.2034537E-3,-5.2991114E-3,1.1410115E-3,-1.6051272E-3,4.6890704E-3,2.2389672E-3],"split_indices":[28,80,55,25,80,25,25,0,0,0,0,0,0,0,0],"split_type":[0,0,0,0,0,0,0,0,0,0,0,0,0,0,0],"sum_hessian":[6.435438E3,4.5322695E3,1.9031683E3,2.4100193E3,2.1222502E3,9.987011E2,9.044672E2,1.2934493E3,1.11657E3,1.244054E3,8.781962E2,5.5948145E2,4.3921967E2,3.296611E2,5.748061E2],"tree_param":{"num_deleted":"0","num_feature":"107","num_nodes":"15","size_leaf_vector":"1"}},{"base_weights":[1.3007605E-1,2.4584629E-1,-1.4560744E-1,1.0358453E-1,4.0727335E-1,6.711309E-3,-3.1361753E-1,-2.8669348E-4,2.5667772E-3,3.2034537E-3,5.2991123E-3,-1.1410112E-3,1.6051275E-3,-4.6890695E-3,-2.238967E-3],"categories":[],"categories_nodes":[],"categories_segments":[],"categories_sizes":[],"default_left":[0,0,0,0,0,0,0,0,0,0,0,0,0,0,0],"id":35,"left_children":[1,3,5,7,9,11,13,-1,-1,-1,-1,-1,-1,-1,-1],"loss_changes":[2.0546078E2,1.040639E2,4.873184E1,4.8823677E1,2.2465485E1,1.8593887E1,1.25106125E1,0E0,0E0,0E0,0E0,0E0,0E0,0E0,0E0],"parents":[2147483647,0,0,1,1,2,2,3,3,4,4,5,5,6,6],"right_children":[2,4,6,8,10,12,14,-1,-1,-1,-1,-1,-1,-1,-1],"split_conditions":[2E1,1.4E1,5.14E-1,2.8E0,2.3E1,-4.3E0,-6.2E0,-2.8669348E-4,2.5667772E-3,3.2034537E-3,5.2991123E-3,-1.1410112E-3,1.6051275E-3,-4.6890695E-3,-2.238967E-3],"split_indices":[28,80,55,25,80,25,25,0,0,0,0,0,0,0,0],"split_type":[0,0,0,0,0,0,0,0,0,0,0,0,0,0,0],"sum_hessian":[6.435438E3,4.5322695E3,1.9031683E3,2.4100193E3,2.1222502E3,9.987011E2,9.0446716E2,1.2934493E3,1.11657E3,1.244054E3,8.7819617E2,5.5948145E2,4.3921967E2,3.2966107E2,5.748061E2],"tree_param":{"num_deleted":"0","num_feature":"107","num_nodes":"15","size_leaf_vector":"1"}},{"base_weights":[-1.2881434E-1,-3.0850708E-1,4.5741253E-2,-4.054303E-1,-1.0908415E-1,-2.1235192E-1,1.4926448E-1,-3.3438068E-3,-5.828669E-3,3.140098E-4,-1.8867472E-3,2.4905853E-4,-3.3434015E-3,4.8058486E-4,2.8025561E-3],"categories":[],"categories_nodes":[],"categories_segments":[],"categories_sizes":[],"default_left":[0,0,0,0,0,0,0,0,0,0,0,0,0,0,0],"id":36,"left_children":[1,3,5,7,9,11,13,-1,-1,-1,-1,-1,-1,-1,-1],"loss_changes":[2.0184232E2,6.1242157E1,8.726263E1,2.669983E1,1.1616514E1,2.7071331E1,3.0885372E1,0E0,0E0,0E0,0E0,0E0,0E0,0E0,0E0],"parents":[2147483647,0,0,1,1,2,2,3,3,4,4,5,5,6,6],"right_children":[2,4,6,8,10,12,14,-1,-1,-1,-1,-1,-1,-1,-1],"split_conditions":[1.5E1,2.9E0,-2.4E0,2.3E1,3.1E0,-4.8E0,2.4E1,-3.3438068E-3,-5.828669E-3,3.140098E-4,-1.8867472E-3,2.4905853E-4,-3.3434015E-3,4.8058486E-4,2.8025561E-3],"split_indices":[51,77,77,80,25,25,51,0,0,0,0,0,0,0,0],"split_type":[0,0,0,0,0,0,0,0,0,0,0,0,0,0,0],"sum_hessian":[6.433541E3,3.1697441E3,3.2637969E3,2.1323499E3,1.0373944E3,9.3405597E2,2.329741E3,1.5247073E3,6.076426E2,3.7539352E2,6.6200085E2,3.1744522E2,6.166108E2,1.3150654E3,1.01467535E3],"tree_param":{"num_deleted":"0","num_feature":"107","num_nodes":"15","size_leaf_vector":"1"}},{"base_weights":[1.2881434E-1,3.0850708E-1,-4.5741253E-2,4.054303E-1,1.0908415E-1,2.1235187E-1,-1.4926445E-1,3.3438068E-3,5.828669E-3,-3.1400955E-4,1.886747E-3,-2.4905926E-4,3.3434012E-3,-4.805844E-4,-2.8025561E-3],"categories":[],"categories_nodes":[],"categories_segments":[],"categories_sizes":[],"default_left":[0,0,0,0,0,0,0,0,0,0,0,0,0,0,0],"id":37,"left_children":[1,3,5,7,9,11,13,-1,-1,-1,-1,-1,-1,-1,-1],"loss_changes":[2.0184235E2,6.1242157E1,8.726259E1,2.6699799E1,1.161651E1,2.7071331E1,3.088538E1,0E0,0E0,0E0,0E0,0E0,0E0,0E0,0E0],"parents":[2147483647,0,0,1,1,2,2,3,3,4,4,5,5,6,6],"right_children":[2,4,6,8,10,12,14,-1,-1,-1,-1,-1,-1,-1,-1],"split_conditions":[1.5E1,2.9E0,-2.4E0,2.3E1,3.1E0,-4.8E0,2.4E1,3.3438068E-3,5.828669E-3,-3.1400955E-4,1.886747E-3,-2.4905926E-4,3.3434012E-3,-4.805844E-4,-2.8025561E-3],"split_indices":[51,77,77,80,25,25,51,0,0,0,0,0,0,0,0],"split_type":[0,0,0,0,0,0,0,0,0,0,0,0,0,0,0],"sum_hessian":[6.433541E3,3.1697441E3,3.2637969E3,2.1323499E3,1.0373943E3,9.3405597E2,2.329741E3,1.5247073E3,6.076426E2,3.7539352E2,6.620008E2,3.174452E2,6.166108E2,1.3150654E3,1.0146754E3],"tree_param":{"num_deleted":"0","num_feature":"107","num_nodes":"15","size_leaf_vector":"1"}},{"base_weights":[-1.2756881E-1,9.231871E-2,-2.6772326E-1,-1.5616131E-1,1.9426607E-1,-3.688652E-1,-5.0379537E-2,4.130871E-4,-2.7646865E-3,1.2075575E-3,3.4638327E-3,-3.0028645E-3,-5.387973E-3,9.0369745E-4,-1.8400148E-3],"categories":[],"categories_nodes":[],"categories_segments":[],"categories_sizes":[],"default_left":[0,0,0,0,0,0,0,0,0,0,0,0,0,0,0],"id":38,"left_children":[1,3,5,7,9,11,13,-1,-1,-1,-1,-1,-1,-1,-1],"loss_changes":[1.9826294E2,6.34801E1,8.63457E1,1.7336058E1,1.982331E1,3.1081116E1,2.3503445E1,0E0,0E0,0E0,0E0,0E0,0E0,0E0,0E0],"parents":[2147483647,0,0,1,1,2,2,3,3,4,4,5,5,6,6],"right_children":[2,4,6,8,10,12,14,-1,-1,-1,-1,-1,-1,-1,-1],"split_conditions":[4.69E-1,-2.4E0,3E0,-5.3E0,2.7E1,2.3E1,3.1E0,4.130871E-4,-2.7646865E-3,1.2075575E-3,3.4638327E-3,-3.0028645E-3,-5.387973E-3,9.0369745E-4,-1.8400148E-3],"split_indices":[3,77,77,25,51,80,25,0,0,0,0,0,0,0,0],"split_type":[0,0,0,0,0,0,0,0,0,0,0,0,0,0,0],"sum_hessian":[6.4315015E3,2.5037397E3,3.927762E3,7.282405E2,1.7754991E3,2.6799412E3,1.2478207E3,2.759532E2,4.522873E2,1.1982441E3,5.77255E2,1.9113524E3,7.685888E2,6.0786066E2,6.3995996E2],"tree_param":{"num_deleted":"0","num_feature":"107","num_nodes":"15","size_leaf_vector":"1"}},{"base_weights":[1.275688E-1,-9.2318736E-2,2.6772323E-1,1.561613E-1,-1.9426608E-1,3.6886516E-1,5.0379537E-2,-4.130872E-4,2.7646862E-3,-1.2075577E-3,-3.463833E-3,3.0028645E-3,5.3879726E-3,-9.0369757E-4,1.8400151E-3],"categories":[],"categories_nodes":[],"categories_segments":[],"categories_sizes":[],"default_left":[0,0,0,0,0,0,0,0,0,0,0,0,0,0,0],"id":39,"left_children":[1,3,5,7,9,11,13,-1,-1,-1,-1,-1,-1,-1,-1],"loss_changes":[1.9826294E2,6.3480103E1,8.634564E1,1.733605E1,1.982331E1,3.1081177E1,2.3503445E1,0E0,0E0,0E0,0E0,0E0,0E0,0E0,0E0],"parents":[2147483647,0,0,1,1,2,2,3,3,4,4,5,5,6,6],"right_children":[2,4,6,8,10,12,14,-1,-1,-1,-1,-1,-1,-1,-1],"split_conditions":[4.69E-1,-2.4E0,3E0,-5.3E0,2.7E1,2.3E1,3.1E0,-4.130872E-4,2.7646862E-3,-1.2075577E-3,-3.463833E-3,3.0028645E-3,5.3879726E-3,-9.0369757E-4,1.8400151E-3],"split_indices":[3,77,77,25,51,80,25,0,0,0,0,0,0,0,0],"split_type":[0,0,0,0,0,0,0,0,0,0,0,0,0,0,0],"sum_hessian":[6.4315015E3,2.5037395E3,3.927762E3,7.282405E2,1.7754991E3,2.6799412E3,1.2478207E3,2.759532E2,4.522873E2,1.1982441E3,5.77255E2,1.9113524E3,7.6858875E2,6.078607E2,6.3996E2],"tree_param":{"num_deleted":"0","num_feature":"107","num_nodes":"15","size_leaf_vector":"1"}},{"base_weights":[-1.2633444E-1,-3.0304092E-1,4.5226075E-2,-3.98346E-1,-1.07160196E-1,-1.0636029E-1,2.1616295E-1,-3.2843326E-3,-5.732573E-3,3.01954E-4,-1.8500186E-3,1.0364694E-3,-2.1404368E-3,4.002234E-3,1.5022007E-3],"categories":[],"categories_nodes":[],"categories_segments":[],"categories_sizes":[],"default_left":[0,0,0,0,0,0,0,0,0,0,0,0,0,0,0],"id":40,"left_children":[1,3,5,7,9,11,13,-1,-1,-1,-1,-1,-1,-1,-1],"loss_changes":[1.949591E2,5.9096313E1,8.458885E1,2.5866425E1,1.1106099E1,3.9153557E1,1.8561607E1,0E0,0E0,0E0,0E0,0E0,0E0,0E0,0E0],"parents":[2147483647,0,0,1,1,2,2,3,3,4,4,5,5,6,6],"right_children":[2,4,6,8,10,12,14,-1,-1,-1,-1,-1,-1,-1,-1],"split_conditions":[1.5E1,2.9E0,6E-1,2.3E1,3.1E0,-4.8E0,-5.9E0,-3.2843326E-3,-5.732573E-3,3.01954E-4,-1.8500186E-3,1.0364694E-3,-2.1404368E-3,4.002234E-3,1.5022007E-3],"split_indices":[51,77,77,80,25,25,25,0,0,0,0,0,0,0,0],"split_type":[0,0,0,0,0,0,0,0,0,0,0,0,0,0,0],"sum_hessian":[6.429477E3,3.1668604E3,3.262617E3,2.1296519E3,1.0372086E3,1.7293827E3,1.5332341E3,1.5235577E3,6.060942E2,3.7540298E2,6.618056E2,5.861987E2,1.143184E3,4.0308093E2,1.1301532E3],"tree_param":{"num_deleted":"0","num_feature":"107","num_nodes":"15","size_leaf_vector":"1"}},{"base_weights":[1.2633444E-1,3.0304095E-1,-4.5226105E-2,3.983461E-1,1.0716018E-1,1.0636027E-1,-2.16163E-1,3.284334E-3,5.732573E-3,-3.019535E-4,1.8500182E-3,-1.0364698E-3,2.1404368E-3,-4.0022344E-3,-1.5022012E-3],"categories":[],"categories_nodes":[],"categories_segments":[],"categories_sizes":[],"default_left":[0,0,0,0,0,0,0,0,0,0,0,0,0,0,0],"id":41,"left_children":[1,3,5,7,9,11,13,-1,-1,-1,-1,-1,-1,-1,-1],"loss_changes":[1.949592E2,5.9096313E1,8.458887E1,2.5866486E1,1.1106092E1,3.9153572E1,1.8561607E1,0E0,0E0,0E0,0E0,0E0,0E0,0E0,0E0],"parents":[2147483647,0,0,1,1,2,2,3,3,4,4,5,5,6,6],"right_children":[2,4,6,8,10,12,14,-1,-1,-1,-1,-1,-1,-1,-1],"split_conditions":[1.5E1,2.9E0,6E-1,2.3E1,3.1E0,-4.8E0,-5.9E0,3.284334E-3,5.732573E-3,-3.019535E-4,1.8500182E-3,-1.0364698E-3,2.1404368E-3,-4.0022344E-3,-1.5022012E-3],"split_indices":[51,77,77,80,25,25,25,0,0,0,0,0,0,0,0],"split_type":[0,0,0,0,0,0,0,0,0,0,0,0,0,0,0],"sum_hessian":[6.429477E3,3.1668604E3,3.262617E3,2.1296519E3,1.0372086E3,1.7293827E3,1.5332341E3,1.5235576E3,6.060942E2,3.7540298E2,6.618056E2,5.861987E2,1.143184E3,4.0308093E2,1.1301532E3],"tree_param":{"num_deleted":"0","num_feature":"107","num_nodes":"15","size_leaf_vector":"1"}},{"base_weights":[-1.2511405E-1,-2.3710188E-1,1.413819E-1,-9.926411E-2,-3.9382607E-1,-6.6658254E-3,3.04767E-1,-2.4324006E-3,3.2455387E-4,-5.4672556E-3,-3.2575678E-3,1.0939166E-3,-1.544583E-3,4.556285E-3,2.1773488E-3],"categories":[],"categories_nodes":[],"categories_segments":[],"categories_sizes":[],"default_left":[0,0,0,0,0,0,0,0,0,0,0,0,0,0,0],"id":42,"left_children":[1,3,5,7,9,11,13,-1,-1,-1,-1,-1,-1,-1,-1],"loss_changes":[1.9188297E2,9.7748215E1,4.602555E1,4.570817E1,2.1864258E1,1.7155079E1,1.1776833E1,0E0,0E0,0E0,0E0,0E0,0E0,0E0,0E0],"parents":[2147483647,0,0,1,1,2,2,3,3,4,4,5,5,6,6],"right_children":[2,4,6,8,10,12,14,-1,-1,-1,-1,-1,-1,-1,-1],"split_conditions":[2E1,1.4E1,5.14E-1,1E1,7E0,-4.3E0,-6.2E0,-2.4324006E-3,3.2455387E-4,-5.4672556E-3,-3.2575678E-3,1.0939166E-3,-1.544583E-3,4.556285E-3,2.1773488E-3],"split_indices":[28,80,55,51,51,25,25,0,0,0,0,0,0,0,0],"split_type":[0,0,0,0,0,0,0,0,0,0,0,0,0,0,0],"sum_hessian":[6.427344E3,4.5256646E3,1.9016796E3,2.4087874E3,2.1168774E3,9.9816974E2,9.035098E2,1.150446E3,1.2583414E3,6.4993646E2,1.4669408E3,5.5925867E2,4.3891107E2,3.2899478E2,5.74515E2],"tree_param":{"num_deleted":"0","num_feature":"107","num_nodes":"15","size_leaf_vector":"1"}},{"base_weights":[1.2511405E-1,2.3710188E-1,-1.413819E-1,9.92641E-2,3.9382607E-1,6.665859E-3,-3.0476704E-1,2.4324006E-3,-3.24554E-4,5.4672556E-3,3.2575678E-3,-1.093916E-3,1.5445831E-3,-4.5562857E-3,-2.1773495E-3],"categories":[],"categories_nodes":[],"categories_segments":[],"categories_sizes":[],"default_left":[0,0,0,0,0,0,0,0,0,0,0,0,0,0,0],"id":43,"left_children":[1,3,5,7,9,11,13,-1,-1,-1,-1,-1,-1,-1,-1],"loss_changes":[1.9188293E2,9.7748276E1,4.602558E1,4.5708176E1,2.1864258E1,1.7155073E1,1.177681E1,0E0,0E0,0E0,0E0,0E0,0E0,0E0,0E0],"parents":[2147483647,0,0,1,1,2,2,3,3,4,4,5,5,6,6],"right_children":[2,4,6,8,10,12,14,-1,-1,-1,-1,-1,-1,-1,-1],"split_conditions":[2E1,1.4E1,5.14E-1,1E1,7E0,-4.3E0,-6.2E0,2.4324006E-3,-3.24554E-4,5.4672556E-3,3.2575678E-3,-1.093916E-3,1.5445831E-3,-4.5562857E-3,-2.1773495E-3],"split_indices":[28,80,55,51,51,25,25,0,0,0,0,0,0,0,0],"split_type":[0,0,0,0,0,0,0,0,0,0,0,0,0,0,0],"sum_hessian":[6.427344E3,4.525665E3,1.9016796E3,2.4087874E3,2.1168774E3,9.9816974E2,9.035098E2,1.150446E3,1.2583414E3,6.4993646E2,1.4669409E3,5.5925867E2,4.3891107E2,3.289948E2,5.74515E2],"tree_param":{"num_deleted":"0","num_feature":"107","num_nodes":"15","size_leaf_vector":"1"}},{"base_weights":[-1.2390564E-1,-2.3482417E-1,1.4000256E-1,-9.828407E-2,-3.901611E-1,-6.60021E-3,3.018389E-1,2.857194E-4,-2.4526538E-3,-5.4185786E-3,-3.2266635E-3,1.0830646E-3,-1.5293483E-3,4.514146E-3,2.1559703E-3],"categories":[],"categories_nodes":[],"categories_segments":[],"categories_sizes":[],"default_left":[0,0,0,0,0,0,0,0,0,0,0,0,0,0,0],"id":44,"left_children":[1,3,5,7,9,11,13,-1,-1,-1,-1,-1,-1,-1,-1],"loss_changes":[1.8814221E2,9.593408E1,4.5134373E1,4.4933304E1,2.149469E1,1.6815992E1,1.1566261E1,0E0,0E0,0E0,0E0,0E0,0E0,0E0,0E0],"parents":[2147483647,0,0,1,1,2,2,3,3,4,4,5,5,6,6],"right_children":[2,4,6,8,10,12,14,-1,-1,-1,-1,-1,-1,-1,-1],"split_conditions":[2E1,1.4E1,5.14E-1,2.8E0,7E0,-4.3E0,-6.2E0,2.857194E-4,-2.4526538E-3,-5.4185786E-3,-3.2266635E-3,1.0830646E-3,-1.5293483E-3,4.514146E-3,2.1559703E-3],"split_indices":[28,80,55,25,51,25,25,0,0,0,0,0,0,0,0],"split_type":[0,0,0,0,0,0,0,0,0,0,0,0,0,0,0],"sum_hessian":[6.4251875E3,4.5239272E3,1.9012604E3,2.4085027E3,2.1154243E3,9.9808435E2,9.031761E2,1.2931885E3,1.1153141E3,6.492299E2,1.4661945E3,5.592237E2,4.3886066E2,3.2875583E2,5.744202E2],"tree_param":{"num_deleted":"0","num_feature":"107","num_nodes":"15","size_leaf_vector":"1"}},{"base_weights":[1.2390564E-1,2.3482417E-1,-1.4000255E-1,9.828409E-2,3.9016107E-1,6.60022E-3,-3.0183887E-1,-2.857194E-4,2.4526543E-3,5.418578E-3,3.226663E-3,-1.0830642E-3,1.529348E-3,-4.5141457E-3,-2.1559703E-3],"categories":[],"categories_nodes":[],"categories_segments":[],"categories_sizes":[],"default_left":[0,0,0,0,0,0,0,0,0,0,0,0,0,0,0],"id":45,"left_children":[1,3,5,7,9,11,13,-1,-1,-1,-1,-1,-1,-1,-1],"loss_changes":[1.8814224E2,9.593402E1,4.513436E1,4.493331E1,2.149466E1,1.6815985E1,1.1566269E1,0E0,0E0,0E0,0E0,0E0,0E0,0E0,0E0],"parents":[2147483647,0,0,1,1,2,2,3,3,4,4,5,5,6,6],"right_children":[2,4,6,8,10,12,14,-1,-1,-1,-1,-1,-1,-1,-1],"split_conditions":[2E1,1.4E1,5.14E-1,2.8E0,7E0,-4.3E0,-6.2E0,-2.857194E-4,2.4526543E-3,5.418578E-3,3.226663E-3,-1.0830642E-3,1.529348E-3,-4.5141457E-3,-2.1559703E-3],"split_indices":[28,80,55,25,51,25,25,0,0,0,0,0,0,0,0],"split_type":[0,0,0,0,0,0,0,0,0,0,0,0,0,0,0],"sum_hessian":[6.4251875E3,4.523927E3,1.9012605E3,2.4085027E3,2.1154243E3,9.9808435E2,9.031761E2,1.2931885E3,1.1153141E3,6.492299E2,1.4661945E3,5.592237E2,4.3886066E2,3.2875586E2,5.744202E2],"tree_param":{"num_deleted":"0","num_feature":"107","num_nodes":"15","size_leaf_vector":"1"}},{"base_weights":[-1.2271037E-1,5.2558057E-2,-2.8690174E-1,-1.8197675E-1,1.6023709E-1,-3.8158464E-1,-9.2918925E-2,1.5188268E-4,-3.0764684E-3,5.9501955E-4,2.795273E-3,-3.1375282E-3,-5.4959143E-3,3.9714327E-4,-1.7845292E-3],"categories":[],"categories_nodes":[],"categories_segments":[],"categories_sizes":[],"default_left":[0,0,0,0,0,0,0,0,0,0,0,0,0,0,0],"id":46,"left_children":[1,3,5,7,9,11,13,-1,-1,-1,-1,-1,-1,-1,-1],"loss_changes":[1.8488092E2,7.8520386E1,6.0886383E1,2.4247654E1,2.558612E1,2.522583E1,1.2364657E1,0E0,0E0,0E0,0E0,0E0,0E0,0E0,0E0],"parents":[2147483647,0,0,1,1,2,2,3,3,4,4,5,5,6,6],"right_children":[2,4,6,8,10,12,14,-1,-1,-1,-1,-1,-1,-1,-1],"split_conditions":[2E-1,-2E0,2.9E0,-4.3E0,2.4E1,2.3E1,3.1E0,1.5188268E-4,-3.0764684E-3,5.9501955E-4,2.795273E-3,-3.1375282E-3,-5.4959143E-3,3.9714327E-4,-1.7845292E-3],"split_indices":[25,77,77,25,51,80,25,0,0,0,0,0,0,0,0],"split_type":[0,0,0,0,0,0,0,0,0,0,0,0,0,0,0],"sum_hessian":[6.4229565E3,3.107012E3,3.3159443E3,9.7741736E2,2.1295947E3,2.2276584E3,1.0882859E3,3.808217E2,5.9659564E2,1.155406E3,9.741887E2,1.5889828E3,6.386757E2,4.2688016E2,6.6140576E2],"tree_param":{"num_deleted":"0","num_feature":"107","num_nodes":"15","size_leaf_vector":"1"}},{"base_weights":[1.2271036E-1,-5.255805E-2,2.869017E-1,1.8197678E-1,-1.6023709E-1,3.815846E-1,9.29189E-2,-1.5188247E-4,3.0764686E-3,-5.9501955E-4,-2.7952727E-3,3.137528E-3,5.4959133E-3,-3.9714307E-4,1.7845287E-3],"categories":[],"categories_nodes":[],"categories_segments":[],"categories_sizes":[],"default_left":[0,0,0,0,0,0,0,0,0,0,0,0,0,0,0],"id":47,"left_children":[1,3,5,7,9,11,13,-1,-1,-1,-1,-1,-1,-1,-1],"loss_changes":[1.8488089E2,7.85204E1,6.0886383E1,2.4247658E1,2.558612E1,2.52258E1,1.2364651E1,0E0,0E0,0E0,0E0,0E0,0E0,0E0,0E0],"parents":[2147483647,0,0,1,1,2,2,3,3,4,4,5,5,6,6],"right_children":[2,4,6,8,10,12,14,-1,-1,-1,-1,-1,-1,-1,-1],"split_conditions":[2E-1,-2E0,2.9E0,-4.3E0,2.4E1,2.3E1,3.1E0,-1.5188247E-4,3.0764686E-3,-5.9501955E-4,-2.7952727E-3,3.137528E-3,5.4959133E-3,-3.9714307E-4,1.7845287E-3],"split_indices":[25,77,77,25,51,80,25,0,0,0,0,0,0,0,0],"split_type":[0,0,0,0,0,0,0,0,0,0,0,0,0,0,0],"sum_hessian":[6.4229565E3,3.1070122E3,3.3159443E3,9.7741736E2,2.1295947E3,2.2276584E3,1.088286E3,3.8082166E2,5.9659564E2,1.155406E3,9.741887E2,1.5889827E3,6.386758E2,4.2688016E2,6.614058E2],"tree_param":{"num_deleted":"0","num_feature":"107","num_nodes":"15","size_leaf_vector":"1"}},{"base_weights":[-1.2153068E-1,-2.9225123E-1,4.4013653E-2,-3.7334922E-1,-7.379377E-2,-2.0263848E-1,1.428801E-1,-3.0810658E-3,-5.5660666E-3,-4.5056245E-3,-4.5702918E-4,4.1018592E-4,-3.0973067E-3,1.8507065E-4,2.3802612E-3],"categories":[],"categories_nodes":[],"categories_segments":[],"categories_sizes":[],"default_left":[0,0,0,0,0,0,0,0,0,0,0,0,0,0,0],"id":48,"left_children":[1,3,5,7,9,11,13,-1,-1,-1,-1,-1,-1,-1,-1],"loss_changes":[1.8149783E2,5.5982788E1,7.9552246E1,2.7391571E1,9.051254E0,2.4372147E1,2.7550587E1,0E0,0E0,0E0,0E0,0E0,0E0,0E0,0E0],"parents":[2147483647,0,0,1,1,2,2,3,3,4,4,5,5,6,6],"right_children":[2,4,6,8,10,12,14,-1,-1,-1,-1,-1,-1,-1,-1],"split_conditions":[1.5E1,3.8E0,-2.4E0,2.3E1,2E0,-5.3E0,2E1,-3.0810658E-3,-5.5660666E-3,-4.5056245E-3,-4.5702918E-4,4.1018592E-4,-3.0973067E-3,1.8507065E-4,2.3802612E-3],"split_indices":[51,77,77,80,31,25,28,0,0,0,0,0,0,0,0],"split_type":[0,0,0,0,0,0,0,0,0,0,0,0,0,0,0],"sum_hessian":[6.4205596E3,3.160486E3,3.2600732E3,2.3043376E3,8.561485E2,9.325347E2,2.3275383E3,1.7013209E3,6.030167E2,5.8359665E1,7.977888E2,2.849137E2,6.4762103E2,1.0093415E3,1.3181969E3],"tree_param":{"num_deleted":"0","num_feature":"107","num_nodes":"15","size_leaf_vector":"1"}},{"base_weights":[1.21530674E-1,2.922512E-1,-4.4013645E-2,3.733492E-1,7.379375E-2,2.026385E-1,-1.428801E-1,3.0810656E-3,5.5660666E-3,4.505624E-3,4.5702895E-4,-4.1018592E-4,3.0973074E-3,-1.8507052E-4,-2.3802612E-3],"categories":[],"categories_nodes":[],"categories_segments":[],"categories_sizes":[],"default_left":[0,0,0,0,0,0,0,0,0,0,0,0,0,0,0],"id":49,"left_children":[1,3,5,7,9,11,13,-1,-1,-1,-1,-1,-1,-1,-1],"loss_changes":[1.8149777E2,5.5982758E1,7.955225E1,2.7391602E1,9.051252E0,2.437215E1,2.7550594E1,0E0,0E0,0E0,0E0,0E0,0E0,0E0,0E0],"parents":[2147483647,0,0,1,1,2,2,3,3,4,4,5,5,6,6],"right_children":[2,4,6,8,10,12,14,-1,-1,-1,-1,-1,-1,-1,-1],"split_conditions":[1.5E1,3.8E0,-2.4E0,2.3E1,2E0,-5.3E0,2E1,3.0810656E-3,5.5660666E-3,4.505624E-3,4.5702895E-4,-4.1018592E-4,3.0973074E-3,-1.8507052E-4,-2.3802612E-3],"split_indices":[51,77,77,80,31,25,28,0,0,0,0,0,0,0,0],"split_type":[0,0,0,0,0,0,0,0,0,0,0,0,0,0,0],"sum_hessian":[6.420559E3,3.160486E3,3.260073E3,2.3043376E3,8.561485E2,9.3253467E2,2.3275383E3,1.7013209E3,6.0301666E2,5.8359665E1,7.977888E2,2.849137E2,6.47621E2,1.0093415E3,1.3181969E3],"tree_param":{"num_deleted":"0","num_feature":"107","num_nodes":"15","size_leaf_vector":"1"}},{"base_weights":[-1.2036338E-1,8.8219315E-2,-2.53493E-1,-1.4880192E-1,1.8545292E-1,-3.5061204E-1,-4.5418393E-2,3.7689737E-4,-2.626387E-3,1.1560884E-3,3.3025574E-3,-2.8480226E-3,-5.144452E-3,8.853775E-4,-1.727196E-3],"categories":[],"categories_nodes":[],"categories_segments":[],"categories_sizes":[],"default_left":[0,0,0,0,0,0,0,0,0,0,0,0,0,0,0],"id":50,"left_children":[1,3,5,7,9,11,13,-1,-1,-1,-1,-1,-1,-1,-1],"loss_changes":[1.7827264E2,5.768085E1,7.9169785E1,1.547069E1,1.790689E1,2.8656342E1,2.1299004E1,0E0,0E0,0E0,0E0,0E0,0E0,0E0,0E0],"parents":[2147483647,0,0,1,1,2,2,3,3,4,4,5,5,6,6],"right_children":[2,4,6,8,10,12,14,-1,-1,-1,-1,-1,-1,-1,-1],"split_conditions":[4.69E-1,-2.4E0,3E0,-5.3E0,2.7E1,2.3E1,3.1E0,3.7689737E-4,-2.626387E-3,1.1560884E-3,3.3025574E-3,-2.8480226E-3,-5.144452E-3,8.853775E-4,-1.727196E-3],"split_indices":[3,77,77,25,51,80,25,0,0,0,0,0,0,0,0],"split_type":[0,0,0,0,0,0,0,0,0,0,0,0,0,0,0],"sum_hessian":[6.4181455E3,2.5006133E3,3.9175325E3,7.272656E2,1.7733475E3,2.6704246E3,1.2471079E3,2.7591696E2,4.513487E2,1.1975302E3,5.758174E2,1.9071031E3,7.633214E2,6.078187E2,6.392892E2],"tree_param":{"num_deleted":"0","num_feature":"107","num_nodes":"15","size_leaf_vector":"1"}},{"base_weights":[1.2036337E-1,-8.821931E-2,2.53493E-1,1.4880195E-1,-1.8545292E-1,3.50612E-1,4.541837E-2,-3.7689734E-4,2.6263872E-3,-1.1560883E-3,-3.3025576E-3,2.8480222E-3,5.144453E-3,-8.8537735E-4,1.7271955E-3],"categories":[],"categories_nodes":[],"categories_segments":[],"categories_sizes":[],"default_left":[0,0,0,0,0,0,0,0,0,0,0,0,0,0,0],"id":51,"left_children":[1,3,5,7,9,11,13,-1,-1,-1,-1,-1,-1,-1,-1],"loss_changes":[1.7827263E2,5.7680862E1,7.9169785E1,1.5470697E1,1.7906898E1,2.8656372E1,2.1298994E1,0E0,0E0,0E0,0E0,0E0,0E0,0E0,0E0],"parents":[2147483647,0,0,1,1,2,2,3,3,4,4,5,5,6,6],"right_children":[2,4,6,8,10,12,14,-1,-1,-1,-1,-1,-1,-1,-1],"split_conditions":[4.69E-1,-2.4E0,3E0,-5.3E0,2.7E1,2.3E1,3.1E0,-3.7689734E-4,2.6263872E-3,-1.1560883E-3,-3.3025576E-3,2.8480222E-3,5.144453E-3,-8.8537735E-4,1.7271955E-3],"split_indices":[3,77,77,25,51,80,25,0,0,0,0,0,0,0,0],"split_type":[0,0,0,0,0,0,0,0,0,0,0,0,0,0,0],"sum_hessian":[6.4181455E3,2.5006133E3,3.9175325E3,7.272656E2,1.7733475E3,2.6704246E3,1.2471079E3,2.7591696E2,4.5134866E2,1.1975302E3,5.758173E2,1.9071031E3,7.633214E2,6.078187E2,6.392892E2],"tree_param":{"num_deleted":"0","num_feature":"107","num_nodes":"15","size_leaf_vector":"1"}},{"base_weights":[-1.1920674E-1,3.934959E-2,-2.9154932E-1,-1.9414353E-1,1.449066E-1,-3.8440266E-1,-1.0424737E-1,1.5099149E-4,-3.1481879E-3,5.1279453E-4,2.7253206E-3,-3.216678E-3,-5.3982185E-3,-1.9456618E-3,2.4197858E-5],"categories":[],"categories_nodes":[],"categories_segments":[],"categories_sizes":[],"default_left":[0,0,0,0,0,0,0,0,0,0,0,0,0,0,0],"id":52,"left_children":[1,3,5,7,9,11,13,-1,-1,-1,-1,-1,-1,-1,-1],"loss_changes":[1.7535428E2,8.2420044E1,5.343564E1,2.6294933E1,2.7501743E1,1.986621E1,9.8317175E0,0E0,0E0,0E0,0E0,0E0,0E0,0E0,0E0],"parents":[2147483647,0,0,1,1,2,2,3,3,4,4,5,5,6,6],"right_children":[2,4,6,8,10,12,14,-1,-1,-1,-1,-1,-1,-1,-1],"split_conditions":[6E-1,-2E0,2.9E0,-4.3E0,2.4E1,2.3E1,6E0,1.5099149E-4,-3.1481879E-3,5.1279453E-4,2.7253206E-3,-3.216678E-3,-5.3982185E-3,-1.9456618E-3,2.4197858E-5],"split_indices":[25,77,77,25,51,80,77,0,0,0,0,0,0,0,0],"split_type":[0,0,0,0,0,0,0,0,0,0,0,0,0,0,0],"sum_hessian":[6.4156997E3,3.3419006E3,3.073799E3,1.0401779E3,2.3017227E3,2.0543303E3,1.0194686E3,3.807896E2,6.5938824E2,1.3285148E3,9.7320795E2,1.4657509E3,5.8857947E2,5.5159216E2,4.6787646E2],"tree_param":{"num_deleted":"0","num_feature":"107","num_nodes":"15","size_leaf_vector":"1"}},{"base_weights":[1.1920675E-1,-3.9349593E-2,2.9154935E-1,1.941435E-1,-1.449066E-1,3.844027E-1,1.0424739E-1,-1.5099204E-4,3.1481879E-3,-5.127946E-4,-2.7253206E-3,3.2166785E-3,5.398219E-3,1.9456618E-3,-2.4197368E-5],"categories":[],"categories_nodes":[],"categories_segments":[],"categories_sizes":[],"default_left":[0,0,0,0,0,0,0,0,0,0,0,0,0,0,0],"id":53,"left_children":[1,3,5,7,9,11,13,-1,-1,-1,-1,-1,-1,-1,-1],"loss_changes":[1.7535434E2,8.2420044E1,5.3435608E1,2.6294937E1,2.7501736E1,1.9866241E1,9.831712E0,0E0,0E0,0E0,0E0,0E0,0E0,0E0,0E0],"parents":[2147483647,0,0,1,1,2,2,3,3,4,4,5,5,6,6],"right_children":[2,4,6,8,10,12,14,-1,-1,-1,-1,-1,-1,-1,-1],"split_conditions":[6E-1,-2E0,2.9E0,-4.3E0,2.4E1,2.3E1,6E0,-1.5099204E-4,3.1481879E-3,-5.127946E-4,-2.7253206E-3,3.2166785E-3,5.398219E-3,1.9456618E-3,-2.4197368E-5],"split_indices":[25,77,77,25,51,80,77,0,0,0,0,0,0,0,0],"split_type":[0,0,0,0,0,0,0,0,0,0,0,0,0,0,0],"sum_hessian":[6.4156997E3,3.3419006E3,3.0737988E3,1.0401779E3,2.3017227E3,2.0543303E3,1.0194686E3,3.807896E2,6.5938824E2,1.3285148E3,9.7320795E2,1.4657509E3,5.885794E2,5.5159216E2,4.678765E2],"tree_param":{"num_deleted":"0","num_feature":"107","num_nodes":"15","size_leaf_vector":"1"}},{"base_weights":[-1.1806443E-1,-2.243961E-1,1.3468987E-1,-9.285419E-2,-3.7449875E-1,-6.9770305E-3,2.911866E-1,2.9756335E-4,-2.3506226E-3,-5.2315486E-3,-3.0848586E-3,1.0257004E-3,-1.4656247E-3,4.373732E-3,2.0706092E-3],"categories":[],"categories_nodes":[],"categories_segments":[],"categories_sizes":[],"default_left":[0,0,0,0,0,0,0,0,0,0,0,0,0,0,0],"id":54,"left_children":[1,3,5,7,9,11,13,-1,-1,-1,-1,-1,-1,-1,-1],"loss_changes":[1.7241461E2,8.911609E1,4.2124855E1,4.198791E1,2.052951E1,1.5278755E1,1.1011528E1,0E0,0E0,0E0,0E0,0E0,0E0,0E0,0E0],"parents":[2147483647,0,0,1,1,2,2,3,3,4,4,5,5,6,6],"right_children":[2,4,6,8,10,12,14,-1,-1,-1,-1,-1,-1,-1,-1],"split_conditions":[2E1,1.4E1,5.14E-1,2.8E0,7E0,-4.3E0,-6.2E0,2.9756335E-4,-2.3506226E-3,-5.2315486E-3,-3.0848586E-3,1.0257004E-3,-1.4656247E-3,4.373732E-3,2.0706092E-3],"split_indices":[28,80,55,25,51,25,25,0,0,0,0,0,0,0,0],"split_type":[0,0,0,0,0,0,0,0,0,0,0,0,0,0,0],"sum_hessian":[6.4131157E3,4.5141587E3,1.8989574E3,2.4066863E3,2.1074722E3,9.9720465E2,9.0175275E2,1.2928196E3,1.1138667E3,6.4593964E2,1.4615325E3,5.588683E2,4.3833633E2,3.278475E2,5.739053E2],"tree_param":{"num_deleted":"0","num_feature":"107","num_nodes":"15","size_leaf_vector":"1"}},{"base_weights":[1.1806443E-1,2.243961E-1,-1.3468987E-1,9.285419E-2,3.7449875E-1,6.977053E-3,-2.9118663E-1,-2.9756327E-4,2.3506226E-3,5.231549E-3,3.0848582E-3,-1.0256999E-3,1.4656245E-3,-4.3737325E-3,-2.0706095E-3],"categories":[],"categories_nodes":[],"categories_segments":[],"categories_sizes":[],"default_left":[0,0,0,0,0,0,0,0,0,0,0,0,0,0,0],"id":55,"left_children":[1,3,5,7,9,11,13,-1,-1,-1,-1,-1,-1,-1,-1],"loss_changes":[1.7241461E2,8.911609E1,4.212487E1,4.1987904E1,2.0529541E1,1.5278748E1,1.1011543E1,0E0,0E0,0E0,0E0,0E0,0E0,0E0,0E0],"parents":[2147483647,0,0,1,1,2,2,3,3,4,4,5,5,6,6],"right_children":[2,4,6,8,10,12,14,-1,-1,-1,-1,-1,-1,-1,-1],"split_conditions":[2E1,1.4E1,5.14E-1,2.8E0,7E0,-4.3E0,-6.2E0,-2.9756327E-4,2.3506226E-3,5.231549E-3,3.0848582E-3,-1.0256999E-3,1.4656245E-3,-4.3737325E-3,-2.0706095E-3],"split_indices":[28,80,55,25,51,25,25,0,0,0,0,0,0,0,0],"split_type":[0,0,0,0,0,0,0,0,0,0,0,0,0,0,0],"sum_hessian":[6.4131157E3,4.5141587E3,1.8989574E3,2.4066863E3,2.1074722E3,9.9720465E2,9.0175275E2,1.2928197E3,1.1138667E3,6.4593964E2,1.4615325E3,5.588683E2,4.3833633E2,3.2784747E2,5.739053E2],"tree_param":{"num_deleted":"0","num_feature":"107","num_nodes":"15","size_leaf_vector":"1"}},{"base_weights":[-1.1693134E-1,-2.8203547E-1,4.2951267E-2,-3.6092955E-1,-7.0054196E-2,-8.616592E-2,2.225004E-1,-2.9743547E-3,-5.400079E-3,-4.419047E-3,-4.2351004E-4,1.0943487E-3,-1.8908379E-3,3.9149197E-3,1.6302307E-3],"categories":[],"categories_nodes":[],"categories_segments":[],"categories_sizes":[],"default_left":[0,0,0,0,0,0,0,0,0,0,0,0,0,0,0],"id":56,"left_children":[1,3,5,7,9,11,13,-1,-1,-1,-1,-1,-1,-1,-1],"loss_changes":[1.692602E2,5.2729263E1,7.555271E1,2.5975403E1,8.80768E0,3.818814E1,1.3637825E1,0E0,0E0,0E0,0E0,0E0,0E0,0E0,0E0],"parents":[2147483647,0,0,1,1,2,2,3,3,4,4,5,5,6,6],"right_children":[2,4,6,8,10,12,14,-1,-1,-1,-1,-1,-1,-1,-1],"split_conditions":[1.5E1,3.8E0,5.45E-1,2.3E1,2E0,-4.7E0,-5.9E0,-2.9743547E-3,-5.400079E-3,-4.419047E-3,-4.2351004E-4,1.0943487E-3,-1.8908379E-3,3.9149197E-3,1.6302307E-3],"split_indices":[51,77,55,80,31,25,25,0,0,0,0,0,0,0,0],"split_type":[0,0,0,0,0,0,0,0,0,0,0,0,0,0,0],"sum_hessian":[6.410572E3,3.153411E3,3.2571606E3,2.2975999E3,8.5581116E2,1.8949711E3,1.3621896E3,1.6981605E3,5.994393E2,5.8301308E1,7.975099E2,6.5329205E2,1.241679E3,3.5316574E2,1.0090238E3],"tree_param":{"num_deleted":"0","num_feature":"107","num_nodes":"15","size_leaf_vector":"1"}},{"base_weights":[1.16931364E-1,2.8203553E-1,-4.2951267E-2,3.6092958E-1,7.0054255E-2,8.616591E-2,-2.2250038E-1,2.974355E-3,5.40008E-3,4.4190465E-3,4.2351062E-4,-1.094349E-3,1.8908379E-3,-3.9149197E-3,-1.6302303E-3],"categories":[],"categories_nodes":[],"categories_segments":[],"categories_sizes":[],"default_left":[0,0,0,0,0,0,0,0,0,0,0,0,0,0,0],"id":57,"left_children":[1,3,5,7,9,11,13,-1,-1,-1,-1,-1,-1,-1,-1],"loss_changes":[1.6926021E2,5.272928E1,7.5552704E1,2.5975464E1,8.807676E0,3.818815E1,1.3637833E1,0E0,0E0,0E0,0E0,0E0,0E0,0E0,0E0],"parents":[2147483647,0,0,1,1,2,2,3,3,4,4,5,5,6,6],"right_children":[2,4,6,8,10,12,14,-1,-1,-1,-1,-1,-1,-1,-1],"split_conditions":[1.5E1,3.8E0,5.45E-1,2.3E1,2E0,-4.7E0,-5.9E0,2.974355E-3,5.40008E-3,4.4190465E-3,4.2351062E-4,-1.094349E-3,1.8908379E-3,-3.9149197E-3,-1.6302303E-3],"split_indices":[51,77,55,80,31,25,25,0,0,0,0,0,0,0,0],"split_type":[0,0,0,0,0,0,0,0,0,0,0,0,0,0,0],"sum_hessian":[6.410572E3,3.1534111E3,3.2571606E3,2.2975999E3,8.558112E2,1.894971E3,1.3621896E3,1.6981606E3,5.994393E2,5.830131E1,7.975099E2,6.5329205E2,1.241679E3,3.5316574E2,1.00902386E3],"tree_param":{"num_deleted":"0","num_feature":"107","num_nodes":"15","size_leaf_vector":"1"}},{"base_weights":[-1.1581125E-1,-2.2036894E-1,1.3262112E-1,-9.104493E-2,-3.681339E-1,-6.5260436E-3,2.864227E-1,2.9560472E-4,-2.309937E-3,-5.1524295E-3,-3.0288305E-3,1.0066628E-3,-1.4313688E-3,4.301308E-3,2.0382605E-3],"categories":[],"categories_nodes":[],"categories_segments":[],"categories_sizes":[],"default_left":[0,0,0,0,0,0,0,0,0,0,0,0,0,0,0],"id":58,"left_children":[1,3,5,7,9,11,13,-1,-1,-1,-1,-1,-1,-1,-1],"loss_changes":[1.6650508E2,8.616893E1,4.0642323E1,4.0632156E1,2.0050201E1,1.4628341E1,1.0619148E1,0E0,0E0,0E0,0E0,0E0,0E0,0E0,0E0],"parents":[2147483647,0,0,1,1,2,2,3,3,4,4,5,5,6,6],"right_children":[2,4,6,8,10,12,14,-1,-1,-1,-1,-1,-1,-1,-1],"split_conditions":[2E1,1.4E1,5.14E-1,2.8E0,7E0,-4.3E0,-6.2E0,2.9560472E-4,-2.309937E-3,-5.1524295E-3,-3.0288305E-3,1.0066628E-3,-1.4313688E-3,4.301308E-3,2.0382605E-3],"split_indices":[28,80,55,25,51,25,25,0,0,0,0,0,0,0,0],"split_type":[0,0,0,0,0,0,0,0,0,0,0,0,0,0,0],"sum_hessian":[6.4079526E3,4.5099595E3,1.8979929E3,2.4059163E3,2.1040432E3,9.969716E2,9.010213E2,1.2926886E3,1.1132275E3,6.443809E2,1.4596624E3,5.58783E2,4.3818863E2,3.2731876E2,5.737026E2],"tree_param":{"num_deleted":"0","num_feature":"107","num_nodes":"15","size_leaf_vector":"1"}},{"base_weights":[1.1581125E-1,2.2036895E-1,-1.3262114E-1,9.104494E-2,3.6813393E-1,6.526047E-3,-2.8642273E-1,-2.9560487E-4,2.3099375E-3,5.1524295E-3,3.0288305E-3,-1.006663E-3,1.4313689E-3,-4.301308E-3,-2.038261E-3],"categories":[],"categories_nodes":[],"categories_segments":[],"categories_sizes":[],"default_left":[0,0,0,0,0,0,0,0,0,0,0,0,0,0,0],"id":59,"left_children":[1,3,5,7,9,11,13,-1,-1,-1,-1,-1,-1,-1,-1],"loss_changes":[1.6650508E2,8.616896E1,4.064233E1,4.063217E1,2.005017E1,1.4628343E1,1.0619141E1,0E0,0E0,0E0,0E0,0E0,0E0,0E0,0E0],"parents":[2147483647,0,0,1,1,2,2,3,3,4,4,5,5,6,6],"right_children":[2,4,6,8,10,12,14,-1,-1,-1,-1,-1,-1,-1,-1],"split_conditions":[2E1,1.4E1,5.14E-1,2.8E0,7E0,-4.3E0,-6.2E0,-2.9560487E-4,2.3099375E-3,5.1524295E-3,3.0288305E-3,-1.006663E-3,1.4313689E-3,-4.301308E-3,-2.038261E-3],"split_indices":[28,80,55,25,51,25,25,0,0,0,0,0,0,0,0],"split_type":[0,0,0,0,0,0,0,0,0,0,0,0,0,0,0],"sum_hessian":[6.4079526E3,4.5099595E3,1.8979929E3,2.4059163E3,2.1040432E3,9.969716E2,9.010213E2,1.2926886E3,1.1132275E3,6.443809E2,1.4596624E3,5.58783E2,4.3818863E2,3.2731876E2,5.737026E2],"tree_param":{"num_deleted":"0","num_feature":"107","num_nodes":"15","size_leaf_vector":"1"}},{"base_weights":[-1.14702046E-1,3.8322233E-2,-2.81271E-1,-1.890175E-1,1.4105402E-1,-3.6007193E-1,-7.208777E-2,1.28231E-4,-3.0561676E-3,5.0930295E-4,2.640637E-3,-3.0125317E-3,-5.243251E-3,-2.1742297E-4,-3.0184388E-3],"categories":[],"categories_nodes":[],"categories_segments":[],"categories_sizes":[],"default_left":[0,0,0,0,0,0,0,0,0,0,0,0,0,0,0],"id":60,"left_children":[1,3,5,7,9,11,13,-1,-1,-1,-1,-1,-1,-1,-1],"loss_changes":[1.6330118E2,7.8027176E1,5.053839E1,2.4477463E1,2.549424E1,2.136615E1,9.716942E0,0E0,0E0,0E0,0E0,0E0,0E0,0E0,0E0],"parents":[2147483647,0,0,1,1,2,2,3,3,4,4,5,5,6,6],"right_children":[2,4,6,8,10,12,14,-1,-1,-1,-1,-1,-1,-1,-1],"split_conditions":[6E-1,-2E0,3.8E0,-4.3E0,2.4E1,2.3E1,4.81E-1,1.28231E-4,-3.0561676E-3,5.0930295E-4,2.640637E-3,-3.0125317E-3,-5.243251E-3,-2.1742297E-4,-3.0184388E-3],"split_indices":[25,77,77,25,51,80,7,0,0,0,0,0,0,0,0],"split_type":[0,0,0,0,0,0,0,0,0,0,0,0,0,0,0],"sum_hessian":[6.405286E3,3.3387754E3,3.0665107E3,1.0389023E3,2.299873E3,2.2268992E3,8.396114E2,3.8072812E2,6.581742E2,1.328185E3,9.7168805E2,1.6418058E3,5.850934E2,6.895975E2,1.5001392E2],"tree_param":{"num_deleted":"0","num_feature":"107","num_nodes":"15","size_leaf_vector":"1"}},{"base_weights":[1.1470206E-1,-3.8322233E-2,2.81271E-1,1.8901752E-1,-1.4105402E-1,3.60072E-1,7.208775E-2,-1.2823039E-4,3.0561674E-3,-5.09303E-4,-2.640637E-3,3.0125321E-3,5.243251E-3,2.1742274E-4,3.0184384E-3],"categories":[],"categories_nodes":[],"categories_segments":[],"categories_sizes":[],"default_left":[0,0,0,0,0,0,0,0,0,0,0,0,0,0,0],"id":61,"left_children":[1,3,5,7,9,11,13,-1,-1,-1,-1,-1,-1,-1,-1],"loss_changes":[1.6330121E2,7.802719E1,5.053842E1,2.4477451E1,2.5494244E1,2.136612E1,9.716942E0,0E0,0E0,0E0,0E0,0E0,0E0,0E0,0E0],"parents":[2147483647,0,0,1,1,2,2,3,3,4,4,5,5,6,6],"right_children":[2,4,6,8,10,12,14,-1,-1,-1,-1,-1,-1,-1,-1],"split_conditions":[6E-1,-2E0,3.8E0,-4.3E0,2.4E1,2.3E1,4.81E-1,-1.2823039E-4,3.0561674E-3,-5.09303E-4,-2.640637E-3,3.0125321E-3,5.243251E-3,2.1742274E-4,3.0184384E-3],"split_indices":[25,77,77,25,51,80,7,0,0,0,0,0,0,0,0],"split_type":[0,0,0,0,0,0,0,0,0,0,0,0,0,0,0],"sum_hessian":[6.405286E3,3.3387754E3,3.0665107E3,1.0389023E3,2.299873E3,2.2268992E3,8.3961145E2,3.8072815E2,6.581742E2,1.328185E3,9.7168805E2,1.6418058E3,5.850934E2,6.895975E2,1.5001393E2],"tree_param":{"num_deleted":"0","num_feature":"107","num_nodes":"15","size_leaf_vector":"1"}},{"base_weights":[-1.1360712E-1,-2.1638253E-1,1.3048933E-1,-3.0977583E-1,-1.7807193E-2,-6.468936E-3,2.819436E-1,-2.4428256E-3,-4.759622E-3,1.0107205E-3,-1.6577479E-3,9.850812E-4,-1.4028886E-3,4.2390996E-3,2.0043657E-3],"categories":[],"categories_nodes":[],"categories_segments":[],"categories_sizes":[],"default_left":[0,0,0,0,0,0,0,0,0,0,0,0,0,0,0],"id":62,"left_children":[1,3,5,7,9,11,13,-1,-1,-1,-1,-1,-1,-1,-1],"loss_changes":[1.6067316E2,8.3571304E1,3.9370335E1,3.3243103E1,2.5392376E1,1.4028642E1,1.0344086E1,0E0,0E0,0E0,0E0,0E0,0E0,0E0,0E0],"parents":[2147483647,0,0,1,1,2,2,3,3,4,4,5,5,6,6],"right_children":[2,4,6,8,10,12,14,-1,-1,-1,-1,-1,-1,-1,-1],"split_conditions":[2E1,3E0,5.14E-1,2.3E1,3.1E0,-4.3E0,-6.2E0,-2.4428256E-3,-4.759622E-3,1.0107205E-3,-1.6577479E-3,9.850812E-4,-1.4028886E-3,4.2390996E-3,2.0043657E-3],"split_indices":[28,77,55,80,25,25,25,0,0,0,0,0,0,0,0],"split_type":[0,0,0,0,0,0,0,0,0,0,0,0,0,0,0],"sum_hessian":[6.4024844E3,4.5055586E3,1.896926E3,3.0639648E3,1.4415936E3,9.9663666E2,9.002893E2,2.199588E3,8.6437695E2,7.995449E2,6.4204865E2,5.586551E2,4.379816E2,3.2682858E2,5.7346075E2],"tree_param":{"num_deleted":"0","num_feature":"107","num_nodes":"15","size_leaf_vector":"1"}},{"base_weights":[1.13607116E-1,2.1638253E-1,-1.3048935E-1,3.0977583E-1,1.7807186E-2,6.468913E-3,-2.819436E-1,2.4428258E-3,4.759622E-3,-1.0107204E-3,1.6577475E-3,-9.850817E-4,1.4028884E-3,-4.2390996E-3,-2.004366E-3],"categories":[],"categories_nodes":[],"categories_segments":[],"categories_sizes":[],"default_left":[0,0,0,0,0,0,0,0,0,0,0,0,0,0,0],"id":63,"left_children":[1,3,5,7,9,11,13,-1,-1,-1,-1,-1,-1,-1,-1],"loss_changes":[1.606732E2,8.357132E1,3.937034E1,3.3243073E1,2.5392366E1,1.4028645E1,1.0344078E1,0E0,0E0,0E0,0E0,0E0,0E0,0E0,0E0],"parents":[2147483647,0,0,1,1,2,2,3,3,4,4,5,5,6,6],"right_children":[2,4,6,8,10,12,14,-1,-1,-1,-1,-1,-1,-1,-1],"split_conditions":[2E1,3E0,5.14E-1,2.3E1,3.1E0,-4.3E0,-6.2E0,2.4428258E-3,4.759622E-3,-1.0107204E-3,1.6577475E-3,-9.850817E-4,1.4028884E-3,-4.2390996E-3,-2.004366E-3],"split_indices":[28,77,55,80,25,25,25,0,0,0,0,0,0,0,0],"split_type":[0,0,0,0,0,0,0,0,0,0,0,0,0,0,0],"sum_hessian":[6.4024844E3,4.5055586E3,1.896926E3,3.0639648E3,1.4415936E3,9.9663666E2,9.002893E2,2.199588E3,8.6437695E2,7.995449E2,6.4204865E2,5.586551E2,4.379816E2,3.2682858E2,5.7346075E2],"tree_param":{"num_deleted":"0","num_feature":"107","num_nodes":"15","size_leaf_vector":"1"}},{"base_weights":[-1.1252054E-1,-2.7233505E-1,4.201704E-2,-3.491199E-1,-6.658993E-2,-9.7309E-2,1.990933E-1,-2.8728317E-3,-5.2430383E-3,-4.32163E-3,-3.9383137E-4,9.073158E-4,-1.9390517E-3,3.6555883E-3,1.3979024E-3],"categories":[],"categories_nodes":[],"categories_segments":[],"categories_sizes":[],"default_left":[0,0,0,0,0,0,0,0,0,0,0,0,0,0,0],"id":64,"left_children":[1,3,5,7,9,11,13,-1,-1,-1,-1,-1,-1,-1,-1],"loss_changes":[1.5809212E2,4.9689728E1,7.125329E1,2.4670746E1,8.501305E0,3.1361526E1,1.5056282E1,0E0,0E0,0E0,0E0,0E0,0E0,0E0,0E0],"parents":[2147483647,0,0,1,1,2,2,3,3,4,4,5,5,6,6],"right_children":[2,4,6,8,10,12,14,-1,-1,-1,-1,-1,-1,-1,-1],"split_conditions":[1.5E1,3.8E0,6E-1,2.3E1,2E0,-4.8E0,-5.9E0,-2.8728317E-3,-5.2430383E-3,-4.32163E-3,-3.9383137E-4,9.073158E-4,-1.9390517E-3,3.6555883E-3,1.3979024E-3],"split_indices":[51,77,77,80,31,25,25,0,0,0,0,0,0,0,0],"split_type":[0,0,0,0,0,0,0,0,0,0,0,0,0,0,0],"sum_hessian":[6.399715E3,3.1457676E3,3.2539473E3,2.2903164E3,8.5545123E2,1.7246074E3,1.5293398E3,1.694743E3,5.955733E2,5.8223778E1,7.972275E2,5.8529456E2,1.139313E3,4.0035797E2,1.1289818E3],"tree_param":{"num_deleted":"0","num_feature":"107","num_nodes":"15","size_leaf_vector":"1"}},{"base_weights":[1.1252055E-1,2.7233508E-1,-4.201705E-2,3.4911993E-1,6.658992E-2,9.730898E-2,-1.9909328E-1,2.8728321E-3,5.243039E-3,4.32163E-3,3.9383135E-4,-9.0731616E-4,1.9390514E-3,-3.6555883E-3,-1.3979024E-3],"categories":[],"categories_nodes":[],"categories_segments":[],"categories_sizes":[],"default_left":[0,0,0,0,0,0,0,0,0,0,0,0,0,0,0],"id":65,"left_children":[1,3,5,7,9,11,13,-1,-1,-1,-1,-1,-1,-1,-1],"loss_changes":[1.5809218E2,4.9689743E1,7.1253265E1,2.4670746E1,8.501305E0,3.1361528E1,1.5056278E1,0E0,0E0,0E0,0E0,0E0,0E0,0E0,0E0],"parents":[2147483647,0,0,1,1,2,2,3,3,4,4,5,5,6,6],"right_children":[2,4,6,8,10,12,14,-1,-1,-1,-1,-1,-1,-1,-1],"split_conditions":[1.5E1,3.8E0,6E-1,2.3E1,2E0,-4.8E0,-5.9E0,2.8728321E-3,5.243039E-3,4.32163E-3,3.9383135E-4,-9.0731616E-4,1.9390514E-3,-3.6555883E-3,-1.3979024E-3],"split_indices":[51,77,77,80,31,25,25,0,0,0,0,0,0,0,0],"split_type":[0,0,0,0,0,0,0,0,0,0,0,0,0,0,0],"sum_hessian":[6.399715E3,3.1457676E3,3.2539473E3,2.2903164E3,8.5545123E2,1.7246074E3,1.5293398E3,1.694743E3,5.9557336E2,5.8223778E1,7.972275E2,5.8529456E2,1.139313E3,4.0035797E2,1.1289818E3],"tree_param":{"num_deleted":"0","num_feature":"107","num_nodes":"15","size_leaf_vector":"1"}},{"base_weights":[-1.1144673E-1,8.337687E-2,-2.3605858E-1,-1.4028877E-1,1.7512426E-1,-3.2804477E-1,-3.9931778E-2,3.287914E-4,-2.463002E-3,4.9106753E-4,2.4777928E-3,-2.6575683E-3,-4.84283E-3,8.6643704E-4,-1.6038248E-3],"categories":[],"categories_nodes":[],"categories_segments":[],"categories_sizes":[],"default_left":[0,0,0,0,0,0,0,0,0,0,0,0,0,0,0],"id":66,"left_children":[1,3,5,7,9,11,13,-1,-1,-1,-1,-1,-1,-1,-1],"loss_changes":[1.553431E2,5.1255676E1,7.0388596E1,1.3349668E1,1.6200932E1,2.5721619E1,1.9026379E1,0E0,0E0,0E0,0E0,0E0,0E0,0E0,0E0],"parents":[2147483647,0,0,1,1,2,2,3,3,4,4,5,5,6,6],"right_children":[2,4,6,8,10,12,14,-1,-1,-1,-1,-1,-1,-1,-1],"split_conditions":[4.69E-1,-2.4E0,3E0,-5.3E0,1.7E1,2.3E1,3.1E0,3.287914E-4,-2.463002E-3,4.9106753E-4,2.4777928E-3,-2.6575683E-3,-4.84283E-3,8.6643704E-4,-1.6038248E-3],"split_indices":[3,77,77,25,47,80,25,0,0,0,0,0,0,0,0],"split_type":[0,0,0,0,0,0,0,0,0,0,0,0,0,0,0],"sum_hessian":[6.3968784E3,2.495553E3,3.9013252E3,7.2575287E2,1.7698E3,2.6552864E3,1.2460388E3,2.7584863E2,4.4990424E2,6.4783307E2,1.121967E3,1.900364E3,7.549224E2,6.077091E2,6.383298E2],"tree_param":{"num_deleted":"0","num_feature":"107","num_nodes":"15","size_leaf_vector":"1"}},{"base_weights":[1.11446716E-1,-8.337687E-2,2.3605856E-1,1.4028879E-1,-1.7512426E-1,3.2804474E-1,3.9931785E-2,-3.287912E-4,2.463002E-3,-4.910675E-4,-2.4777928E-3,2.657568E-3,4.8428294E-3,-8.6643687E-4,1.6038248E-3],"categories":[],"categories_nodes":[],"categories_segments":[],"categories_sizes":[],"default_left":[0,0,0,0,0,0,0,0,0,0,0,0,0,0,0],"id":67,"left_children":[1,3,5,7,9,11,13,-1,-1,-1,-1,-1,-1,-1,-1],"loss_changes":[1.5534305E2,5.1255676E1,7.038855E1,1.3349667E1,1.620094E1,2.5721619E1,1.902638E1,0E0,0E0,0E0,0E0,0E0,0E0,0E0,0E0],"parents":[2147483647,0,0,1,1,2,2,3,3,4,4,5,5,6,6],"right_children":[2,4,6,8,10,12,14,-1,-1,-1,-1,-1,-1,-1,-1],"split_conditions":[4.69E-1,-2.4E0,3E0,-5.3E0,1.7E1,2.3E1,3.1E0,-3.287912E-4,2.463002E-3,-4.910675E-4,-2.4777928E-3,2.657568E-3,4.8428294E-3,-8.6643687E-4,1.6038248E-3],"split_indices":[3,77,77,25,47,80,25,0,0,0,0,0,0,0,0],"split_type":[0,0,0,0,0,0,0,0,0,0,0,0,0,0,0],"sum_hessian":[6.3968784E3,2.495553E3,3.9013254E3,7.2575287E2,1.7698E3,2.6552866E3,1.2460388E3,2.7584863E2,4.4990424E2,6.4783307E2,1.1219669E3,1.9003641E3,7.549224E2,6.077091E2,6.383298E2],"tree_param":{"num_deleted":"0","num_feature":"107","num_nodes":"15","size_leaf_vector":"1"}},{"base_weights":[-1.10382415E-1,3.773014E-2,-2.7184638E-1,-1.8278275E-1,1.3730495E-1,-3.4834594E-1,-6.937269E-2,1.16765936E-4,-2.9536008E-3,5.035392E-4,2.5613962E-3,-2.914167E-3,-5.0811977E-3,-1.9971414E-4,-2.9497196E-3],"categories":[],"categories_nodes":[],"categories_segments":[],"categories_sizes":[],"default_left":[0,0,0,0,0,0,0,0,0,0,0,0,0,0,0],"id":68,"left_children":[1,3,5,7,9,11,13,-1,-1,-1,-1,-1,-1,-1,-1],"loss_changes":[1.5294745E2,7.328242E1,4.736885E1,2.2733852E1,2.3742283E1,2.0048828E1,9.359048E0,0E0,0E0,0E0,0E0,0E0,0E0,0E0,0E0],"parents":[2147483647,0,0,1,1,2,2,3,3,4,4,5,5,6,6],"right_children":[2,4,6,8,10,12,14,-1,-1,-1,-1,-1,-1,-1,-1],"split_conditions":[6E-1,-2E0,3.8E0,-4.3E0,2.4E1,2.3E1,4.81E-1,1.16765936E-4,-2.9536008E-3,5.035392E-4,2.5613962E-3,-2.914167E-3,-5.0811977E-3,-1.9971414E-4,-2.9497196E-3],"split_indices":[25,77,77,25,51,80,7,0,0,0,0,0,0,0,0],"split_type":[0,0,0,0,0,0,0,0,0,0,0,0,0,0,0],"sum_hessian":[6.3940747E3,3.3353188E3,3.058756E3,1.037311E3,2.2980078E3,2.2194663E3,8.392897E2,3.8066656E2,6.566445E2,1.3278485E3,9.7015924E2,1.638481E3,5.8098553E2,6.894121E2,1.4987756E2],"tree_param":{"num_deleted":"0","num_feature":"107","num_nodes":"15","size_leaf_vector":"1"}},{"base_weights":[1.1038242E-1,-3.773015E-2,2.718464E-1,1.8278274E-1,-1.3730495E-1,3.4834597E-1,6.9372706E-2,-1.167659E-4,2.9536001E-3,-5.035393E-4,-2.5613967E-3,2.9141672E-3,5.0811977E-3,1.9971428E-4,2.9497193E-3],"categories":[],"categories_nodes":[],"categories_segments":[],"categories_sizes":[],"default_left":[0,0,0,0,0,0,0,0,0,0,0,0,0,0,0],"id":69,"left_children":[1,3,5,7,9,11,13,-1,-1,-1,-1,-1,-1,-1,-1],"loss_changes":[1.5294751E2,7.32824E1,4.736882E1,2.2733845E1,2.3742294E1,2.0048859E1,9.359045E0,0E0,0E0,0E0,0E0,0E0,0E0,0E0,0E0],"parents":[2147483647,0,0,1,1,2,2,3,3,4,4,5,5,6,6],"right_children":[2,4,6,8,10,12,14,-1,-1,-1,-1,-1,-1,-1,-1],"split_conditions":[6E-1,-2E0,3.8E0,-4.3E0,2.4E1,2.3E1,4.81E-1,-1.167659E-4,2.9536001E-3,-5.035393E-4,-2.5613967E-3,2.9141672E-3,5.0811977E-3,1.9971428E-4,2.9497193E-3],"split_indices":[25,77,77,25,51,80,7,0,0,0,0,0,0,0,0],"split_type":[0,0,0,0,0,0,0,0,0,0,0,0,0,0,0],"sum_hessian":[6.3940747E3,3.3353188E3,3.058756E3,1.037311E3,2.2980078E3,2.2194666E3,8.392897E2,3.8066656E2,6.566445E2,1.3278485E3,9.7015924E2,1.638481E3,5.8098553E2,6.894121E2,1.4987756E2],"tree_param":{"num_deleted":"0","num_feature":"107","num_nodes":"15","size_leaf_vector":"1"}},{"base_weights":[-1.0933232E-1,-2.0885555E-1,1.268119E-1,-8.521968E-2,-3.5071698E-1,-6.3116513E-3,2.7414888E-1,-2.159623E-3,3.4011868E-4,-4.953156E-3,-2.8675527E-3,9.4677514E-4,-1.3511172E-3,4.1310587E-3,1.9453441E-3],"categories":[],"categories_nodes":[],"categories_segments":[],"categories_sizes":[],"default_left":[0,0,0,0,0,0,0,0,0,0,0,0,0,0,0],"id":70,"left_children":[1,3,5,7,9,11,13,-1,-1,-1,-1,-1,-1,-1,-1],"loss_changes":[1.5025189E2,7.884799E1,3.718659E1,3.748716E1,1.9224335E1,1.2980293E1,9.875191E0,0E0,0E0,0E0,0E0,0E0,0E0,0E0,0E0],"parents":[2147483647,0,0,1,1,2,2,3,3,4,4,5,5,6,6],"right_children":[2,4,6,8,10,12,14,-1,-1,-1,-1,-1,-1,-1,-1],"split_conditions":[2E1,1.4E1,5.14E-1,1E1,7E0,-4.3E0,-6.2E0,-2.159623E-3,3.4011868E-4,-4.953156E-3,-2.8675527E-3,9.4677514E-4,-1.3511172E-3,4.1310587E-3,1.9453441E-3],"split_indices":[28,80,55,51,51,25,25,0,0,0,0,0,0,0,0],"split_type":[0,0,0,0,0,0,0,0,0,0,0,0,0,0,0],"sum_hessian":[6.391072E3,4.4962417E3,1.8948302E3,2.4033022E3,2.0929392E3,9.959318E2,8.988983E2,1.1459293E3,1.2573729E3,6.397986E2,1.4531406E3,5.583822E2,4.3754968E2,3.258972E2,5.7300116E2],"tree_param":{"num_deleted":"0","num_feature":"107","num_nodes":"15","size_leaf_vector":"1"}},{"base_weights":[1.0933233E-1,2.0885557E-1,-1.2681189E-1,8.521969E-2,3.5071698E-1,6.31166E-3,-2.7414888E-1,2.159623E-3,-3.4011866E-4,4.953156E-3,2.8675527E-3,-9.467751E-4,1.3511172E-3,-4.131058E-3,-1.9453443E-3],"categories":[],"categories_nodes":[],"categories_segments":[],"categories_sizes":[],"default_left":[0,0,0,0,0,0,0,0,0,0,0,0,0,0,0],"id":71,"left_children":[1,3,5,7,9,11,13,-1,-1,-1,-1,-1,-1,-1,-1],"loss_changes":[1.502519E2,7.884796E1,3.718659E1,3.7487164E1,1.9224365E1,1.2980294E1,9.875198E0,0E0,0E0,0E0,0E0,0E0,0E0,0E0,0E0],"parents":[2147483647,0,0,1,1,2,2,3,3,4,4,5,5,6,6],"right_children":[2,4,6,8,10,12,14,-1,-1,-1,-1,-1,-1,-1,-1],"split_conditions":[2E1,1.4E1,5.14E-1,1E1,7E0,-4.3E0,-6.2E0,2.159623E-3,-3.4011866E-4,4.953156E-3,2.8675527E-3,-9.467751E-4,1.3511172E-3,-4.131058E-3,-1.9453443E-3],"split_indices":[28,80,55,51,51,25,25,0,0,0,0,0,0,0,0],"split_type":[0,0,0,0,0,0,0,0,0,0,0,0,0,0,0],"sum_hessian":[6.391072E3,4.4962417E3,1.8948302E3,2.4033022E3,2.0929392E3,9.959318E2,8.988983E2,1.1459293E3,1.2573729E3,6.397986E2,1.4531406E3,5.5838214E2,4.3754968E2,3.258972E2,5.7300116E2],"tree_param":{"num_deleted":"0","num_feature":"107","num_nodes":"15","size_leaf_vector":"1"}},{"base_weights":[-1.082904E-1,3.717239E-2,-2.669959E-1,-1.6367511E-1,1.4313719E-1,-3.4255043E-1,-6.73284E-2,3.1810813E-4,-2.6166113E-3,5.7981076E-4,2.6024836E-3,-2.86221E-3,-5.0098887E-3,-1.8511609E-4,-2.9036733E-3],"categories":[],"categories_nodes":[],"categories_segments":[],"categories_sizes":[],"default_left":[0,0,0,0,0,0,0,0,0,0,0,0,0,0,0],"id":72,"left_children":[1,3,5,7,9,11,13,-1,-1,-1,-1,-1,-1,-1,-1],"loss_changes":[1.475072E2,7.099109E1,4.6072983E1,2.2077034E1,2.1759323E1,1.9638458E1,9.141372E0,0E0,0E0,0E0,0E0,0E0,0E0,0E0,0E0],"parents":[2147483647,0,0,1,1,2,2,3,3,4,4,5,5,6,6],"right_children":[2,4,6,8,10,12,14,-1,-1,-1,-1,-1,-1,-1,-1],"split_conditions":[6E-1,-1.5E0,3.8E0,-4.8E0,2.4E1,2.3E1,4.81E-1,3.1810813E-4,-2.6166113E-3,5.7981076E-4,2.6024836E-3,-2.86221E-3,-5.0098887E-3,-1.8511609E-4,-2.9036733E-3],"split_indices":[25,77,77,25,51,80,7,0,0,0,0,0,0,0,0],"split_type":[0,0,0,0,0,0,0,0,0,0,0,0,0,0,0],"sum_hessian":[6.3881064E3,3.3335137E3,3.0545928E3,1.1511188E3,2.182395E3,2.2155203E3,8.390725E2,3.8456732E2,7.665514E2,1.2644552E3,9.179397E2,1.6365028E3,5.7901746E2,6.892898E2,1.4978267E2],"tree_param":{"num_deleted":"0","num_feature":"107","num_nodes":"15","size_leaf_vector":"1"}},{"base_weights":[1.08290404E-1,-3.7172362E-2,2.6699588E-1,1.6367514E-1,-1.4313716E-1,3.4255043E-1,6.7328386E-2,-3.1810737E-4,2.6166113E-3,-5.798105E-4,-2.6024834E-3,2.8622097E-3,5.009888E-3,1.8511586E-4,2.9036733E-3],"categories":[],"categories_nodes":[],"categories_segments":[],"categories_sizes":[],"default_left":[0,0,0,0,0,0,0,0,0,0,0,0,0,0,0],"id":73,"left_children":[1,3,5,7,9,11,13,-1,-1,-1,-1,-1,-1,-1,-1],"loss_changes":[1.4750714E2,7.09911E1,4.6072968E1,2.207702E1,2.1759323E1,1.9638489E1,9.141374E0,0E0,0E0,0E0,0E0,0E0,0E0,0E0,0E0],"parents":[2147483647,0,0,1,1,2,2,3,3,4,4,5,5,6,6],"right_children":[2,4,6,8,10,12,14,-1,-1,-1,-1,-1,-1,-1,-1],"split_conditions":[6E-1,-1.5E0,3.8E0,-4.8E0,2.4E1,2.3E1,4.81E-1,-3.1810737E-4,2.6166113E-3,-5.798105E-4,-2.6024834E-3,2.8622097E-3,5.009888E-3,1.8511586E-4,2.9036733E-3],"split_indices":[25,77,77,25,51,80,7,0,0,0,0,0,0,0,0],"split_type":[0,0,0,0,0,0,0,0,0,0,0,0,0,0,0],"sum_hessian":[6.3881064E3,3.3335137E3,3.0545928E3,1.1511188E3,2.182395E3,2.2155203E3,8.390725E2,3.8456732E2,7.665514E2,1.2644552E3,9.179397E2,1.6365028E3,5.7901746E2,6.892898E2,1.4978267E2],"tree_param":{"num_deleted":"0","num_feature":"107","num_nodes":"15","size_leaf_vector":"1"}},{"base_weights":[-1.0726166E-1,-2.0510593E-1,1.24792464E-1,-8.343223E-2,-3.44929E-1,-6.1897286E-3,2.6984107E-1,3.0698258E-4,-2.1612656E-3,-4.8805093E-3,-2.817068E-3,9.2777936E-4,-1.324426E-3,4.0715877E-3,1.9126236E-3],"categories":[],"categories_nodes":[],"categories_segments":[],"categories_sizes":[],"default_left":[0,0,0,0,0,0,0,0,0,0,0,0,0,0,0],"id":74,"left_children":[1,3,5,7,9,11,13,-1,-1,-1,-1,-1,-1,-1,-1],"loss_changes":[1.4502113E2,7.639899E1,3.599761E1,3.6404884E1,1.877353E1,1.2464443E1,9.623306E0,0E0,0E0,0E0,0E0,0E0,0E0,0E0,0E0],"parents":[2147483647,0,0,1,1,2,2,3,3,4,4,5,5,6,6],"right_children":[2,4,6,8,10,12,14,-1,-1,-1,-1,-1,-1,-1,-1],"split_conditions":[2E1,1.4E1,5.14E-1,2.8E0,7E0,-4.3E0,-6.2E0,3.0698258E-4,-2.1612656E-3,-4.8805093E-3,-2.817068E-3,9.2777936E-4,-1.324426E-3,4.0715877E-3,1.9126236E-3],"split_indices":[28,80,55,25,51,25,25,0,0,0,0,0,0,0,0],"split_type":[0,0,0,0,0,0,0,0,0,0,0,0,0,0,0],"sum_hessian":[6.3850146E3,4.4913706E3,1.8936442E3,2.4024023E3,2.088968E3,9.9557477E2,8.980694E2,1.2919576E3,1.1104448E3,6.3798444E2,1.4509836E3,5.582424E2,4.373324E2,3.2534378E2,5.727256E2],"tree_param":{"num_deleted":"0","num_feature":"107","num_nodes":"15","size_leaf_vector":"1"}},{"base_weights":[1.0726166E-1,2.0510593E-1,-1.2479247E-1,8.343223E-2,3.44929E-1,6.189725E-3,-2.6984107E-1,-3.069827E-4,2.1612658E-3,4.8805093E-3,2.817068E-3,-9.277794E-4,1.324426E-3,-4.0715877E-3,-1.9126236E-3],"categories":[],"categories_nodes":[],"categories_segments":[],"categories_sizes":[],"default_left":[0,0,0,0,0,0,0,0,0,0,0,0,0,0,0],"id":75,"left_children":[1,3,5,7,9,11,13,-1,-1,-1,-1,-1,-1,-1,-1],"loss_changes":[1.4502113E2,7.639899E1,3.5997612E1,3.64049E1,1.877353E1,1.2464443E1,9.623306E0,0E0,0E0,0E0,0E0,0E0,0E0,0E0,0E0],"parents":[2147483647,0,0,1,1,2,2,3,3,4,4,5,5,6,6],"right_children":[2,4,6,8,10,12,14,-1,-1,-1,-1,-1,-1,-1,-1],"split_conditions":[2E1,1.4E1,5.14E-1,2.8E0,7E0,-4.3E0,-6.2E0,-3.069827E-4,2.1612658E-3,4.8805093E-3,2.817068E-3,-9.277794E-4,1.324426E-3,-4.0715877E-3,-1.9126236E-3],"split_indices":[28,80,55,25,51,25,25,0,0,0,0,0,0,0,0],"split_type":[0,0,0,0,0,0,0,0,0,0,0,0,0,0,0],"sum_hessian":[6.3850146E3,4.4913706E3,1.8936442E3,2.4024026E3,2.088968E3,9.955748E2,8.980694E2,1.2919576E3,1.110445E3,6.3798444E2,1.4509836E3,5.5824243E2,4.373324E2,3.2534378E2,5.7272565E2],"tree_param":{"num_deleted":"0","num_feature":"107","num_nodes":"15","size_leaf_vector":"1"}},{"base_weights":[-1.0624092E-1,-2.5831166E-1,4.0451586E-2,-3.3215162E-1,-6.1355595E-2,-9.302228E-2,1.9091399E-1,-2.7247928E-3,-5.024003E-3,-4.1882712E-3,-3.4798356E-4,8.504801E-4,-1.8460337E-3,3.5007778E-3,1.3439979E-3],"categories":[],"categories_nodes":[],"categories_segments":[],"categories_sizes":[],"default_left":[0,0,0,0,0,0,0,0,0,0,0,0,0,0,0],"id":76,"left_children":[1,3,5,7,9,11,13,-1,-1,-1,-1,-1,-1,-1,-1],"loss_changes":[1.4239935E2,4.5560516E1,6.528282E1,2.3019058E1,8.110333E0,2.8110794E1,1.3697388E1,0E0,0E0,0E0,0E0,0E0,0E0,0E0,0E0],"parents":[2147483647,0,0,1,1,2,2,3,3,4,4,5,5,6,6],"right_children":[2,4,6,8,10,12,14,-1,-1,-1,-1,-1,-1,-1,-1],"split_conditions":[1.5E1,3.8E0,6E-1,2.3E1,2E0,-4.8E0,-5.9E0,-2.7247928E-3,-5.024003E-3,-4.1882712E-3,-3.4798356E-4,8.504801E-4,-1.8460337E-3,3.5007778E-3,1.3439979E-3],"split_indices":[51,77,77,80,31,25,25,0,0,0,0,0,0,0,0],"split_type":[0,0,0,0,0,0,0,0,0,0,0,0,0,0,0],"sum_hessian":[6.3819663E3,3.1331667E3,3.2487998E3,2.2783237E3,8.5484314E2,1.7217936E3,1.5270061E3,1.6889468E3,5.893769E2,5.809461E1,7.9674854E2,5.8479315E2,1.1370005E3,3.9876096E2,1.1282451E3],"tree_param":{"num_deleted":"0","num_feature":"107","num_nodes":"15","size_leaf_vector":"1"}},{"base_weights":[1.0624092E-1,2.5831163E-1,-4.0451575E-2,3.321516E-1,6.135558E-2,9.302229E-2,-1.9091398E-1,2.7247928E-3,5.024002E-3,4.1882712E-3,3.4798347E-4,-8.504799E-4,1.8460337E-3,-3.5007773E-3,-1.3439979E-3],"categories":[],"categories_nodes":[],"categories_segments":[],"categories_sizes":[],"default_left":[0,0,0,0,0,0,0,0,0,0,0,0,0,0,0],"id":77,"left_children":[1,3,5,7,9,11,13,-1,-1,-1,-1,-1,-1,-1,-1],"loss_changes":[1.4239932E2,4.5560547E1,6.528283E1,2.3019058E1,8.110335E0,2.8110794E1,1.3697384E1,0E0,0E0,0E0,0E0,0E0,0E0,0E0,0E0],"parents":[2147483647,0,0,1,1,2,2,3,3,4,4,5,5,6,6],"right_children":[2,4,6,8,10,12,14,-1,-1,-1,-1,-1,-1,-1,-1],